FANN_FLO_2.1
num_layers=3
learning_rate=0.700000
connection_rate=1.000000
network_type=0
learning_momentum=0.000000
training_algorithm=2
train_error_function=1
train_stop_function=0
cascade_output_change_fraction=0.010000
quickprop_decay=-0.000100
quickprop_mu=1.750000
rprop_increase_factor=1.200000
rprop_decrease_factor=0.500000
rprop_delta_min=0.000000
rprop_delta_max=50.000000
rprop_delta_zero=0.100000
cascade_output_stagnation_epochs=12
cascade_candidate_change_fraction=0.010000
cascade_candidate_stagnation_epochs=12
cascade_max_out_epochs=150
cascade_min_out_epochs=50
cascade_max_cand_epochs=150
cascade_min_cand_epochs=50
cascade_num_candidate_groups=2
bit_fail_limit=3.49999994039535522461e-01
cascade_candidate_limit=1.00000000000000000000e+03
cascade_weight_multiplier=4.00000005960464477539e-01
cascade_activation_functions_count=10
cascade_activation_functions=3 5 7 8 10 11 14 15 16 17 
cascade_activation_steepnesses_count=4
cascade_activation_steepnesses=2.50000000000000000000e-01 5.00000000000000000000e-01 7.50000000000000000000e-01 1.00000000000000000000e+00 
layer_sizes=4 4 4 
scale_included=0
neurons (num_inputs, activation_function, activation_steepness)=(0, 0, 0.00000000000000000000e+00) (0, 0, 0.00000000000000000000e+00) (0, 0, 0.00000000000000000000e+00) (0, 0, 0.00000000000000000000e+00) (4, 4, 5.00000000000000000000e-01) (4, 4, 5.00000000000000000000e-01) (4, 4, 5.00000000000000000000e-01) (0, 0, 0.00000000000000000000e+00) (4, 4, 5.00000000000000000000e-01) (4, 4, 5.00000000000000000000e-01) (4, 4, 5.00000000000000000000e-01) (0, 0, 0.00000000000000000000e+00) 
connections (connected_to_neuron, weight)=(0, -3.43535137176513671875e+00) (1, 3.85973238945007324219e+00) (2, -2.62274175882339477539e-01) (3, 7.32900425791740417480e-02) (0, 4.67634487152099609375e+00) (1, 3.64424437284469604492e-01) (2, -4.98568725585937500000e+00) (3, 1.19445964694023132324e-01) (0, 1.76715934276580810547e+00) (1, -4.24251699447631835938e+00) (2, 3.14827132225036621094e+00) (3, 5.68632841110229492188e-01) (4, -6.33514940738677978516e-01) (5, -9.42897224426269531250e+00) (6, 4.11178112030029296875e+00) (7, 9.76609647274017333984e-01) (4, -6.15860176086425781250e+00) (5, 7.27885150909423828125e+00) (6, 1.58764207363128662109e+00) (7, -3.59232831001281738281e+00) (4, 5.10577154159545898438e+00) (5, 8.85272085666656494141e-01) (6, -7.07007312774658203125e+00) (7, -3.54275137186050415039e-01) 
