FANN_FLO_2.1
num_layers=3
learning_rate=0.700000
connection_rate=1.000000
network_type=0
learning_momentum=0.000000
training_algorithm=2
train_error_function=1
train_stop_function=0
cascade_output_change_fraction=0.010000
quickprop_decay=-0.000100
quickprop_mu=1.750000
rprop_increase_factor=1.200000
rprop_decrease_factor=0.500000
rprop_delta_min=0.000000
rprop_delta_max=50.000000
rprop_delta_zero=0.100000
cascade_output_stagnation_epochs=12
cascade_candidate_change_fraction=0.010000
cascade_candidate_stagnation_epochs=12
cascade_max_out_epochs=150
cascade_min_out_epochs=50
cascade_max_cand_epochs=150
cascade_min_cand_epochs=50
cascade_num_candidate_groups=2
bit_fail_limit=3.49999994039535522461e-01
cascade_candidate_limit=1.00000000000000000000e+03
cascade_weight_multiplier=4.00000005960464477539e-01
cascade_activation_functions_count=10
cascade_activation_functions=3 5 7 8 10 11 14 15 16 17 
cascade_activation_steepnesses_count=4
cascade_activation_steepnesses=2.50000000000000000000e-01 5.00000000000000000000e-01 7.50000000000000000000e-01 1.00000000000000000000e+00 
layer_sizes=4 4 4 
scale_included=0
neurons (num_inputs, activation_function, activation_steepness)=(0, 0, 0.00000000000000000000e+00) (0, 0, 0.00000000000000000000e+00) (0, 0, 0.00000000000000000000e+00) (0, 0, 0.00000000000000000000e+00) (4, 4, 5.00000000000000000000e-01) (4, 4, 5.00000000000000000000e-01) (4, 4, 5.00000000000000000000e-01) (0, 0, 0.00000000000000000000e+00) (4, 4, 5.00000000000000000000e-01) (4, 4, 5.00000000000000000000e-01) (4, 4, 5.00000000000000000000e-01) (0, 0, 0.00000000000000000000e+00) 
connections (connected_to_neuron, weight)=(0, -2.77893900871276855469e+00) (1, -2.33821630477905273438e+00) (2, 4.48411273956298828125e+00) (3, -8.05318236351013183594e-01) (0, 4.85575437545776367188e+00) (1, -3.55358600616455078125e+00) (2, -2.23145675659179687500e+00) (3, -7.53502905368804931641e-01) (0, -1.68023216724395751953e+00) (1, 4.32378387451171875000e+00) (2, -3.39819002151489257812e+00) (3, -6.96909606456756591797e-01) (4, 6.37695646286010742188e+00) (5, -4.09962463378906250000e+00) (6, -4.85448646545410156250e+00) (7, -8.12174797058105468750e-01) (4, -3.82841753959655761719e+00) (5, 7.63233613967895507812e+00) (6, -3.30470538139343261719e+00) (7, -1.88583445549011230469e+00) (4, -4.33660793304443359375e+00) (5, -5.08211660385131835938e+00) (6, 6.40605449676513671875e+00) (7, -8.78040134906768798828e-01) 
