FANN_FLO_2.1
num_layers=3
learning_rate=0.700000
connection_rate=1.000000
network_type=0
learning_momentum=0.000000
training_algorithm=2
train_error_function=1
train_stop_function=0
cascade_output_change_fraction=0.010000
quickprop_decay=-0.000100
quickprop_mu=1.750000
rprop_increase_factor=1.200000
rprop_decrease_factor=0.500000
rprop_delta_min=0.000000
rprop_delta_max=50.000000
rprop_delta_zero=0.100000
cascade_output_stagnation_epochs=12
cascade_candidate_change_fraction=0.010000
cascade_candidate_stagnation_epochs=12
cascade_max_out_epochs=150
cascade_max_cand_epochs=150
cascade_num_candidate_groups=2
bit_fail_limit=3.49999994039535522461e-01
cascade_candidate_limit=1.00000000000000000000e+03
cascade_weight_multiplier=4.00000005960464477539e-01
cascade_activation_functions_count=10
cascade_activation_functions=3 5 7 8 10 11 14 15 16 17 
cascade_activation_steepnesses_count=4
cascade_activation_steepnesses=2.50000000000000000000e-01 5.00000000000000000000e-01 7.50000000000000000000e-01 1.00000000000000000000e+00 
layer_sizes=4 4 4 
scale_included=0
neurons (num_inputs, activation_function, activation_steepness)=(0, 0, 0.00000000000000000000e+00) (0, 0, 0.00000000000000000000e+00) (0, 0, 0.00000000000000000000e+00) (0, 0, 0.00000000000000000000e+00) (4, 4, 5.00000000000000000000e-01) (4, 4, 5.00000000000000000000e-01) (4, 4, 5.00000000000000000000e-01) (0, 0, 0.00000000000000000000e+00) (4, 4, 5.00000000000000000000e-01) (4, 4, 5.00000000000000000000e-01) (4, 4, 5.00000000000000000000e-01) (0, 0, 0.00000000000000000000e+00) 
connections (connected_to_neuron, weight)=(0, 4.89792776107788085938e+00) (1, -1.68808591365814208984e+00) (2, -4.19589900970458984375e+00) (3, -8.36410164833068847656e-01) (0, -2.11903405189514160156e+00) (1, 5.35377264022827148438e+00) (2, -4.13753128051757812500e+00) (3, -9.25845921039581298828e-01) (0, 2.54218125343322753906e+00) (1, 1.26263344287872314453e+00) (2, -3.46496295928955078125e+00) (3, 2.07467123866081237793e-01) (4, -6.00070762634277343750e+00) (5, -6.17789602279663085938e+00) (6, -3.98366785049438476562e+00) (7, 4.76633167266845703125e+00) (4, 7.85048294067382812500e+00) (5, -3.22137475013732910156e+00) (6, 2.40380191802978515625e+00) (7, -4.79196023941040039062e+00) (4, -2.19601845741271972656e+00) (5, 9.03719043731689453125e+00) (6, 9.86774623394012451172e-01) (7, -4.60607385635375976562e+00) 
