FANN_FLO_2.1
num_layers=5
learning_rate=0.700000
connection_rate=1.000000
network_type=0
learning_momentum=0.000000
training_algorithm=2
train_error_function=1
train_stop_function=0
cascade_output_change_fraction=0.010000
quickprop_decay=-0.000100
quickprop_mu=1.750000
rprop_increase_factor=1.200000
rprop_decrease_factor=0.500000
rprop_delta_min=0.000000
rprop_delta_max=50.000000
rprop_delta_zero=0.100000
cascade_output_stagnation_epochs=12
cascade_candidate_change_fraction=0.010000
cascade_candidate_stagnation_epochs=12
cascade_max_out_epochs=150
cascade_min_out_epochs=50
cascade_max_cand_epochs=150
cascade_min_cand_epochs=50
cascade_num_candidate_groups=2
bit_fail_limit=3.49999994039535522461e-01
cascade_candidate_limit=1.00000000000000000000e+03
cascade_weight_multiplier=4.00000005960464477539e-01
cascade_activation_functions_count=10
cascade_activation_functions=3 5 7 8 10 11 14 15 16 17 
cascade_activation_steepnesses_count=4
cascade_activation_steepnesses=2.50000000000000000000e-01 5.00000000000000000000e-01 7.50000000000000000000e-01 1.00000000000000000000e+00 
layer_sizes=37 37 37 37 3 
scale_included=0
neurons (num_inputs, activation_function, activation_steepness)=(0, 0, 0.00000000000000000000e+00) (0, 0, 0.00000000000000000000e+00) (0, 0, 0.00000000000000000000e+00) (0, 0, 0.00000000000000000000e+00) (0, 0, 0.00000000000000000000e+00) (0, 0, 0.00000000000000000000e+00) (0, 0, 0.00000000000000000000e+00) (0, 0, 0.00000000000000000000e+00) (0, 0, 0.00000000000000000000e+00) (0, 0, 0.00000000000000000000e+00) (0, 0, 0.00000000000000000000e+00) (0, 0, 0.00000000000000000000e+00) (0, 0, 0.00000000000000000000e+00) (0, 0, 0.00000000000000000000e+00) (0, 0, 0.00000000000000000000e+00) (0, 0, 0.00000000000000000000e+00) (0, 0, 0.00000000000000000000e+00) (0, 0, 0.00000000000000000000e+00) (0, 0, 0.00000000000000000000e+00) (0, 0, 0.00000000000000000000e+00) (0, 0, 0.00000000000000000000e+00) (0, 0, 0.00000000000000000000e+00) (0, 0, 0.00000000000000000000e+00) (0, 0, 0.00000000000000000000e+00) (0, 0, 0.00000000000000000000e+00) (0, 0, 0.00000000000000000000e+00) (0, 0, 0.00000000000000000000e+00) (0, 0, 0.00000000000000000000e+00) (0, 0, 0.00000000000000000000e+00) (0, 0, 0.00000000000000000000e+00) (0, 0, 0.00000000000000000000e+00) (0, 0, 0.00000000000000000000e+00) (0, 0, 0.00000000000000000000e+00) (0, 0, 0.00000000000000000000e+00) (0, 0, 0.00000000000000000000e+00) (0, 0, 0.00000000000000000000e+00) (0, 0, 0.00000000000000000000e+00) (37, 4, 5.00000000000000000000e-01) (37, 4, 5.00000000000000000000e-01) (37, 4, 5.00000000000000000000e-01) (37, 4, 5.00000000000000000000e-01) (37, 4, 5.00000000000000000000e-01) (37, 4, 5.00000000000000000000e-01) (37, 4, 5.00000000000000000000e-01) (37, 4, 5.00000000000000000000e-01) (37, 4, 5.00000000000000000000e-01) (37, 4, 5.00000000000000000000e-01) (37, 4, 5.00000000000000000000e-01) (37, 4, 5.00000000000000000000e-01) (37, 4, 5.00000000000000000000e-01) (37, 4, 5.00000000000000000000e-01) (37, 4, 5.00000000000000000000e-01) (37, 4, 5.00000000000000000000e-01) (37, 4, 5.00000000000000000000e-01) (37, 4, 5.00000000000000000000e-01) (37, 4, 5.00000000000000000000e-01) (37, 4, 5.00000000000000000000e-01) (37, 4, 5.00000000000000000000e-01) (37, 4, 5.00000000000000000000e-01) (37, 4, 5.00000000000000000000e-01) (37, 4, 5.00000000000000000000e-01) (37, 4, 5.00000000000000000000e-01) (37, 4, 5.00000000000000000000e-01) (37, 4, 5.00000000000000000000e-01) (37, 4, 5.00000000000000000000e-01) (37, 4, 5.00000000000000000000e-01) (37, 4, 5.00000000000000000000e-01) (37, 4, 5.00000000000000000000e-01) (37, 4, 5.00000000000000000000e-01) (37, 4, 5.00000000000000000000e-01) (37, 4, 5.00000000000000000000e-01) (37, 4, 5.00000000000000000000e-01) (37, 4, 5.00000000000000000000e-01) (0, 0, 0.00000000000000000000e+00) (37, 4, 5.00000000000000000000e-01) (37, 4, 5.00000000000000000000e-01) (37, 4, 5.00000000000000000000e-01) (37, 4, 5.00000000000000000000e-01) (37, 4, 5.00000000000000000000e-01) (37, 4, 5.00000000000000000000e-01) (37, 4, 5.00000000000000000000e-01) (37, 4, 5.00000000000000000000e-01) (37, 4, 5.00000000000000000000e-01) (37, 4, 5.00000000000000000000e-01) (37, 4, 5.00000000000000000000e-01) (37, 4, 5.00000000000000000000e-01) (37, 4, 5.00000000000000000000e-01) (37, 4, 5.00000000000000000000e-01) (37, 4, 5.00000000000000000000e-01) (37, 4, 5.00000000000000000000e-01) (37, 4, 5.00000000000000000000e-01) (37, 4, 5.00000000000000000000e-01) (37, 4, 5.00000000000000000000e-01) (37, 4, 5.00000000000000000000e-01) (37, 4, 5.00000000000000000000e-01) (37, 4, 5.00000000000000000000e-01) (37, 4, 5.00000000000000000000e-01) (37, 4, 5.00000000000000000000e-01) (37, 4, 5.00000000000000000000e-01) (37, 4, 5.00000000000000000000e-01) (37, 4, 5.00000000000000000000e-01) (37, 4, 5.00000000000000000000e-01) (37, 4, 5.00000000000000000000e-01) (37, 4, 5.00000000000000000000e-01) (37, 4, 5.00000000000000000000e-01) (37, 4, 5.00000000000000000000e-01) (37, 4, 5.00000000000000000000e-01) (37, 4, 5.00000000000000000000e-01) (37, 4, 5.00000000000000000000e-01) (37, 4, 5.00000000000000000000e-01) (0, 0, 0.00000000000000000000e+00) (37, 4, 5.00000000000000000000e-01) (37, 4, 5.00000000000000000000e-01) (37, 4, 5.00000000000000000000e-01) (37, 4, 5.00000000000000000000e-01) (37, 4, 5.00000000000000000000e-01) (37, 4, 5.00000000000000000000e-01) (37, 4, 5.00000000000000000000e-01) (37, 4, 5.00000000000000000000e-01) (37, 4, 5.00000000000000000000e-01) (37, 4, 5.00000000000000000000e-01) (37, 4, 5.00000000000000000000e-01) (37, 4, 5.00000000000000000000e-01) (37, 4, 5.00000000000000000000e-01) (37, 4, 5.00000000000000000000e-01) (37, 4, 5.00000000000000000000e-01) (37, 4, 5.00000000000000000000e-01) (37, 4, 5.00000000000000000000e-01) (37, 4, 5.00000000000000000000e-01) (37, 4, 5.00000000000000000000e-01) (37, 4, 5.00000000000000000000e-01) (37, 4, 5.00000000000000000000e-01) (37, 4, 5.00000000000000000000e-01) (37, 4, 5.00000000000000000000e-01) (37, 4, 5.00000000000000000000e-01) (37, 4, 5.00000000000000000000e-01) (37, 4, 5.00000000000000000000e-01) (37, 4, 5.00000000000000000000e-01) (37, 4, 5.00000000000000000000e-01) (37, 4, 5.00000000000000000000e-01) (37, 4, 5.00000000000000000000e-01) (37, 4, 5.00000000000000000000e-01) (37, 4, 5.00000000000000000000e-01) (37, 4, 5.00000000000000000000e-01) (37, 4, 5.00000000000000000000e-01) (37, 4, 5.00000000000000000000e-01) (37, 4, 5.00000000000000000000e-01) (0, 0, 0.00000000000000000000e+00) (37, 4, 5.00000000000000000000e-01) (37, 4, 5.00000000000000000000e-01) (0, 0, 0.00000000000000000000e+00) 
connections (connected_to_neuron, weight)=(0, -1.83264200989081600000e+15) (1, 9.93320322990080000000e+13) (2, -8.93185640156364800000e+15) (3, -1.42564594286592000000e+14) (4, -1.91049111070310400000e+15) (5, -4.59768518095667200000e+15) (6, 3.96940367468953600000e+15) (7, 2.50921465203916800000e+15) (8, 9.19379088769024000000e+14) (9, -9.00719495977369600000e+15) (10, 2.12793993619046400000e+15) (11, 2.63991990209740800000e+15) (12, 1.59850173353164800000e+15) (13, 1.47183697395712000000e+14) (14, -1.83520959502745600000e+15) (15, 2.31404919062528000000e+14) (16, 1.26902808136908800000e+15) (17, 9.65053717151744000000e+14) (18, 7.78525636296704000000e+14) (19, -1.46193318202572800000e+15) (20, -2.68475838758912000000e+14) (21, 9.61326155300864000000e+14) (22, 7.76774027837440000000e+14) (23, 6.36789769371648000000e+14) (24, -5.64068792401920000000e+14) (25, -4.54128266379264000000e+14) (26, 7.05792915275776000000e+14) (27, 5.85314250784768000000e+14) (28, 4.90559152062464000000e+14) (29, -6.10047759482880000000e+14) (30, -1.77314436481024000000e+15) (31, -4.93344471908352000000e+14) (32, -4.52558657159168000000e+14) (33, -4.10046970200064000000e+14) (34, -1.69425615034777600000e+15) (35, 7.66301354065920000000e+15) (36, -4.75623129088000000000e+11) (0, -1.70419806011392000000e+15) (1, 9.52475435663360000000e+13) (2, -8.63170368582451200000e+15) (3, -1.40158716346368000000e+14) (4, -1.82236992451379200000e+15) (5, -4.53304538628096000000e+15) (6, 3.84199937543372800000e+15) (7, 2.43922359654809600000e+15) (8, 8.20985750093824000000e+14) (9, -8.45739565934182400000e+15) (10, 2.06069672024473600000e+15) (11, 2.52381861458739200000e+15) (12, 1.52554607686451200000e+15) (13, 1.42909668065280000000e+14) (14, -1.65959026134220800000e+15) (15, 2.22568611053568000000e+14) (16, 1.22614712788582400000e+15) (17, 9.31322453295104000000e+14) (18, 7.48367651012608000000e+14) (19, -1.39767335773798400000e+15) (20, -2.58980941135872000000e+14) (21, 9.27494362365952000000e+14) (22, 7.47748705959936000000e+14) (23, 6.14923822432256000000e+14) (24, -5.45527250812928000000e+14) (25, -4.38010394968064000000e+14) (26, 6.86011302543360000000e+14) (27, 5.63186914820096000000e+14) (28, 4.71750282313728000000e+14) (29, -5.88089269420032000000e+14) (30, -1.70018186303897600000e+15) (31, -4.75658970988544000000e+14) (32, -4.35222155886592000000e+14) (33, -3.94499993894912000000e+14) (34, -1.62933006925824000000e+15) (35, 6.95109210970521600000e+15) (36, -1.97107007488000000000e+11) (0, -1.59456338273894400000e+15) (1, 8.83277053296640000000e+13) (2, -7.80643538357452800000e+15) (3, -1.26953428353024000000e+14) (4, -1.75417376269926400000e+15) (5, -4.19267567052390400000e+15) (6, 3.55227752464384000000e+15) (7, 2.25735374326988800000e+15) (8, 8.07342920695808000000e+14) (9, -6.38350412847513600000e+15) (10, 1.92261231371878400000e+15) (11, 2.34651055344844800000e+15) (12, 1.43241991159808000000e+15) (13, 1.35922955845632000000e+14) (14, -1.59637639580876800000e+15) (15, 2.10275911335936000000e+14) (16, 1.12650026273996800000e+15) (17, 8.70023874740224000000e+14) (18, 6.96257618116608000000e+14) (19, -1.29065364435763200000e+15) (20, -2.39808945324032000000e+14) (21, 8.63891869401088000000e+14) (22, 6.92809296248832000000e+14) (23, 5.71840804159488000000e+14) (24, -5.05175697522688000000e+14) (25, -4.04878815920128000000e+14) (26, 6.32439839916032000000e+14) (27, 5.22530351742976000000e+14) (28, 4.43480505581568000000e+14) (29, -5.45462792749056000000e+14) (30, -1.56995979680153600000e+15) (31, -4.40100534091776000000e+14) (32, -4.04115553255424000000e+14) (33, -3.65316093771776000000e+14) (34, -1.50654272562790400000e+15) (35, 6.53433640058880000000e+15) (36, -1.93749385216000000000e+11) (0, -1.44722801931059200000e+15) (1, 7.70206334976000000000e+13) (2, -6.94218917937152000000e+15) (3, -1.11778948186112000000e+14) (4, -1.57535011497574400000e+15) (5, -3.02523188720435200000e+15) (6, 3.17092200972288000000e+15) (7, 1.99284845078118400000e+15) (8, 7.38972275834880000000e+14) (9, -4.50359640614502400000e+15) (10, 1.68990306677555200000e+15) (11, 2.08587663710617600000e+15) (12, 1.26692368161177600000e+15) (13, 1.17098021912576000000e+14) (14, -1.34395472537190400000e+15) (15, 1.78857806135296000000e+14) (16, 1.00454345841049600000e+15) (17, 7.71067157151744000000e+14) (18, 6.14014027563008000000e+14) (19, -1.14940102836224000000e+15) (20, -2.14136969494528000000e+14) (21, 7.64030121672704000000e+14) (22, 6.11292628910080000000e+14) (23, 5.11215193292800000000e+14) (24, -4.48248993021952000000e+14) (25, -3.61521154621440000000e+14) (26, 5.63143763820544000000e+14) (27, 4.67988796932096000000e+14) (28, 3.93035477155840000000e+14) (29, -4.83538927353856000000e+14) (30, -1.40395582115020800000e+15) (31, -3.92072800501760000000e+14) (32, -3.59183819997184000000e+14) (33, -3.26069051719680000000e+14) (34, -1.34347637338931200000e+15) (35, 5.80946188514099200000e+15) (36, -2.06066614272000000000e+11) (0, -1.70551339384832000000e+15) (1, 9.53643968757760000000e+13) (2, -8.65352158281728000000e+15) (3, -1.40848050208768000000e+14) (4, -1.82656932878745600000e+15) (5, -4.54649185514291200000e+15) (6, 3.84981514217062400000e+15) (7, 2.44362513272012800000e+15) (8, 8.25321519579136000000e+14) (9, -8.53301070607155200000e+15) (10, 2.06529515382374400000e+15) (11, 2.52855032637030400000e+15) (12, 1.52731587182592000000e+15) (13, 1.43354851491840000000e+14) (14, -1.66313441466777600000e+15) (15, 2.22940746481664000000e+14) (16, 1.23055537494425600000e+15) (17, 9.33003530338304000000e+14) (18, 7.49283418570752000000e+14) (19, -1.40117093751193600000e+15) (20, -2.59594886578176000000e+14) (21, 9.29404750397440000000e+14) (22, 7.48584077099008000000e+14) (23, 6.16334182318080000000e+14) (24, -5.46614145974272000000e+14) (25, -4.39324252307456000000e+14) (26, 6.87471322988544000000e+14) (27, 5.64554996121600000000e+14) (28, 4.73084607856640000000e+14) (29, -5.89376618758144000000e+14) (30, -1.70430811865088000000e+15) (31, -4.76955816230912000000e+14) (32, -4.36336699899904000000e+14) (33, -3.95283523436544000000e+14) (34, -1.63166465241907200000e+15) (35, 7.00046759061094400000e+15) (36, -1.97382422528000000000e+11) (0, -1.84198624811417600000e+15) (1, 9.89511307755520000000e+13) (2, -8.88883317728870400000e+15) (3, -1.42035910656000000000e+14) (4, -1.91836808072396800000e+15) (5, -4.53423562909286400000e+15) (6, 3.95103463643545600000e+15) (7, 2.49854514796953600000e+15) (8, 9.06479020277760000000e+14) (9, -9.00719495977369600000e+15) (10, 2.12536899561062400000e+15) (11, 2.63549984387891200000e+15) (12, 1.58891912462336000000e+15) (13, 1.46637347356672000000e+14) (14, -1.83719709114368000000e+15) (15, 2.30173421076480000000e+14) (16, 1.26285742132428800000e+15) (17, 9.63296136003584000000e+14) (18, 7.77226073145344000000e+14) (19, -1.45301038746828800000e+15) (20, -2.67397348982784000000e+14) (21, 9.59269000183808000000e+14) (22, 7.75746456911872000000e+14) (23, 6.34474647781376000000e+14) (24, -5.61429333671936000000e+14) (25, -4.52691935363072000000e+14) (26, 7.04210622480384000000e+14) (27, 5.82552586813440000000e+14) (28, 4.88356437819392000000e+14) (29, -6.08253939548160000000e+14) (30, -1.76622517249638400000e+15) (31, -4.92166979780608000000e+14) (32, -4.50807417798656000000e+14) (33, -4.07869455335424000000e+14) (34, -1.68714811369062400000e+15) (35, 7.64421232132096000000e+15) (36, -9.37685680128000000000e+11) (0, -1.52323122370969600000e+15) (1, 7.48802717777920000000e+13) (2, -6.87950788978278400000e+15) (3, -1.09077883518976000000e+14) (4, -1.93269206509158400000e+15) (5, -3.02009644849561600000e+15) (6, 3.12507967628902400000e+15) (7, 1.96414102359244800000e+15) (8, 7.10698304798720000000e+14) (9, -4.50359747988684800000e+15) (10, 1.67386794059366400000e+15) (11, 2.06020118839296000000e+15) (12, 1.25612063090278400000e+15) (13, 1.16879683223552000000e+14) (14, -1.27606149296947200000e+15) (15, 1.76835748954112000000e+14) (16, 9.74748800516096000000e+14) (17, 7.58275603693568000000e+14) (18, 6.10775622221824000000e+14) (19, -1.14435457600716800000e+15) (20, -2.09589924528128000000e+14) (21, 7.54116330520576000000e+14) (22, 6.04834071838720000000e+14) (23, 5.02121002696704000000e+14) (24, -4.40568047992832000000e+14) (25, -3.57508715642880000000e+14) (26, 5.64111742074880000000e+14) (27, 4.55737838927872000000e+14) (28, 3.86089911058432000000e+14) (29, -4.80016114647040000000e+14) (30, -1.39296258392064000000e+15) (31, -3.85788860694528000000e+14) (32, -3.55528467283968000000e+14) (33, -3.20555018354688000000e+14) (34, -1.31837645029376000000e+15) (35, 5.41535353857638400000e+15) (36, -1.92594575360000000000e+11) (0, -1.57760416749977600000e+15) (1, 8.66471651573760000000e+13) (2, -7.73803588190208000000e+15) (3, -1.28401134321664000000e+14) (4, -1.70251470136934400000e+15) (5, -4.19303859526041600000e+15) (6, 3.52439728131276800000e+15) (7, 2.22480970232627200000e+15) (8, 7.97211361280000000000e+14) (9, -6.86918762024140800000e+15) (10, 1.89954229954150400000e+15) (11, 2.31961278388633600000e+15) (12, 1.41205747164774400000e+15) (13, 1.32219544797184000000e+14) (14, -1.52355361469235200000e+15) (15, 2.04350131535872000000e+14) (16, 1.11918774537420800000e+15) (17, 8.59106671853568000000e+14) (18, 6.92015398387712000000e+14) (19, -1.28739725384089600000e+15) (20, -2.37023692587008000000e+14) (21, 8.53291151917056000000e+14) (22, 6.89120724647936000000e+14) (23, 5.61264279420928000000e+14) (24, -4.99007084298240000000e+14) (25, -4.02395418853376000000e+14) (26, 6.27405332938752000000e+14) (27, 5.14890175348736000000e+14) (28, 4.34379939643392000000e+14) (29, -5.39319781556224000000e+14) (30, -1.54692092113715200000e+15) (31, -4.34229817114624000000e+14) (32, -3.96995772547072000000e+14) (33, -3.61585780457472000000e+14) (34, -1.49437454640742400000e+15) (35, 6.57045385432268800000e+15) (36, -3.11772839936000000000e+11) (0, -1.67285781797273600000e+15) (1, 9.43581833461760000000e+13) (2, -8.44495045473075200000e+15) (3, -1.34474469736448000000e+14) (4, -1.81807160177459200000e+15) (5, -4.56600228095590400000e+15) (6, 3.77523625630105600000e+15) (7, 2.38788370497536000000e+15) (8, 8.49242608369664000000e+14) (9, -8.32465808444620800000e+15) (10, 2.02466489742131200000e+15) (11, 2.48921755274444800000e+15) (12, 1.50099859393740800000e+15) (13, 1.39519990956032000000e+14) (14, -1.66126811715993600000e+15) (15, 2.19916519079936000000e+14) (16, 1.19750076976332800000e+15) (17, 9.15929290506240000000e+14) (18, 7.41417521512448000000e+14) (19, -1.37612295667712000000e+15) (20, -2.53967875440640000000e+14) (21, 9.10777343016960000000e+14) (22, 7.37603120791552000000e+14) (23, 6.04448866959360000000e+14) (24, -5.33623111417856000000e+14) (25, -4.32800431865856000000e+14) (26, 6.72748376424448000000e+14) (27, 5.56165817696256000000e+14) (28, 4.65227904712704000000e+14) (29, -5.77264878092288000000e+14) (30, -1.67590791584153600000e+15) (31, -4.68244917911552000000e+14) (32, -4.27780319739904000000e+14) (33, -3.87079531921408000000e+14) (34, -1.60386319489433600000e+15) (35, 7.11782864571596800000e+15) (36, -4.21322883072000000000e+11) (0, -1.62148974067712000000e+15) (1, 9.28626874777600000000e+13) (2, -8.41861532588441600000e+15) (3, -1.36988627828736000000e+14) (4, -1.75206533641011200000e+15) (5, -4.45732269693337600000e+15) (6, 3.76723553753497600000e+15) (7, 2.39836798858035200000e+15) (8, 8.24910008025088000000e+14) (9, -8.14769469443276800000e+15) (10, 2.00854615359488000000e+15) (11, 2.47836309664563200000e+15) (12, 1.49966057740697600000e+15) (13, 1.40001069236224000000e+14) (14, -1.59928073322496000000e+15) (15, 2.18102650372096000000e+14) (16, 1.19059969684275200000e+15) (17, 9.09948884090880000000e+14) (18, 7.35573346091008000000e+14) (19, -1.36938616625561600000e+15) (20, -2.53082910851072000000e+14) (21, 9.05856921108480000000e+14) (22, 7.33845024407552000000e+14) (23, 6.02002279104512000000e+14) (24, -5.34438584778752000000e+14) (25, -4.27113190522880000000e+14) (26, 6.71922736070656000000e+14) (27, 5.51046921322496000000e+14) (28, 4.60645375934464000000e+14) (29, -5.75527832256512000000e+14) (30, -1.66186511761408000000e+15) (31, -4.65571334324224000000e+14) (32, -4.26759862353920000000e+14) (33, -3.85808355819520000000e+14) (34, -1.59199620025548800000e+15) (35, 6.82320140540313600000e+15) (36, -1.92627752960000000000e+11) (0, -1.66432573122150400000e+15) (1, 9.04595442237440000000e+13) (2, -8.09374131526041600000e+15) (3, -1.32078196752384000000e+14) (4, -1.78983917112524800000e+15) (5, -4.32481356061081600000e+15) (6, 3.65903537923686400000e+15) (7, 2.30837929692364800000e+15) (8, 8.30415216574464000000e+14) (9, -7.30720932305305600000e+15) (10, 1.97051784206745600000e+15) (11, 2.40511699281510400000e+15) (12, 1.46732403707084800000e+15) (13, 1.36158558289920000000e+14) (14, -1.59159529190195200000e+15) (15, 2.12038240436224000000e+14) (16, 1.16017468538880000000e+15) (17, 8.89041587273728000000e+14) (18, 7.17497036701696000000e+14) (19, -1.33137718208102400000e+15) (20, -2.45946587807744000000e+14) (21, 8.83160501977088000000e+14) (22, 7.14393721503744000000e+14) (23, 5.83000538480640000000e+14) (24, -5.18995660767232000000e+14) (25, -4.18202106462208000000e+14) (26, 6.51354741669888000000e+14) (27, 5.34366207868928000000e+14) (28, 4.49624993169408000000e+14) (29, -5.58991201533952000000e+14) (30, -1.60948141477068800000e+15) (31, -4.52386153824256000000e+14) (32, -4.13471434866688000000e+14) (33, -3.74917795151872000000e+14) (34, -1.55161974957670400000e+15) (35, 6.74825476295884800000e+15) (36, -1.93407664128000000000e+11) (0, -1.71906683423948800000e+15) (1, 9.57134720204800000000e+13) (2, -8.61916077070745600000e+15) (3, -1.39824405151744000000e+14) (4, -1.84910730389094400000e+15) (5, -4.49095953861836800000e+15) (6, 3.85024437046476800000e+15) (7, 2.43836997179801600000e+15) (8, 8.41340069871616000000e+14) (9, -8.73498798561689600000e+15) (10, 2.07862579278643200000e+15) (11, 2.52796272115712000000e+15) (12, 1.52323873990246400000e+15) (13, 1.42451985612800000000e+14) (14, -1.71027933115187200000e+15) (15, 2.23211295866880000000e+14) (16, 1.22194302599168000000e+15) (17, 9.36595263848448000000e+14) (18, 7.55157725872128000000e+14) (19, -1.40519465077964800000e+15) (20, -2.59543531520000000000e+14) (21, 9.32050114707456000000e+14) (22, 7.52436528545792000000e+14) (23, 6.13402598703104000000e+14) (24, -5.44846263615488000000e+14) (25, -4.41074283708416000000e+14) (26, 6.87109539102720000000e+14) (27, 5.62756948328448000000e+14) (28, 4.74121808904192000000e+14) (29, -5.89229180583936000000e+14) (30, -1.70486955140710400000e+15) (31, -4.76120612864000000000e+14) (32, -4.33696435863552000000e+14) (33, -3.93383872823296000000e+14) (34, -1.62680946032640000000e+15) (35, 7.26107546871398400000e+15) (36, -2.07832842240000000000e+11) (0, -1.83175389118464000000e+15) (1, 9.86673357783040000000e+13) (2, -8.83318919161446400000e+15) (3, -1.41282596880384000000e+14) (4, -1.91129077992652800000e+15) (5, -4.54882670673920000000e+15) (6, 3.93129255082393600000e+15) (7, 2.48671573429452800000e+15) (8, 8.95596915326976000000e+14) (9, -9.00719495977369600000e+15) (10, 2.10924582259916800000e+15) (11, 2.61760405733376000000e+15) (12, 1.57386620377497600000e+15) (13, 1.45859975053312000000e+14) (14, -1.81829883238809600000e+15) (15, 2.29272870453248000000e+14) (16, 1.25480784730521600000e+15) (17, 9.56701146611712000000e+14) (18, 7.74166512926720000000e+14) (19, -1.44011944578252800000e+15) (20, -2.66438044549120000000e+14) (21, 9.50596857233408000000e+14) (22, 7.71628657016832000000e+14) (23, 6.30974853414912000000e+14) (24, -5.57537120223232000000e+14) (25, -4.51971018391552000000e+14) (26, 7.01857383055360000000e+14) (27, 5.79186406195200000000e+14) (28, 4.84861777281024000000e+14) (29, -6.03641211781120000000e+14) (30, -1.75224049054515200000e+15) (31, -4.90373696716800000000e+14) (32, -4.47702491987968000000e+14) (33, -4.05001088270336000000e+14) (34, -1.68000343559372800000e+15) (35, 7.58457831102873600000e+15) (36, -2.22311301120000000000e+11) (0, 1.45965295704473600000e+15) (1, -7.98795885445120000000e+13) (2, 7.29071503802368000000e+15) (3, 1.19646296473600000000e+14) (4, 1.59213967900672000000e+15) (5, 3.90102001070899200000e+15) (6, -3.27366380145868800000e+15) (7, -2.07846499994828800000e+15) (8, -7.46365793599488000000e+14) (9, 5.97439507175833600000e+15) (10, -1.76301106056396800000e+15) (11, -2.15629786041548800000e+15) (12, -1.31816948655718400000e+15) (13, -1.23025856921600000000e+14) (14, 1.39883501217382400000e+15) (15, -1.89075365560320000000e+14) (16, -1.03871213784268800000e+15) (17, -7.97541000019968000000e+14) (18, -6.40505184518144000000e+14) (19, 1.19857706172416000000e+15) (20, 2.21855596150784000000e+14) (21, -7.91752122302464000000e+14) (22, -6.40160983154688000000e+14) (23, -5.25837275234304000000e+14) (24, 4.64177315446784000000e+14) (25, 3.74786832203776000000e+14) (26, -5.84158837473280000000e+14) (27, -4.83955740508160000000e+14) (28, -4.02716870311936000000e+14) (29, 4.98737642209280000000e+14) (30, 1.46503736963891200000e+15) (31, 4.05484003655680000000e+14) (32, 3.70563201630208000000e+14) (33, 3.37082488717312000000e+14) (34, 1.39349126755123200000e+15) (35, -5.81270243796582400000e+15) (36, 1.11958753280000000000e+11) (0, -1.69301893133107200000e+15) (1, 9.36872960327680000000e+13) (2, -8.41732415134105600000e+15) (3, -1.36767747391488000000e+14) (4, -1.82002916733747200000e+15) (5, -4.40253475192832000000e+15) (6, 3.77686539108352000000e+15) (7, 2.39534540534579200000e+15) (8, 8.27278212726784000000e+14) (9, -8.20153479384268800000e+15) (10, 2.03527615099699200000e+15) (11, 2.47979358919065600000e+15) (12, 1.50330780994764800000e+15) (13, 1.40036477550592000000e+14) (14, -1.64216531058688000000e+15) (15, 2.18729044508672000000e+14) (16, 1.19815092043776000000e+15) (17, 9.19146355228672000000e+14) (18, 7.40008503803904000000e+14) (19, -1.37738728767488000000e+15) (20, -2.54490972258304000000e+14) (21, 9.15640923717632000000e+14) (22, 7.37989466521600000000e+14) (23, 6.03194132529152000000e+14) (24, -5.35210504486912000000e+14) (25, -4.31853861339136000000e+14) (26, 6.73231426027520000000e+14) (27, 5.52583378763776000000e+14) (28, 4.65464564121600000000e+14) (29, -5.77385338503168000000e+14) (30, -1.66853788617932800000e+15) (31, -4.66279097958400000000e+14) (32, -4.26146319564800000000e+14) (33, -3.86425287606272000000e+14) (34, -1.59372411928576000000e+15) (35, 7.09709469109452800000e+15) (36, -1.96609015808000000000e+11) (0, -9.95646634983424000000e+14) (1, 5.68868208640000000000e+13) (2, -5.00947107604070400000e+15) (3, -8.05422717992960000000e+13) (4, -1.08417369558220800000e+15) (5, -2.55275380926054400000e+15) (6, 2.28124610946662400000e+15) (7, 1.44286137974784000000e+15) (8, 5.15654947962880000000e+14) (9, -4.38994512904192000000e+15) (10, 1.20762132332544000000e+15) (11, 1.48251681279180800000e+15) (12, 9.05435544551424000000e+14) (13, 8.12319579832320000000e+13) (14, -9.91579032518656000000e+14) (15, 1.29239416307712000000e+14) (16, 7.16016615161856000000e+14) (17, 5.51013803098112000000e+14) (18, 4.45322610343936000000e+14) (19, -8.29755066679296000000e+14) (20, -1.53468559949824000000e+14) (21, 5.47635341557760000000e+14) (22, 4.42867667435520000000e+14) (23, 3.62570468818944000000e+14) (24, -3.20695342989312000000e+14) (25, -2.59650016509952000000e+14) (26, 4.04629003173888000000e+14) (27, 3.33572460249088000000e+14) (28, 2.79036794241024000000e+14) (29, -3.45969916903424000000e+14) (30, -1.01832990077747200000e+15) (31, -2.80109864976384000000e+14) (32, -2.57409469644800000000e+14) (33, -2.33131613356032000000e+14) (34, -9.64623415115776000000e+14) (35, 4.30599945637068800000e+15) (36, -1.43479111680000000000e+11) (0, -1.56357975710105600000e+15) (1, 8.61603239034880000000e+13) (2, -7.65697696412467200000e+15) (3, -1.26427991113728000000e+14) (4, -1.70499464232960000000e+15) (5, -4.15497498447052800000e+15) (6, 3.49829193321676800000e+15) (7, 2.21193151132467200000e+15) (8, 8.07597061963776000000e+14) (9, -6.69782003574374400000e+15) (10, 1.87168608118374400000e+15) (11, 2.29570109033676800000e+15) (12, 1.40090142831411200000e+15) (13, 1.30975052857344000000e+14) (14, -1.53527095656448000000e+15) (15, 2.03508921925632000000e+14) (16, 1.10978404869734400000e+15) (17, 8.48544944619520000000e+14) (18, 6.85069496745984000000e+14) (19, -1.27634965843148800000e+15) (20, -2.34542342340608000000e+14) (21, 8.41114449870848000000e+14) (22, 6.80464352280576000000e+14) (23, 5.56882204819456000000e+14) (24, -4.95643386707968000000e+14) (25, -3.99449306169344000000e+14) (26, 6.21936296067072000000e+14) (27, 5.10558935711744000000e+14) (28, 4.31241962717184000000e+14) (29, -5.33749108310016000000e+14) (30, -1.53156198386892800000e+15) (31, -4.29328890331136000000e+14) (32, -3.94768496459776000000e+14) (33, -3.57970323963904000000e+14) (34, -1.48230313816883200000e+15) (35, 6.49774220548505600000e+15) (36, -1.87984084992000000000e+11) (0, -1.41594253800243200000e+15) (1, 7.30690203156480000000e+13) (2, -6.65098449112268800000e+15) (3, -1.10551141187584000000e+14) (4, -1.53649609598566400000e+15) (5, -3.07432792680038400000e+15) (6, 3.02763438453555200000e+15) (7, 1.90920597595750400000e+15) (8, 7.04275114098688000000e+14) (9, -4.50360231172505600000e+15) (10, 1.62181414492569600000e+15) (11, 1.98927020615270400000e+15) (12, 1.20899222319923200000e+15) (13, 1.11706168623104000000e+14) (14, -1.29820446529945600000e+15) (15, 1.70857573908480000000e+14) (16, 9.65789431627776000000e+14) (17, 7.38888255537152000000e+14) (18, 5.92991437717504000000e+14) (19, -1.11232546137702400000e+15) (20, -2.06527797395456000000e+14) (21, 7.34918363578368000000e+14) (22, 5.89747395231744000000e+14) (23, 4.89530171850752000000e+14) (24, -4.31151499968512000000e+14) (25, -3.48407914823680000000e+14) (26, 5.39024334782464000000e+14) (27, 4.51748384735232000000e+14) (28, 3.74682343702528000000e+14) (29, -4.62885671141376000000e+14) (30, -1.33882962142822400000e+15) (31, -3.74269288644608000000e+14) (32, -3.45698897756160000000e+14) (33, -3.11768890998784000000e+14) (34, -1.28565094698188800000e+15) (35, 5.30757509237964800000e+15) (36, -1.87418476544000000000e+11) (0, -1.68323351943577600000e+15) (1, 9.43327742525440000000e+13) (2, -8.44917831316275200000e+15) (3, -1.37543500693504000000e+14) (4, -1.81635965465395200000e+15) (5, -4.50211115276697600000e+15) (6, 3.79603141420646400000e+15) (7, 2.39898458482278400000e+15) (8, 8.41171626622976000000e+14) (9, -8.31227086189363200000e+15) (10, 2.04115448483020800000e+15) (11, 2.48725099459379200000e+15) (12, 1.51056147283968000000e+15) (13, 1.40405484027904000000e+14) (14, -1.66418560791347200000e+15) (15, 2.19494605651968000000e+14) (16, 1.20370766859468800000e+15) (17, 9.22278997000192000000e+14) (18, 7.43384616534016000000e+14) (19, -1.38186331468595200000e+15) (20, -2.55496934129664000000e+14) (21, 9.17330053824512000000e+14) (22, 7.39980586516480000000e+14) (23, 6.04959095652352000000e+14) (24, -5.36684886228992000000e+14) (25, -4.34334674714624000000e+14) (26, 6.76649884450816000000e+14) (27, 5.54677108211712000000e+14) (28, 4.67273449996288000000e+14) (29, -5.79729451122688000000e+14) (30, -1.67876031099699200000e+15) (31, -4.68832657342464000000e+14) (32, -4.28401110286336000000e+14) (33, -3.88503347134464000000e+14) (34, -1.60213903396044800000e+15) (35, 7.17817562057932800000e+15) (36, -3.07011387392000000000e+11) (0, 1.98704098390835200000e+15) (1, -1.06231754653696000000e+14) (2, 9.45986733290291200000e+15) (3, 1.54220011454464000000e+14) (4, 2.21771119512780800000e+15) (5, 4.63122511744204800000e+15) (6, -4.31929828573184000000e+15) (7, -2.73899379176243200000e+15) (8, -9.85089672478720000000e+14) (9, 5.70800992577126400000e+15) (10, -2.35359644418048000000e+15) (11, -2.86079208495513600000e+15) (12, -1.72554458444595200000e+15) (13, -1.61977561251840000000e+14) (14, 1.93762832469196800000e+15) (15, -2.48264561524736000000e+14) (16, -1.36287177460940800000e+15) (17, -1.06596477907763200000e+15) (18, -8.47589582831616000000e+14) (19, 1.58046864225075200000e+15) (20, 2.92157969661952000000e+14) (21, -1.05966151191756800000e+15) (22, -8.39103398543360000000e+14) (23, -6.91105536409600000000e+14) (24, 6.11067881324544000000e+14) (25, 4.98872833015808000000e+14) (26, -7.67665073291264000000e+14) (27, -6.31035050065920000000e+14) (28, -5.42381757693952000000e+14) (29, 6.66313240346624000000e+14) (30, 1.92071340130304000000e+15) (31, 5.37638335414272000000e+14) (32, 4.93020570976256000000e+14) (33, 4.44732052340736000000e+14) (34, 1.83180220956672000000e+15) (35, -8.16617110686924800000e+15) (36, 1.65226610688000000000e+11) (0, 2.26438728908800000000e+15) (1, -1.24991987253248000000e+14) (2, 1.09255850522050560000e+16) (3, 1.76465895227392000000e+14) (4, 2.41938836383334400000e+15) (5, 5.61034988565299200000e+15) (6, -5.01552590618624000000e+15) (7, -3.18205751774412800000e+15) (8, -1.12465000425062400000e+15) (9, 9.00719495977369600000e+15) (10, -2.67566825707929600000e+15) (11, -3.33858196370227200000e+15) (12, -2.00971492157030400000e+15) (13, -1.87801287000064000000e+14) (14, 2.13896458036838400000e+15) (15, -2.92464254517248000000e+14) (16, -1.59135665278156800000e+15) (17, -1.22938888867020800000e+15) (18, -9.79877528338432000000e+14) (19, 1.81420747338547200000e+15) (20, 3.38528349192192000000e+14) (21, -1.22490574811955200000e+15) (22, -9.76062724964352000000e+14) (23, -8.05882094944256000000e+14) (24, 7.20144212951040000000e+14) (25, 5.75999003590656000000e+14) (26, -8.91852106498048000000e+14) (27, -7.34533829787648000000e+14) (28, -6.25090748219392000000e+14) (29, 7.71448201281536000000e+14) (30, 2.22237190573260800000e+15) (31, 6.13804312363008000000e+14) (32, 5.68924320038912000000e+14) (33, 5.12198472368128000000e+14) (34, 2.11901942333440000000e+15) (35, -9.76592240744857600000e+15) (36, 2.44900921344000000000e+11) (0, -1.71224964739891200000e+15) (1, 9.56645077155840000000e+13) (2, -8.67974987435212800000e+15) (3, -1.40885413068800000000e+14) (4, -1.83474385951129600000e+15) (5, -4.56498222622310400000e+15) (6, 3.86318967033036800000e+15) (7, 2.45169832905932800000e+15) (8, 8.29191553548288000000e+14) (9, -8.58227612844032000000e+15) (10, 2.06973802905600000000e+15) (11, 2.53397835972608000000e+15) (12, 1.53121865492070400000e+15) (13, 1.43478080143360000000e+14) (14, -1.67525360441753600000e+15) (15, 2.23795948290048000000e+14) (16, 1.23356359688192000000e+15) (17, 9.35949005488128000000e+14) (18, 7.51582501142528000000e+14) (19, -1.40558804294041600000e+15) (20, -2.60564878098432000000e+14) (21, 9.31961866551296000000e+14) (22, 7.50327431168000000000e+14) (23, 6.17876880883712000000e+14) (24, -5.47780665802752000000e+14) (25, -4.40513354268672000000e+14) (26, 6.88758471000064000000e+14) (27, 5.66090581147648000000e+14) (28, 4.74655626362880000000e+14) (29, -5.90640144449536000000e+14) (30, -1.70870025958195200000e+15) (31, -4.78188102746112000000e+14) (32, -4.37378195914752000000e+14) (33, -3.96106848534528000000e+14) (34, -1.63664372747468800000e+15) (35, 7.04852559029862400000e+15) (36, -2.21865869312000000000e+11) (0, -1.67346797176422400000e+15) (1, 9.22005494824960000000e+13) (2, -8.27736297832448000000e+15) (3, -1.35723197923328000000e+14) (4, -1.79834240106496000000e+15) (5, -4.34668756061388800000e+15) (6, 3.72458409636659200000e+15) (7, 2.36659677331456000000e+15) (8, 8.25688068194304000000e+14) (9, -7.86735895779737600000e+15) (10, 2.00640632035737600000e+15) (11, 2.44236321764147200000e+15) (12, 1.48426728040038400000e+15) (13, 1.38593334984704000000e+14) (14, -1.59721216960102400000e+15) (15, 2.16071550271488000000e+14) (16, 1.18483611916697600000e+15) (17, 9.08127146868736000000e+14) (18, 7.29282762506240000000e+14) (19, -1.35845990367232000000e+15) (20, -2.51072144736256000000e+14) (21, 9.03967202607104000000e+14) (22, 7.27156082606080000000e+14) (23, 5.95949462224896000000e+14) (24, -5.28375332470784000000e+14) (25, -4.25488585588736000000e+14) (26, 6.62853912625152000000e+14) (27, 5.45929568452608000000e+14) (28, 4.59635588857856000000e+14) (29, -5.69764992778240000000e+14) (30, -1.64190976003276800000e+15) (31, -4.60364726665216000000e+14) (32, -4.20031628312576000000e+14) (33, -3.81638211010560000000e+14) (34, -1.57404095525683200000e+15) (35, 6.99468280653414400000e+15) (36, -1.95336994816000000000e+11) (0, -1.41901424492544000000e+15) (1, 7.51688986132480000000e+13) (2, -6.80810459535769600000e+15) (3, -1.12347939078144000000e+14) (4, -1.50674002568806400000e+15) (5, -3.06290546127667200000e+15) (6, 3.10709611134976000000e+15) (7, 1.96197260197888000000e+15) (8, 7.12759419338752000000e+14) (9, -4.50360284859596800000e+15) (10, 1.65949080600576000000e+15) (11, 2.04675310891827200000e+15) (12, 1.24697584022323200000e+15) (13, 1.14565585043456000000e+14) (14, -1.30796504691507200000e+15) (15, 1.75296724598784000000e+14) (16, 9.86850609070080000000e+14) (17, 7.57065563766784000000e+14) (18, 6.05643136303104000000e+14) (19, -1.12576327319552000000e+15) (20, -2.11393894678528000000e+14) (21, 7.50731694964736000000e+14) (22, 6.04729583337472000000e+14) (23, 5.00579411427328000000e+14) (24, -4.42263821877248000000e+14) (25, -3.56134158336000000000e+14) (26, 5.54677108211712000000e+14) (27, 4.60454149226496000000e+14) (28, 3.85666789670912000000e+14) (29, -4.72889757270016000000e+14) (30, -1.38207806305075200000e+15) (31, -3.86584771821568000000e+14) (32, -3.53211063992320000000e+14) (33, -3.20567433494528000000e+14) (34, -1.32337646331494400000e+15) (35, 5.58708082658508800000e+15) (36, -2.09536663552000000000e+11) (0, -1.36068979700531200000e+15) (1, 7.46323632455680000000e+13) (2, -6.55765324116787200000e+15) (3, -1.06479755460608000000e+14) (4, -1.47527670589030400000e+15) (5, -3.39107478555852800000e+15) (6, 2.97178773009203200000e+15) (7, 1.87992463376384000000e+15) (8, 6.82594052079616000000e+14) (9, -5.90933007532032000000e+15) (10, 1.59763321061376000000e+15) (11, 1.95967130481459200000e+15) (12, 1.19467629189529600000e+15) (13, 1.12010909974528000000e+14) (14, -1.37510410990387200000e+15) (15, 1.75582272815104000000e+14) (16, 9.46433423310848000000e+14) (17, 7.17697289551872000000e+14) (18, 5.80209480826880000000e+14) (19, -1.08968494392934400000e+15) (20, -1.99897928171520000000e+14) (21, 7.13420508758016000000e+14) (22, 5.77363796557824000000e+14) (23, 4.76935918452736000000e+14) (24, -4.22576463544320000000e+14) (25, -3.40160134774784000000e+14) (26, 5.27063689723904000000e+14) (27, 4.39450752516096000000e+14) (28, 3.62786525806592000000e+14) (29, -4.52799779307520000000e+14) (30, -1.31127619826483200000e+15) (31, -3.65408804667392000000e+14) (32, -3.35374199029760000000e+14) (33, -3.03961009553408000000e+14) (34, -1.26103380505395200000e+15) (35, 5.57365798004326400000e+15) (36, -2.47309123584000000000e+11) (0, 1.47310855271219200000e+15) (1, -8.04598705029120000000e+13) (2, 7.33733690802176000000e+15) (3, 1.20537024036864000000e+14) (4, 1.60773618165350400000e+15) (5, 3.94449581716275200000e+15) (6, -3.30643493879808000000e+15) (7, -2.09819862984294400000e+15) (8, -7.49965915717632000000e+14) (9, 6.06434027687116800000e+15) (10, -1.77601434248806400000e+15) (11, -2.17817266572492800000e+15) (12, -1.33019740825190400000e+15) (13, -1.24231677378560000000e+14) (14, 1.41652477450649600000e+15) (15, -1.90307467526144000000e+14) (16, -1.04860109871513600000e+15) (17, -8.04558573928448000000e+14) (18, -6.46662154354688000000e+14) (19, 1.20573314832793600000e+15) (20, 2.23631380578304000000e+14) (21, -7.98833718067200000000e+14) (22, -6.46145684537344000000e+14) (23, -5.30089997500416000000e+14) (24, 4.69008214130688000000e+14) (25, 3.78505871228928000000e+14) (26, -5.88772035002368000000e+14) (27, -4.87625722953728000000e+14) (28, -4.06756521934848000000e+14) (29, 5.03821709082624000000e+14) (30, 1.47443086576844800000e+15) (31, 4.09168246734848000000e+14) (32, 3.74042863337472000000e+14) (33, 3.40344449269760000000e+14) (34, 1.40636502936780800000e+15) (35, -5.88748211355648000000e+15) (36, 1.12811900928000000000e+11) (0, -1.50422599342489600000e+15) (1, 7.36501243576320000000e+13) (2, -6.72326395887616000000e+15) (3, -1.10076085927936000000e+14) (4, -1.57119513677004800000e+15) (5, -2.90795673144524800000e+15) (6, 3.05753675215667200000e+15) (7, 1.93102924165939200000e+15) (8, 7.22675827736576000000e+14) (9, -4.50359774832230400000e+15) (10, 1.63922621077913600000e+15) (11, 2.02305938495897600000e+15) (12, 1.24024066041446400000e+15) (13, 1.13852083601408000000e+14) (14, -1.37660748267520000000e+15) (15, 1.71975137820672000000e+14) (16, 9.76781863550976000000e+14) (17, 7.42793588768768000000e+14) (18, 5.96270846574592000000e+14) (19, -1.11828526537113600000e+15) (20, -2.05939286212608000000e+14) (21, 7.39654101893120000000e+14) (22, 5.90360300486656000000e+14) (23, 4.93148312698880000000e+14) (24, -4.34439096107008000000e+14) (25, -3.52829952753664000000e+14) (26, 5.44136016953344000000e+14) (27, 4.56248839372800000000e+14) (28, 3.76392378220544000000e+14) (29, -4.67796798472192000000e+14) (30, -1.34547460692377600000e+15) (31, -3.78960768663552000000e+14) (32, -3.48006469599232000000e+14) (33, -3.14471666941952000000e+14) (34, -1.30597687971020800000e+15) (35, 5.59432589954252800000e+15) (36, -2.08014573568000000000e+11) (0, -1.69673112525209600000e+15) (1, 9.53968607887360000000e+13) (2, -8.62223059858227200000e+15) (3, -1.39246362951680000000e+14) (4, -1.82130275935846400000e+15) (5, -4.55173278898585600000e+15) (6, 3.84521630593843200000e+15) (7, 2.44072227169894400000e+15) (8, 8.28811180507136000000e+14) (9, -8.54507473233510400000e+15) (10, 2.06030507291443200000e+15) (11, 2.51709108518912000000e+15) (12, 1.51962586710016000000e+15) (13, 1.42523909537792000000e+14) (14, -1.66164419523379200000e+15) (15, 2.22884962238464000000e+14) (16, 1.22593318482739200000e+15) (17, 9.32056825593856000000e+14) (18, 7.47711393431552000000e+14) (19, -1.40027221560524800000e+15) (20, -2.59050264592384000000e+14) (21, 9.28051500154880000000e+14) (22, 7.46436392124416000000e+14) (23, 6.14779672592384000000e+14) (24, -5.45495709646848000000e+14) (25, -4.38094750810112000000e+14) (26, 6.85680925605888000000e+14) (27, 5.62993775509504000000e+14) (28, 4.72543207096320000000e+14) (29, -5.86883457351680000000e+14) (30, -1.70176576644710400000e+15) (31, -4.74572814024704000000e+14) (32, -4.35095890558976000000e+14) (33, -3.93839810445312000000e+14) (34, -1.62578001035264000000e+15) (35, 7.05040034352332800000e+15) (36, -2.06759870464000000000e+11) (0, -1.68159431832371200000e+15) (1, 9.34389261271040000000e+13) (2, -8.38468025240780800000e+15) (3, -1.36542009950208000000e+14) (4, -1.80699823656140800000e+15) (5, -4.38901553705779200000e+15) (6, 3.76412920243814400000e+15) (7, 2.38803805536256000000e+15) (8, 8.25649212162048000000e+14) (9, -8.15716456044953600000e+15) (10, 2.03005360498278400000e+15) (11, 2.47150510761574400000e+15) (12, 1.49833544577843200000e+15) (13, 1.39618414493696000000e+14) (14, -1.62862086278348800000e+15) (15, 2.18352999989248000000e+14) (16, 1.19467562080665600000e+15) (17, 9.17230799814656000000e+14) (18, 7.37863033421824000000e+14) (19, -1.37352383037440000000e+15) (20, -2.53585371693056000000e+14) (21, 9.12896842268672000000e+14) (22, 7.35748298899456000000e+14) (23, 6.01304615354368000000e+14) (24, -5.33422489468928000000e+14) (25, -4.30290627461120000000e+14) (26, 6.70914022735872000000e+14) (27, 5.50869015724032000000e+14) (28, 4.63965083664384000000e+14) (29, -5.75808481525760000000e+14) (30, -1.66313709902233600000e+15) (31, -4.64997855526912000000e+14) (32, -4.24376960811008000000e+14) (33, -3.85341546561536000000e+14) (34, -1.58982254415052800000e+15) (35, 7.08562498093056000000e+15) (36, -4.71546167296000000000e+11) (0, -1.54432931102720000000e+15) (1, 7.96093747036160000000e+13) (2, -7.31518829854720000000e+15) (3, -1.20551502774272000000e+14) (4, -1.72899398005555200000e+15) (5, -3.40679302368460800000e+15) (6, 3.31354364654387200000e+15) (7, 2.09466870359654400000e+15) (8, 7.18356231487488000000e+14) (9, -4.65521089917747200000e+15) (10, 1.77435420341043200000e+15) (11, 2.19526301168435200000e+15) (12, 1.33220825825280000000e+15) (13, 1.24937595518976000000e+14) (14, -1.34142002357862400000e+15) (15, 1.88642681159680000000e+14) (16, 1.03986359173120000000e+15) (17, 8.10536027553792000000e+14) (18, 6.53110108225536000000e+14) (19, -1.21205453488128000000e+15) (20, -2.23804555001856000000e+14) (21, 8.08288417480704000000e+14) (22, 6.49268528414720000000e+14) (23, 5.33476444995584000000e+14) (24, -4.67656708718592000000e+14) (25, -3.79895628693504000000e+14) (26, 5.99569113022464000000e+14) (27, 4.84625889624064000000e+14) (28, 4.13420297912320000000e+14) (29, -5.11392192921600000000e+14) (30, -1.49755711717376000000e+15) (31, -4.12357830377472000000e+14) (32, -3.75422822907904000000e+14) (33, -3.40899473129472000000e+14) (34, -1.40638945699430400000e+15) (35, 5.80774711944806400000e+15) (36, -2.53601185792000000000e+11) (0, -1.40774894836121600000e+15) (1, 7.26861894123520000000e+13) (2, -6.61633269497856000000e+15) (3, -1.11151866183680000000e+14) (4, -1.52493927851622400000e+15) (5, -3.06588267891916800000e+15) (6, 3.01395303464960000000e+15) (7, 1.89923333033164800000e+15) (8, 7.02084412342272000000e+14) (9, -4.50360231172505600000e+15) (10, 1.61414480973004800000e+15) (11, 1.97981872796467200000e+15) (12, 1.20336165529190400000e+15) (13, 1.11036396994560000000e+14) (14, -1.29543166125670400000e+15) (15, 1.69895031472128000000e+14) (16, 9.61166033551360000000e+14) (17, 7.35497513074688000000e+14) (18, 5.90390566584320000000e+14) (19, -1.10945763118284800000e+15) (20, -2.06195977617408000000e+14) (21, 7.32042547429376000000e+14) (22, 5.87139007905792000000e+14) (23, 4.87513986695168000000e+14) (24, -4.28598141911040000000e+14) (25, -3.46710765207552000000e+14) (26, 5.36331591614464000000e+14) (27, 4.49844372045824000000e+14) (28, 3.72971470323712000000e+14) (29, -4.60439519494144000000e+14) (30, -1.33086540988416000000e+15) (31, -3.72916306837504000000e+14) (32, -3.44536438013952000000e+14) (33, -3.09872293838848000000e+14) (34, -1.27881268795801600000e+15) (35, 5.29505365209907200000e+15) (36, -1.73293109248000000000e+11) (0, -1.51526043549696000000e+15) (1, 8.46260055572480000000e+13) (2, -7.56927856377856000000e+15) (3, -1.23903238209536000000e+14) (4, -1.69946406662963200000e+15) (5, -4.20155095200563200000e+15) (6, 3.41687438567014400000e+15) (7, 2.19117125002854400000e+15) (8, 7.87882155442176000000e+14) (9, -6.48762916811571200000e+15) (10, 1.83110723017113600000e+15) (11, 2.27363676959539200000e+15) (12, 1.38147784137113600000e+15) (13, 1.28021264596992000000e+14) (14, -1.50546777584435200000e+15) (15, 1.98930553896960000000e+14) (16, 1.08590745308364800000e+15) (17, 8.30909540466688000000e+14) (18, 6.74247051575296000000e+14) (19, -1.25459403846451200000e+15) (20, -2.31696037314560000000e+14) (21, 8.26950184599552000000e+14) (22, 6.72592415424512000000e+14) (23, 5.50426533429248000000e+14) (24, -4.88026329317376000000e+14) (25, -3.93979195555840000000e+14) (26, 6.12878478475264000000e+14) (27, 5.04839079460864000000e+14) (28, 4.25439260573696000000e+14) (29, -5.26235532787712000000e+14) (30, -1.52410471268352000000e+15) (31, -4.25170086920192000000e+14) (32, -3.90656769916928000000e+14) (33, -3.51955255820288000000e+14) (34, -1.46308248843059200000e+15) (35, 6.38009446131302400000e+15) (36, -3.36071131136000000000e+11) (0, -1.81681129730867200000e+15) (1, 9.83549104619520000000e+13) (2, -8.77013316612915200000e+15) (3, -1.38702177173504000000e+14) (4, -1.90796164340121600000e+15) (5, -4.58836993376256000000e+15) (6, 3.90603331128524800000e+15) (7, 2.46920891072512000000e+15) (8, 9.15497310748672000000e+14) (9, -9.00719495977369600000e+15) (10, 2.08693668872192000000e+15) (11, 2.58586102779084800000e+15) (12, 1.57184958241177600000e+15) (13, 1.44109322895360000000e+14) (14, -1.81748319125504000000e+15) (15, 2.28618642915328000000e+14) (16, 1.24940303361638400000e+15) (17, 9.47203631742976000000e+14) (18, 7.67336038531072000000e+14) (19, -1.43681138144051200000e+15) (20, -2.63722098491392000000e+14) (21, 9.41990212534272000000e+14) (22, 7.64431499788288000000e+14) (23, 6.25486086537216000000e+14) (24, -5.54178791342080000000e+14) (25, -4.48032533381120000000e+14) (26, 6.94073291702272000000e+14) (27, 5.74856676507648000000e+14) (28, 4.82814722048000000000e+14) (29, -5.98644755529728000000e+14) (30, -1.74513057483980800000e+15) (31, -4.85244029370368000000e+14) (32, -4.45707815223296000000e+14) (33, -4.01880056332288000000e+14) (34, -1.66889383159398400000e+15) (35, 7.58276100299161600000e+15) (36, -2.12034748416000000000e+11) (0, 2.16917605141708800000e+15) (1, -1.09291583307776000000e+14) (2, 9.70259418841088000000e+15) (3, 1.56863161171968000000e+14) (4, 2.41483247727411200000e+15) (5, 4.61017387211161600000e+15) (6, -4.43032265346252800000e+15) (7, -2.80592978332876800000e+15) (8, -1.04390193473126400000e+15) (9, 5.58024109116620800000e+15) (10, -2.40380273282252800000e+15) (11, -2.93404489967206400000e+15) (12, -1.77443191547494400000e+15) (13, -1.65553759059968000000e+14) (14, 2.10679675171635200000e+15) (15, -2.54333182541824000000e+14) (16, -1.40573125325619200000e+15) (17, -1.08681241611468800000e+15) (18, -8.71702066102272000000e+14) (19, 1.61943513569689600000e+15) (20, 2.99234431598592000000e+14) (21, -1.08335671227187200000e+15) (22, -8.61272811765760000000e+14) (23, -7.06515409305600000000e+14) (24, 6.26227236831232000000e+14) (25, 5.09768225521664000000e+14) (26, -7.86672786604032000000e+14) (27, -6.45028858822656000000e+14) (28, -5.56250475528192000000e+14) (29, 6.85469935337472000000e+14) (30, 1.96066397913088000000e+15) (31, 5.49981400334336000000e+14) (32, 5.01812503248896000000e+14) (33, 4.56074322771968000000e+14) (34, 1.87199048699084800000e+15) (35, -8.38586136841420800000e+15) (36, 1.62216034304000000000e+11) (0, -1.70251966742528000000e+15) (1, 9.54224041000960000000e+13) (2, -8.62373652149043200000e+15) (3, -1.37802188587008000000e+14) (4, -1.82704083566592000000e+15) (5, -4.55218214993920000000e+15) (6, 3.85144588756582400000e+15) (7, 2.44798613513830400000e+15) (8, 8.35770168377344000000e+14) (9, -8.52772199071744000000e+15) (10, 2.05409347646259200000e+15) (11, 2.51611263795200000000e+15) (12, 1.52145981813555200000e+15) (13, 1.42454099542016000000e+14) (14, -1.66182565760204800000e+15) (15, 2.22817148731392000000e+14) (16, 1.22512801267712000000e+15) (17, 9.30055370833920000000e+14) (18, 7.49281405304832000000e+14) (19, -1.40259955100876800000e+15) (20, -2.59544471044096000000e+14) (21, 9.24725584855040000000e+14) (22, 7.47144323530752000000e+14) (23, 6.15246683176960000000e+14) (24, -5.45295859449856000000e+14) (25, -4.39719489961984000000e+14) (26, 6.85867018485760000000e+14) (27, 5.63755125571584000000e+14) (28, 4.73275834564608000000e+14) (29, -5.86447920824320000000e+14) (30, -1.69870184415232000000e+15) (31, -4.74934497247232000000e+14) (32, -4.35307249926144000000e+14) (33, -3.93758407393280000000e+14) (34, -1.62955434708172800000e+15) (35, 7.06279132417228800000e+15) (36, -2.08802709504000000000e+11) (0, -1.49453896312422400000e+15) (1, 8.19347387842560000000e+13) (2, -7.19400687003238400000e+15) (3, -1.15726107017216000000e+14) (4, -1.63780927422464000000e+15) (5, -3.75217416096972800000e+15) (6, 3.28561911136256000000e+15) (7, 2.08579288524390400000e+15) (8, 7.54158541996032000000e+14) (9, -6.10503938696806400000e+15) (10, 1.74089989783552000000e+15) (11, 2.15635060798259200000e+15) (12, 1.31381586611404800000e+15) (13, 1.23501340000256000000e+14) (14, -1.46322261173862400000e+15) (15, 1.93680560357376000000e+14) (16, 1.04092881072947200000e+15) (17, 7.93991545094144000000e+14) (18, 6.38921952198656000000e+14) (19, -1.18964527457894400000e+15) (20, -2.20282346274816000000e+14) (21, 7.86725936824320000000e+14) (22, 6.35925071659008000000e+14) (23, 5.26527858999296000000e+14) (24, -4.63600615424000000000e+14) (25, -3.73578570661888000000e+14) (26, 5.83328969261056000000e+14) (27, 4.80616873197568000000e+14) (28, 4.05553897537536000000e+14) (29, -5.00702019321856000000e+14) (30, -1.43175043357081600000e+15) (31, -4.03063655366656000000e+14) (32, -3.70604507136000000000e+14) (33, -3.36387609985024000000e+14) (34, -1.38119625257779200000e+15) (35, 6.13753564640051200000e+15) (36, -1.80449427456000000000e+11) (37, 1.26118928000000000000e+08) (38, 1.14196624000000000000e+08) (39, 1.01671176000000000000e+08) (40, 6.37019800000000000000e+07) (41, 1.14484256000000000000e+08) (42, 1.25114512000000000000e+08) (43, 6.08181240000000000000e+07) (44, 1.05398472000000000000e+08) (45, 1.20580248000000000000e+08) (46, 1.12934016000000000000e+08) (47, 1.11942864000000000000e+08) (48, 1.18977880000000000000e+08) (49, 1.23610912000000000000e+08) (50, -9.29127520000000000000e+07) (51, 1.17946216000000000000e+08) (52, 6.71045240000000000000e+07) (53, 1.04148984000000000000e+08) (54, 6.42944600000000000000e+07) (55, 1.19233400000000000000e+08) (56, -8.84144560000000000000e+07) (57, -1.23130464000000000000e+08) (58, 1.14992032000000000000e+08) (59, 1.16778176000000000000e+08) (60, 6.53661000000000000000e+07) (61, 9.72846800000000000000e+07) (62, -9.36973600000000000000e+07) (63, 5.92847280000000000000e+07) (64, 1.15132864000000000000e+08) (65, 1.17797816000000000000e+08) (66, 7.09395440000000000000e+07) (67, 6.44693880000000000000e+07) (68, 1.00838936000000000000e+08) (69, 1.25408144000000000000e+08) (70, -8.50793680000000000000e+07) (71, 1.15052032000000000000e+08) (72, 1.00105096000000000000e+08) (73, -1.71844531250000000000e+04) (37, 1.25662160000000000000e+08) (38, 1.13464888000000000000e+08) (39, 1.01353584000000000000e+08) (40, 6.29360640000000000000e+07) (41, 1.13811928000000000000e+08) (42, 1.24504408000000000000e+08) (43, 6.05233960000000000000e+07) (44, 1.04744272000000000000e+08) (45, 1.19603248000000000000e+08) (46, 1.12419112000000000000e+08) (47, 1.11096120000000000000e+08) (48, 1.18231928000000000000e+08) (49, 1.23291080000000000000e+08) (50, -9.30948880000000000000e+07) (51, 1.17087064000000000000e+08) (52, 6.76509040000000000000e+07) (53, 1.03806752000000000000e+08) (54, 6.42124400000000000000e+07) (55, 1.18487856000000000000e+08) (56, -8.81491680000000000000e+07) (57, -1.22971448000000000000e+08) (58, 1.14315064000000000000e+08) (59, 1.15811328000000000000e+08) (60, 6.49317040000000000000e+07) (61, 9.74260400000000000000e+07) (62, -9.38802160000000000000e+07) (63, 5.88333400000000000000e+07) (64, 1.14263704000000000000e+08) (65, 1.17045352000000000000e+08) (66, 7.06122960000000000000e+07) (67, 6.42727680000000000000e+07) (68, 1.00694272000000000000e+08) (69, 1.25008232000000000000e+08) (70, -8.47659520000000000000e+07) (71, 1.14646456000000000000e+08) (72, 9.98268880000000000000e+07) (73, -1.75868164062500000000e+04) (37, 6.16871720000000000000e+07) (38, 5.77280760000000000000e+07) (39, 5.91198760000000000000e+07) (40, 4.18939040000000000000e+07) (41, 5.78436200000000000000e+07) (42, 6.14255400000000000000e+07) (43, 6.71086560000000000000e+07) (44, 5.51693320000000000000e+07) (45, 5.94762960000000000000e+07) (46, 5.51625320000000000000e+07) (47, 5.75406960000000000000e+07) (48, 5.96494680000000000000e+07) (49, 6.09301000000000000000e+07) (50, -4.18904640000000000000e+07) (51, 5.91136920000000000000e+07) (52, 3.22210080000000000000e+07) (53, 5.39129080000000000000e+07) (54, 4.31252000000000000000e+07) (55, 5.92628520000000000000e+07) (56, -5.72588520000000000000e+07) (57, -6.60017880000000000000e+07) (58, 5.83847160000000000000e+07) (59, 5.88602560000000000000e+07) (60, 4.22116720000000000000e+07) (61, 4.21953800000000000000e+07) (62, -4.23101920000000000000e+07) (63, 3.83473640000000000000e+07) (64, 5.79315080000000000000e+07) (65, 5.95743560000000000000e+07) (66, 6.71086520000000000000e+07) (67, 4.18945920000000000000e+07) (68, 5.26287000000000000000e+07) (69, 6.13298680000000000000e+07) (70, -5.84966000000000000000e+07) (71, 5.82307240000000000000e+07) (72, 5.24556120000000000000e+07) (73, -1.66501054687500000000e+04) (37, 6.11031040000000000000e+07) (38, 5.70705680000000000000e+07) (39, 5.84787480000000000000e+07) (40, 4.17203920000000000000e+07) (41, 5.71748160000000000000e+07) (42, 6.08495200000000000000e+07) (43, 6.67928280000000000000e+07) (44, 5.41542120000000000000e+07) (45, 5.90106000000000000000e+07) (46, 5.80834800000000000000e+07) (47, 5.70314480000000000000e+07) (48, 5.91084400000000000000e+07) (49, 6.05072960000000000000e+07) (50, -4.23868680000000000000e+07) (51, 5.85530360000000000000e+07) (52, 3.23682300000000000000e+07) (53, 5.34442840000000000000e+07) (54, 4.29589600000000000000e+07) (55, 5.87044040000000000000e+07) (56, -5.77550000000000000000e+07) (57, -6.64384600000000000000e+07) (58, 5.77410960000000000000e+07) (59, 5.82696880000000000000e+07) (60, 4.20381520000000000000e+07) (61, 4.21184200000000000000e+07) (62, -4.28569040000000000000e+07) (63, 3.78188520000000000000e+07) (64, 5.74344240000000000000e+07) (65, 5.85809040000000000000e+07) (66, 6.71086520000000000000e+07) (67, 4.30236880000000000000e+07) (68, 5.22086920000000000000e+07) (69, 6.08448480000000000000e+07) (70, -5.88315960000000000000e+07) (71, 5.77625360000000000000e+07) (72, 5.27405480000000000000e+07) (73, -1.66776816406250000000e+04) (37, 1.24119544000000000000e+08) (38, 1.11706248000000000000e+08) (39, 9.96279520000000000000e+07) (40, 6.38447920000000000000e+07) (41, 1.12066424000000000000e+08) (42, 1.22935112000000000000e+08) (43, 6.15811000000000000000e+07) (44, 1.03633536000000000000e+08) (45, 1.18887144000000000000e+08) (46, 1.10430888000000000000e+08) (47, 1.10080456000000000000e+08) (48, 1.16728472000000000000e+08) (49, 1.21745784000000000000e+08) (50, -9.29100480000000000000e+07) (51, 1.15654880000000000000e+08) (52, 6.87092960000000000000e+07) (53, 1.02888176000000000000e+08) (54, 6.51376800000000000000e+07) (55, 1.17198192000000000000e+08) (56, -8.90393120000000000000e+07) (57, -1.23784968000000000000e+08) (58, 1.12225080000000000000e+08) (59, 1.14452712000000000000e+08) (60, 6.57754880000000000000e+07) (61, 9.64590400000000000000e+07) (62, -9.37905520000000000000e+07) (63, 5.96529960000000000000e+07) (64, 1.12538456000000000000e+08) (65, 1.15678424000000000000e+08) (66, 7.20655600000000000000e+07) (67, 6.51338720000000000000e+07) (68, 9.95662560000000000000e+07) (69, 1.23682088000000000000e+08) (70, -8.57459120000000000000e+07) (71, 1.12969240000000000000e+08) (72, 9.93235040000000000000e+07) (73, -1.72774453125000000000e+04) (37, 1.21750648000000000000e+08) (38, 1.09432664000000000000e+08) (39, 9.75120960000000000000e+07) (40, 6.40092120000000000000e+07) (41, 1.09801496000000000000e+08) (42, 1.20657256000000000000e+08) (43, 6.21242200000000000000e+07) (44, 1.01295472000000000000e+08) (45, 1.16651976000000000000e+08) (46, 1.08126040000000000000e+08) (47, 1.07562648000000000000e+08) (48, 1.14652824000000000000e+08) (49, 1.19502808000000000000e+08) (50, -9.29591600000000000000e+07) (51, 1.13643488000000000000e+08) (52, 6.94461280000000000000e+07) (53, 1.00584640000000000000e+08) (54, 6.59018840000000000000e+07) (55, 1.15029416000000000000e+08) (56, -8.93420400000000000000e+07) (57, -1.23820672000000000000e+08) (58, 1.09924520000000000000e+08) (59, 1.12424232000000000000e+08) (60, 6.62191000000000000000e+07) (61, 9.56257120000000000000e+07) (62, -9.37625600000000000000e+07) (63, 6.00075880000000000000e+07) (64, 1.10294056000000000000e+08) (65, 1.13701416000000000000e+08) (66, 7.27704240000000000000e+07) (67, 6.58072040000000000000e+07) (68, 9.75906400000000000000e+07) (69, 1.21762584000000000000e+08) (70, -8.60305920000000000000e+07) (71, 1.10713624000000000000e+08) (72, 9.84423360000000000000e+07) (73, -1.69311835937500000000e+04) (37, 1.26009968000000000000e+08) (38, 1.14000304000000000000e+08) (39, 1.01502456000000000000e+08) (40, 6.37993000000000000000e+07) (41, 1.14289280000000000000e+08) (42, 1.24968784000000000000e+08) (43, 6.08495080000000000000e+07) (44, 1.05231560000000000000e+08) (45, 1.20307440000000000000e+08) (46, 1.12814176000000000000e+08) (47, 1.11685312000000000000e+08) (48, 1.18764528000000000000e+08) (49, 1.23392848000000000000e+08) (50, -9.30710000000000000000e+07) (51, 1.17676336000000000000e+08) (52, 6.72463360000000000000e+07) (53, 1.03889368000000000000e+08) (54, 6.43897560000000000000e+07) (55, 1.18987232000000000000e+08) (56, -8.87077760000000000000e+07) (57, -1.23484800000000000000e+08) (58, 1.14801952000000000000e+08) (59, 1.16480624000000000000e+08) (60, 6.54314920000000000000e+07) (61, 9.70710320000000000000e+07) (62, -9.38555600000000000000e+07) (63, 5.93350160000000000000e+07) (64, 1.14881808000000000000e+08) (65, 1.17541216000000000000e+08) (66, 7.10457920000000000000e+07) (67, 6.44910840000000000000e+07) (68, 1.00776536000000000000e+08) (69, 1.25121952000000000000e+08) (70, -8.54267760000000000000e+07) (71, 1.14746560000000000000e+08) (72, 9.99127600000000000000e+07) (73, -1.72735820312500000000e+04) (37, 1.25993792000000000000e+08) (38, 1.13923776000000000000e+08) (39, 1.01409224000000000000e+08) (40, 6.37565200000000000000e+07) (41, 1.14252848000000000000e+08) (42, 1.24961600000000000000e+08) (43, 6.09207040000000000000e+07) (44, 1.05150936000000000000e+08) (45, 1.20254672000000000000e+08) (46, 1.12730224000000000000e+08) (47, 1.11661968000000000000e+08) (48, 1.18705120000000000000e+08) (49, 1.23373216000000000000e+08) (50, -9.30885600000000000000e+07) (51, 1.17590480000000000000e+08) (52, 6.73096880000000000000e+07) (53, 1.03893448000000000000e+08) (54, 6.44542800000000000000e+07) (55, 1.18935072000000000000e+08) (56, -8.87549200000000000000e+07) (57, -1.23525568000000000000e+08) (58, 1.14766112000000000000e+08) (59, 1.16380336000000000000e+08) (60, 6.54428400000000000000e+07) (61, 9.70663760000000000000e+07) (62, -9.38847600000000000000e+07) (63, 5.93546600000000000000e+07) (64, 1.14786608000000000000e+08) (65, 1.17439744000000000000e+08) (66, 7.11790400000000000000e+07) (67, 6.45279840000000000000e+07) (68, 1.00837608000000000000e+08) (69, 1.25095040000000000000e+08) (70, -8.54796240000000000000e+07) (71, 1.14691152000000000000e+08) (72, 9.99634960000000000000e+07) (73, -1.71590761718750000000e+04) (37, 1.25594080000000000000e+08) (38, 1.13430352000000000000e+08) (39, 1.00994408000000000000e+08) (40, 6.36984480000000000000e+07) (41, 1.13729856000000000000e+08) (42, 1.24533968000000000000e+08) (43, 6.10557520000000000000e+07) (44, 1.04891192000000000000e+08) (45, 1.20025792000000000000e+08) (46, 1.12189392000000000000e+08) (47, 1.11450496000000000000e+08) (48, 1.18283104000000000000e+08) (49, 1.23106048000000000000e+08) (50, -9.30289360000000000000e+07) (51, 1.17180672000000000000e+08) (52, 6.76195200000000000000e+07) (53, 1.03764984000000000000e+08) (54, 6.45777840000000000000e+07) (55, 1.18520568000000000000e+08) (56, -8.88460640000000000000e+07) (57, -1.23687416000000000000e+08) (58, 1.14297792000000000000e+08) (59, 1.16019584000000000000e+08) (60, 6.54947440000000000000e+07) (61, 9.68339440000000000000e+07) (62, -9.38931280000000000000e+07) (63, 5.93950280000000000000e+07) (64, 1.14426928000000000000e+08) (65, 1.17111056000000000000e+08) (66, 7.14243520000000000000e+07) (67, 6.46441360000000000000e+07) (68, 1.00662632000000000000e+08) (69, 1.24843840000000000000e+08) (70, -8.56169920000000000000e+07) (71, 1.14346160000000000000e+08) (72, 9.99137840000000000000e+07) (73, -1.72191054687500000000e+04) (37, 1.26552128000000000000e+08) (38, 1.14727920000000000000e+08) (39, 1.03658520000000000000e+08) (40, 6.07875960000000000000e+07) (41, 1.15111344000000000000e+08) (42, 1.25311952000000000000e+08) (43, 5.94013000000000000000e+07) (44, 1.06170520000000000000e+08) (45, 1.20332312000000000000e+08) (46, 1.13321856000000000000e+08) (47, 1.11477920000000000000e+08) (48, 1.19164288000000000000e+08) (49, 1.24126448000000000000e+08) (50, -9.10525360000000000000e+07) (51, 1.17946400000000000000e+08) (52, 6.85367840000000000000e+07) (53, 1.05499432000000000000e+08) (54, 6.22705960000000000000e+07) (55, 1.18996184000000000000e+08) (56, -8.38454080000000000000e+07) (57, -1.18281872000000000000e+08) (58, 1.15051376000000000000e+08) (59, 1.16764208000000000000e+08) (60, 6.28222760000000000000e+07) (61, 9.72320880000000000000e+07) (62, -9.18432320000000000000e+07) (63, 5.69033200000000000000e+07) (64, 1.15323904000000000000e+08) (65, 1.17906352000000000000e+08) (66, 6.92173360000000000000e+07) (67, 6.26923320000000000000e+07) (68, 1.02096712000000000000e+08) (69, 1.26254624000000000000e+08) (70, -8.07007200000000000000e+07) (71, 1.15655744000000000000e+08) (72, 1.02031560000000000000e+08) (73, -1.71754296875000000000e+04) (37, 1.24098584000000000000e+08) (38, 1.11688792000000000000e+08) (39, 9.95602320000000000000e+07) (40, 6.38416480000000000000e+07) (41, 1.12048920000000000000e+08) (42, 1.22916632000000000000e+08) (43, 6.14242640000000000000e+07) (44, 1.03630248000000000000e+08) (45, 1.18845600000000000000e+08) (46, 1.10326216000000000000e+08) (47, 1.10041424000000000000e+08) (48, 1.16769672000000000000e+08) (49, 1.21734248000000000000e+08) (50, -9.29504480000000000000e+07) (51, 1.15645256000000000000e+08) (52, 6.87508960000000000000e+07) (53, 1.02888424000000000000e+08) (54, 6.52107680000000000000e+07) (55, 1.17113400000000000000e+08) (56, -8.90351040000000000000e+07) (57, -1.23763720000000000000e+08) (58, 1.12541592000000000000e+08) (59, 1.14442880000000000000e+08) (60, 6.57551840000000000000e+07) (61, 9.65570960000000000000e+07) (62, -9.38325680000000000000e+07) (63, 5.96700920000000000000e+07) (64, 1.12526040000000000000e+08) (65, 1.15672592000000000000e+08) (66, 7.18744320000000000000e+07) (67, 6.51448720000000000000e+07) (68, 9.95587120000000000000e+07) (69, 1.23677672000000000000e+08) (70, -8.57489520000000000000e+07) (71, 1.12952104000000000000e+08) (72, 9.93123600000000000000e+07) (73, -1.74405078125000000000e+04) (37, 1.24217336000000000000e+08) (38, 1.11796552000000000000e+08) (39, 9.96818880000000000000e+07) (40, 6.38191680000000000000e+07) (41, 1.12156712000000000000e+08) (42, 1.23028600000000000000e+08) (43, 6.13799040000000000000e+07) (44, 1.03712144000000000000e+08) (45, 1.18944928000000000000e+08) (46, 1.10450152000000000000e+08) (47, 1.10165832000000000000e+08) (48, 1.16895760000000000000e+08) (49, 1.21837528000000000000e+08) (50, -9.29434480000000000000e+07) (51, 1.15747376000000000000e+08) (52, 6.86286960000000000000e+07) (53, 1.03000176000000000000e+08) (54, 6.51270800000000000000e+07) (55, 1.17251760000000000000e+08) (56, -8.90234720000000000000e+07) (57, -1.23757304000000000000e+08) (58, 1.12689048000000000000e+08) (59, 1.14543704000000000000e+08) (60, 6.57130560000000000000e+07) (61, 9.65343920000000000000e+07) (62, -9.38290160000000000000e+07) (63, 5.96087320000000000000e+07) (64, 1.12625400000000000000e+08) (65, 1.15773304000000000000e+08) (66, 7.18406480000000000000e+07) (67, 6.50738400000000000000e+07) (68, 9.96425280000000000000e+07) (69, 1.23768456000000000000e+08) (70, -8.57449440000000000000e+07) (71, 1.13052072000000000000e+08) (72, 9.93877280000000000000e+07) (73, -1.71979980468750000000e+04) (37, 1.22568208000000000000e+08) (38, 1.10201584000000000000e+08) (39, 9.81818320000000000000e+07) (40, 6.41782880000000000000e+07) (41, 1.10576304000000000000e+08) (42, 1.21429296000000000000e+08) (43, 6.20813800000000000000e+07) (44, 1.02126136000000000000e+08) (45, 1.17575152000000000000e+08) (46, 1.08813728000000000000e+08) (47, 1.08546896000000000000e+08) (48, 1.15362416000000000000e+08) (49, 1.20281504000000000000e+08) (50, -9.29888240000000000000e+07) (51, 1.14342864000000000000e+08) (52, 6.94396160000000000000e+07) (53, 1.01375720000000000000e+08) (54, 6.58979840000000000000e+07) (55, 1.15772672000000000000e+08) (56, -8.92670560000000000000e+07) (57, -1.23790920000000000000e+08) (58, 1.10708064000000000000e+08) (59, 1.13224232000000000000e+08) (60, 6.62701760000000000000e+07) (61, 9.57295840000000000000e+07) (62, -9.38250560000000000000e+07) (63, 6.00790840000000000000e+07) (64, 1.11028960000000000000e+08) (65, 1.14426872000000000000e+08) (66, 7.27118880000000000000e+07) (67, 6.58072880000000000000e+07) (68, 9.82012080000000000000e+07) (69, 1.22512560000000000000e+08) (70, -8.59551600000000000000e+07) (71, 1.11451104000000000000e+08) (72, 9.85467920000000000000e+07) (73, -1.70848007812500000000e+04) (37, 1.24243376000000000000e+08) (38, 1.11820912000000000000e+08) (39, 9.97087760000000000000e+07) (40, 6.38097360000000000000e+07) (41, 1.12181040000000000000e+08) (42, 1.23055920000000000000e+08) (43, 6.13627720000000000000e+07) (44, 1.03730920000000000000e+08) (45, 1.18962368000000000000e+08) (46, 1.10477152000000000000e+08) (47, 1.10193920000000000000e+08) (48, 1.16919792000000000000e+08) (49, 1.21859424000000000000e+08) (50, -9.29450880000000000000e+07) (51, 1.15767768000000000000e+08) (52, 6.86012560000000000000e+07) (53, 1.03026296000000000000e+08) (54, 6.51080400000000000000e+07) (55, 1.17278488000000000000e+08) (56, -8.90194480000000000000e+07) (57, -1.23759008000000000000e+08) (58, 1.12718944000000000000e+08) (59, 1.14565120000000000000e+08) (60, 6.57005520000000000000e+07) (61, 9.65305840000000000000e+07) (62, -9.38324800000000000000e+07) (63, 5.95960280000000000000e+07) (64, 1.12648560000000000000e+08) (65, 1.15795088000000000000e+08) (66, 7.18202240000000000000e+07) (67, 6.50567760000000000000e+07) (68, 9.96622320000000000000e+07) (69, 1.23788096000000000000e+08) (70, -8.57434960000000000000e+07) (71, 1.13072112000000000000e+08) (72, 9.94025840000000000000e+07) (73, -1.71872050781250000000e+04) (37, 1.20792800000000000000e+08) (38, 1.08287744000000000000e+08) (39, 9.84033600000000000000e+07) (40, 6.40302440000000000000e+07) (41, 1.08642384000000000000e+08) (42, 1.19684224000000000000e+08) (43, 6.21475760000000000000e+07) (44, 1.01373184000000000000e+08) (45, 1.16211880000000000000e+08) (46, 1.07010016000000000000e+08) (47, 1.07197880000000000000e+08) (48, 1.13750416000000000000e+08) (49, 1.18518688000000000000e+08) (50, -9.38242720000000000000e+07) (51, 1.12970272000000000000e+08) (52, 7.27668080000000000000e+07) (53, 1.01406864000000000000e+08) (54, 6.71865600000000000000e+07) (55, 1.13835392000000000000e+08) (56, -9.10685120000000000000e+07) (57, -1.24968672000000000000e+08) (58, 1.08744848000000000000e+08) (59, 1.11943448000000000000e+08) (60, 6.67364920000000000000e+07) (61, 9.54939360000000000000e+07) (62, -9.47401760000000000000e+07) (63, 6.02565360000000000000e+07) (64, 1.09153152000000000000e+08) (65, 1.13017768000000000000e+08) (66, 7.28119120000000000000e+07) (67, 6.71299600000000000000e+07) (68, 9.86669600000000000000e+07) (69, 1.21479632000000000000e+08) (70, -8.78121440000000000000e+07) (71, 1.09608992000000000000e+08) (72, 9.94760800000000000000e+07) (73, -1.70948554687500000000e+04) (37, 1.26517920000000000000e+08) (38, 1.14622352000000000000e+08) (39, 1.03563088000000000000e+08) (40, 6.10338520000000000000e+07) (41, 1.14960016000000000000e+08) (42, 1.25356896000000000000e+08) (43, 5.86421360000000000000e+07) (44, 1.06201920000000000000e+08) (45, 1.20437584000000000000e+08) (46, 1.13154656000000000000e+08) (47, 1.11668312000000000000e+08) (48, 1.19163488000000000000e+08) (49, 1.24177072000000000000e+08) (50, -9.18673040000000000000e+07) (51, 1.17975224000000000000e+08) (52, 6.87476080000000000000e+07) (53, 1.05475552000000000000e+08) (54, 6.22709960000000000000e+07) (55, 1.19076352000000000000e+08) (56, -8.48006080000000000000e+07) (57, -1.19238424000000000000e+08) (58, 1.15066976000000000000e+08) (59, 1.16863584000000000000e+08) (60, 6.28033080000000000000e+07) (61, 9.75364720000000000000e+07) (62, -9.26074160000000000000e+07) (63, 5.70043200000000000000e+07) (64, 1.15324176000000000000e+08) (65, 1.17970192000000000000e+08) (66, 6.82144160000000000000e+07) (67, 6.28302040000000000000e+07) (68, 1.01987344000000000000e+08) (69, 1.26233312000000000000e+08) (70, -8.13741680000000000000e+07) (71, 1.15649440000000000000e+08) (72, 1.01533712000000000000e+08) (73, -1.73415488281250000000e+04) (37, 1.26102248000000000000e+08) (38, 1.14129224000000000000e+08) (39, 1.01620568000000000000e+08) (40, 6.38508840000000000000e+07) (41, 1.14416920000000000000e+08) (42, 1.25067576000000000000e+08) (43, 6.08340040000000000000e+07) (44, 1.05380520000000000000e+08) (45, 1.20530936000000000000e+08) (46, 1.12929560000000000000e+08) (47, 1.11848944000000000000e+08) (48, 1.18924152000000000000e+08) (49, 1.23481192000000000000e+08) (50, -9.30179760000000000000e+07) (51, 1.17853608000000000000e+08) (52, 6.71757680000000000000e+07) (53, 1.03993160000000000000e+08) (54, 6.43771080000000000000e+07) (55, 1.19138504000000000000e+08) (56, -8.86454960000000000000e+07) (57, -1.23395928000000000000e+08) (58, 1.14924856000000000000e+08) (59, 1.16699576000000000000e+08) (60, 6.54564760000000000000e+07) (61, 9.71415520000000000000e+07) (62, -9.38020240000000000000e+07) (63, 5.93647600000000000000e+07) (64, 1.15066200000000000000e+08) (65, 1.17730488000000000000e+08) (66, 7.10161600000000000000e+07) (67, 6.44906360000000000000e+07) (68, 1.00789784000000000000e+08) (69, 1.25245816000000000000e+08) (70, -8.53603440000000000000e+07) (71, 1.14894168000000000000e+08) (72, 9.99854640000000000000e+07) (73, -1.74884277343750000000e+04) (37, 1.26110784000000000000e+08) (38, 1.14139776000000000000e+08) (39, 1.01633408000000000000e+08) (40, 6.38590840000000000000e+07) (41, 1.14427440000000000000e+08) (42, 1.25076192000000000000e+08) (43, 6.08385280000000000000e+07) (44, 1.05393584000000000000e+08) (45, 1.20542000000000000000e+08) (46, 1.12935264000000000000e+08) (47, 1.11859528000000000000e+08) (48, 1.18937088000000000000e+08) (49, 1.23488512000000000000e+08) (50, -9.30131520000000000000e+07) (51, 1.17866512000000000000e+08) (52, 6.71744080000000000000e+07) (53, 1.04001904000000000000e+08) (54, 6.43835640000000000000e+07) (55, 1.19151024000000000000e+08) (56, -8.86412640000000000000e+07) (57, -1.23387232000000000000e+08) (58, 1.14935360000000000000e+08) (59, 1.16712928000000000000e+08) (60, 6.54644120000000000000e+07) (61, 9.71519920000000000000e+07) (62, -9.37971440000000000000e+07) (63, 5.93736400000000000000e+07) (64, 1.15076608000000000000e+08) (65, 1.17745936000000000000e+08) (66, 7.10202480000000000000e+07) (67, 6.44976120000000000000e+07) (68, 1.00789376000000000000e+08) (69, 1.25255136000000000000e+08) (70, -8.53565920000000000000e+07) (71, 1.14903376000000000000e+08) (72, 9.99914240000000000000e+07) (73, -1.71266386718750000000e+04) (37, 1.24079144000000000000e+08) (38, 1.11691248000000000000e+08) (39, 9.95403280000000000000e+07) (40, 6.38303160000000000000e+07) (41, 1.12051392000000000000e+08) (42, 1.22910192000000000000e+08) (43, 6.14373920000000000000e+07) (44, 1.03619672000000000000e+08) (45, 1.18841656000000000000e+08) (46, 1.10299184000000000000e+08) (47, 1.10033472000000000000e+08) (48, 1.16744176000000000000e+08) (49, 1.21716912000000000000e+08) (50, -9.29623440000000000000e+07) (51, 1.15701720000000000000e+08) (52, 6.87725360000000000000e+07) (53, 1.02872968000000000000e+08) (54, 6.52281720000000000000e+07) (55, 1.17090200000000000000e+08) (56, -8.90489840000000000000e+07) (57, -1.23789912000000000000e+08) (58, 1.12526480000000000000e+08) (59, 1.14618416000000000000e+08) (60, 6.57785640000000000000e+07) (61, 9.66267680000000000000e+07) (62, -9.38445040000000000000e+07) (63, 5.96702880000000000000e+07) (64, 1.12592832000000000000e+08) (65, 1.15658840000000000000e+08) (66, 7.18806240000000000000e+07) (67, 6.51572120000000000000e+07) (68, 9.95454800000000000000e+07) (69, 1.23663288000000000000e+08) (70, -8.57692560000000000000e+07) (71, 1.12934656000000000000e+08) (72, 9.93018960000000000000e+07) (73, -1.71598085937500000000e+04) (37, 1.26509208000000000000e+08) (38, 1.14641520000000000000e+08) (39, 1.03603872000000000000e+08) (40, 6.09869960000000000000e+07) (41, 1.14979152000000000000e+08) (42, 1.25359696000000000000e+08) (43, 5.85401320000000000000e+07) (44, 1.06229392000000000000e+08) (45, 1.20433168000000000000e+08) (46, 1.13176048000000000000e+08) (47, 1.11662824000000000000e+08) (48, 1.19163648000000000000e+08) (49, 1.24184480000000000000e+08) (50, -9.18269920000000000000e+07) (51, 1.17954856000000000000e+08) (52, 6.83344560000000000000e+07) (53, 1.05527824000000000000e+08) (54, 6.22337960000000000000e+07) (55, 1.19052416000000000000e+08) (56, -8.46291520000000000000e+07) (57, -1.19158016000000000000e+08) (58, 1.15087136000000000000e+08) (59, 1.16838256000000000000e+08) (60, 6.28189240000000000000e+07) (61, 9.72207760000000000000e+07) (62, -9.25624800000000000000e+07) (63, 5.69515520000000000000e+07) (64, 1.15336416000000000000e+08) (65, 1.17952952000000000000e+08) (66, 6.80882240000000000000e+07) (67, 6.25982760000000000000e+07) (68, 1.01998160000000000000e+08) (69, 1.26219392000000000000e+08) (70, -8.12625680000000000000e+07) (71, 1.15651120000000000000e+08) (72, 1.01595616000000000000e+08) (73, -1.71732363281250000000e+04) (37, 6.05649120000000000000e+07) (38, 5.65193760000000000000e+07) (39, 5.85773280000000000000e+07) (40, 6.34200200000000000000e+07) (41, 5.66188560000000000000e+07) (42, 6.03531440000000000000e+07) (43, 6.61198120000000000000e+07) (44, 5.38557200000000000000e+07) (45, 5.86761040000000000000e+07) (46, 5.75120320000000000000e+07) (47, 5.66603240000000000000e+07) (48, 5.86481600000000000000e+07) (49, 6.00711440000000000000e+07) (50, -4.25427120000000000000e+07) (51, 5.81187640000000000000e+07) (52, 3.26072160000000000000e+07) (53, 5.33171280000000000000e+07) (54, 4.29479240000000000000e+07) (55, 5.83056040000000000000e+07) (56, -5.75992000000000000000e+07) (57, -6.65173440000000000000e+07) (58, 5.72003600000000000000e+07) (59, 5.78711920000000000000e+07) (60, 4.20878600000000000000e+07) (61, 4.23213400000000000000e+07) (62, -4.30460480000000000000e+07) (63, 3.83477400000000000000e+07) (64, 5.68504000000000000000e+07) (65, 5.80954160000000000000e+07) (66, 6.71086520000000000000e+07) (67, 4.30733880000000000000e+07) (68, 5.19961680000000000000e+07) (69, 6.04640800000000000000e+07) (70, -5.87322360000000000000e+07) (71, 5.70929760000000000000e+07) (72, 5.25130400000000000000e+07) (73, -1.62281494140625000000e+04) (37, 1.26324960000000000000e+08) (38, 1.14498360000000000000e+08) (39, 1.02434264000000000000e+08) (40, 6.41291440000000000000e+07) (41, 1.14780728000000000000e+08) (42, 1.25356856000000000000e+08) (43, 6.06354040000000000000e+07) (44, 1.05924040000000000000e+08) (45, 1.21045576000000000000e+08) (46, 1.13297704000000000000e+08) (47, 1.12355136000000000000e+08) (48, 1.19298216000000000000e+08) (49, 1.23761336000000000000e+08) (50, -9.27455280000000000000e+07) (51, 1.18300800000000000000e+08) (52, 6.66414000000000000000e+07) (53, 1.04378792000000000000e+08) (54, 6.44059120000000000000e+07) (55, 1.19616568000000000000e+08) (56, -8.84896560000000000000e+07) (57, -1.23009536000000000000e+08) (58, 1.15316744000000000000e+08) (59, 1.17192424000000000000e+08) (60, 6.56592400000000000000e+07) (61, 9.67745760000000000000e+07) (62, -9.36246960000000000000e+07) (63, 5.95417480000000000000e+07) (64, 1.15461720000000000000e+08) (65, 1.18234752000000000000e+08) (66, 7.07282640000000000000e+07) (67, 6.46190000000000000000e+07) (68, 1.00815656000000000000e+08) (69, 1.25714200000000000000e+08) (70, -8.52858480000000000000e+07) (71, 1.15256376000000000000e+08) (72, 1.00236584000000000000e+08) (73, -1.73372675781250000000e+04) (37, 1.24101824000000000000e+08) (38, 1.11691760000000000000e+08) (39, 9.95633200000000000000e+07) (40, 6.38361520000000000000e+07) (41, 1.12051936000000000000e+08) (42, 1.22919648000000000000e+08) (43, 6.14235240000000000000e+07) (44, 1.03632712000000000000e+08) (45, 1.18861680000000000000e+08) (46, 1.10326640000000000000e+08) (47, 1.10058416000000000000e+08) (48, 1.16770000000000000000e+08) (49, 1.21737168000000000000e+08) (50, -9.29527760000000000000e+07) (51, 1.15652712000000000000e+08) (52, 6.87473600000000000000e+07) (53, 1.02891720000000000000e+08) (54, 6.52093840000000000000e+07) (55, 1.17118968000000000000e+08) (56, -8.90383040000000000000e+07) (57, -1.23767840000000000000e+08) (58, 1.12544192000000000000e+08) (59, 1.14445472000000000000e+08) (60, 6.57671440000000000000e+07) (61, 9.65645360000000000000e+07) (62, -9.38351120000000000000e+07) (63, 5.96667640000000000000e+07) (64, 1.12528592000000000000e+08) (65, 1.15675360000000000000e+08) (66, 7.18771360000000000000e+07) (67, 6.51424160000000000000e+07) (68, 9.95610000000000000000e+07) (69, 1.23680192000000000000e+08) (70, -8.57536080000000000000e+07) (71, 1.12954704000000000000e+08) (72, 9.93148560000000000000e+07) (73, -1.72800371093750000000e+04) (37, 1.25840632000000000000e+08) (38, 1.13798360000000000000e+08) (39, 1.01790824000000000000e+08) (40, 6.15667680000000000000e+07) (41, 1.14138472000000000000e+08) (42, 1.24730808000000000000e+08) (43, 5.92143960000000000000e+07) (44, 1.05127096000000000000e+08) (45, 1.19627816000000000000e+08) (46, 1.12139624000000000000e+08) (47, 1.11269328000000000000e+08) (48, 1.18506208000000000000e+08) (49, 1.23489192000000000000e+08) (50, -9.27883200000000000000e+07) (51, 1.17482944000000000000e+08) (52, 6.84396480000000000000e+07) (53, 1.04122312000000000000e+08) (54, 6.36251840000000000000e+07) (55, 1.18554056000000000000e+08) (56, -8.72087760000000000000e+07) (57, -1.21770448000000000000e+08) (58, 1.14295912000000000000e+08) (59, 1.16252232000000000000e+08) (60, 6.36839440000000000000e+07) (61, 9.79828000000000000000e+07) (62, -9.36520480000000000000e+07) (63, 5.75198120000000000000e+07) (64, 1.14624760000000000000e+08) (65, 1.17457024000000000000e+08) (66, 6.88942800000000000000e+07) (67, 6.38468880000000000000e+07) (68, 1.00533240000000000000e+08) (69, 1.25372296000000000000e+08) (70, -8.37786000000000000000e+07) (71, 1.14985256000000000000e+08) (72, 1.00090600000000000000e+08) (73, -1.73266074218750000000e+04) (37, 6.28401440000000000000e+07) (38, 5.89063600000000000000e+07) (39, 6.03580040000000000000e+07) (40, 6.61147440000000000000e+07) (41, 5.90021520000000000000e+07) (42, 6.26391200000000000000e+07) (43, 6.71086600000000000000e+07) (44, 5.64039240000000000000e+07) (45, 6.08505160000000000000e+07) (46, 5.99204800000000000000e+07) (47, 5.89276960000000000000e+07) (48, 6.09716680000000000000e+07) (49, 6.23372160000000000000e+07) (50, -4.26067720000000000000e+07) (51, 6.04543480000000000000e+07) (52, 3.29185380000000000000e+07) (53, 5.53099320000000000000e+07) (54, 4.40696680000000000000e+07) (55, 6.05568120000000000000e+07) (56, -5.79859080000000000000e+07) (57, -6.67235640000000000000e+07) (58, 5.95632160000000000000e+07) (59, 6.01696000000000000000e+07) (60, 4.18446600000000000000e+07) (61, 4.41748240000000000000e+07) (62, -4.30880520000000000000e+07) (63, 6.47793240000000000000e+07) (64, 5.92592320000000000000e+07) (65, 6.08337040000000000000e+07) (66, 6.71086560000000000000e+07) (67, 4.40001040000000000000e+07) (68, 5.40877400000000000000e+07) (69, 6.26217920000000000000e+07) (70, -5.91434360000000000000e+07) (71, 5.96027040000000000000e+07) (72, 5.46313640000000000000e+07) (73, -1.65835273437500000000e+04) (37, 1.26233344000000000000e+08) (38, 1.14283696000000000000e+08) (39, 1.01760280000000000000e+08) (40, 6.38886480000000000000e+07) (41, 1.14573968000000000000e+08) (42, 1.25200512000000000000e+08) (43, 6.08620360000000000000e+07) (44, 1.05523240000000000000e+08) (45, 1.20712952000000000000e+08) (46, 1.13061968000000000000e+08) (47, 1.12019888000000000000e+08) (48, 1.19080992000000000000e+08) (49, 1.23614672000000000000e+08) (50, -9.29551680000000000000e+07) (51, 1.18038512000000000000e+08) (52, 6.71285680000000000000e+07) (53, 1.04145096000000000000e+08) (54, 6.43958320000000000000e+07) (55, 1.19320064000000000000e+08) (56, -8.85957760000000000000e+07) (57, -1.23305688000000000000e+08) (58, 1.15082016000000000000e+08) (59, 1.16889144000000000000e+08) (60, 6.54902000000000000000e+07) (61, 9.71381120000000000000e+07) (62, -9.37390320000000000000e+07) (63, 5.94003640000000000000e+07) (64, 1.15224400000000000000e+08) (65, 1.17913456000000000000e+08) (66, 7.10251360000000000000e+07) (67, 6.45208480000000000000e+07) (68, 1.00857192000000000000e+08) (69, 1.25407600000000000000e+08) (70, -8.53184240000000000000e+07) (71, 1.15051152000000000000e+08) (72, 1.00104376000000000000e+08) (73, -1.70401894531250000000e+04) (37, 1.25978912000000000000e+08) (38, 1.13953936000000000000e+08) (39, 1.01441272000000000000e+08) (40, 6.37041320000000000000e+07) (41, 1.14241648000000000000e+08) (42, 1.24943328000000000000e+08) (43, 6.08685280000000000000e+07) (44, 1.05179992000000000000e+08) (45, 1.20255224000000000000e+08) (46, 1.12672976000000000000e+08) (47, 1.11661968000000000000e+08) (48, 1.18714400000000000000e+08) (49, 1.23349536000000000000e+08) (50, -9.30915680000000000000e+07) (51, 1.17619184000000000000e+08) (52, 6.72784880000000000000e+07) (53, 1.03856552000000000000e+08) (54, 6.43847800000000000000e+07) (55, 1.18942080000000000000e+08) (56, -8.86212640000000000000e+07) (57, -1.23373056000000000000e+08) (58, 1.14766576000000000000e+08) (59, 1.16410536000000000000e+08) (60, 6.54041080000000000000e+07) (61, 9.72505280000000000000e+07) (62, -9.38752960000000000000e+07) (63, 5.93202160000000000000e+07) (64, 1.14801424000000000000e+08) (65, 1.17485504000000000000e+08) (66, 7.10652480000000000000e+07) (67, 6.44949880000000000000e+07) (68, 1.00770696000000000000e+08) (69, 1.25067008000000000000e+08) (70, -8.52993120000000000000e+07) (71, 1.14680496000000000000e+08) (72, 9.98987120000000000000e+07) (73, -1.72044179687500000000e+04) (37, 1.25924048000000000000e+08) (38, 1.13818992000000000000e+08) (39, 1.01289296000000000000e+08) (40, 6.36979560000000000000e+07) (41, 1.14129136000000000000e+08) (42, 1.24880576000000000000e+08) (43, 6.09822080000000000000e+07) (44, 1.05112496000000000000e+08) (45, 1.20197352000000000000e+08) (46, 1.12481296000000000000e+08) (47, 1.11632184000000000000e+08) (48, 1.18617056000000000000e+08) (49, 1.23259376000000000000e+08) (50, -9.31006640000000000000e+07) (51, 1.17514064000000000000e+08) (52, 6.73945760000000000000e+07) (53, 1.03824320000000000000e+08) (54, 6.44931160000000000000e+07) (55, 1.18845440000000000000e+08) (56, -8.85981680000000000000e+07) (57, -1.23327464000000000000e+08) (58, 1.14659504000000000000e+08) (59, 1.16298376000000000000e+08) (60, 6.54649640000000000000e+07) (61, 9.73614240000000000000e+07) (62, -9.39128720000000000000e+07) (63, 5.93675120000000000000e+07) (64, 1.14687200000000000000e+08) (65, 1.17373136000000000000e+08) (66, 7.12275920000000000000e+07) (67, 6.46135880000000000000e+07) (68, 1.00787776000000000000e+08) (69, 1.24974736000000000000e+08) (70, -8.52318800000000000000e+07) (71, 1.14551520000000000000e+08) (72, 9.99280160000000000000e+07) (73, -1.71583574218750000000e+04) (37, 1.26457472000000000000e+08) (38, 1.14649184000000000000e+08) (39, 1.03608552000000000000e+08) (40, 6.08919920000000000000e+07) (41, 1.14969776000000000000e+08) (42, 1.25276016000000000000e+08) (43, 5.87474760000000000000e+07) (44, 1.06260824000000000000e+08) (45, 1.20336200000000000000e+08) (46, 1.13229088000000000000e+08) (47, 1.11530736000000000000e+08) (48, 1.19146560000000000000e+08) (49, 1.24123968000000000000e+08) (50, -9.16167440000000000000e+07) (51, 1.17856224000000000000e+08) (52, 6.89576320000000000000e+07) (53, 1.05511192000000000000e+08) (54, 6.20305760000000000000e+07) (55, 1.18933720000000000000e+08) (56, -8.42437760000000000000e+07) (57, -1.18857304000000000000e+08) (58, 1.15031584000000000000e+08) (59, 1.16696392000000000000e+08) (60, 6.27577440000000000000e+07) (61, 9.75294080000000000000e+07) (62, -9.23325200000000000000e+07) (63, 5.69483640000000000000e+07) (64, 1.15306032000000000000e+08) (65, 1.17841944000000000000e+08) (66, 6.84641600000000000000e+07) (67, 6.27288640000000000000e+07) (68, 1.02001368000000000000e+08) (69, 1.26130768000000000000e+08) (70, -8.10083600000000000000e+07) (71, 1.15633808000000000000e+08) (72, 1.01674504000000000000e+08) (73, -1.74461621093750000000e+04) (37, 1.22661200000000000000e+08) (38, 1.10291008000000000000e+08) (39, 9.82538400000000000000e+07) (40, 6.41906840000000000000e+07) (41, 1.10664352000000000000e+08) (42, 1.21517376000000000000e+08) (43, 6.20784840000000000000e+07) (44, 1.02225792000000000000e+08) (45, 1.17673256000000000000e+08) (46, 1.08901536000000000000e+08) (47, 1.08650776000000000000e+08) (48, 1.15445392000000000000e+08) (49, 1.20372352000000000000e+08) (50, -9.29954960000000000000e+07) (51, 1.14416344000000000000e+08) (52, 6.94978000000000000000e+07) (53, 1.01466384000000000000e+08) (54, 6.58979880000000000000e+07) (55, 1.15848280000000000000e+08) (56, -8.92624720000000000000e+07) (57, -1.23794520000000000000e+08) (58, 1.10800400000000000000e+08) (59, 1.13295632000000000000e+08) (60, 6.62754040000000000000e+07) (61, 9.58214720000000000000e+07) (62, -9.38286000000000000000e+07) (63, 6.00868400000000000000e+07) (64, 1.11118688000000000000e+08) (65, 1.14498104000000000000e+08) (66, 7.27067280000000000000e+07) (67, 6.58079640000000000000e+07) (68, 9.82765920000000000000e+07) (69, 1.22578272000000000000e+08) (70, -8.59482320000000000000e+07) (71, 1.11541264000000000000e+08) (72, 9.85743040000000000000e+07) (73, -1.70772480468750000000e+04) (37, 1.21952176000000000000e+08) (38, 1.09619104000000000000e+08) (39, 9.76688480000000000000e+07) (40, 6.40500280000000000000e+07) (41, 1.09987904000000000000e+08) (42, 1.20833376000000000000e+08) (43, 6.20615040000000000000e+07) (44, 1.01510048000000000000e+08) (45, 1.16841640000000000000e+08) (46, 1.08277040000000000000e+08) (47, 1.07792472000000000000e+08) (48, 1.14858080000000000000e+08) (49, 1.19679248000000000000e+08) (50, -9.29769680000000000000e+07) (51, 1.13878288000000000000e+08) (52, 6.94419040000000000000e+07) (53, 1.00775280000000000000e+08) (54, 6.58900120000000000000e+07) (55, 1.15213152000000000000e+08) (56, -8.93353760000000000000e+07) (57, -1.23823608000000000000e+08) (58, 1.10254592000000000000e+08) (59, 1.12646648000000000000e+08) (60, 6.62088440000000000000e+07) (61, 9.56938240000000000000e+07) (62, -9.37893200000000000000e+07) (63, 5.99917760000000000000e+07) (64, 1.10484912000000000000e+08) (65, 1.13910424000000000000e+08) (66, 7.26921360000000000000e+07) (67, 6.57914520000000000000e+07) (68, 9.77364320000000000000e+07) (69, 1.21998784000000000000e+08) (70, -8.60268400000000000000e+07) (71, 1.10883728000000000000e+08) (72, 9.84789280000000000000e+07) (73, -1.71345273437500000000e+04) (37, 6.47619720000000000000e+07) (38, 6.13051680000000000000e+07) (39, 6.32113040000000000000e+07) (40, 6.71086760000000000000e+07) (41, 6.14075360000000000000e+07) (42, 6.47023720000000000000e+07) (43, 6.71086800000000000000e+07) (44, 6.05325720000000000000e+07) (45, 6.41654120000000000000e+07) (46, 6.15185720000000000000e+07) (47, 6.19058680000000000000e+07) (48, 6.30615440000000000000e+07) (49, 6.42590000000000000000e+07) (50, -3.96629720000000000000e+07) (51, 6.26372720000000000000e+07) (52, 3.35542260000000000000e+07) (53, 5.86772400000000000000e+07) (54, 6.58414920000000000000e+07) (55, 6.36406960000000000000e+07) (56, -5.44583360000000000000e+07) (57, -6.33336880000000000000e+07) (58, 6.18737960000000000000e+07) (59, 6.23973920000000000000e+07) (60, 5.33197840000000000000e+07) (61, 5.21372040000000000000e+07) (62, -4.01770840000000000000e+07) (63, 6.23002840000000000000e+07) (64, 6.15280400000000000000e+07) (65, 6.43272480000000000000e+07) (66, 6.71086760000000000000e+07) (67, 4.27192600000000000000e+07) (68, 5.76786120000000000000e+07) (69, 6.49018920000000000000e+07) (70, -5.66579120000000000000e+07) (71, 6.17691320000000000000e+07) (72, 5.79885680000000000000e+07) (73, -3.29920351562500000000e+04) (37, 1.20505344000000000000e+08) (38, 1.08113696000000000000e+08) (39, 9.90634640000000000000e+07) (40, 6.53308360000000000000e+07) (41, 1.08494128000000000000e+08) (42, 1.19352144000000000000e+08) (43, 6.26108800000000000000e+07) (44, 1.00265848000000000000e+08) (45, 1.15046048000000000000e+08) (46, 1.07455520000000000000e+08) (47, 1.06235968000000000000e+08) (48, 1.13383432000000000000e+08) (49, 1.18208768000000000000e+08) (50, -9.37759680000000000000e+07) (51, 1.12404920000000000000e+08) (52, 7.16914480000000000000e+07) (53, 9.98714640000000000000e+07) (54, 6.81646640000000000000e+07) (55, 1.13451544000000000000e+08) (56, -9.06512880000000000000e+07) (57, -1.24994936000000000000e+08) (58, 1.08716128000000000000e+08) (59, 1.11246736000000000000e+08) (60, 6.80192720000000000000e+07) (61, 9.58670480000000000000e+07) (62, -9.46239520000000000000e+07) (63, 6.17576720000000000000e+07) (64, 1.08935600000000000000e+08) (65, 1.12434400000000000000e+08) (66, 7.39870080000000000000e+07) (67, 6.82625200000000000000e+07) (68, 9.73382000000000000000e+07) (69, 1.20530752000000000000e+08) (70, -8.76162000000000000000e+07) (71, 1.09278016000000000000e+08) (72, 9.90369680000000000000e+07) (73, -1.78594394531250000000e+04) (37, 1.24014752000000000000e+08) (38, 1.11614320000000000000e+08) (39, 9.94866160000000000000e+07) (40, 6.38792280000000000000e+07) (41, 1.11971728000000000000e+08) (42, 1.22843056000000000000e+08) (43, 6.15095200000000000000e+07) (44, 1.03567848000000000000e+08) (45, 1.18808904000000000000e+08) (46, 1.10285024000000000000e+08) (47, 1.09987488000000000000e+08) (48, 1.16651776000000000000e+08) (49, 1.21658512000000000000e+08) (50, -9.29330800000000000000e+07) (51, 1.15578320000000000000e+08) (52, 6.88231600000000000000e+07) (53, 1.02808008000000000000e+08) (54, 6.52459080000000000000e+07) (55, 1.17075088000000000000e+08) (56, -8.90353040000000000000e+07) (57, -1.23759880000000000000e+08) (58, 1.12150352000000000000e+08) (59, 1.14371912000000000000e+08) (60, 6.57922360000000000000e+07) (61, 9.65225440000000000000e+07) (62, -9.38120960000000000000e+07) (63, 5.96899040000000000000e+07) (64, 1.12453904000000000000e+08) (65, 1.15603992000000000000e+08) (66, 7.19913920000000000000e+07) (67, 6.51902920000000000000e+07) (68, 9.94988880000000000000e+07) (69, 1.23609696000000000000e+08) (70, -8.57361760000000000000e+07) (71, 1.12880656000000000000e+08) (72, 9.92543120000000000000e+07) (73, -1.71872871093750000000e+04) (37, 1.23917152000000000000e+08) (38, 1.11536448000000000000e+08) (39, 9.93776800000000000000e+07) (40, 6.38805160000000000000e+07) (41, 1.11882976000000000000e+08) (42, 1.22743760000000000000e+08) (43, 6.15077960000000000000e+07) (44, 1.03494912000000000000e+08) (45, 1.18709288000000000000e+08) (46, 1.10154688000000000000e+08) (47, 1.09862616000000000000e+08) (48, 1.16588752000000000000e+08) (49, 1.21581632000000000000e+08) (50, -9.29777440000000000000e+07) (51, 1.15475232000000000000e+08) (52, 6.89013440000000000000e+07) (53, 1.02722368000000000000e+08) (54, 6.53080520000000000000e+07) (55, 1.16932936000000000000e+08) (56, -8.90735600000000000000e+07) (57, -1.23781936000000000000e+08) (58, 1.12337168000000000000e+08) (59, 1.14287832000000000000e+08) (60, 6.58213400000000000000e+07) (61, 9.65600000000000000000e+07) (62, -9.38549920000000000000e+07) (63, 5.97226240000000000000e+07) (64, 1.12370400000000000000e+08) (65, 1.15528176000000000000e+08) (66, 7.19707680000000000000e+07) (67, 6.52356040000000000000e+07) (68, 9.94221760000000000000e+07) (69, 1.23532016000000000000e+08) (70, -8.57787360000000000000e+07) (71, 1.12792496000000000000e+08) (72, 9.91910160000000000000e+07) (73, -1.77871328125000000000e+04) (37, 1.26631688000000000000e+08) (38, 1.14743736000000000000e+08) (39, 1.03710512000000000000e+08) (40, 6.07648600000000000000e+07) (41, 1.15136344000000000000e+08) (42, 1.25382504000000000000e+08) (43, 5.90475120000000000000e+07) (44, 1.06283792000000000000e+08) (45, 1.20422816000000000000e+08) (46, 1.13355960000000000000e+08) (47, 1.11579624000000000000e+08) (48, 1.19251512000000000000e+08) (49, 1.24208184000000000000e+08) (50, -9.13101360000000000000e+07) (51, 1.18008136000000000000e+08) (52, 6.88082720000000000000e+07) (53, 1.05557216000000000000e+08) (54, 6.20984360000000000000e+07) (55, 1.19060712000000000000e+08) (56, -8.40069920000000000000e+07) (57, -1.18530616000000000000e+08) (58, 1.15132216000000000000e+08) (59, 1.16803520000000000000e+08) (60, 6.26607560000000000000e+07) (61, 9.74068720000000000000e+07) (62, -9.20416560000000000000e+07) (63, 5.68507520000000000000e+07) (64, 1.15383752000000000000e+08) (65, 1.17964696000000000000e+08) (66, 6.88570160000000000000e+07) (67, 6.27299160000000000000e+07) (68, 1.02171552000000000000e+08) (69, 1.26299256000000000000e+08) (70, -8.08355520000000000000e+07) (71, 1.15728120000000000000e+08) (72, 1.01888272000000000000e+08) (73, -1.71686933593750000000e+04) (74, -3.81514208984375000000e+03) (75, -3.81959667968750000000e+03) (76, -2.29241088867187500000e+03) (77, -2.29241088867187500000e+03) (78, -3.87562500000000000000e+03) (79, -3.85419482421875000000e+03) (80, -3.82182421875000000000e+03) (81, -3.82353906250000000000e+03) (82, -3.82429541015625000000e+03) (83, -3.76144140625000000000e+03) (84, -3.83620556640625000000e+03) (85, -3.83296093750000000000e+03) (86, -3.84684814453125000000e+03) (87, -3.83255615234375000000e+03) (88, -3.94724462890625000000e+03) (89, -3.76816503906250000000e+03) (90, -3.82280224609375000000e+03) (91, -3.82267529296875000000e+03) (92, -3.83600097656250000000e+03) (93, -3.76710791015625000000e+03) (94, -2.28379394531250000000e+03) (95, -3.80699853515625000000e+03) (96, -3.83583789062500000000e+03) (97, -3.80761523437500000000e+03) (98, -2.23834008789062500000e+03) (99, -3.81985644531250000000e+03) (100, -3.82187060546875000000e+03) (101, -3.82368603515625000000e+03) (102, -3.76732275390625000000e+03) (103, -3.84627197265625000000e+03) (104, -3.85247314453125000000e+03) (105, -2.04796594238281250000e+03) (106, -3.85847900390625000000e+03) (107, -3.83449658203125000000e+03) (108, -3.83702734375000000000e+03) (109, -3.76372509765625000000e+03) (110, -7.66308689117431640625e+00) (74, -5.58088574218750000000e+03) (75, -5.59070410156250000000e+03) (76, -3.44168774414062500000e+03) (77, -3.50436206054687500000e+03) (78, -5.61831445312500000000e+03) (79, -5.65739453125000000000e+03) (80, -5.59091796875000000000e+03) (81, -5.59387109375000000000e+03) (82, -5.59746972656250000000e+03) (83, -5.50933105468750000000e+03) (84, -5.62153222656250000000e+03) (85, -5.61826074218750000000e+03) (86, -5.64385253906250000000e+03) (87, -5.61779589843750000000e+03) (88, -5.74511621093750000000e+03) (89, -5.52524609375000000000e+03) (90, -5.58689648437500000000e+03) (91, -5.58719824218750000000e+03) (92, -5.62018750000000000000e+03) (93, -5.52366406250000000000e+03) (94, -3.52566259765625000000e+03) (95, -5.56696386718750000000e+03) (96, -5.62092480468750000000e+03) (97, -5.57230468750000000000e+03) (98, -3.42216186523437500000e+03) (99, -5.58278320312500000000e+03) (100, -5.59221582031250000000e+03) (101, -5.59550488281250000000e+03) (102, -5.52131738281250000000e+03) (103, -5.64247851562500000000e+03) (104, -5.65247070312500000000e+03) (105, -2.04792041015625000000e+03) (106, -5.65467480468750000000e+03) (107, -5.62138769531250000000e+03) (108, -5.62334960937500000000e+03) (109, -5.51434375000000000000e+03) (110, -7.91775178909301757812e+00) (74, -2.14210766601562500000e+03) (75, -2.14210766601562500000e+03) (76, -1.49203149414062500000e+03) (77, -1.49506225585937500000e+03) (78, -2.14210766601562500000e+03) (79, -2.14210766601562500000e+03) (80, -2.14210766601562500000e+03) (81, -2.14210766601562500000e+03) (82, -2.14210766601562500000e+03) (83, -2.14210766601562500000e+03) (84, -2.14210766601562500000e+03) (85, -2.14210766601562500000e+03) (86, -2.14210766601562500000e+03) (87, -2.14210766601562500000e+03) (88, -2.14210766601562500000e+03) (89, -2.14210766601562500000e+03) (90, -2.14210766601562500000e+03) (91, -2.14210766601562500000e+03) (92, -2.14210766601562500000e+03) (93, -2.14210766601562500000e+03) (94, -1.49395861816406250000e+03) (95, -2.14210766601562500000e+03) (96, -2.14210766601562500000e+03) (97, -2.14210766601562500000e+03) (98, -1.46974023437500000000e+03) (99, -2.14210766601562500000e+03) (100, -2.14210766601562500000e+03) (101, -2.14210766601562500000e+03) (102, -2.14210766601562500000e+03) (103, -2.14210766601562500000e+03) (104, -2.14210766601562500000e+03) (105, -1.23488110351562500000e+03) (106, -2.13650170898437500000e+03) (107, -2.14210766601562500000e+03) (108, -2.14210766601562500000e+03) (109, -2.14210766601562500000e+03) (110, -7.97642183303833007812e+00) (74, -5.48955615234375000000e+03) (75, -5.48331005859375000000e+03) (76, -4.23487255859375000000e+03) (77, -4.23487255859375000000e+03) (78, -5.55482470703125000000e+03) (79, -5.58636767578125000000e+03) (80, -5.49458642578125000000e+03) (81, -5.49687548828125000000e+03) (82, -5.51824853515625000000e+03) (83, -5.38932373046875000000e+03) (84, -5.55351611328125000000e+03) (85, -5.55140771484375000000e+03) (86, -5.57319580078125000000e+03) (87, -5.55072412109375000000e+03) (88, -5.67916064453125000000e+03) (89, -5.41202880859375000000e+03) (90, -5.48922119140625000000e+03) (91, -5.48977197265625000000e+03) (92, -5.55344384765625000000e+03) (93, -5.41031396484375000000e+03) (94, -4.22108544921875000000e+03) (95, -5.48261865234375000000e+03) (96, -5.55312548828125000000e+03) (97, -5.46246923828125000000e+03) (98, -4.15029443359375000000e+03) (99, -5.48577685546875000000e+03) (100, -5.49166357421875000000e+03) (101, -5.49381298828125000000e+03) (102, -5.40415185546875000000e+03) (103, -5.57115283203125000000e+03) (104, -5.58019287109375000000e+03) (105, -4.09593066406250000000e+03) (106, -5.61838916015625000000e+03) (107, 