FANN_FLO_2.1
num_layers=5
learning_rate=0.700000
connection_rate=1.000000
network_type=0
learning_momentum=0.000000
training_algorithm=2
train_error_function=1
train_stop_function=0
cascade_output_change_fraction=0.010000
quickprop_decay=-0.000100
quickprop_mu=1.750000
rprop_increase_factor=1.200000
rprop_decrease_factor=0.500000
rprop_delta_min=0.000000
rprop_delta_max=50.000000
rprop_delta_zero=0.100000
cascade_output_stagnation_epochs=12
cascade_candidate_change_fraction=0.010000
cascade_candidate_stagnation_epochs=12
cascade_max_out_epochs=150
cascade_min_out_epochs=50
cascade_max_cand_epochs=150
cascade_min_cand_epochs=50
cascade_num_candidate_groups=2
bit_fail_limit=3.49999994039535522461e-01
cascade_candidate_limit=1.00000000000000000000e+03
cascade_weight_multiplier=4.00000005960464477539e-01
cascade_activation_functions_count=10
cascade_activation_functions=3 5 7 8 10 11 14 15 16 17 
cascade_activation_steepnesses_count=4
cascade_activation_steepnesses=2.50000000000000000000e-01 5.00000000000000000000e-01 7.50000000000000000000e-01 1.00000000000000000000e+00 
layer_sizes=37 37 37 37 3 
scale_included=0
neurons (num_inputs, activation_function, activation_steepness)=(0, 0, 0.00000000000000000000e+00) (0, 0, 0.00000000000000000000e+00) (0, 0, 0.00000000000000000000e+00) (0, 0, 0.00000000000000000000e+00) (0, 0, 0.00000000000000000000e+00) (0, 0, 0.00000000000000000000e+00) (0, 0, 0.00000000000000000000e+00) (0, 0, 0.00000000000000000000e+00) (0, 0, 0.00000000000000000000e+00) (0, 0, 0.00000000000000000000e+00) (0, 0, 0.00000000000000000000e+00) (0, 0, 0.00000000000000000000e+00) (0, 0, 0.00000000000000000000e+00) (0, 0, 0.00000000000000000000e+00) (0, 0, 0.00000000000000000000e+00) (0, 0, 0.00000000000000000000e+00) (0, 0, 0.00000000000000000000e+00) (0, 0, 0.00000000000000000000e+00) (0, 0, 0.00000000000000000000e+00) (0, 0, 0.00000000000000000000e+00) (0, 0, 0.00000000000000000000e+00) (0, 0, 0.00000000000000000000e+00) (0, 0, 0.00000000000000000000e+00) (0, 0, 0.00000000000000000000e+00) (0, 0, 0.00000000000000000000e+00) (0, 0, 0.00000000000000000000e+00) (0, 0, 0.00000000000000000000e+00) (0, 0, 0.00000000000000000000e+00) (0, 0, 0.00000000000000000000e+00) (0, 0, 0.00000000000000000000e+00) (0, 0, 0.00000000000000000000e+00) (0, 0, 0.00000000000000000000e+00) (0, 0, 0.00000000000000000000e+00) (0, 0, 0.00000000000000000000e+00) (0, 0, 0.00000000000000000000e+00) (0, 0, 0.00000000000000000000e+00) (0, 0, 0.00000000000000000000e+00) (37, 4, 5.00000000000000000000e-01) (37, 4, 5.00000000000000000000e-01) (37, 4, 5.00000000000000000000e-01) (37, 4, 5.00000000000000000000e-01) (37, 4, 5.00000000000000000000e-01) (37, 4, 5.00000000000000000000e-01) (37, 4, 5.00000000000000000000e-01) (37, 4, 5.00000000000000000000e-01) (37, 4, 5.00000000000000000000e-01) (37, 4, 5.00000000000000000000e-01) (37, 4, 5.00000000000000000000e-01) (37, 4, 5.00000000000000000000e-01) (37, 4, 5.00000000000000000000e-01) (37, 4, 5.00000000000000000000e-01) (37, 4, 5.00000000000000000000e-01) (37, 4, 5.00000000000000000000e-01) (37, 4, 5.00000000000000000000e-01) (37, 4, 5.00000000000000000000e-01) (37, 4, 5.00000000000000000000e-01) (37, 4, 5.00000000000000000000e-01) (37, 4, 5.00000000000000000000e-01) (37, 4, 5.00000000000000000000e-01) (37, 4, 5.00000000000000000000e-01) (37, 4, 5.00000000000000000000e-01) (37, 4, 5.00000000000000000000e-01) (37, 4, 5.00000000000000000000e-01) (37, 4, 5.00000000000000000000e-01) (37, 4, 5.00000000000000000000e-01) (37, 4, 5.00000000000000000000e-01) (37, 4, 5.00000000000000000000e-01) (37, 4, 5.00000000000000000000e-01) (37, 4, 5.00000000000000000000e-01) (37, 4, 5.00000000000000000000e-01) (37, 4, 5.00000000000000000000e-01) (37, 4, 5.00000000000000000000e-01) (37, 4, 5.00000000000000000000e-01) (0, 0, 0.00000000000000000000e+00) (37, 4, 5.00000000000000000000e-01) (37, 4, 5.00000000000000000000e-01) (37, 4, 5.00000000000000000000e-01) (37, 4, 5.00000000000000000000e-01) (37, 4, 5.00000000000000000000e-01) (37, 4, 5.00000000000000000000e-01) (37, 4, 5.00000000000000000000e-01) (37, 4, 5.00000000000000000000e-01) (37, 4, 5.00000000000000000000e-01) (37, 4, 5.00000000000000000000e-01) (37, 4, 5.00000000000000000000e-01) (37, 4, 5.00000000000000000000e-01) (37, 4, 5.00000000000000000000e-01) (37, 4, 5.00000000000000000000e-01) (37, 4, 5.00000000000000000000e-01) (37, 4, 5.00000000000000000000e-01) (37, 4, 5.00000000000000000000e-01) (37, 4, 5.00000000000000000000e-01) (37, 4, 5.00000000000000000000e-01) (37, 4, 5.00000000000000000000e-01) (37, 4, 5.00000000000000000000e-01) (37, 4, 5.00000000000000000000e-01) (37, 4, 5.00000000000000000000e-01) (37, 4, 5.00000000000000000000e-01) (37, 4, 5.00000000000000000000e-01) (37, 4, 5.00000000000000000000e-01) (37, 4, 5.00000000000000000000e-01) (37, 4, 5.00000000000000000000e-01) (37, 4, 5.00000000000000000000e-01) (37, 4, 5.00000000000000000000e-01) (37, 4, 5.00000000000000000000e-01) (37, 4, 5.00000000000000000000e-01) (37, 4, 5.00000000000000000000e-01) (37, 4, 5.00000000000000000000e-01) (37, 4, 5.00000000000000000000e-01) (37, 4, 5.00000000000000000000e-01) (0, 0, 0.00000000000000000000e+00) (37, 4, 5.00000000000000000000e-01) (37, 4, 5.00000000000000000000e-01) (37, 4, 5.00000000000000000000e-01) (37, 4, 5.00000000000000000000e-01) (37, 4, 5.00000000000000000000e-01) (37, 4, 5.00000000000000000000e-01) (37, 4, 5.00000000000000000000e-01) (37, 4, 5.00000000000000000000e-01) (37, 4, 5.00000000000000000000e-01) (37, 4, 5.00000000000000000000e-01) (37, 4, 5.00000000000000000000e-01) (37, 4, 5.00000000000000000000e-01) (37, 4, 5.00000000000000000000e-01) (37, 4, 5.00000000000000000000e-01) (37, 4, 5.00000000000000000000e-01) (37, 4, 5.00000000000000000000e-01) (37, 4, 5.00000000000000000000e-01) (37, 4, 5.00000000000000000000e-01) (37, 4, 5.00000000000000000000e-01) (37, 4, 5.00000000000000000000e-01) (37, 4, 5.00000000000000000000e-01) (37, 4, 5.00000000000000000000e-01) (37, 4, 5.00000000000000000000e-01) (37, 4, 5.00000000000000000000e-01) (37, 4, 5.00000000000000000000e-01) (37, 4, 5.00000000000000000000e-01) (37, 4, 5.00000000000000000000e-01) (37, 4, 5.00000000000000000000e-01) (37, 4, 5.00000000000000000000e-01) (37, 4, 5.00000000000000000000e-01) (37, 4, 5.00000000000000000000e-01) (37, 4, 5.00000000000000000000e-01) (37, 4, 5.00000000000000000000e-01) (37, 4, 5.00000000000000000000e-01) (37, 4, 5.00000000000000000000e-01) (37, 4, 5.00000000000000000000e-01) (0, 0, 0.00000000000000000000e+00) (37, 4, 5.00000000000000000000e-01) (37, 4, 5.00000000000000000000e-01) (0, 0, 0.00000000000000000000e+00) 
connections (connected_to_neuron, weight)=(0, -9.50279969177600000000e+14) (1, 5.68009371208908800000e+15) (2, 4.07539273013657600000e+15) (3, 4.98531510622617600000e+15) (4, -1.63291993714196480000e+16) (5, -4.02599866007552000000e+14) (6, 1.75348514522398720000e+16) (7, 1.26949773604290560000e+16) (8, 1.66570846909890560000e+16) (9, -3.03807969131233280000e+16) (10, 4.22925563854848000000e+15) (11, 1.76692323889971200000e+16) (12, 1.57694599060520960000e+16) (13, 5.41057860868505600000e+15) (14, -1.90063555662315520000e+16) (15, 3.62975658718003200000e+15) (16, 8.42089273229312000000e+15) (17, 1.55429658794393600000e+16) (18, 5.83703342769766400000e+15) (19, -1.91913913472778240000e+16) (20, 3.70680440815616000000e+14) (21, 5.79394524204236800000e+16) (22, 1.50032828376023040000e+16) (23, 8.05404991186534400000e+15) (24, -6.13093782501457920000e+16) (25, 4.20518019937075200000e+15) (26, 1.78706964199505920000e+16) (27, -1.09485523898204160000e+16) (28, 5.75111958626304000000e+15) (29, -3.43810709336883200000e+15) (30, -2.47590948920360960000e+16) (31, 4.19995832444518400000e+15) (32, 4.14186996550860800000e+15) (33, 3.33633166927462400000e+15) (34, -7.38446526203822080000e+16) (35, -1.95422971546828800000e+15) (36, 2.37225587507200000000e+12) (0, -8.75841273724928000000e+14) (1, 5.56171958157312000000e+15) (2, 4.16888879946137600000e+15) (3, 4.88500023944806400000e+15) (4, -1.61832875212144640000e+16) (5, -6.33897511550976000000e+14) (6, 1.72054822214696960000e+16) (7, 1.22367290460078080000e+16) (8, 1.61461457177804800000e+16) (9, -2.91074335991398400000e+16) (10, 4.16566918460211200000e+15) (11, 1.73013115317780480000e+16) (12, 1.53120791750246400000e+16) (13, 5.26966019483238400000e+15) (14, -1.97241262057717760000e+16) (15, 3.51847827950796800000e+15) (16, 8.30089027230105600000e+15) (17, 1.50966640165519360000e+16) (18, 5.72654056216985600000e+15) (19, -1.97012640948551680000e+16) (20, 2.76137959751680000000e+14) (21, 6.00281508510433280000e+16) (22, 1.46419450915061760000e+16) (23, 7.93688749899776000000e+15) (24, -5.97924000961658880000e+16) (25, 4.11735402374758400000e+15) (26, 1.74030313897328640000e+16) (27, -1.10581567339888640000e+16) (28, 5.61223269194137600000e+15) (29, -1.41236187745484800000e+15) (30, -2.40750805479587840000e+16) (31, 4.08904992083148800000e+15) (32, 4.02722923531468800000e+15) (33, 3.23879161980518400000e+15) (34, -7.19804263605207040000e+16) (35, -2.40565198467891200000e+15) (36, 3.68430127513600000000e+12) (0, -8.23410930221056000000e+14) (1, 7.25476884611072000000e+15) (2, 8.68670074204979200000e+15) (3, 6.47911654293504000000e+15) (4, -2.08510289874780160000e+16) (5, 1.13655813662310400000e+15) (6, 2.25676672861470720000e+16) (7, 1.49283292158361600000e+16) (8, 2.09477860107223040000e+16) (9, -3.19561286402703360000e+16) (10, 4.58245522692505600000e+15) (11, 2.10654745570836480000e+16) (12, 2.02470535064453120000e+16) (13, 6.89900543069388800000e+15) (14, -5.54244183561338880000e+16) (15, 4.41836573294592000000e+15) (16, 1.02394865752473600000e+16) (17, 2.08670964601323520000e+16) (18, 7.37890682273792000000e+15) (19, -5.57078690178007040000e+16) (20, 1.65247507759104000000e+14) (21, 3.97464451189571584000e+17) (22, 1.85147493145640960000e+16) (23, 9.90065231029862400000e+15) (24, -8.13221391431106560000e+16) (25, 5.54322867362201600000e+15) (26, 2.25245780267499520000e+16) (27, -1.35156221303848960000e+16) (28, 7.05387926703308800000e+15) (29, 1.20680326627328000000e+15) (30, -3.18452111098511360000e+16) (31, 5.55645556228096000000e+15) (32, 5.44650278889062400000e+15) (33, 4.36353242234880000000e+15) (34, -9.75015300552458240000e+16) (35, 2.04502492145254400000e+15) (36, -8.75959353344000000000e+11) (0, -5.23645472892518400000e+15) (1, 9.30045304504320000000e+14) (2, -6.48434190752153600000e+15) (3, -6.08742022316032000000e+14) (4, -2.51792108761907200000e+15) (5, -5.54554849283276800000e+15) (6, 8.42181131842355200000e+15) (7, 5.75056191160320000000e+14) (8, 8.29581791592448000000e+14) (9, -5.38302907783577600000e+15) (10, 7.84907420827648000000e+14) (11, 2.43095873729331200000e+15) (12, 1.21225935113420800000e+15) (13, -1.40423848368537600000e+15) (14, -1.07294893277184000000e+15) (15, -1.53837849962086400000e+15) (16, 1.90057523917619200000e+15) (17, 1.21722015580160000000e+14) (18, -5.09824831848448000000e+14) (19, -1.30600922618265600000e+15) (20, -3.65995638128640000000e+15) (21, -8.33254726828032000000e+14) (22, -1.11706281030451200000e+15) (23, 1.13813157104844800000e+15) (24, 1.12407733747056640000e+16) (25, -1.57228068975411200000e+15) (26, 1.07765118376345600000e+15) (27, 8.07306883235840000000e+14) (28, 1.30149076959232000000e+14) (29, -8.75260325711052800000e+15) (30, -1.29819909659033600000e+15) (31, -1.90833356072550400000e+15) (32, -1.68850518913843200000e+15) (33, -2.01647721336012800000e+15) (34, 1.12826922555146240000e+16) (35, 1.08787591712604160000e+16) (36, 8.25188941824000000000e+12) (0, -8.70856628633600000000e+14) (1, 5.57035031835443200000e+15) (2, 4.17261387828428800000e+15) (3, 4.89278003583385600000e+15) (4, -1.62296055222763520000e+16) (5, -6.21340369354752000000e+14) (6, 1.72187042782904320000e+16) (7, 1.22664620308561920000e+16) (8, 1.61809693126164480000e+16) (9, -2.93001036845547520000e+16) (10, 4.17705567977472000000e+15) (11, 1.73419225950453760000e+16) (12, 1.53324802696806400000e+16) (13, 5.28256120284774400000e+15) (14, -1.97038238953635840000e+16) (15, 3.52513386820403200000e+15) (16, 8.32455768958566400000e+15) (17, 1.51192770193653760000e+16) (18, 5.72756437499904000000e+15) (19, -1.96746653623910400000e+16) (20, 2.79503049850880000000e+14) (21, 5.96522467233628160000e+16) (22, 1.46951597363036160000e+16) (23, 7.95987684832051200000e+15) (24, -5.99244445707141120000e+16) (25, 4.12408047940403200000e+15) (26, 1.74325732485365760000e+16) (27, -1.10456948863795200000e+16) (28, 5.59290694972211200000e+15) (29, -1.46802223769190400000e+15) (30, -2.41288857507594240000e+16) (31, 4.10479500250316800000e+15) (32, 4.03188149020262400000e+15) (33, 3.23944901823692800000e+15) (34, -7.21281431707320320000e+16) (35, -2.45376742955417600000e+15) (36, 3.20454315212800000000e+12) (0, -7.12932895752192000000e+14) (1, 5.88056023688806400000e+15) (2, 4.92855335531315200000e+15) (3, 5.28418631109836800000e+15) (4, -1.72176477163356160000e+16) (5, 6.43678318100480000000e+13) (6, 1.86738499355934720000e+16) (7, 1.33658598419988480000e+16) (8, 1.77919664481894400000e+16) (9, -3.10773353818357760000e+16) (10, 4.40824866904473600000e+15) (11, 1.84718533286952960000e+16) (12, 1.68918293497774080000e+16) (13, 5.80273650322636800000e+15) (14, -1.99839932020162560000e+16) (15, 3.90301609675980800000e+15) (16, 8.91192184773017600000e+15) (17, 1.73765228515819520000e+16) (18, 6.17714598228787200000e+15) (19, -2.02818405940592640000e+16) (20, 6.12211684802560000000e+14) (21, 5.02335595368939520000e+16) (22, 1.59877419551948800000e+16) (23, 8.16704459584307200000e+15) (24, -6.70685127822540800000e+16) (25, 4.51878126302003200000e+15) (26, 1.89620529785733120000e+16) (27, -1.16693638662062080000e+16) (28, 5.80698691023667200000e+15) (29, -2.91287742178918400000e+15) (30, -2.59631095165747200000e+16) (31, 4.56203480491622400000e+15) (32, 4.48622782683545600000e+15) (33, 3.64454093835468800000e+15) (34, -7.78849369456640000000e+16) (35, -1.98112936407859200000e+15) (36, 1.29056833536000000000e+12) (0, -5.10172751042969600000e+15) (1, 9.64400479469568000000e+14) (2, -6.38372263493632000000e+15) (3, -5.89267231309824000000e+14) (4, -2.90243367193804800000e+15) (5, -5.50940849052057600000e+15) (6, 8.30368414852710400000e+15) (7, 6.14838527066112000000e+14) (8, 8.73581382729728000000e+14) (9, -5.59786978443264000000e+15) (10, 8.13115222523904000000e+14) (11, 2.58113549002342400000e+15) (12, 1.16142680257331200000e+15) (13, -1.34141223895040000000e+15) (14, -1.47913962631987200000e+15) (15, -1.46905960651161600000e+15) (16, 1.82517869890764800000e+15) (17, -4.29694994350080000000e+13) (18, -4.44395702714368000000e+14) (19, -1.64874949545164800000e+15) (20, -3.59282550557900800000e+15) (21, -5.68153776062464000000e+14) (22, -1.01103879113932800000e+15) (23, 1.13258824466432000000e+15) (24, 1.09282844391505920000e+16) (25, -1.51864741986304000000e+15) (26, 1.14086317024870400000e+15) (27, 8.06694917505024000000e+14) (28, 2.24401740005376000000e+14) (29, -8.95550771272089600000e+15) (30, -1.15326958593638400000e+15) (31, -1.82894323774259200000e+15) (32, -1.62789984514867200000e+15) (33, -1.98620494168064000000e+15) (34, 1.06475750403604480000e+16) (35, 1.05830066495160320000e+16) (36, 8.13233707417600000000e+12) (0, -9.43833894354944000000e+14) (1, 7.27457884589260800000e+15) (2, 8.68076509724672000000e+15) (3, 6.46731773090201600000e+15) (4, -2.08125761452769280000e+16) (5, 9.38136553127936000000e+14) (6, 2.25656744213217280000e+16) (7, 1.48420916412416000000e+16) (8, 2.08475285891317760000e+16) (9, -3.21147911746355200000e+16) (10, 4.59159921229824000000e+15) (11, 2.09324615674101760000e+16) (12, 2.00957503985418240000e+16) (13, 6.78561560972492800000e+15) (14, -5.70137924788551680000e+16) (15, 4.35604253625548800000e+15) (16, 1.00809969133158400000e+16) (17, 2.07493885864181760000e+16) (18, 7.26538493152460800000e+15) (19, -5.68368054665216000000e+16) (20, 1.04058408927232000000e+14) (21, 3.76090632340373504000e+17) (22, 1.84516927522078720000e+16) (23, 9.86593608964505600000e+15) (24, -8.06625352456601600000e+16) (25, 5.48225946537164800000e+15) (26, 2.24456966573916160000e+16) (27, -1.36105001054371840000e+16) (28, 6.97195008150732800000e+15) (29, -5.08439033806848000000e+14) (30, -3.13324113420615680000e+16) (31, 5.45274820820992000000e+15) (32, 5.34810777249382400000e+15) (33, 4.31769760510771200000e+15) (34, -9.58724146001346560000e+16) (35, 3.88110156300288000000e+15) (36, -1.82769876992000000000e+12) (0, -8.47131699052544000000e+14) (1, 5.54297849177702400000e+15) (2, 4.37051630760755200000e+15) (3, 4.86720457932800000000e+15) (4, -1.61877456972677120000e+16) (5, -7.07873088733184000000e+14) (6, 1.72433713492131840000e+16) (7, 1.21482129912627200000e+16) (8, 1.61541440206274560000e+16) (9, -2.85236960040058880000e+16) (10, 4.07748491608064000000e+15) (11, 1.70159496096645120000e+16) (12, 1.53816844887654400000e+16) (13, 5.24817354719232000000e+15) (14, -1.97918234802913280000e+16) (15, 3.50415322139852800000e+15) (16, 8.27629406833868800000e+15) (17, 1.50484895158763520000e+16) (18, 5.69479323765964800000e+15) (19, -1.97394935987568640000e+16) (20, 3.10581231878144000000e+14) (21, 5.99341683766722560000e+16) (22, 1.44543731322716160000e+16) (23, 7.86851913583820800000e+15) (24, -5.96502452686028800000e+16) (25, 4.10589854066278400000e+15) (26, 1.72660831362744320000e+16) (27, -1.11341250417786880000e+16) (28, 5.59276736328499200000e+15) (29, -1.69023606095872000000e+15) (30, -2.40128572092579840000e+16) (31, 4.06251292852224000000e+15) (32, 4.02505598186291200000e+15) (33, 3.23720516626022400000e+15) (34, -7.12689521430364160000e+16) (35, -2.18762790200934400000e+15) (36, 3.12101725798400000000e+12) (0, -8.04396506021888000000e+14) (1, 6.70393553230233600000e+15) (2, 7.57570705607884800000e+15) (3, 6.11689403357593600000e+15) (4, -2.02612032762019840000e+16) (5, 2.53343796559872000000e+14) (6, 2.23821934184366080000e+16) (7, 1.46852716478464000000e+16) (8, 2.02509554842337280000e+16) (9, -3.31302975370690560000e+16) (10, 4.53452339190169600000e+15) (11, 2.00485336755732480000e+16) (12, 1.94955458987950080000e+16) (13, 6.65731205169152000000e+15) (14, -3.60333625691996160000e+16) (15, 4.28577848190566400000e+15) (16, 9.72438470498713600000e+15) (17, 2.03249792455802880000e+16) (18, 7.07639616995328000000e+15) (19, -3.71726112343982080000e+16) (20, 3.01910598877184000000e+14) (21, 3.45569770101276672000e+17) (22, 1.81208428314624000000e+16) (23, 9.48770838465740800000e+15) (24, -7.88088101808373760000e+16) (25, 5.26594182689587200000e+15) (26, 2.14737283784376320000e+16) (27, -1.21740848005120000000e+16) (28, 6.58659058332467200000e+15) (29, -8.71605899100160000000e+14) (30, -3.05894206545592320000e+16) (31, 5.36352777882828800000e+15) (32, 5.24303784004812800000e+15) (33, 4.18322271594086400000e+15) (34, -9.13967236702535680000e+16) (35, -3.58361494821273600000e+15) (36, 2.93049886310400000000e+12) (0, -9.73226972807168000000e+14) (1, 6.97586064923033600000e+15) (2, 7.81385923454566400000e+15) (3, 6.20555772782182400000e+15) (4, -2.05211153696030720000e+16) (5, 3.30008409145344000000e+14) (6, 2.25113259051581440000e+16) (7, 1.47349783781048320000e+16) (8, 2.03124465310105600000e+16) (9, -3.19221554489589760000e+16) (10, 4.47307771071692800000e+15) (11, 2.00276837568348160000e+16) (12, 1.95201496189501440000e+16) (13, 6.55585740796723200000e+15) (14, -3.79633233035264000000e+16) (15, 4.22171797094400000000e+15) (16, 9.81070495770214400000e+15) (17, 2.03433015760650240000e+16) (18, 7.01319894741811200000e+15) (19, -3.60303818618961920000e+16) (20, 1.33693289005056000000e+14) (21, 3.34248614266142720000e+17) (22, 1.81306997814067200000e+16) (23, 9.60886189588480000000e+15) (24, -7.88848998214533120000e+16) (25, 5.27175613887283200000e+15) (26, 2.16118244619059200000e+16) (27, -1.23531269546967040000e+16) (28, 6.51791513000345600000e+15) (29, -1.42193629908172800000e+15) (30, -3.10094534237224960000e+16) (31, 5.25952514575564800000e+15) (32, 5.17775970585804800000e+15) (33, 4.14400805391564800000e+15) (34, -9.14517937409228800000e+16) (35, -1.24246196381286400000e+15) (36, 2.55511730585600000000e+12) (0, 2.69169895407616000000e+14) (1, 6.59451748234035200000e+15) (2, 9.37574288221798400000e+15) (3, 6.55121723267481600000e+15) (4, -2.17829080416911360000e+16) (5, 2.10461021070950400000e+15) (6, 2.16784522895687680000e+16) (7, 1.60972099341516800000e+16) (8, 2.17952711050526720000e+16) (9, -3.60830038012067840000e+16) (10, 4.79582275973939200000e+15) (11, 2.14513666312110080000e+16) (12, 2.14645049361694720000e+16) (13, 7.66594378209689600000e+15) (14, -3.62874098847580160000e+16) (15, 5.10097052244377600000e+15) (16, 1.07953165466337280000e+16) (17, 2.15764725860925440000e+16) (18, 7.90321173417164800000e+15) (19, -3.73817933215825920000e+16) (20, 1.52640748624281600000e+15) (21, 6.34070961120870400000e+16) (22, 1.92313302481633280000e+16) (23, 1.01377838971617280000e+16) (24, -8.65314190770831360000e+16) (25, 5.96365067419648000000e+15) (26, 2.32489951281807360000e+16) (27, -1.40968385797160960000e+16) (28, 7.46982859603968000000e+15) (29, -9.86861849804800000000e+13) (30, -3.26336167815413760000e+16) (31, 6.40127026069504000000e+15) (32, 6.20177225102131200000e+15) (33, 5.09564852109312000000e+15) (34, -1.01999202627747840000e+17) (35, -7.55000704552140800000e+15) (36, -1.19914050355200000000e+12) (0, 4.84973043777536000000e+14) (1, 6.73679686395494400000e+15) (2, 6.06523363006873600000e+15) (3, 6.29907419824128000000e+15) (4, -1.90938483450183680000e+16) (5, 1.21746324088422400000e+15) (6, 2.00453060076503040000e+16) (7, 1.45023393270333440000e+16) (8, 2.01402054575390720000e+16) (9, -3.39418079853281280000e+16) (10, 5.17172420306534400000e+15) (11, 2.01263649254277120000e+16) (12, 1.95131380848394240000e+16) (13, 6.98605206975283200000e+15) (14, -3.17952176905256960000e+16) (15, 4.88717188228710400000e+15) (16, 8.84947248637542400000e+15) (17, 2.04220047042805760000e+16) (18, 7.39714218013491200000e+15) (19, -3.27924747369185280000e+16) (20, 1.49442984411136000000e+15) (21, 5.71488949701181440000e+16) (22, 1.77872290992619520000e+16) (23, 8.93686111220531200000e+15) (24, -7.66106287388753920000e+16) (25, 5.64389465397657600000e+15) (26, 2.24996758063677440000e+16) (27, -1.26026527434342400000e+16) (28, 6.24200857839206400000e+15) (29, -1.07057280922419200000e+15) (30, -2.94556308927938560000e+16) (31, 5.56259038619238400000e+15) (32, 5.43187842524774400000e+15) (33, 4.51189589357363200000e+15) (34, -8.94409244126740480000e+16) (35, -4.23626153551462400000e+15) (36, 2.99468488704000000000e+11) (0, -3.04045003007590400000e+15) (1, -7.24065289922150400000e+15) (2, -8.97808474518323200000e+15) (3, -7.78224022218342400000e+15) (4, 1.94616564593459200000e+16) (5, -4.72818615163289600000e+15) (6, -1.82073928649277440000e+16) (7, -1.61373839844966400000e+16) (8, -2.12840540327116800000e+16) (9, 3.08347105318010880000e+16) (10, -6.25272989050470400000e+15) (11, -2.00399738057523200000e+16) (12, -2.04422125254082560000e+16) (13, -8.49223804465971200000e+15) (14, 3.56976400080568320000e+16) (15, -6.38733953427046400000e+15) (16, -8.92924559831859200000e+15) (17, -2.22863877304483840000e+16) (18, -8.56942451254886400000e+15) (19, 3.74982728346501120000e+16) (20, -4.57796215426252800000e+15) (21, -6.36002923309957120000e+16) (22, -1.97247661558988800000e+16) (23, -9.25416094800281600000e+15) (24, 9.35794518198845440000e+16) (25, -7.22046977415577600000e+15) (26, -2.22405088897925120000e+16) (27, 7.67776621645004800000e+15) (28, -4.23496284477849600000e+15) (29, -2.28969350483148800000e+15) (30, 3.16357820620472320000e+16) (31, -7.02469550112768000000e+15) (32, -6.88881293642956800000e+15) (33, -6.49273695797248000000e+15) (34, 1.05030375796899840000e+17) (35, -1.58039589624217600000e+15) (36, -3.81466271390105600000e+15) (0, -3.53225618227200000000e+13) (1, 6.60064586380083200000e+15) (2, 9.09435058362777600000e+15) (3, 6.52860637734502400000e+15) (4, -2.14033875515473920000e+16) (5, 1.83578887874150400000e+15) (6, 2.10787137937735680000e+16) (7, 1.57116399825715200000e+16) (8, 2.09433686368583680000e+16) (9, -3.41853992030044160000e+16) (10, 4.76901088952320000000e+15) (11, 2.08313666271969280000e+16) (12, 2.07928107057807360000e+16) (13, 7.55770416378675200000e+15) (14, -3.77578348882165760000e+16) (15, 4.96956707176448000000e+15) (16, 1.04617543540408320000e+16) (17, 2.12742829821132800000e+16) (18, 7.85392591070822400000e+15) (19, -4.16417909938585600000e+16) (20, 1.36771958472704000000e+15) (21, 5.39097465995919360000e+16) (22, 1.86999225345638400000e+16) (23, 9.72006611537100800000e+15) (24, -8.22286778902773760000e+16) (25, 5.86628698682163200000e+15) (26, 2.31220358949109760000e+16) (27, -1.33190897956290560000e+16) (28, 6.95210303763251200000e+15) (29, -5.42940908748800000000e+14) (30, -3.19358971968225280000e+16) (31, 6.24536777968844800000e+15) (32, 6.03646110728192000000e+15) (33, 4.94722143066521600000e+15) (34, -9.87300625005936640000e+16) (35, -6.34148002096742400000e+15) (36, -5.46328176230400000000e+12) (0, -4.91468329530163200000e+15) (1, 8.44522841964544000000e+14) (2, -5.58922669962035200000e+15) (3, -6.39913418555392000000e+14) (4, -1.95077924611686400000e+15) (5, -5.21549314103705600000e+15) (6, 6.84233011599769600000e+15) (7, 1.29885347512320000000e+14) (8, 5.24604049195008000000e+14) (9, -5.09442821351014400000e+15) (10, 2.03851495899136000000e+14) (11, 2.26249911409049600000e+15) (12, 3.28718912323584000000e+14) (13, -1.54197043445760000000e+15) (14, -8.86272541327360000000e+14) (15, -1.64635424587776000000e+15) (16, 1.61462195375308800000e+15) (17, -3.35295346114560000000e+14) (18, -7.90293108490240000000e+14) (19, -1.06956778687692800000e+15) (20, -3.63746256381542400000e+15) (21, -1.09161130387046400000e+15) (22, -1.45489238845030400000e+15) (23, 9.97808077275136000000e+14) (24, 1.19361897832120320000e+16) (25, -1.53930916534681600000e+15) (26, 8.63626856497152000000e+14) (27, 7.69406950965248000000e+14) (28, 3.24420354703360000000e+13) (29, -1.01849286794280960000e+16) (30, -6.97620263600128000000e+14) (31, -1.86777269488844800000e+15) (32, -1.65346684593766400000e+15) (33, -1.98364044355174400000e+15) (34, 1.22537188628889600000e+16) (35, 1.04410118094848000000e+16) (36, 8.22935132569600000000e+12) (0, -1.01484721917132800000e+15) (1, 7.21347166181785600000e+15) (2, 8.52866097794252800000e+15) (3, 6.33528560438476800000e+15) (4, -2.07259251800801280000e+16) (5, 7.96772133765120000000e+14) (6, 2.23933367110860800000e+16) (7, 1.46603254040494080000e+16) (8, 2.06795631556034560000e+16) (9, -3.14323380511703040000e+16) (10, 4.49101993659596800000e+15) (11, 2.06509887381831680000e+16) (12, 1.97691804127068160000e+16) (13, 6.62999981778534400000e+15) (14, -5.47398478137917440000e+16) (15, 4.26003230044979200000e+15) (16, 1.00178340505190400000e+16) (17, 2.05686993122754560000e+16) (18, 7.10582689647820800000e+15) (19, -6.10631477750661120000e+16) (20, 1.11749984419840000000e+13) (21, 3.52461886941298688000e+17) (22, 1.83279246796390400000e+16) (23, 9.82956952780800000000e+15) (24, -7.98305055911444480000e+16) (25, 5.37169895410892800000e+15) (26, 2.21330960526868480000e+16) (27, -1.31453798433423360000e+16) (28, 6.80794621843865600000e+15) (29, -6.53639046869811200000e+15) (30, -3.09113069785579520000e+16) (31, 5.33854824903475200000e+15) (32, 5.24570716222259200000e+15) (33, 4.21214368353484800000e+15) (34, -9.37174233493012480000e+16) (35, 4.05043709109862400000e+15) (36, -1.00849496883200000000e+12) (0, -5.23840518094848000000e+15) (1, 9.23288448532480000000e+14) (2, -6.21149874133401600000e+15) (3, -6.09288221360128000000e+14) (4, -2.42070450287411200000e+15) (5, -5.56755912648294400000e+15) (6, 8.12999889230233600000e+15) (7, 5.47002068762624000000e+14) (8, 7.89469280075776000000e+14) (9, -5.36866670719795200000e+15) (10, 6.43968471662592000000e+14) (11, 2.39473256719974400000e+15) (12, 1.08569901295206400000e+15) (13, -1.42773369962496000000e+15) (14, -9.69083134672896000000e+14) (15, -1.54747027429785600000e+15) (16, 1.88040996506828800000e+15) (17, 7.32893890478080000000e+13) (18, -5.91721268248576000000e+14) (19, -1.19655037403136000000e+15) (20, -3.64832668359065600000e+15) (21, -8.53620455112704000000e+14) (22, -1.17097679657369600000e+15) (23, 1.10362446161510400000e+15) (24, 1.13001706249256960000e+16) (25, -1.57352743822950400000e+15) (26, 1.11466695675084800000e+15) (27, 8.16482342666240000000e+14) (28, 1.78628562255872000000e+14) (29, -8.80202437204377600000e+15) (30, -1.36294425218252800000e+15) (31, -1.92143978764697600000e+15) (32, -1.71480421341593600000e+15) (33, -2.02806302185881600000e+15) (34, 1.14563474469683200000e+16) (35, 1.05628804327669760000e+16) (36, 8.29782333849600000000e+12) (0, 2.66163384745984000000e+14) (1, 6.30990879011635200000e+15) (2, 8.31635322830848000000e+15) (3, 6.15052523811635200000e+15) (4, -2.04222280425799680000e+16) (5, 1.76662071214080000000e+15) (6, 2.07658941457367040000e+16) (7, 1.55278604794593280000e+16) (8, 2.06154307039395840000e+16) (9, -3.38720233567027200000e+16) (10, 4.65601083683635200000e+15) (11, 2.04322696761180160000e+16) (12, 2.03315720203796480000e+16) (13, 7.08035720354201600000e+15) (14, -3.53458585641943040000e+16) (15, 4.74847718775193600000e+15) (16, 1.02906170871644160000e+16) (17, 2.07766465963622400000e+16) (18, 7.33674151818035200000e+15) (19, -3.60287927239966720000e+16) (20, 1.32169941280358400000e+15) (21, 5.64049465049088000000e+16) (22, 1.84210932577075200000e+16) (23, 9.60410307212083200000e+15) (24, -8.27081508593336320000e+16) (25, 5.54590927008563200000e+15) (26, 2.17058047887933440000e+16) (27, -1.28148230541148160000e+16) (28, 6.92999523034726400000e+15) (29, -7.01270314713088000000e+14) (30, -3.09467812609392640000e+16) (31, 5.88192496274636800000e+15) (32, 5.68960599090790400000e+15) (33, 4.73383725485260800000e+15) (34, -9.71443777547796480000e+16) (35, -5.70774900650803200000e+15) (36, -3.83765872640000000000e+11) (0, 1.02116236460032000000e+15) (1, -4.95913083810611200000e+15) (2, -3.60455210847436800000e+15) (3, -4.79631775472025600000e+15) (4, 1.73134448143892480000e+16) (5, 3.72917615460352000000e+14) (6, -1.72025831185448960000e+16) (7, -1.27465663601049600000e+16) (8, -1.64576468108574720000e+16) (9, 2.59646320824811520000e+16) (10, -4.40958359856742400000e+15) (11, -1.74134584965857280000e+16) (12, -1.58670608903700480000e+16) (13, -5.54543199184486400000e+15) (14, 1.86488961756037120000e+16) (15, -3.72146782915788800000e+15) (16, -8.66193059191193600000e+15) (17, -1.61436793328107520000e+16) (18, -5.99946050089779200000e+15) (19, 1.89133287220838400000e+16) (20, -5.26892729892864000000e+14) (21, -4.49856034224209920000e+16) (22, -1.56522599122206720000e+16) (23, -8.30733862882508800000e+15) (24, 6.24048912633692160000e+16) (25, -4.22046437736448000000e+15) (26, -1.76570228707164160000e+16) (27, 1.08857148707962880000e+16) (28, -6.06810964754432000000e+15) (29, -1.45156781532774400000e+15) (30, 2.54264082557829120000e+16) (31, -4.30980640800768000000e+15) (32, -4.30483176213708800000e+15) (33, -3.34170064683008000000e+15) (34, 7.40557760327843840000e+16) (35, 6.23267668819968000000e+15) (36, -1.79020947783680000000e+13) (0, 8.78271205159731200000e+15) (1, -2.22783483569766400000e+15) (2, 1.07104394029301760000e+16) (3, 7.91010300919808000000e+14) (4, 4.63095829259878400000e+15) (5, 1.03785898285465600000e+16) (6, -1.45586119885455360000e+16) (7, -1.07012834721792000000e+15) (8, -1.75567498798694400000e+15) (9, 1.24338165052866560000e+16) (10, -1.10671354973388800000e+15) (11, -6.13216264231321600000e+15) (12, -1.89833715856179200000e+15) (13, 2.45682195660800000000e+15) (14, 5.80918593349222400000e+15) (15, 2.69470972615065600000e+15) (16, -3.21678286520320000000e+15) (17, -3.61580042649600000000e+13) (18, 8.53797488295936000000e+14) (19, 6.26873454926233600000e+15) (20, 6.66089029632000000000e+15) (21, -2.92785940856832000000e+14) (22, 1.82141509959680000000e+15) (23, -2.19692838525337600000e+15) (24, -1.78351802616381440000e+16) (25, 2.55039936187596800000e+15) (26, -2.56008612374118400000e+15) (27, -8.54697820815360000000e+14) (28, -4.85381568987136000000e+14) (29, 8.84667753640755200000e+15) (30, 2.32936397026099200000e+15) (31, 3.30444717424640000000e+15) (32, 2.98226073940787200000e+15) (33, 3.54039066578124800000e+15) (34, -1.75987401645096960000e+16) (35, -2.00401756692152320000e+16) (36, -7.93764744396800000000e+12) (0, -8.67284088258560000000e+14) (1, 5.57615550352588800000e+15) (2, 4.15116749596262400000e+15) (3, 4.89777884089548800000e+15) (4, -1.62513176556994560000e+16) (5, -6.08255885705216000000e+14) (6, 1.72226406158172160000e+16) (7, 1.22789732705894400000e+16) (8, 1.62088339866910720000e+16) (9, -2.93923187798835200000e+16) (10, 4.18131279767142400000e+15) (11, 1.73690667883560960000e+16) (12, 1.53400888042455040000e+16) (13, 5.28832290147532800000e+15) (14, -1.96860341408235520000e+16) (15, 3.52836207299788800000e+15) (16, 8.34387645248307200000e+15) (17, 1.51297352647311360000e+16) (18, 5.72817587096780800000e+15) (19, -1.96484703568527360000e+16) (20, 2.67922475843584000000e+14) (21, 5.95360506781368320000e+16) (22, 1.47333903139471360000e+16) (23, 7.97549334940876800000e+15) (24, -5.99628243984711680000e+16) (25, 4.13118650279526400000e+15) (26, 1.74556672876871680000e+16) (27, -1.10711436413501440000e+16) (28, 5.70342129008640000000e+15) (29, -1.50798261341388800000e+15) (30, -2.41654616922521600000e+16) (31, 4.10871738138624000000e+15) (32, 4.03628007358464000000e+15) (33, 3.24127223185408000000e+15) (34, -7.22070674897633280000e+16) (35, -2.37292997102796800000e+15) (36, 3.64388784537600000000e+12) (0, 2.18842324271104000000e+14) (1, 6.26786481838489600000e+15) (2, 7.91453112048025600000e+15) (3, 6.06110562962636800000e+15) (4, -1.98641571720069120000e+16) (5, 1.61146770292736000000e+15) (6, 2.06740698924318720000e+16) (7, 1.49319573894594560000e+16) (8, 2.03358218905190400000e+16) (9, -3.27908469443133440000e+16) (10, 4.64415887458304000000e+15) (11, 2.01978482136186880000e+16) (12, 1.99868708301045760000e+16) (13, 6.94363497273753600000e+15) (14, -3.58819692669829120000e+16) (15, 4.69282568588492800000e+15) (16, 9.88458483764428800000e+15) (17, 2.04923090239488000000e+16) (18, 7.26583268186521600000e+15) (19, -3.60603091940147200000e+16) (20, 1.30469966381056000000e+15) (21, 5.76291152634839040000e+16) (22, 1.82065875585597440000e+16) (23, 9.30006233723699200000e+15) (24, -8.02022350106132480000e+16) (25, 5.47625832231731200000e+15) (26, 2.14327372105646080000e+16) (27, -1.26985776167649280000e+16) (28, 6.45244318541414400000e+15) (29, -1.22492010941644800000e+15) (30, -3.08127653964021760000e+16) (31, 5.73209878672179200000e+15) (32, 5.54381010481971200000e+15) (33, 4.59770719266406400000e+15) (34, -9.59686562273034240000e+16) (35, -4.97402095285043200000e+15) (36, 6.26321575116800000000e+12) (0, -5.22349573885132800000e+15) (1, 9.44470623256576000000e+14) (2, -6.29510672220160000000e+15) (3, -5.89098049863680000000e+14) (4, -2.41314911852953600000e+15) (5, -5.59043680665600000000e+15) (6, 8.32121029944934400000e+15) (7, 5.90998304456704000000e+14) (8, 8.38909319708672000000e+14) (9, -5.38195157791539200000e+15) (10, 6.99909548277760000000e+14) (11, 2.44045920495206400000e+15) (12, 1.21350569695641600000e+15) (13, -1.40592801644544000000e+15) (14, -1.09705014175334400000e+15) (15, -1.52219506284953600000e+15) (16, 1.87150193446092800000e+15) (17, 1.96031836848128000000e+14) (18, -5.56523843485696000000e+14) (19, -1.33994913149747200000e+15) (20, -3.66324954746060800000e+15) (21, -8.59031912579072000000e+14) (22, -1.12166681391923200000e+15) (23, 1.13289801918054400000e+15) (24, 1.11221227556700160000e+16) (25, -1.56082950163660800000e+15) (26, 1.17780821049344000000e+15) (27, 8.29467974959104000000e+14) (28, 1.89191380008960000000e+14) (29, -8.77193597865164800000e+15) (30, -1.46866540904448000000e+15) (31, -1.91984957600563200000e+15) (32, -1.70696267687526400000e+15) (33, -2.02215314685952000000e+15) (34, 1.11932538565427200000e+16) (35, 1.10341714891243520000e+16) (36, 8.22346986291200000000e+12) (0, -6.85507865267404800000e+15) (1, 1.44540869800755200000e+15) (2, -8.10670298968883200000e+15) (3, -5.58066072289280000000e+14) (4, -1.43823301561548800000e+15) (5, -7.82406944555008000000e+15) (6, 7.28458128785408000000e+15) (7, -1.47696892300492800000e+15) (8, -6.17910368206848000000e+14) (9, -5.00552346422476800000e+15) (10, 6.49941563211776000000e+14) (11, 1.26324692117094400000e+15) (12, -8.09199957180416000000e+14) (13, -1.46569476807065600000e+15) (14, 4.31199227792588800000e+15) (15, -1.97902415901491200000e+15) (16, 4.59565258768384000000e+14) (17, -1.37257960865792000000e+15) (18, -3.46403909926912000000e+14) (19, 4.37962995977420800000e+15) (20, -5.05927283245056000000e+15) (21, -2.97167955060326400000e+15) (22, -3.06581503318425600000e+15) (23, 5.04289726300160000000e+14) (24, 1.79679194471464960000e+16) (25, -1.71975859240960000000e+15) (26, 1.75608495603712000000e+14) (27, 9.73107519029248000000e+14) (28, -1.86079017697280000000e+13) (29, -8.04040694824960000000e+15) (30, 3.06772065648640000000e+14) (31, -2.33422479949824000000e+15) (32, -2.17672110099660800000e+15) (33, -2.73313518793523200000e+15) (34, 1.87102347510415360000e+16) (35, 1.18406009910722560000e+16) (36, 7.53936891904000000000e+12) (0, -1.45884684537036800000e+15) (1, -5.31161128789606400000e+15) (2, -7.62472766531174400000e+15) (3, -5.46009260228608000000e+15) (4, 1.75906559623168000000e+16) (5, -2.60196715515084800000e+15) (6, -1.64768055862231040000e+16) (7, -1.47564886480650240000e+16) (8, -1.80515693039452160000e+16) (9, 2.80472423969587200000e+16) (10, -4.27391470849228800000e+15) (11, -1.75893696196116480000e+16) (12, -1.69540333611253760000e+16) (13, -6.20759085796556800000e+15) (14, 2.50777922028175360000e+16) (15, -4.60167574244556800000e+15) (16, -9.46717307227340800000e+15) (17, -1.82943444778352640000e+16) (18, -6.20393315644211200000e+15) (19, 2.63939376860364800000e+16) (20, -2.36141838493286400000e+15) (21, -4.37011075532062720000e+16) (22, -1.74445905670307840000e+16) (23, -8.89089100349440000000e+15) (24, 7.38914677639086080000e+16) (25, -4.93458724749312000000e+15) (26, -1.85509773637058560000e+16) (27, 1.23568034467020800000e+16) (28, -5.85860490094182400000e+15) (29, -4.03854889005875200000e+15) (30, 2.70012761264619520000e+16) (31, -5.34256028536012800000e+15) (32, -5.21403553651097600000e+15) (33, -4.66312169206579200000e+15) (34, 8.43973013673082880000e+16) (35, 4.95210964031897600000e+15) (36, -5.51907491840000000000e+12) (0, 6.29365556012646400000e+15) (1, 5.66599655568179200000e+15) (2, 3.34088218712473600000e+15) (3, 5.66591763565772800000e+15) (4, -1.26021029876203520000e+16) (5, 5.13092255062425600000e+15) (6, 1.32536624113254400000e+16) (7, 1.35398285660651520000e+16) (8, 1.65548848704389120000e+16) (9, -2.33805199116861440000e+16) (10, 5.81147085609369600000e+15) (11, 1.50343290087014400000e+16) (12, 1.60958344708751360000e+16) (13, 5.33699078651904000000e+15) (14, -2.61165944678645760000e+16) (15, 5.66564061026713600000e+15) (16, 5.88454596653875200000e+15) (17, 1.81276525021102080000e+16) (18, 5.66537646977843200000e+15) (19, -2.61476384914800640000e+16) (20, 5.66527231682150400000e+15) (21, 2.82567637865594880000e+16) (22, 1.49729915070054400000e+16) (23, 5.66494965740339200000e+15) (24, -7.21728108306104320000e+16) (25, 5.66545216857702400000e+15) (26, 1.65678137957416960000e+16) (27, -8.75880304240230400000e+15) (28, 4.32814940802252800000e+15) (29, 4.79109185326284800000e+15) (30, -2.24456086105620480000e+16) (31, 4.56119299132620800000e+15) (32, 4.57744407383244800000e+15) (33, 5.11911568552755200000e+15) (34, -8.07197442100428800000e+16) (35, -1.10379169690419200000e+15) (36, 2.75605518024704000000e+14) (0, -8.52566443294720000000e+14) (1, 5.56694601990144000000e+15) (2, 4.21043965526016000000e+15) (3, 4.90347504127180800000e+15) (4, -1.62972158237081600000e+16) (5, -5.51332737974272000000e+14) (6, 1.72400030211112960000e+16) (7, 1.23039356205137920000e+16) (8, 1.62513960388526080000e+16) (9, -2.94233542135644160000e+16) (10, 4.16662830448640000000e+15) (11, 1.73799835214807040000e+16) (12, 1.53641427685867520000e+16) (13, 5.31334967590912000000e+15) (14, -1.96471668342784000000e+16) (15, 3.53656277617868800000e+15) (16, 8.35818406228787200000e+15) (17, 1.51573841166991360000e+16) (18, 5.73961444261888000000e+15) (19, -1.96673274107658240000e+16) (20, 2.73453772963840000000e+14) (21, 5.89585193107456000000e+16) (22, 1.47838959081226240000e+16) (23, 8.00592641392640000000e+15) (24, -6.01367748689264640000e+16) (25, 4.14947608415436800000e+15) (26, 1.74873845474263040000e+16) (27, -1.12940234529832960000e+16) (28, 5.84222443254579200000e+15) (29, -1.39611066073088000000e+15) (30, -2.42467074411069440000e+16) (31, 4.12960380734668800000e+15) (32, 4.05789342275993600000e+15) (33, 3.25612261815091200000e+15) (34, -7.25238127379087360000e+16) (35, -2.49827751781990400000e+15) (36, 3.37990490521600000000e+12) (0, 2.49858380267520000000e+14) (1, 6.34966783924633600000e+15) (2, 7.97696222822400000000e+15) (3, 6.14959806205132800000e+15) (4, -2.00959909167104000000e+16) (5, 1.66400226649702400000e+15) (6, 2.07691368460451840000e+16) (7, 1.50091476154449920000e+16) (8, 2.04347306923786240000e+16) (9, -3.33305375023431680000e+16) (10, 4.67305111958323200000e+15) (11, 2.03656375534878720000e+16) (12, 2.01390264890163200000e+16) (13, 7.04627395369369600000e+15) (14, -3.59144027125186560000e+16) (15, 4.71642975240192000000e+15) (16, 9.93908582514688000000e+15) (17, 2.06035121696931840000e+16) (18, 7.42804554357145600000e+15) (19, -3.62400063307120640000e+16) (20, 1.29510940449177600000e+15) (21, 5.69470443921080320000e+16) (22, 1.83070876458024960000e+16) (23, 9.40622963382681600000e+15) (24, -8.07508655430696960000e+16) (25, 5.52650353410048000000e+15) (26, 2.15592068175626240000e+16) (27, -1.29330645775155200000e+16) (28, 6.67584805679923200000e+15) (29, -1.27616282735411200000e+15) (30, -3.08583822440529920000e+16) (31, 5.79805874697011200000e+15) (32, 5.59636708274995200000e+15) (33, 4.66647606152396800000e+15) (34, -9.68992983309352960000e+16) (35, -5.15743645748428800000e+15) (36, 1.41793021132800000000e+12) (0, -5.11828031438848000000e+15) (1, 9.88091116421120000000e+14) (2, -6.92307389054976000000e+15) (3, -5.59530555473920000000e+14) (4, -2.69244976804659200000e+15) (5, -5.84091285690777600000e+15) (6, 8.82107308887244800000e+15) (7, 6.25600440041472000000e+14) (8, 8.55551177129984000000e+14) (9, -5.43013788975104000000e+15) (10, 9.64208413900800000000e+14) (11, 2.53020872061747200000e+15) (12, 1.44604529269145600000e+15) (13, -1.36240912610099200000e+15) (14, -1.20378350161100800000e+15) (15, -1.47206863375564800000e+15) (16, 1.81636784193536000000e+15) (17, 1.72994286583808000000e+14) (18, -4.37769239265280000000e+14) (19, -1.56089124179148800000e+15) (20, -3.66652794968473600000e+15) (21, -6.79715551576064000000e+14) (22, -1.02861050898022400000e+15) (23, 1.13325839378022400000e+15) (24, 1.09210860739624960000e+16) (25, -1.52810346145382400000e+15) (26, 1.29622274054553600000e+15) (27, 8.74216970780672000000e+14) (28, 2.18227472859136000000e+14) (29, -9.17803480016486400000e+15) (30, -1.49101266075648000000e+15) (31, -1.90147731652608000000e+15) (32, -1.70395257588940800000e+15) (33, -2.04660520098201600000e+15) (34, 1.05586080140492800000e+16) (35, 1.07156062485872640000e+16) (36, 8.04360395161600000000e+12) (0, -5.24663272767488000000e+15) (1, 9.12126835163136000000e+14) (2, -6.21155511277977600000e+15) (3, -6.16391761723392000000e+14) (4, -2.39801633813299200000e+15) (5, -5.55794269470720000000e+15) (6, 7.96697535551897600000e+15) (7, 5.33611031822336000000e+14) (8, 7.73064920924160000000e+14) (9, -5.35994846045798400000e+15) (10, 6.37335632871424000000e+14) (11, 2.37251658042572800000e+15) (12, 1.01363275005952000000e+15) (13, -1.43598688193740800000e+15) (14, -8.24735726305280000000e+14) (15, -1.55536858493747200000e+15) (16, 1.87282558969446400000e+15) (17, -8.71496548352000000000e+11) (18, -6.03992191139840000000e+14) (19, -1.08659115819008000000e+15) (20, -3.64757264839475200000e+15) (21, -8.86639626813440000000e+14) (22, -1.18570142085939200000e+15) (23, 1.09414419372441600000e+15) (24, 1.14190703520645120000e+16) (25, -1.57687952598630400000e+15) (26, 1.07985295848243200000e+15) (27, 8.26459081932800000000e+14) (28, 1.51736345952256000000e+14) (29, -8.74773383793868800000e+15) (30, -1.34056894896537600000e+15) (31, -1.92060656399155200000e+15) (32, -1.71828957937664000000e+15) (33, -2.03292666966835200000e+15) (34, 1.15350795662131200000e+16) (35, 1.04049169043292160000e+16) (36, 8.30124536627200000000e+12) (0, -7.82230515351552000000e+14) (1, 7.32331545041305600000e+15) (2, 8.91103547385446400000e+15) (3, 6.50941538972467200000e+15) (4, -2.08257208926863360000e+16) (5, 1.01931438781235200000e+15) (6, 2.25160138619617280000e+16) (7, 1.49059878697041920000e+16) (8, 2.09683782314229760000e+16) (9, -3.18837326715289600000e+16) (10, 4.53484873567436800000e+15) (11, 2.10340332489932800000e+16) (12, 2.01997294092943360000e+16) (13, 6.83841847453286400000e+15) (14, -5.57243402173808640000e+16) (15, 4.38367367148339200000e+15) (16, 1.01674932596899840000e+16) (17, 2.08379658444472320000e+16) (18, 7.32285052020326400000e+15) (19, -5.58213463487283200000e+16) (20, 1.17600314982400000000e+14) (21, 3.89488009726132224000e+17) (22, 1.85065351896104960000e+16) (23, 9.89157919188582400000e+15) (24, -8.10471753368207360000e+16) (25, 5.53989738961305600000e+15) (26, 2.25457457730682880000e+16) (27, -1.36024169769861120000e+16) (28, 7.01251390013440000000e+15) (29, -1.98322044272640000000e+14) (30, -3.17131193906626560000e+16) (31, 5.50461960198553600000e+15) (32, 5.40989141391769600000e+15) (33, 4.34754762781491200000e+15) (34, -9.69990017017446400000e+16) (35, 2.21133357134643200000e+15) (36, -1.05667290726400000000e+12) (0, -8.93408562380800000000e+14) (1, 5.72367420837068800000e+15) (2, 4.34124637392076800000e+15) (3, 5.03654279177830400000e+15) (4, -1.65332478989434880000e+16) (5, -3.41982207541248000000e+14) (6, 1.77515304048394240000e+16) (7, 1.28456383707217920000e+16) (8, 1.68696823509155840000e+16) (9, -3.06886666113515520000e+16) (10, 4.25376835908403200000e+15) (11, 1.77250766275215360000e+16) (12, 1.60518561532477440000e+16) (13, 5.47839936351436800000e+15) (14, -1.86471008792739840000e+16) (15, 3.66708951665868800000e+15) (16, 8.47114223904358400000e+15) (17, 1.57858409113190400000e+16) (18, 5.84125967551692800000e+15) (19, -1.90716154468106240000e+16) (20, 4.09865440722944000000e+14) (21, 5.64852280336056320000e+16) (22, 1.51690632065187840000e+16) (23, 8.10600881559961600000e+15) (24, -6.21696430196654080000e+16) (25, 4.27104459659673600000e+15) (26, 1.80663117791887360000e+16) (27, -1.12611465520742400000e+16) (28, 5.78788826441318400000e+15) (29, -3.61785442749644800000e+15) (30, -2.50563409886576640000e+16) (31, 4.24210618069811200000e+15) (32, 4.19744227891609600000e+15) (33, 3.39851098456064000000e+15) (34, -7.46466175038259200000e+16) (35, -1.59174467623321600000e+15) (36, 2.55960494899200000000e+12) (0, 1.10053409842790400000e+15) (1, -5.09772835900620800000e+15) (2, -4.24997697670348800000e+15) (3, -4.91687802358988800000e+15) (4, 1.80596760547164160000e+16) (5, 1.25768134819840000000e+13) (6, -1.73350098451824640000e+16) (7, -1.38489395098419200000e+16) (8, -1.72330494690590720000e+16) (9, 2.64018876705013760000e+16) (10, -4.58870118311526400000e+15) (11, -1.79687891780239360000e+16) (12, -1.63628418502492160000e+16) (13, -5.90808668228812800000e+15) (14, 1.84181877123317760000e+16) (15, -3.96971291233484800000e+15) (16, -8.83241556063027200000e+15) (17, -1.71941714250956800000e+16) (18, -6.27230688831078400000e+15) (19, 1.91905602711060480000e+16) (20, -7.65796762517504000000e+14) (21, -4.47545513617653760000e+16) (22, -1.63328007014973440000e+16) (23, -8.54552033519206400000e+15) (24, 6.67352233200844800000e+16) (25, -4.52575145807052800000e+15) (26, -1.84464077949501440000e+16) (27, 1.14965139811205120000e+16) (28, -5.97157918382489600000e+15) (29, -2.39141551026995200000e+15) (30, 2.66614604614860800000e+16) (31, -4.62757869020774400000e+15) (32, -4.59077941041561600000e+15) (33, -3.55526360065638400000e+15) (34, 7.74975480754339840000e+16) (35, 7.34938321754521600000e+15) (36, -1.67930201374720000000e+13) (0, -8.54587762278400000000e+14) (1, 5.57064506048512000000e+15) (2, 4.21139689609625600000e+15) (3, 4.90141721506611200000e+15) (4, -1.63001643187568640000e+16) (5, -5.64351723372544000000e+14) (6, 1.72376461578076160000e+16) (7, 1.23145785494732800000e+16) (8, 1.62691267375923200000e+16) (9, -2.94031807521751040000e+16) (10, 4.15745586495488000000e+15) (11, 1.73566113831976960000e+16) (12, 1.53609451654348800000e+16) (13, 5.31652956232089600000e+15) (14, -1.96417379956162560000e+16) (15, 3.53736217696665600000e+15) (16, 8.35863181262848000000e+15) (17, 1.51587166303027200000e+16) (18, 5.74034297644646400000e+15) (19, -1.96636423288258560000e+16) (20, 2.84574399594496000000e+14) (21, 5.86148403226869760000e+16) (22, 1.47738188411043840000e+16) (23, 8.00063179299225600000e+15) (24, -6.01370025021931520000e+16) (25, 4.14776963996057600000e+15) (26, 1.74861518918123520000e+16) (27, -1.12897628454256640000e+16) (28, 5.86159044008345600000e+15) (29, -1.29163209159475200000e+15) (30, -2.42407395840491520000e+16) (31, 4.13182779509964800000e+15) (32, 4.05842438809190400000e+15) (33, 3.25496888256102400000e+15) (34, -7.25168033512816640000e+16) (35, -2.72568851995033600000e+15) (36, 4.04099353804800000000e+12) (0, -6.50208455163904000000e+14) (1, 6.95045323331993600000e+15) (2, 8.55174374280396800000e+15) (3, 6.25017008999628800000e+15) (4, -2.04502999488266240000e+16) (5, 1.42604926713856000000e+15) (6, 2.16104608097894400000e+16) (7, 1.43191149484441600000e+16) (8, 2.02950970106183680000e+16) (9, -3.02046345345105920000e+16) (10, 4.32645155376332800000e+15) (11, 2.02997269853634560000e+16) (12, 1.93584934923796480000e+16) (13, 6.61179935699763200000e+15) (14, -4.08922118265241600000e+16) (15, 4.23273778328371200000e+15) (16, 9.77401949454336000000e+15) (17, 2.03126956391137280000e+16) (18, 7.02490273329971200000e+15) (19, -5.88250918567280640000e+16) (20, 2.16281265471488000000e+14) (21, 3.42694169237520384000e+17) (22, 1.81729729970176000000e+16) (23, 9.59173571379200000000e+15) (24, -7.91793627792670720000e+16) (25, 5.35801143020748800000e+15) (26, 2.16716877160775680000e+16) (27, -1.23295733540454400000e+16) (28, 6.69005527174348800000e+15) (29, 1.63148533753446400000e+15) (30, -3.07435455559761920000e+16) (31, 5.34177645382860800000e+15) (32, 5.27657831340441600000e+15) (33, 4.22698843268710400000e+15) (34, -9.20192705898741760000e+16) (35, -2.12558428084633600000e+15) (36, 2.01578512384000000000e+12) (37, 3.36192928000000000000e+08) (38, 3.26667840000000000000e+08) (39, 4.25487168000000000000e+08) (40, -2.58308384000000000000e+08) (41, 3.27522144000000000000e+08) (42, 3.63943744000000000000e+08) (43, -2.48773952000000000000e+08) (44, 4.19448896000000000000e+08) (45, 3.25731904000000000000e+08) (46, 4.06966976000000000000e+08) (47, 4.04136576000000000000e+08) (48, 4.39574048000000000000e+08) (49, 5.17007968000000000000e+08) (50, -9.53087616000000000000e+08) (51, 5.36870592000000000000e+08) (52, -3.01469792000000000000e+08) (53, 4.10140576000000000000e+08) (54, -2.60713120000000000000e+08) (55, 4.05578944000000000000e+08) (56, -3.48704672000000000000e+08) (57, 3.95307392000000000000e+08) (58, 3.27934432000000000000e+08) (59, 4.12696672000000000000e+08) (60, -2.58082368000000000000e+08) (61, -7.30524880000000000000e+07) (62, -3.90462560000000000000e+08) (63, 5.36870592000000000000e+08) (64, 3.29003840000000000000e+08) (65, 4.23839200000000000000e+08) (66, -2.44568896000000000000e+08) (67, -2.60975392000000000000e+08) (68, 4.23182400000000000000e+08) (69, 3.40779232000000000000e+08) (70, -3.69228768000000000000e+08) (71, 3.29064800000000000000e+08) (72, 4.07253664000000000000e+08) (73, -9.01668671875000000000e+04) (37, 3.39504640000000000000e+08) (38, 3.29285792000000000000e+08) (39, 4.27818304000000000000e+08) (40, -2.56962720000000000000e+08) (41, 3.30156608000000000000e+08) (42, 3.66998240000000000000e+08) (43, -2.46875200000000000000e+08) (44, 4.21217632000000000000e+08) (45, 3.28105632000000000000e+08) (46, 4.10000896000000000000e+08) (47, 4.06906816000000000000e+08) (48, 4.43027936000000000000e+08) (49, 5.21511648000000000000e+08) (50, -9.20404928000000000000e+08) (51, 5.36870592000000000000e+08) (52, -3.02840256000000000000e+08) (53, 4.12289152000000000000e+08) (54, -2.58724704000000000000e+08) (55, 4.08651264000000000000e+08) (56, -3.60934272000000000000e+08) (57, 4.02223104000000000000e+08) (58, 3.30660832000000000000e+08) (59, 4.15928992000000000000e+08) (60, -2.56060864000000000000e+08) (61, -7.04138640000000000000e+07) (62, -4.09362880000000000000e+08) (63, 5.51874304000000000000e+08) (64, 3.31738176000000000000e+08) (65, 4.26950464000000000000e+08) (66, -2.43520928000000000000e+08) (67, -2.59105152000000000000e+08) (68, 4.25322304000000000000e+08) (69, 3.43249248000000000000e+08) (70, -3.82011840000000000000e+08) (71, 3.31720768000000000000e+08) (72, 4.10349376000000000000e+08) (73, -9.58313984375000000000e+04) (37, 1.11265440000000000000e+08) (38, 1.17676176000000000000e+08) (39, 9.42310240000000000000e+07) (40, 1.72942860000000000000e+07) (41, 1.17522552000000000000e+08) (42, 1.14897072000000000000e+08) (43, 1.93607460000000000000e+07) (44, 9.42169120000000000000e+07) (45, 1.15301368000000000000e+08) (46, 1.24745472000000000000e+08) (47, 1.21616664000000000000e+08) (48, 8.66026960000000000000e+07) (49, 1.53780880000000000000e+08) (50, -2.43590944000000000000e+08) (51, 1.22046104000000000000e+08) (52, 1.59292630000000000000e+07) (53, 1.00176264000000000000e+08) (54, 1.68998380000000000000e+07) (55, 9.59164960000000000000e+07) (56, -4.38597728000000000000e+08) (57, 2.31935200000000000000e+07) (58, 1.17256000000000000000e+08) (59, 1.03571744000000000000e+08) (60, 1.74134980000000000000e+07) (61, 7.49780240000000000000e+07) (62, -8.64490080000000000000e+07) (63, 2.38557152000000000000e+08) (64, 1.17246344000000000000e+08) (65, 1.07101568000000000000e+08) (66, 2.14691620000000000000e+07) (67, 1.69880620000000000000e+07) (68, 9.42310240000000000000e+07) (69, 1.11818552000000000000e+08) (70, -4.29503584000000000000e+08) (71, 1.17511032000000000000e+08) (72, 1.22077224000000000000e+08) (73, -1.32683812500000000000e+05) (37, 1.08582960000000000000e+08) (38, 1.15045760000000000000e+08) (39, 9.42239600000000000000e+07) (40, 1.61442750000000000000e+07) (41, 1.14878816000000000000e+08) (42, 1.12347600000000000000e+08) (43, 1.77008560000000000000e+07) (44, 9.42023120000000000000e+07) (45, 1.12444520000000000000e+08) (46, 1.24659952000000000000e+08) (47, 1.21495680000000000000e+08) (48, 8.39048880000000000000e+07) (49, 1.46934208000000000000e+08) (50, -2.25077344000000000000e+08) (51, 1.18799496000000000000e+08) (52, 1.49554290000000000000e+07) (53, 9.79277280000000000000e+07) (54, 1.58345490000000000000e+07) (55, 9.31594800000000000000e+07) (56, -4.25063776000000000000e+08) (57, 2.14342240000000000000e+07) (58, 1.14595824000000000000e+08) (59, 1.00830024000000000000e+08) (60, 1.61613770000000000000e+07) (61, 7.28919920000000000000e+07) (62, -8.70013840000000000000e+07) (63, 2.32717552000000000000e+08) (64, 1.14598856000000000000e+08) (65, 1.04285680000000000000e+08) (66, 1.96500440000000000000e+07) (67, 1.59197150000000000000e+07) (68, 9.42239600000000000000e+07) (69, 1.09185968000000000000e+08) (70, -4.07975712000000000000e+08) (71, 1.14872000000000000000e+08) (72, 1.20192672000000000000e+08) (73, -1.33574734375000000000e+05) (37, 3.35372352000000000000e+08) (38, 3.25395168000000000000e+08) (39, 4.24835264000000000000e+08) (40, -2.57825600000000000000e+08) (41, 3.26264032000000000000e+08) (42, 3.61893280000000000000e+08) (43, -2.47751968000000000000e+08) (44, 4.18964064000000000000e+08) (45, 3.24061440000000000000e+08) (46, 4.06115872000000000000e+08) (47, 4.03210048000000000000e+08) (48, 4.37639328000000000000e+08) (49, 5.14686592000000000000e+08) (50, -9.60282432000000000000e+08) (51, 5.36870592000000000000e+08) (52, -3.00305216000000000000e+08) (53, 4.09664448000000000000e+08) (54, -2.60442080000000000000e+08) (55, 4.02678176000000000000e+08) (56, -3.45070048000000000000e+08) (57, 3.93453536000000000000e+08) (58, 3.26562144000000000000e+08) (59, 4.08868192000000000000e+08) (60, -2.57836032000000000000e+08) (61, -7.22279520000000000000e+07) (62, -3.85100640000000000000e+08) (63, 5.36870592000000000000e+08) (64, 3.27972352000000000000e+08) (65, 4.20423936000000000000e+08) (66, -2.44148736000000000000e+08) (67, -2.60697760000000000000e+08) (68, 4.22594176000000000000e+08) (69, 3.39564064000000000000e+08) (70, -3.65633440000000000000e+08) (71, 3.28097184000000000000e+08) (72, 4.06289440000000000000e+08) (73, -9.03083359375000000000e+04) (37, 3.35161824000000000000e+08) (38, 3.25849632000000000000e+08) (39, 4.25510176000000000000e+08) (40, -2.58416816000000000000e+08) (41, 3.26716704000000000000e+08) (42, 3.61446912000000000000e+08) (43, -2.48008688000000000000e+08) (44, 4.19446976000000000000e+08) (45, 3.24568416000000000000e+08) (46, 4.07008416000000000000e+08) (47, 4.04187136000000000000e+08) (48, 4.36673728000000000000e+08) (49, 5.14487456000000000000e+08) (50, -9.54649664000000000000e+08) (51, 5.36870592000000000000e+08) (52, -3.02228832000000000000e+08) (53, 4.10147872000000000000e+08) (54, -2.61375024000000000000e+08) (55, 4.01978016000000000000e+08) (56, -3.49656448000000000000e+08) (57, 3.94451296000000000000e+08) (58, 3.27065728000000000000e+08) (59, 4.08415424000000000000e+08) (60, -2.58753200000000000000e+08) (61, -7.36956560000000000000e+07) (62, -3.91176832000000000000e+08) (63, 5.36870592000000000000e+08) (64, 3.28308960000000000000e+08) (65, 4.19880000000000000000e+08) (66, -2.45333072000000000000e+08) (67, -2.61653520000000000000e+08) (68, 4.23195104000000000000e+08) (69, 3.39336128000000000000e+08) (70, -3.70356864000000000000e+08) (71, 3.28330976000000000000e+08) (72, 4.07309568000000000000e+08) (73, -8.91604765625000000000e+04) (37, 3.38216352000000000000e+08) (38, 3.28180128000000000000e+08) (39, 4.26669888000000000000e+08) (40, -2.58336224000000000000e+08) (41, 3.29064736000000000000e+08) (42, 3.65907072000000000000e+08) (43, -2.48816448000000000000e+08) (44, 4.20225056000000000000e+08) (45, 3.27267360000000000000e+08) (46, 4.08558016000000000000e+08) (47, 4.05558208000000000000e+08) (48, 4.41766176000000000000e+08) (49, 5.19533216000000000000e+08) (50, -9.37404160000000000000e+08) (51, 5.36870592000000000000e+08) (52, -3.03415776000000000000e+08) (53, 4.11105280000000000000e+08) (54, -2.60843392000000000000e+08) (55, 4.07488576000000000000e+08) (56, -3.56096704000000000000e+08) (57, 3.98299808000000000000e+08) (58, 3.29492256000000000000e+08) (59, 4.14760192000000000000e+08) (60, -2.58227872000000000000e+08) (61, -7.26971840000000000000e+07) (62, -4.01276800000000000000e+08) (63, 5.36870592000000000000e+08) (64, 3.30596544000000000000e+08) (65, 4.25810048000000000000e+08) (66, -2.44413536000000000000e+08) (67, -2.61059648000000000000e+08) (68, 4.24283232000000000000e+08) (69, 3.42024608000000000000e+08) (70, -3.77178816000000000000e+08) (71, 3.30617664000000000000e+08) (72, 4.08887200000000000000e+08) (73, -9.26094531250000000000e+04) (37, 3.37929664000000000000e+08) (38, 3.27927936000000000000e+08) (39, 4.26401792000000000000e+08) (40, -2.58185200000000000000e+08) (41, 3.28807136000000000000e+08) (42, 3.65527520000000000000e+08) (43, -2.48609264000000000000e+08) (44, 4.20035008000000000000e+08) (45, 3.26983840000000000000e+08) (46, 4.08237952000000000000e+08) (47, 4.05246784000000000000e+08) (48, 4.41282432000000000000e+08) (49, 5.19018304000000000000e+08) (50, -9.40654208000000000000e+08) (51, 5.36870592000000000000e+08) (52, -3.03344192000000000000e+08) (53, 4.10878944000000000000e+08) (54, -2.60799216000000000000e+08) (55, 4.07014944000000000000e+08) (56, -3.55375616000000000000e+08) (57, 3.97585792000000000000e+08) (58, 3.29226816000000000000e+08) (59, 4.14167552000000000000e+08) (60, -2.58182832000000000000e+08) (61, -7.29857760000000000000e+07) (62, -3.99781056000000000000e+08) (63, 5.36870592000000000000e+08) (64, 3.30324864000000000000e+08) (65, 4.25234688000000000000e+08) (66, -2.44460208000000000000e+08) (67, -2.61045648000000000000e+08) (68, 4.24053760000000000000e+08) (69, 3.41775296000000000000e+08) (70, -3.76370944000000000000e+08) (71, 3.30332704000000000000e+08) (72, 4.08557824000000000000e+08) (73, -9.17778593750000000000e+04) (37, 3.36949472000000000000e+08) (38, 3.27255456000000000000e+08) (39, 4.25963328000000000000e+08) (40, -2.58585856000000000000e+08) (41, 3.28088128000000000000e+08) (42, 3.64376832000000000000e+08) (43, -2.48845312000000000000e+08) (44, 4.19741376000000000000e+08) (45, 3.26267360000000000000e+08) (46, 4.07638016000000000000e+08) (47, 4.04681600000000000000e+08) (48, 4.40364192000000000000e+08) (49, 5.17696768000000000000e+08) (50, -9.46555264000000000000e+08) (51, 5.36870592000000000000e+08) (52, -3.03111840000000000000e+08) (53, 4.10516032000000000000e+08) (54, -2.61247456000000000000e+08) (55, 4.05699136000000000000e+08) (56, -3.54056288000000000000e+08) (57, 3.96139840000000000000e+08) (58, 3.28540832000000000000e+08) (59, 4.12677312000000000000e+08) (60, -2.58614816000000000000e+08) (61, -7.38264400000000000000e+07) (62, -3.96998944000000000000e+08) (63, 5.36870592000000000000e+08) (64, 3.29672800000000000000e+08) (65, 4.23957632000000000000e+08) (66, -2.45072928000000000000e+08) (67, -2.61525696000000000000e+08) (68, 4.23624960000000000000e+08) (69, 3.41056288000000000000e+08) (70, -3.74981984000000000000e+08) (71, 3.29580160000000000000e+08) (72, 4.07945632000000000000e+08) (73, -9.04235156250000000000e+04) (37, 3.27704192000000000000e+08) (38, 3.26744960000000000000e+08) (39, 4.29892608000000000000e+08) (40, -1.50141776000000000000e+08) (41, 3.26744960000000000000e+08) (42, 3.46618560000000000000e+08) (43, -1.27530960000000000000e+08) (44, 4.29577472000000000000e+08) (45, 3.26744960000000000000e+08) (46, 4.13959104000000000000e+08) (47, 4.02088224000000000000e+08) (48, 3.97211968000000000000e+08) (49, 4.73098592000000000000e+08) (50, -7.21020864000000000000e+08) (51, 4.57800000000000000000e+08) (52, -1.16729472000000000000e+08) (53, 4.23179936000000000000e+08) (54, -1.33799584000000000000e+08) (55, 3.56498784000000000000e+08) (56, -3.65655040000000000000e+08) (57, 2.67903424000000000000e+08) (58, 3.26744960000000000000e+08) (59, 3.72595840000000000000e+08) (60, -1.31612064000000000000e+08) (61, 3.62186625000000000000e+05) (62, -2.96085248000000000000e+08) (63, 5.37019072000000000000e+08) (64, 3.26744960000000000000e+08) (65, 3.76114752000000000000e+08) (66, -1.18988544000000000000e+08) (67, -1.33702064000000000000e+08) (68, 4.29938336000000000000e+08) (69, 3.33715904000000000000e+08) (70, -3.64416384000000000000e+08) (71, 3.26744960000000000000e+08) (72, 4.04072864000000000000e+08) (73, -2.12218062500000000000e+05) (37, 3.35492256000000000000e+08) (38, 3.25827648000000000000e+08) (39, 4.25062656000000000000e+08) (40, -2.58013920000000000000e+08) (41, 3.26708032000000000000e+08) (42, 3.62315200000000000000e+08) (43, -2.48056512000000000000e+08) (44, 4.19118304000000000000e+08) (45, 3.24544512000000000000e+08) (46, 4.06420832000000000000e+08) (47, 4.03547392000000000000e+08) (48, 4.38262560000000000000e+08) (49, 5.15087776000000000000e+08) (50, -9.59699584000000000000e+08) (51, 5.36870592000000000000e+08) (52, -3.00518464000000000000e+08) (53, 4.09741728000000000000e+08) (54, -2.60646272000000000000e+08) (55, 4.03202304000000000000e+08) (56, -3.45617568000000000000e+08) (57, 3.93591104000000000000e+08) (58, 3.27138496000000000000e+08) (59, 4.09393856000000000000e+08) (60, -2.58037152000000000000e+08) (61, -7.21271680000000000000e+07) (62, -3.86010272000000000000e+08) (63, 5.36870592000000000000e+08) (64, 3.28386464000000000000e+08) (65, 4.20989984000000000000e+08) (66, -2.44412608000000000000e+08) (67, -2.60927264000000000000e+08) (68, 4.22793632000000000000e+08) (69, 3.39874144000000000000e+08) (70, -3.66255904000000000000e+08) (71, 3.28487904000000000000e+08) (72, 4.06642656000000000000e+08) (73, -8.97658515625000000000e+04) (37, 3.35465440000000000000e+08) (38, 3.25970272000000000000e+08) (39, 4.25113888000000000000e+08) (40, -2.58039152000000000000e+08) (41, 3.26834080000000000000e+08) (42, 3.62474656000000000000e+08) (43, -2.48106640000000000000e+08) (44, 4.19153312000000000000e+08) (45, 3.24713088000000000000e+08) (46, 4.06490304000000000000e+08) (47, 4.03624352000000000000e+08) (48, 4.38492160000000000000e+08) (49, 5.15252768000000000000e+08) (50, -9.59396544000000000000e+08) (51, 5.36870592000000000000e+08) (52, -3.00529664000000000000e+08) (53, 4.09787776000000000000e+08) (54, -2.60657552000000000000e+08) (55, 4.03401376000000000000e+08) (56, -3.45734656000000000000e+08) (57, 3.93649152000000000000e+08) (58, 3.27283648000000000000e+08) (59, 4.09601408000000000000e+08) (60, -2.58045712000000000000e+08) (61, -7.21277120000000000000e+07) (62, -3.86199040000000000000e+08) (63, 5.36870592000000000000e+08) (64, 3.28505472000000000000e+08) (65, 4.21186240000000000000e+08) (66, -2.44444560000000000000e+08) (67, -2.60942064000000000000e+08) (68, 4.22838528000000000000e+08) (69, 3.39971008000000000000e+08) (70, -3.66383744000000000000e+08) (71, 3.28572640000000000000e+08) (72, 4.06722912000000000000e+08) (73, -8.91195859375000000000e+04) (37, 3.35162976000000000000e+08) (38, 3.25290400000000000000e+08) (39, 4.24924416000000000000e+08) (40, -2.57349216000000000000e+08) (41, 3.26166944000000000000e+08) (42, 3.61124928000000000000e+08) (43, -2.47112352000000000000e+08) (44, 4.19027584000000000000e+08) (45, 3.23894112000000000000e+08) (46, 4.06233312000000000000e+08) (47, 4.03338560000000000000e+08) (48, 4.36593472000000000000e+08) (49, 5.14073760000000000000e+08) (50, -9.58525632000000000000e+08) (51, 5.36870592000000000000e+08) (52, -3.00482080000000000000e+08) (53, 4.09702272000000000000e+08) (54, -2.60321984000000000000e+08) (55, 4.01852352000000000000e+08) (56, -3.45935456000000000000e+08) (57, 3.93698336000000000000e+08) (58, 3.26459072000000000000e+08) (59, 4.08304704000000000000e+08) (60, -2.57720096000000000000e+08) (61, -7.25074480000000000000e+07) (62, -3.86423584000000000000e+08) (63, 5.36870592000000000000e+08) (64, 3.27872000000000000000e+08) (65, 4.19755040000000000000e+08) (66, -2.44121120000000000000e+08) (67, -2.60592448000000000000e+08) (68, 4.22673792000000000000e+08) (69, 3.39193376000000000000e+08) (70, -3.66522336000000000000e+08) (71, 3.27990176000000000000e+08) (72, 4.06423360000000000000e+08) (73, -8.93791796875000000000e+04) (37, 3.35425600000000000000e+08) (38, 3.26031712000000000000e+08) (39, 4.25151776000000000000e+08) (40, -2.57970368000000000000e+08) (41, 3.26889408000000000000e+08) (42, 3.62519360000000000000e+08) (43, -2.48040608000000000000e+08) (44, 4.19180128000000000000e+08) (45, 3.24785856000000000000e+08) (46, 4.06541056000000000000e+08) (47, 4.03680032000000000000e+08) (48, 4.38546656000000000000e+08) (49, 5.15307296000000000000e+08) (50, -9.58853952000000000000e+08) (51, 5.36870592000000000000e+08) (52, -3.00527296000000000000e+08) (53, 4.09822016000000000000e+08) (54, -2.60582176000000000000e+08) (55, 4.03462880000000000000e+08) (56, -3.45848512000000000000e+08) (57, 3.93729120000000000000e+08) (58, 3.27343936000000000000e+08) (59, 4.09666304000000000000e+08) (60, -2.57970816000000000000e+08) (61, -7.21431200000000000000e+07) (62, -3.86398656000000000000e+08) (63, 5.36870592000000000000e+08) (64, 3.28525248000000000000e+08) (65, 4.21244288000000000000e+08) (66, -2.44365952000000000000e+08) (67, -2.60862048000000000000e+08) (68, 4.22872064000000000000e+08) (69, 3.39991360000000000000e+08) (70, -3.66502336000000000000e+08) (71, 3.28577696000000000000e+08) (72, 4.06780800000000000000e+08) (73, -8.89780312500000000000e+04) (37, 3.40102272000000000000e+08) (38, 3.30429888000000000000e+08) (39, 4.28479968000000000000e+08) (40, -2.54045600000000000000e+08) (41, 3.31150432000000000000e+08) (42, 3.66382720000000000000e+08) (43, -2.43253376000000000000e+08) (44, 4.21813120000000000000e+08) (45, 3.29406592000000000000e+08) (46, 4.11040480000000000000e+08) (47, 4.07690464000000000000e+08) (48, 4.44617632000000000000e+08) (49, 5.20653216000000000000e+08) (50, -9.13870336000000000000e+08) (51, 5.36870592000000000000e+08) (52, -3.03431680000000000000e+08) (53, 4.13048832000000000000e+08) (54, -2.58077824000000000000e+08) (55, 4.08040800000000000000e+08) (56, -3.66730528000000000000e+08) (57, 4.01946688000000000000e+08) (58, 3.31458272000000000000e+08) (59, 4.15607008000000000000e+08) (60, -2.55383584000000000000e+08) (61, -7.09785120000000000000e+07) (62, -4.15240032000000000000e+08) (63, 5.58131136000000000000e+08) (64, 3.31902112000000000000e+08) (65, 4.26370048000000000000e+08) (66, -2.42878208000000000000e+08) (67, -2.58505824000000000000e+08) (68, 4.25955040000000000000e+08) (69, 3.43650304000000000000e+08) (70, -3.87943712000000000000e+08) (71, 3.31971392000000000000e+08) (72, 4.11291936000000000000e+08) (73, -9.44339453125000000000e+04) (37, 3.32690656000000000000e+08) (38, 3.21632832000000000000e+08) (39, 4.24860064000000000000e+08) (40, -2.59230144000000000000e+08) (41, 3.22588448000000000000e+08) (42, 3.59155648000000000000e+08) (43, -2.49395168000000000000e+08) (44, 4.19213152000000000000e+08) (45, 3.19394304000000000000e+08) (46, 4.06173152000000000000e+08) (47, 4.03230368000000000000e+08) (48, 4.35738784000000000000e+08) (49, 5.12556256000000000000e+08) (50, -9.51718592000000000000e+08) (51, 5.36870592000000000000e+08) (52, -2.65679680000000000000e+08) (53, 4.09998944000000000000e+08) (54, -2.58496320000000000000e+08) (55, 3.97278720000000000000e+08) (56, -3.44198944000000000000e+08) (57, 3.98988576000000000000e+08) (58, 3.22797536000000000000e+08) (59, 4.04261280000000000000e+08) (60, -2.55774176000000000000e+08) (61, -7.16427840000000000000e+07) (62, -3.85847072000000000000e+08) (63, 5.36870592000000000000e+08) (64, 3.24251936000000000000e+08) (65, 4.15383168000000000000e+08) (66, -2.40134368000000000000e+08) (67, -2.58227872000000000000e+08) (68, 4.22738624000000000000e+08) (69, 3.36862816000000000000e+08) (70, -3.60656224000000000000e+08) (71, 3.24452608000000000000e+08) (72, 4.06312416000000000000e+08) (73, -8.88658671875000000000e+04) (37, 3.37667008000000000000e+08) (38, 3.27649760000000000000e+08) (39, 4.26230080000000000000e+08) (40, -2.58268960000000000000e+08) (41, 3.28519712000000000000e+08) (42, 3.65233376000000000000e+08) (43, -2.48860960000000000000e+08) (44, 4.19916032000000000000e+08) (45, 3.26784224000000000000e+08) (46, 4.08024928000000000000e+08) (47, 4.05041216000000000000e+08) (48, 4.41022304000000000000e+08) (49, 5.18646624000000000000e+08) (50, -9.42397568000000000000e+08) (51, 5.36870592000000000000e+08) (52, -3.03315456000000000000e+08) (53, 4.10734240000000000000e+08) (54, -2.60869824000000000000e+08) (55, 4.06790496000000000000e+08) (56, -3.54986048000000000000e+08) (57, 3.97404128000000000000e+08) (58, 3.28937504000000000000e+08) (59, 4.14060320000000000000e+08) (60, -2.58256448000000000000e+08) (61, -7.31482560000000000000e+07) (62, -3.98952448000000000000e+08) (63, 5.36870592000000000000e+08) (64, 3.30032672000000000000e+08) (65, 4.25105824000000000000e+08) (66, -2.44642080000000000000e+08) (67, -2.61120480000000000000e+08) (68, 4.23887520000000000000e+08) (69, 3.41569504000000000000e+08) (70, -3.75888128000000000000e+08) (71, 3.30071520000000000000e+08) (72, 4.08340000000000000000e+08) (73, -9.18137812500000000000e+04) (37, 3.37607776000000000000e+08) (38, 3.27598528000000000000e+08) (39, 4.26192544000000000000e+08) (40, -2.58298912000000000000e+08) (41, 3.28466112000000000000e+08) (42, 3.65155008000000000000e+08) (43, -2.48896928000000000000e+08) (44, 4.19892384000000000000e+08) (45, 3.26729472000000000000e+08) (46, 4.07968768000000000000e+08) (47, 4.04986528000000000000e+08) (48, 4.40931968000000000000e+08) (49, 5.18546848000000000000e+08) (50, -9.42947136000000000000e+08) (51, 5.36870592000000000000e+08) (52, -3.03317568000000000000e+08) (53, 4.10704224000000000000e+08) (54, -2.60904000000000000000e+08) (55, 4.06704800000000000000e+08) (56, -3.54882176000000000000e+08) (57, 3.97289440000000000000e+08) (58, 3.28882720000000000000e+08) (59, 4.13958080000000000000e+08) (60, -2.58283744000000000000e+08) (61, -7.32228240000000000000e+07) (62, -3.98652672000000000000e+08) (63, 5.36870592000000000000e+08) (64, 3.29977824000000000000e+08) (65, 4.25017280000000000000e+08) (66, -2.44673472000000000000e+08) (67, -2.61152416000000000000e+08) (68, 4.23851168000000000000e+08) (69, 3.41512512000000000000e+08) (70, -3.75759040000000000000e+08) (71, 3.30014272000000000000e+08) (72, 4.08282272000000000000e+08) (73, -9.13194843750000000000e+04) (37, 3.35490240000000000000e+08) (38, 3.25858432000000000000e+08) (39, 4.25075968000000000000e+08) (40, -2.58025888000000000000e+08) (41, 3.26736992000000000000e+08) (42, 3.62337024000000000000e+08) (43, -2.48048000000000000000e+08) (44, 4.19127456000000000000e+08) (45, 3.24577824000000000000e+08) (46, 4.06438912000000000000e+08) (47, 4.03567200000000000000e+08) (48, 4.38275712000000000000e+08) (49, 5.15101920000000000000e+08) (50, -9.59563776000000000000e+08) (51, 5.36870592000000000000e+08) (52, -3.00520480000000000000e+08) (53, 4.09753856000000000000e+08) (54, -2.60648032000000000000e+08) (55, 4.03219680000000000000e+08) (56, -3.45694752000000000000e+08) (57, 3.93585088000000000000e+08) (58, 3.27166208000000000000e+08) (59, 4.09624352000000000000e+08) (60, -2.58037536000000000000e+08) (61, -7.21394400000000000000e+07) (62, -3.86113632000000000000e+08) (63, 5.36870592000000000000e+08) (64, 3.28433344000000000000e+08) (65, 4.21011488000000000000e+08) (66, -2.44414400000000000000e+08) (67, -2.60929824000000000000e+08) (68, 4.22805248000000000000e+08) (69, 3.39887776000000000000e+08) (70, -3.66340896000000000000e+08) (71, 3.28510080000000000000e+08) (72, 4.06663296000000000000e+08) (73, -8.91861718750000000000e+04) (37, 3.33670624000000000000e+08) (38, 3.22691264000000000000e+08) (39, 4.25270848000000000000e+08) (40, -2.59778112000000000000e+08) (41, 3.23589504000000000000e+08) (42, 3.60088384000000000000e+08) (43, -2.50008928000000000000e+08) (44, 4.19496512000000000000e+08) (45, 3.20432288000000000000e+08) (46, 4.06700480000000000000e+08) (47, 4.03801504000000000000e+08) (48, 4.37052544000000000000e+08) (49, 5.13778080000000000000e+08) (50, -9.46023936000000000000e+08) (51, 5.36870592000000000000e+08) (52, -2.65881280000000000000e+08) (53, 4.10234944000000000000e+08) (54, -2.58967808000000000000e+08) (55, 3.98649472000000000000e+08) (56, -3.46395968000000000000e+08) (57, 4.00320224000000000000e+08) (58, 3.23860704000000000000e+08) (59, 4.05611808000000000000e+08) (60, -2.56172480000000000000e+08) (61, -7.18558880000000000000e+07) (62, -3.89139328000000000000e+08) (63, 5.36870592000000000000e+08) (64, 3.25380704000000000000e+08) (65, 4.16606304000000000000e+08) (66, -2.40443168000000000000e+08) (67, -2.58900672000000000000e+08) (68, 4.23122464000000000000e+08) (69, 3.37924256000000000000e+08) (70, -3.62959360000000000000e+08) (71, 3.25567712000000000000e+08) (72, 4.06905120000000000000e+08) (73, -9.01129921875000000000e+04) (37, 1.08620288000000000000e+08) (38, 1.15081384000000000000e+08) (39, 9.41050960000000000000e+07) (40, 1.62949840000000000000e+07) (41, 1.14914440000000000000e+08) (42, 1.12429528000000000000e+08) (43, 1.81076160000000000000e+07) (44, 9.40974160000000000000e+07) (45, 1.12481848000000000000e+08) (46, 1.24549264000000000000e+08) (47, 1.21395784000000000000e+08) (48, 8.39985920000000000000e+07) (49, 1.48652752000000000000e+08) (50, -2.15537440000000000000e+08) (51, 1.19056496000000000000e+08) (52, 1.51203900000000000000e+07) (53, 9.79262160000000000000e+07) (54, 1.62391500000000000000e+07) (55, 9.33629440000000000000e+07) (56, -4.21248192000000000000e+08) (57, 2.05068600000000000000e+07) (58, 1.14631448000000000000e+08) (59, 1.00971760000000000000e+08) (60, 1.63383580000000000000e+07) (61, 7.38247920000000000000e+07) (62, -8.77520240000000000000e+07) (63, 2.34491312000000000000e+08) (64, 1.14634480000000000000e+08) (65, 1.04432984000000000000e+08) (66, 2.01489880000000000000e+07) (67, 1.62431540000000000000e+07) (68, 9.41050960000000000000e+07) (69, 1.09223296000000000000e+08) (70, -4.04216320000000000000e+08) (71, 1.14907624000000000000e+08) (72, 1.20125272000000000000e+08) (73, -1.34371875000000000000e+05) (37, 3.36609376000000000000e+08) (38, 3.26942624000000000000e+08) (39, 4.25761056000000000000e+08) (40, -2.57944224000000000000e+08) (41, 3.27777856000000000000e+08) (42, 3.64311552000000000000e+08) (43, -2.49026016000000000000e+08) (44, 4.19659200000000000000e+08) (45, 3.26113472000000000000e+08) (46, 4.07285408000000000000e+08) (47, 4.04477760000000000000e+08) (48, 4.40027008000000000000e+08) (49, 5.17436032000000000000e+08) (50, -9.49088640000000000000e+08) (51, 5.36870592000000000000e+08) (52, -3.02027424000000000000e+08) (53, 4.10388608000000000000e+08) (54, -2.60561888000000000000e+08) (55, 4.06103808000000000000e+08) (56, -3.51791872000000000000e+08) (57, 3.96286432000000000000e+08) (58, 3.28191264000000000000e+08) (59, 4.13246432000000000000e+08) (60, -2.57930336000000000000e+08) (61, -7.35341440000000000000e+07) (62, -3.94082816000000000000e+08) (63, 5.36870592000000000000e+08) (64, 3.29266336000000000000e+08) (65, 4.24410816000000000000e+08) (66, -2.44567040000000000000e+08) (67, -2.60858368000000000000e+08) (68, 4.23436224000000000000e+08) (69, 3.41045792000000000000e+08) (70, -3.72521216000000000000e+08) (71, 3.29319584000000000000e+08) (72, 4.07610176000000000000e+08) (73, -9.05941640625000000000e+04) (37, 3.35490080000000000000e+08) (38, 3.25847072000000000000e+08) (39, 4.25072992000000000000e+08) (40, -2.58021872000000000000e+08) (41, 3.26726400000000000000e+08) (42, 3.62330368000000000000e+08) (43, -2.48060016000000000000e+08) (44, 4.19125280000000000000e+08) (45, 3.24571840000000000000e+08) (46, 4.06434944000000000000e+08) (47, 4.03562944000000000000e+08) (48, 4.38278368000000000000e+08) (49, 5.15102848000000000000e+08) (50, -9.59617856000000000000e+08) (51, 5.36870592000000000000e+08) (52, -3.00531584000000000000e+08) (53, 4.09750912000000000000e+08) (54, -2.60650096000000000000e+08) (55, 4.03221696000000000000e+08) (56, -3.45662336000000000000e+08) (57, 3.93598528000000000000e+08) (58, 3.27159872000000000000e+08) (59, 4.09411168000000000000e+08) (60, -2.58041232000000000000e+08) (61, -7.21393920000000000000e+07) (62, -3.86068224000000000000e+08) (63, 5.36870592000000000000e+08) (64, 3.28404384000000000000e+08) (65, 4.21006752000000000000e+08) (66, -2.44417680000000000000e+08) (67, -2.60932624000000000000e+08) (68, 4.22802592000000000000e+08) (69, 3.39884832000000000000e+08) (70, -3.66303616000000000000e+08) (71, 3.28504896000000000000e+08) (72, 4.06658944000000000000e+08) (73, -8.91168437500000000000e+04) (37, 3.40401152000000000000e+08) (38, 3.30859776000000000000e+08) (39, 4.29191936000000000000e+08) (40, -2.51330320000000000000e+08) (41, 3.31487584000000000000e+08) (42, 3.68604416000000000000e+08) (43, -2.41055184000000000000e+08) (44, 4.22451232000000000000e+08) (45, 3.29672192000000000000e+08) (46, 4.12282784000000000000e+08) (47, 4.08653184000000000000e+08) (48, 4.43699776000000000000e+08) (49, 5.25305920000000000000e+08) (50, -8.89929984000000000000e+08) (51, 5.36870592000000000000e+08) (52, -2.60559152000000000000e+08) (53, 4.13859232000000000000e+08) (54, -2.51034800000000000000e+08) (55, 4.09291904000000000000e+08) (56, -3.70699168000000000000e+08) (57, 4.10991552000000000000e+08) (58, 3.31811392000000000000e+08) (59, 4.18302144000000000000e+08) (60, -2.48325936000000000000e+08) (61, -6.57246200000000000000e+07) (62, -4.21467104000000000000e+08) (63, 5.77776832000000000000e+08) (64, 3.32063104000000000000e+08) (65, 4.29153312000000000000e+08) (66, -2.36678224000000000000e+08) (67, -2.51547952000000000000e+08) (68, 4.26640928000000000000e+08) (69, 3.43766144000000000000e+08) (70, -3.91293152000000000000e+08) (71, 3.32224768000000000000e+08) (72, 4.12400832000000000000e+08) (73, -9.90571953125000000000e+04) (37, 1.02574824000000000000e+08) (38, 1.09035304000000000000e+08) (39, 9.41707360000000000000e+07) (40, 1.15948920000000000000e+07) (41, 1.08791472000000000000e+08) (42, 1.04687440000000000000e+08) (43, 1.50839300000000000000e+07) (44, 9.41707360000000000000e+07) (45, 1.06776400000000000000e+08) (46, 1.21852096000000000000e+08) (47, 1.18953200000000000000e+08) (48, 7.01109280000000000000e+07) (49, 1.47206560000000000000e+08) (50, -2.14019056000000000000e+08) (51, 1.33553240000000000000e+08) (52, 8.02846050000000000000e+06) (53, 9.41626560000000000000e+07) (54, 1.11272280000000000000e+07) (55, 7.09755600000000000000e+07) (56, -1.68103392000000000000e+08) (57, 5.55370600000000000000e+07) (58, 1.08387080000000000000e+08) (59, 8.20580640000000000000e+07) (60, 1.17200400000000000000e+07) (61, 1.18654408000000000000e+08) (62, -9.65213760000000000000e+07) (63, 2.68435296000000000000e+08) (64, 1.08396176000000000000e+08) (65, 8.66058400000000000000e+07) (66, 1.78667380000000000000e+07) (67, 1.12551780000000000000e+07) (68, 9.41707360000000000000e+07) (69, 1.02801360000000000000e+08) (70, -1.61763008000000000000e+08) (71, 1.08648680000000000000e+08) (72, 1.16149560000000000000e+08) (73, 1.34380870000000000000e+07) (37, 3.37002400000000000000e+08) (38, 3.27040064000000000000e+08) (39, 4.25785056000000000000e+08) (40, -2.58105968000000000000e+08) (41, 3.27884960000000000000e+08) (42, 3.64567456000000000000e+08) (43, -2.48716560000000000000e+08) (44, 4.19658752000000000000e+08) (45, 3.26233376000000000000e+08) (46, 4.07344768000000000000e+08) (47, 4.04513280000000000000e+08) (48, 4.40324000000000000000e+08) (49, 5.17675552000000000000e+08) (50, -9.49022848000000000000e+08) (51, 5.36870592000000000000e+08) (52, -3.02095808000000000000e+08) (53, 4.10396416000000000000e+08) (54, -2.60744144000000000000e+08) (55, 4.06307680000000000000e+08) (56, -3.51995424000000000000e+08) (57, 3.96010656000000000000e+08) (58, 3.28298848000000000000e+08) (59, 4.13533504000000000000e+08) (60, -2.58119568000000000000e+08) (61, -7.35518320000000000000e+07) (62, -3.94424800000000000000e+08) (63, 5.36870592000000000000e+08) (64, 3.29375072000000000000e+08) (65, 4.24621344000000000000e+08) (66, -2.44750224000000000000e+08) (67, -2.61039248000000000000e+08) (68, 4.23454528000000000000e+08) (69, 3.41116288000000000000e+08) (70, -3.72729120000000000000e+08) (71, 3.29425728000000000000e+08) (72, 4.07652256000000000000e+08) (73, -8.95674218750000000000e+04) (37, 3.38363296000000000000e+08) (38, 3.28378080000000000000e+08) (39, 4.26862240000000000000e+08) (40, -2.58413312000000000000e+08) (41, 3.29264800000000000000e+08) (42, 3.66030400000000000000e+08) (43, -2.48780864000000000000e+08) (44, 4.20353952000000000000e+08) (45, 3.27420800000000000000e+08) (46, 4.08797952000000000000e+08) (47, 4.05788896000000000000e+08) (48, 4.41874528000000000000e+08) (49, 5.19735840000000000000e+08) (50, -9.34338304000000000000e+08) (51, 5.36870592000000000000e+08) (52, -3.04075104000000000000e+08) (53, 4.11264128000000000000e+08) (54, -2.60900800000000000000e+08) (55, 4.07639424000000000000e+08) (56, -3.57601504000000000000e+08) (57, 3.98990496000000000000e+08) (58, 3.29702528000000000000e+08) (59, 4.15034240000000000000e+08) (60, -2.58271328000000000000e+08) (61, -7.23145600000000000000e+07) (62, -4.03468448000000000000e+08) (63, 5.38430784000000000000e+08) (64, 3.30811520000000000000e+08) (65, 4.25956224000000000000e+08) (66, -2.44539872000000000000e+08) (67, -2.61129312000000000000e+08) (68, 4.24421024000000000000e+08) (69, 3.42108192000000000000e+08) (70, -3.78736224000000000000e+08) (71, 3.30799392000000000000e+08) (72, 4.09133056000000000000e+08) (73, -9.28680000000000000000e+04) (37, 3.37486464000000000000e+08) (38, 3.27483680000000000000e+08) (39, 4.26060384000000000000e+08) (40, -2.58638048000000000000e+08) (41, 3.28344544000000000000e+08) (42, 3.64775904000000000000e+08) (43, -2.48969248000000000000e+08) (44, 4.19799200000000000000e+08) (45, 3.26468288000000000000e+08) (46, 4.07781216000000000000e+08) (47, 4.04809344000000000000e+08) (48, 4.40381280000000000000e+08) (49, 5.18039968000000000000e+08) (50, -9.44931456000000000000e+08) (51, 5.36870592000000000000e+08) (52, -3.03340384000000000000e+08) (53, 4.10590112000000000000e+08) (54, -2.61349344000000000000e+08) (55, 4.06176640000000000000e+08) (56, -3.54363072000000000000e+08) (57, 3.96805344000000000000e+08) (58, 3.28759808000000000000e+08) (59, 4.13314848000000000000e+08) (60, -2.58717568000000000000e+08) (61, -7.36609520000000000000e+07) (62, -3.97851968000000000000e+08) (63, 5.36870592000000000000e+08) (64, 3.29851488000000000000e+08) (65, 4.24340064000000000000e+08) (66, -2.45101856000000000000e+08) (67, -2.61625408000000000000e+08) (68, 4.23720448000000000000e+08) (69, 3.41197824000000000000e+08) (70, -3.75153344000000000000e+08) (71, 3.29809984000000000000e+08) (72, 4.08090464000000000000e+08) (73, -9.18099609375000000000e+04) (37, 3.38192384000000000000e+08) (38, 3.27874432000000000000e+08) (39, 4.28458720000000000000e+08) (40, -2.55054864000000000000e+08) (41, 3.28721696000000000000e+08) (42, 3.66313472000000000000e+08) (43, -2.44711472000000000000e+08) (44, 4.21830560000000000000e+08) (45, 3.26285408000000000000e+08) (46, 4.10838816000000000000e+08) (47, 4.07687168000000000000e+08) (48, 4.44060864000000000000e+08) (49, 5.21885856000000000000e+08) (50, -9.01629824000000000000e+08) (51, 5.36870592000000000000e+08) (52, -2.59124688000000000000e+08) (53, 4.13019968000000000000e+08) (54, -2.54000912000000000000e+08) (55, 4.05598592000000000000e+08) (56, -3.63315808000000000000e+08) (57, 4.10430880000000000000e+08) (58, 3.29131360000000000000e+08) (59, 4.13155136000000000000e+08) (60, -2.50942736000000000000e+08) (61, -6.52087160000000000000e+07) (62, -4.13659776000000000000e+08) (63, 5.60529152000000000000e+08) (64, 3.30390976000000000000e+08) (65, 4.24218880000000000000e+08) (66, -2.35633808000000000000e+08) (67, -2.53588560000000000000e+08) (68, 4.25962208000000000000e+08) (69, 3.42190784000000000000e+08) (70, -3.81419616000000000000e+08) (71, 3.30325952000000000000e+08) (72, 4.11231616000000000000e+08) (73, -9.63510468750000000000e+04) (37, 3.35128736000000000000e+08) (38, 3.25226400000000000000e+08) (39, 4.24874464000000000000e+08) (40, -2.57323376000000000000e+08) (41, 3.26100544000000000000e+08) (42, 3.61072064000000000000e+08) (43, -2.47113808000000000000e+08) (44, 4.18992224000000000000e+08) (45, 3.23827552000000000000e+08) (46, 4.06168096000000000000e+08) (47, 4.03266208000000000000e+08) (48, 4.36508992000000000000e+08) (49, 5.14004704000000000000e+08) (50, -9.58829824000000000000e+08) (51, 5.36870592000000000000e+08) (52, -3.00461984000000000000e+08) (53, 4.09678880000000000000e+08) (54, -2.60310064000000000000e+08) (55, 4.01756480000000000000e+08) (56, -3.45725824000000000000e+08) (57, 3.93639840000000000000e+08) (58, 3.26387680000000000000e+08) (59, 4.08211520000000000000e+08) (60, -2.57709392000000000000e+08) (61, -7.24193440000000000000e+07) (62, -3.86147456000000000000e+08) (63, 5.36870592000000000000e+08) (64, 3.27809024000000000000e+08) (65, 4.19659424000000000000e+08) (66, -2.44095696000000000000e+08) (67, -2.60578032000000000000e+08) (68, 4.22628832000000000000e+08) (69, 3.39151776000000000000e+08) (70, -3.66305024000000000000e+08) (71, 3.27933440000000000000e+08) (72, 4.06347648000000000000e+08) (73, -8.95352265625000000000e+04) (37, 3.35231968000000000000e+08) (38, 3.25961856000000000000e+08) (39, 4.25566080000000000000e+08) (40, -2.58566688000000000000e+08) (41, 3.26833760000000000000e+08) (42, 3.61594528000000000000e+08) (43, -2.48229696000000000000e+08) (44, 4.19493696000000000000e+08) (45, 3.24728992000000000000e+08) (46, 4.07070464000000000000e+08) (47, 4.04253344000000000000e+08) (48, 4.36972512000000000000e+08) (49, 5.14668256000000000000e+08) (50, -9.53924736000000000000e+08) (51, 5.36870592000000000000e+08) (52, -3.02368448000000000000e+08) (53, 4.10201344000000000000e+08) (54, -2.61584928000000000000e+08) (55, 4.02285504000000000000e+08) (56, -3.50106016000000000000e+08) (57, 3.94579040000000000000e+08) (58, 3.27218048000000000000e+08) (59, 4.08719424000000000000e+08) (60, -2.58953152000000000000e+08) (61, -7.38480160000000000000e+07) (62, -3.91767840000000000000e+08) (63, 5.36870592000000000000e+08) (64, 3.28412928000000000000e+08) (65, 4.20179936000000000000e+08) (66, -2.45499744000000000000e+08) (67, -2.61859168000000000000e+08) (68, 4.23247488000000000000e+08) (69, 3.39467776000000000000e+08) (70, -3.70834400000000000000e+08) (71, 3.28429888000000000000e+08) (72, 4.07378240000000000000e+08) (73, -8.94252734375000000000e+04) (37, 1.02495768000000000000e+08) (38, 1.08307136000000000000e+08) (39, 9.29874400000000000000e+07) (40, 1.30917480000000000000e+07) (41, 1.08088320000000000000e+08) (42, 1.06862168000000000000e+08) (43, 1.52184260000000000000e+07) (44, 9.29874400000000000000e+07) (45, 1.05917800000000000000e+08) (46, 1.18200872000000000000e+08) (47, 1.15597968000000000000e+08) (48, 7.60051280000000000000e+07) (49, 1.59792304000000000000e+08) (50, -1.43995264000000000000e+08) (51, 1.30247512000000000000e+08) (52, -3.35550640000000000000e+07) (53, 9.29874400000000000000e+07) (54, 1.22863840000000000000e+07) (55, 8.28063920000000000000e+07) (56, -1.69898416000000000000e+08) (57, 4.25809440000000000000e+07) (58, 1.07758264000000000000e+08) (59, 9.25166240000000000000e+07) (60, 1.32924800000000000000e+07) (61, 9.21316000000000000000e+07) (62, -7.69430800000000000000e+07) (63, 2.68594208000000000000e+08) (64, 1.07784584000000000000e+08) (65, 9.64373040000000000000e+07) (66, 1.67354720000000000000e+07) (67, 1.24917300000000000000e+07) (68, 9.29874400000000000000e+07) (69, 1.03089424000000000000e+08) (70, -1.89688016000000000000e+08) (71, 1.07959800000000000000e+08) (72, 1.09812168000000000000e+08) (73, 2.98224531250000000000e+05) (37, 3.35251840000000000000e+08) (38, 3.26377632000000000000e+08) (39, 4.25822656000000000000e+08) (40, -2.59331232000000000000e+08) (41, 3.27205376000000000000e+08) (42, 3.61825760000000000000e+08) (43, -2.49266080000000000000e+08) (44, 4.19616352000000000000e+08) (45, 3.24985728000000000000e+08) (46, 4.07495488000000000000e+08) (47, 4.04536128000000000000e+08) (48, 4.38076032000000000000e+08) (49, 5.14938240000000000000e+08) (50, -9.50654528000000000000e+08) (51, 5.36870592000000000000e+08) (52, -3.03104608000000000000e+08) (53, 4.10381760000000000000e+08) (54, -2.63044000000000000000e+08) (55, 4.01736768000000000000e+08) (56, -3.54937184000000000000e+08) (57, 3.94168192000000000000e+08) (58, 3.27575840000000000000e+08) (59, 4.08344064000000000000e+08) (60, -2.60408608000000000000e+08) (61, -7.57782240000000000000e+07) (62, -3.97006752000000000000e+08) (63, 5.36870592000000000000e+08) (64, 3.28747296000000000000e+08) (65, 4.19916128000000000000e+08) (66, -2.46968736000000000000e+08) (67, -2.63308864000000000000e+08) (68, 4.23483968000000000000e+08) (69, 3.39897696000000000000e+08) (70, -3.76020640000000000000e+08) (71, 3.28761472000000000000e+08) (72, 4.07795520000000000000e+08) (73, -9.58570390625000000000e+04) (37, 3.35421216000000000000e+08) (38, 3.25530208000000000000e+08) (39, 4.24904800000000000000e+08) (40, -2.57881184000000000000e+08) (41, 3.26402752000000000000e+08) (42, 3.61990240000000000000e+08) (43, -2.47887296000000000000e+08) (44, 4.19012768000000000000e+08) (45, 3.24211200000000000000e+08) (46, 4.06208832000000000000e+08) (47, 4.03312832000000000000e+08) (48, 4.37809696000000000000e+08) (49, 5.14773632000000000000e+08) (50, -9.60009472000000000000e+08) (51, 5.36870592000000000000e+08) (52, -3.00370144000000000000e+08) (53, 4.09696768000000000000e+08) (54, -2.60531584000000000000e+08) (55, 4.02843936000000000000e+08) (56, -3.45315008000000000000e+08) (57, 3.93522176000000000000e+08) (58, 3.26711488000000000000e+08) (59, 4.09034240000000000000e+08) (60, -2.57927200000000000000e+08) (61, -7.22177360000000000000e+07) (62, -3.85500416000000000000e+08) (63, 5.36870592000000000000e+08) (64, 3.28102240000000000000e+08) (65, 4.20613824000000000000e+08) (66, -2.44268608000000000000e+08) (67, -2.60798368000000000000e+08) (68, 4.22656416000000000000e+08) (69, 3.39653504000000000000e+08) (70, -3.65888192000000000000e+08) (71, 3.28221088000000000000e+08) (72, 4.06397024000000000000e+08) (73, -9.00846796875000000000e+04) (37, 3.35479488000000000000e+08) (38, 3.25717152000000000000e+08) (39, 4.25016288000000000000e+08) (40, -2.57936640000000000000e+08) (41, 3.26595008000000000000e+08) (42, 3.62147744000000000000e+08) (43, -2.47941824000000000000e+08) (44, 4.19087264000000000000e+08) (45, 3.24412384000000000000e+08) (46, 4.06357472000000000000e+08) (47, 4.03477152000000000000e+08) (48, 4.38055584000000000000e+08) (49, 5.14932928000000000000e+08) (50, -9.59529408000000000000e+08) (51, 5.36870592000000000000e+08) (52, -3.00518272000000000000e+08) (53, 4.09733344000000000000e+08) (54, -2.60588704000000000000e+08) (55, 4.03023936000000000000e+08) (56, -3.45704256000000000000e+08) (57, 3.93587392000000000000e+08) (58, 3.26999904000000000000e+08) (59, 4.09215072000000000000e+08) (60, -2.57983744000000000000e+08) (61, -7.21964960000000000000e+07) (62, -3.86073024000000000000e+08) (63, 5.36870592000000000000e+08) (64, 3.28280128000000000000e+08) (65, 4.20824704000000000000e+08) (66, -2.44355392000000000000e+08) (67, -2.60862240000000000000e+08) (68, 4.22753184000000000000e+08) (69, 3.39784224000000000000e+08) (70, -3.66328256000000000000e+08) (71, 3.28385472000000000000e+08) (72, 4.06569184000000000000e+08) (73, -8.91395234375000000000e+04) (37, 3.26820480000000000000e+08) (38, 3.25931552000000000000e+08) (39, 4.28260480000000000000e+08) (40, -1.54817360000000000000e+08) (41, 3.25931552000000000000e+08) (42, 3.45612096000000000000e+08) (43, -1.29932088000000000000e+08) (44, 4.27845056000000000000e+08) (45, 3.25931552000000000000e+08) (46, 4.11906848000000000000e+08) (47, 4.00209184000000000000e+08) (48, 3.94193696000000000000e+08) (49, 4.71087616000000000000e+08) (50, -7.11753344000000000000e+08) (51, 4.54721728000000000000e+08) (52, -1.16730136000000000000e+08) (53, 4.21410880000000000000e+08) (54, -1.48157936000000000000e+08) (55, 3.53347360000000000000e+08) (56, -3.62819904000000000000e+08) (57, 2.65242304000000000000e+08) (58, 3.25931552000000000000e+08) (59, 3.69048608000000000000e+08) (60, -1.33171256000000000000e+08) (61, 4.05129725000000000000e+06) (62, -2.94920640000000000000e+08) (63, 5.37006592000000000000e+08) (64, 3.25931552000000000000e+08) (65, 3.72414784000000000000e+08) (66, -1.20979176000000000000e+08) (67, -1.46548272000000000000e+08) (68, 4.28230752000000000000e+08) (69, 3.31587072000000000000e+08) (70, -3.61633472000000000000e+08) (71, 3.25931552000000000000e+08) (72, 4.02091392000000000000e+08) (73, -2.12087296875000000000e+05) (74, -9.35113183593750000000e+03) (75, -9.41167968750000000000e+03) (76, -3.87172338867187500000e+03) (77, -3.89501342773437500000e+03) (78, -9.34565234375000000000e+03) (79, -9.38833007812500000000e+03) (80, -9.39243652343750000000e+03) (81, -9.38386230468750000000e+03) (82, -9.38112597656250000000e+03) (83, -7.69723681640625000000e+03) (84, -9.34883203125000000000e+03) (85, -9.34854101562500000000e+03) (86, -9.35567480468750000000e+03) (87, -9.34916210937500000000e+03) (88, -9.44812597656250000000e+03) (89, -9.34803515625000000000e+03) (90, -9.37803125000000000000e+03) (91, -9.37752539062500000000e+03) (92, -9.34904003906250000000e+03) (93, -9.35544824218750000000e+03) (94, -3.86210742187500000000e+03) (95, -9.35817285156250000000e+03) (96, -9.34921875000000000000e+03) (97, -9.42891406250000000000e+03) (98, -6.90147656250000000000e+03) (99, -9.35984570312500000000e+03) (100, -9.40555761718750000000e+03) (101, -9.38296386718750000000e+03) (102, -9.43325097656250000000e+03) (103, -9.35412500000000000000e+03) (104, -9.39083691406250000000e+03) (105, -4.13759228515625000000e+03) (106, -9.41880078125000000000e+03) (107, -9.34709863281250000000e+03) (108, -9.34987402343750000000e+03) (109, -7.67185937500000000000e+03) (110, -7.98236846923828125000e+00) (74, -1.17335234375000000000e+04) (75, -1.18443330078125000000e+04) (76, -2.75871582031250000000e+03) (77, -2.69682763671875000000e+03) (78, -1.17685908203125000000e+04) (79, -1.18815820312500000000e+04) (80, -1.18120703125000000000e+04) (81, -1.18023105468750000000e+04) (82, -1.18008115234375000000e+04) (83, -8.48856054687500000000e+03) (84, -1.17771123046875000000e+04) (85, -1.17725527343750000000e+04) (86, -1.18156835937500000000e+04) (87, -1.17730361328125000000e+04) (88, -1.20997939453125000000e+04) (89, -1.16567255859375000000e+04) (90, -1.17846152343750000000e+04) (91, -1.17840468750000000000e+04) (92, -1.17758183593750000000e+04) (93, -1.16703535156250000000e+04) (94, -2.61044628906250000000e+03) (95, -1.17289521484375000000e+04) (96, -1.17769599609375000000e+04) (97, -1.18303623046875000000e+04) (98, -9.12277929687500000000e+03) (99, -1.17504609375000000000e+04) (100, -1.18340869140625000000e+04) (101, -1.18018417968750000000e+04) (102, -1.17797890625000000000e+04) (103, -1.18117607421875000000e+04) (104, -1.18797041015625000000e+04) (105, -5.51005664062500000000e+03) (106, -1.19212412109375000000e+04) (107, -1.17748320312500000000e+04) (108, -1.17812080078125000000e+04) (109, -8.42529589843750000000e+03) (110, -1.15005073547363281250e+01) (74, -5.28880712890625000000e+03) (75, -5.34110351562500000000e+03) (76, -1.40393640136718750000e+03) (77, -1.38540710449218750000e+03) (78, -5.27872607421875000000e+03) (79, -5.29682714843750000000e+03) (80, -5.31795947265625000000e+03) (81, -5.31210400390625000000e+03) (82, -5.30445068359375000000e+03) (83, -4.13698144531250000000e+03) (84, -5.28100830078125000000e+03) (85, -5.28132861328125000000e+03) (86, -5.28272070312500000000e+03) (87, -5.28205712890625000000e+03) (88, -5.35967089843750000000e+03) (89, -5.29180078125000000000e+03) (90, -5.30888525390625000000e+03) (91, -5.30809228515625000000e+03) (92, -5.28121289062500000000e+03) (93, -5.30144384765625000000e+03) (94, -1.36185375976562500000e+03) (95, -5.29542968750000000000e+03) (96, -5.28120654296875000000e+03) (97, -5.37928076171875000000e+03) (98, -3.35107836914062500000e+03) (99, -5.29598388671875000000e+03) (100, -5.32450048828125000000e+03) (101, -5.30679589843750000000e+03) (102, -5.37174804687500000000e+03) (103, -5.28187451171875000000e+03) (104, -5.29826513671875000000e+03) (105, -1.73429553222656250000e+03) (106, -5.29996044921875000000e+03) (107, -5.27969433593750000000e+03) (108, -5.28121289062500000000e+03) (109, -4.11223535156250000000e+03) (110, -1.04810018539428710938e+01) (74, -5.25328559875488281250e+01) (75, 9.24018432617187500000e+02) (76, -2.42160107421875000000e+03) (77, -2.42749218750000000000e+03) (78, -3.34703063964843750000e+02) (79, -9.78634185791015625000e+01) (80, 3.19169677734375000000e+02) (81, 2.42541900634765625000e+02) (82, 8.50620574951171875000e+01) (83, -6.50868652343750000000e+03) (84, -2.27884140014648437500e+02) (85, -2.06631072998046875000e+02) (86, -2.86259643554687500000e+02) (87, -1.92290802001953125000e+02) (88, 1.43928637695312500000e+03) (89, -1.94326156616210937500e+02) (90, 1.95836746215820312500e+02) (91, 1.80465225219726562500e+02) (92, -2.23663955688476562500e+02) (93, -2.92832450866699218750e+01) (94, -2.39500976562500000000e+03) (95, 2.04119987487792968750e+01) (96, -2.24759414672851562500e+02) (97, 2.00408740234375000000e+03) (98, -4.10831640625000000000e+03) (99, 4.38929595947265625000e+01) (100, 3.80801452636718750000e+02) (101, 1.32864212036132812500e+02) (102, 1.49148498535156250000e+03) (103, -3.10157775878906250000e+02) (104, 