FANN_FLO_2.1
num_layers=3
learning_rate=0.700000
connection_rate=1.000000
network_type=0
learning_momentum=0.000000
training_algorithm=2
train_error_function=1
train_stop_function=0
cascade_output_change_fraction=0.010000
quickprop_decay=-0.000100
quickprop_mu=1.750000
rprop_increase_factor=1.200000
rprop_decrease_factor=0.500000
rprop_delta_min=0.000000
rprop_delta_max=50.000000
rprop_delta_zero=0.100000
cascade_output_stagnation_epochs=12
cascade_candidate_change_fraction=0.010000
cascade_candidate_stagnation_epochs=12
cascade_max_out_epochs=150
cascade_min_out_epochs=50
cascade_max_cand_epochs=150
cascade_min_cand_epochs=50
cascade_num_candidate_groups=2
bit_fail_limit=3.49999994039535522461e-01
cascade_candidate_limit=1.00000000000000000000e+03
cascade_weight_multiplier=4.00000005960464477539e-01
cascade_activation_functions_count=10
cascade_activation_functions=3 5 7 8 10 11 14 15 16 17 
cascade_activation_steepnesses_count=4
cascade_activation_steepnesses=2.50000000000000000000e-01 5.00000000000000000000e-01 7.50000000000000000000e-01 1.00000000000000000000e+00 
layer_sizes=65 65 3 
scale_included=0
neurons (num_inputs, activation_function, activation_steepness)=(0, 0, 0.00000000000000000000e+00) (0, 0, 0.00000000000000000000e+00) (0, 0, 0.00000000000000000000e+00) (0, 0, 0.00000000000000000000e+00) (0, 0, 0.00000000000000000000e+00) (0, 0, 0.00000000000000000000e+00) (0, 0, 0.00000000000000000000e+00) (0, 0, 0.00000000000000000000e+00) (0, 0, 0.00000000000000000000e+00) (0, 0, 0.00000000000000000000e+00) (0, 0, 0.00000000000000000000e+00) (0, 0, 0.00000000000000000000e+00) (0, 0, 0.00000000000000000000e+00) (0, 0, 0.00000000000000000000e+00) (0, 0, 0.00000000000000000000e+00) (0, 0, 0.00000000000000000000e+00) (0, 0, 0.00000000000000000000e+00) (0, 0, 0.00000000000000000000e+00) (0, 0, 0.00000000000000000000e+00) (0, 0, 0.00000000000000000000e+00) (0, 0, 0.00000000000000000000e+00) (0, 0, 0.00000000000000000000e+00) (0, 0, 0.00000000000000000000e+00) (0, 0, 0.00000000000000000000e+00) (0, 0, 0.00000000000000000000e+00) (0, 0, 0.00000000000000000000e+00) (0, 0, 0.00000000000000000000e+00) (0, 0, 0.00000000000000000000e+00) (0, 0, 0.00000000000000000000e+00) (0, 0, 0.00000000000000000000e+00) (0, 0, 0.00000000000000000000e+00) (0, 0, 0.00000000000000000000e+00) (0, 0, 0.00000000000000000000e+00) (0, 0, 0.00000000000000000000e+00) (0, 0, 0.00000000000000000000e+00) (0, 0, 0.00000000000000000000e+00) (0, 0, 0.00000000000000000000e+00) (0, 0, 0.00000000000000000000e+00) (0, 0, 0.00000000000000000000e+00) (0, 0, 0.00000000000000000000e+00) (0, 0, 0.00000000000000000000e+00) (0, 0, 0.00000000000000000000e+00) (0, 0, 0.00000000000000000000e+00) (0, 0, 0.00000000000000000000e+00) (0, 0, 0.00000000000000000000e+00) (0, 0, 0.00000000000000000000e+00) (0, 0, 0.00000000000000000000e+00) (0, 0, 0.00000000000000000000e+00) (0, 0, 0.00000000000000000000e+00) (0, 0, 0.00000000000000000000e+00) (0, 0, 0.00000000000000000000e+00) (0, 0, 0.00000000000000000000e+00) (0, 0, 0.00000000000000000000e+00) (0, 0, 0.00000000000000000000e+00) (0, 0, 0.00000000000000000000e+00) (0, 0, 0.00000000000000000000e+00) (0, 0, 0.00000000000000000000e+00) (0, 0, 0.00000000000000000000e+00) (0, 0, 0.00000000000000000000e+00) (0, 0, 0.00000000000000000000e+00) (0, 0, 0.00000000000000000000e+00) (0, 0, 0.00000000000000000000e+00) (0, 0, 0.00000000000000000000e+00) (0, 0, 0.00000000000000000000e+00) (0, 0, 0.00000000000000000000e+00) (65, 4, 5.00000000000000000000e-01) (65, 4, 5.00000000000000000000e-01) (65, 4, 5.00000000000000000000e-01) (65, 4, 5.00000000000000000000e-01) (65, 4, 5.00000000000000000000e-01) (65, 4, 5.00000000000000000000e-01) (65, 4, 5.00000000000000000000e-01) (65, 4, 5.00000000000000000000e-01) (65, 4, 5.00000000000000000000e-01) (65, 4, 5.00000000000000000000e-01) (65, 4, 5.00000000000000000000e-01) (65, 4, 5.00000000000000000000e-01) (65, 4, 5.00000000000000000000e-01) (65, 4, 5.00000000000000000000e-01) (65, 4, 5.00000000000000000000e-01) (65, 4, 5.00000000000000000000e-01) (65, 4, 5.00000000000000000000e-01) (65, 4, 5.00000000000000000000e-01) (65, 4, 5.00000000000000000000e-01) (65, 4, 5.00000000000000000000e-01) (65, 4, 5.00000000000000000000e-01) (65, 4, 5.00000000000000000000e-01) (65, 4, 5.00000000000000000000e-01) (65, 4, 5.00000000000000000000e-01) (65, 4, 5.00000000000000000000e-01) (65, 4, 5.00000000000000000000e-01) (65, 4, 5.00000000000000000000e-01) (65, 4, 5.00000000000000000000e-01) (65, 4, 5.00000000000000000000e-01) (65, 4, 5.00000000000000000000e-01) (65, 4, 5.00000000000000000000e-01) (65, 4, 5.00000000000000000000e-01) (65, 4, 5.00000000000000000000e-01) (65, 4, 5.00000000000000000000e-01) (65, 4, 5.00000000000000000000e-01) (65, 4, 5.00000000000000000000e-01) (65, 4, 5.00000000000000000000e-01) (65, 4, 5.00000000000000000000e-01) (65, 4, 5.00000000000000000000e-01) (65, 4, 5.00000000000000000000e-01) (65, 4, 5.00000000000000000000e-01) (65, 4, 5.00000000000000000000e-01) (65, 4, 5.00000000000000000000e-01) (65, 4, 5.00000000000000000000e-01) (65, 4, 5.00000000000000000000e-01) (65, 4, 5.00000000000000000000e-01) (65, 4, 5.00000000000000000000e-01) (65, 4, 5.00000000000000000000e-01) (65, 4, 5.00000000000000000000e-01) (65, 4, 5.00000000000000000000e-01) (65, 4, 5.00000000000000000000e-01) (65, 4, 5.00000000000000000000e-01) (65, 4, 5.00000000000000000000e-01) (65, 4, 5.00000000000000000000e-01) (65, 4, 5.00000000000000000000e-01) (65, 4, 5.00000000000000000000e-01) (65, 4, 5.00000000000000000000e-01) (65, 4, 5.00000000000000000000e-01) (65, 4, 5.00000000000000000000e-01) (65, 4, 5.00000000000000000000e-01) (65, 4, 5.00000000000000000000e-01) (65, 4, 5.00000000000000000000e-01) (65, 4, 5.00000000000000000000e-01) (65, 4, 5.00000000000000000000e-01) (0, 0, 0.00000000000000000000e+00) (65, 4, 5.00000000000000000000e-01) (65, 4, 5.00000000000000000000e-01) (0, 0, 0.00000000000000000000e+00) 
connections (connected_to_neuron, weight)=(0, -1.27070355415344238281e+00) (1, -1.70446908473968505859e+00) (2, -3.50950434803962707520e-02) (3, 1.33503861725330352783e-02) (4, -2.00645565986633300781e-01) (5, 7.11759924888610839844e-01) (6, -6.35898709297180175781e-01) (7, -1.04924285411834716797e+00) (8, 1.44377958774566650391e+00) (9, -1.28825867176055908203e+00) (10, -2.11799368262290954590e-02) (11, 1.16268880665302276611e-01) (12, -1.75766363739967346191e-01) (13, -1.14579997956752777100e-01) (14, -4.34229493141174316406e-01) (15, 1.36858820915222167969e+00) (16, -1.68443238735198974609e+00) (17, 1.87292873859405517578e+00) (18, -7.86672234535217285156e-01) (19, -9.44276213645935058594e-01) (20, 2.68275648355484008789e-01) (21, -1.49022316932678222656e+00) (22, -1.54070901870727539062e+00) (23, 5.81726133823394775391e-02) (24, 7.94557809829711914062e-01) (25, 1.21739172935485839844e+00) (26, 2.60207802057266235352e-01) (27, -1.56428411602973937988e-01) (28, -6.07906877994537353516e-01) (29, 6.59498453140258789062e-01) (30, -1.39822912216186523438e+00) (31, 1.04721379280090332031e+00) (32, -8.29995691776275634766e-01) (33, 3.46880614757537841797e-01) (34, -1.23866903781890869141e+00) (35, -1.47443258762359619141e+00) (36, -7.39549323916435241699e-02) (37, -2.18380808830261230469e+00) (38, -3.36941331624984741211e-01) (39, -8.23639571666717529297e-01) (40, 1.75708353519439697266e+00) (41, -1.19074547290802001953e+00) (42, 6.80005997419357299805e-02) (43, -1.54839289188385009766e+00) (44, -1.73692002892494201660e-01) (45, 1.17112982273101806641e+00) (46, -1.34905982017517089844e+00) (47, -7.73880720138549804688e-01) (48, -8.94386708736419677734e-01) (49, -3.14759105443954467773e-01) (50, -6.47932624816894531250e+00) (51, 5.14090442657470703125e+00) (52, -1.98250961303710937500e+00) (53, -1.80049753189086914062e+00) (54, -2.38083362579345703125e+00) (55, -1.81167507171630859375e+00) (56, -8.15862536430358886719e-01) (57, 1.90319752693176269531e+00) (58, -3.41833782196044921875e+00) (59, -4.75703334808349609375e+00) (60, -2.89887475967407226562e+00) (61, -1.24475955963134765625e+00) (62, -1.29552197456359863281e+00) (63, -1.10153923034667968750e+01) (64, 2.67851638793945312500e+00) (0, 1.10134196281433105469e+00) (1, 3.44374239444732666016e-01) (2, 2.52993088215589523315e-02) (3, 2.55579650402069091797e-02) (4, 1.57097101211547851562e-01) (5, -1.98343440890312194824e-01) (6, -1.89877338707447052002e-02) (7, 5.12803018093109130859e-01) (8, -2.22490057349205017090e-01) (9, 1.89073532819747924805e-01) (10, -3.34417819976806640625e-02) (11, -1.42266020178794860840e-01) (12, -3.74158583581447601318e-02) (13, 2.78677195310592651367e-02) (14, 3.37409168481826782227e-01) (15, -1.68731868267059326172e-01) (16, -1.05140745639801025391e-01) (17, 4.35931272804737091064e-02) (18, -7.07934051752090454102e-02) (19, -2.51183629035949707031e-01) (20, 5.30085619539022445679e-03) (21, 1.59566760063171386719e-01) (22, 5.07408715784549713135e-02) (23, 1.21140806004405021667e-02) (24, -2.72115439176559448242e-01) (25, -2.29396969079971313477e-01) (26, 1.11632786691188812256e-01) (27, 4.80230618268251419067e-03) (28, 4.17189627885818481445e-01) (29, -1.65915206074714660645e-01) (30, -2.17222601175308227539e-01) (31, -2.47154325246810913086e-01) (32, -2.01943114399909973145e-01) (33, -6.17480501532554626465e-02) (34, 8.33223164081573486328e-02) (35, 6.74746811389923095703e-01) (36, 1.17763809859752655029e-01) (37, -1.40905630588531494141e+00) (38, -1.06848135590553283691e-01) (39, -8.26169729232788085938e-01) (40, -1.44049480557441711426e-01) (41, 7.63899087905883789062e-02) (42, 5.33532619476318359375e-01) (43, 1.15033663809299468994e-01) (44, 4.25109338760375976562e+00) (45, -7.30380117893218994141e-02) (46, -1.75461387634277343750e+00) (47, -3.64793986082077026367e-01) (48, 8.96288733929395675659e-03) (49, 1.41437381505966186523e-01) (50, 2.60493695735931396484e-01) (51, -2.30942994356155395508e-01) (52, -4.56547886133193969727e-01) (53, -1.03719544410705566406e+00) (54, -3.83653163909912109375e-01) (55, -4.77596044540405273438e-01) (56, 2.10141763091087341309e-01) (57, 4.88290488719940185547e-02) (58, -5.36751076579093933105e-02) (59, -5.77438414096832275391e-01) (60, -3.83200407028198242188e-01) (61, -5.27556836605072021484e-01) (62, -3.85711878538131713867e-01) (63, -3.31994533538818359375e+00) (64, -1.89920678734779357910e-01) (0, -1.76690340042114257812e-01) (1, -1.22937493026256561279e-01) (2, 2.51906156539916992188e-01) (3, -5.35297058522701263428e-02) (4, -2.38911770284175872803e-02) (5, 2.00810670852661132812e-01) (6, 4.46263179183006286621e-02) (7, 1.43828578293323516846e-02) (8, 7.04200863838195800781e-02) (9, -8.76215919852256774902e-02) (10, 2.88610219955444335938e-01) (11, -2.12702974677085876465e-02) (12, -1.19394920766353607178e-02) (13, -2.74840630590915679932e-02) (14, -5.01457089558243751526e-03) (15, 2.24290981888771057129e-01) (16, -4.28334921598434448242e-02) (17, -6.74299374222755432129e-02) (18, -7.38524571061134338379e-02) (19, 3.45355600118637084961e-01) (20, -1.66850667446851730347e-02) (21, -1.04318305850028991699e-01) (22, -2.36517842859029769897e-02) (23, 3.47183495759963989258e-01) (24, 1.79892092943191528320e-01) (25, -4.69028465449810028076e-02) (26, 1.62261739373207092285e-01) (27, 7.62736350297927856445e-02) (28, 2.99970973283052444458e-02) (29, 5.99332563579082489014e-02) (30, -2.19853986054658889771e-02) (31, 4.33224625885486602783e-02) (32, 1.41783580183982849121e-01) (33, 3.22441756725311279297e-01) (34, 3.86542268097400665283e-02) (35, -8.09905230998992919922e-02) (36, 2.42345809936523437500e-01) (37, 1.41136553138494491577e-02) (38, 2.33513712882995605469e-02) (39, 6.19409456849098205566e-02) (40, 6.32455423474311828613e-02) (41, -2.75306738913059234619e-02) (42, 3.99935990571975708008e-02) (43, -3.04911844432353973389e-02) (44, 1.40913754701614379883e-01) (45, 2.39058285951614379883e-01) (46, -9.08663719892501831055e-02) (47, -5.84545396268367767334e-02) (48, 7.27066099643707275391e-02) (49, -2.12440063478425145149e-05) (50, 4.62620168924331665039e-01) (51, -5.85394203662872314453e-01) (52, 3.03912386298179626465e-02) (53, 2.92818397283554077148e-02) (54, 1.24675333499908447266e-01) (55, -2.73305308073759078979e-02) (56, 1.89360827207565307617e-01) (57, -6.02205507457256317139e-02) (58, -3.34281772375106811523e-02) (59, 8.47328826785087585449e-02) (60, -1.05144781991839408875e-03) (61, 1.21088474988937377930e-01) (62, 9.39009264111518859863e-02) (63, -2.58422166109085083008e-01) (64, -3.09579938650131225586e-01) (0, -1.60574898123741149902e-01) (1, 7.98010975122451782227e-02) (2, -2.92572733014822006226e-02) (3, -1.46024236455559730530e-02) (4, 3.24128754436969757080e-02) (5, -4.60762947797775268555e-01) (6, -1.52858579531311988831e-02) (7, -1.00902497768402099609e-01) (8, -2.03835159540176391602e-01) (9, -1.53948649764060974121e-01) (10, 2.42385372519493103027e-01) (11, -1.93890839815139770508e-01) (12, 6.61636609584093093872e-03) (13, -1.18294797837734222412e-01) (14, -1.33143022656440734863e-01) (15, -1.46772593259811401367e-01) (16, -4.38761323690414428711e-01) (17, -9.40279364585876464844e-02) (18, -1.82842358946800231934e-01) (19, -3.87120574712753295898e-01) (20, -8.81434977054595947266e-02) (21, -1.12049229443073272705e-01) (22, -1.31304278969764709473e-01) (23, 3.10818612575531005859e-01) (24, -8.73275771737098693848e-02) (25, -2.74764209985733032227e-01) (26, 2.68676370382308959961e-01) (27, -1.26181378960609436035e-01) (28, -2.08495154976844787598e-01) (29, -7.99009740352630615234e-01) (30, -3.59349131584167480469e-01) (31, -7.78994634747505187988e-02) (32, -4.07061010599136352539e-01) (33, -4.99898009002208709717e-02) (34, -7.18014538288116455078e-02) (35, -1.88979685306549072266e-01) (36, 3.77271652221679687500e-01) (37, -6.51490807533264160156e-01) (38, 9.58395469933748245239e-03) (39, -2.82308727502822875977e-01) (40, -3.22016298770904541016e-01) (41, -1.13908268511295318604e-01) (42, -3.51847678422927856445e-01) (43, -5.31655550003051757812e-01) (44, -4.36244904994964599609e-01) (45, 3.02356004714965820312e-01) (46, -3.55775952339172363281e-01) (47, -5.07214546203613281250e-01) (48, -2.48783439397811889648e-01) (49, -2.12892368435859680176e-01) (50, 4.17485445737838745117e-01) (51, -9.50793147087097167969e-01) (52, -4.37915146350860595703e-01) (53, -1.16457700729370117188e-01) (54, -6.16116762161254882812e-01) (55, -1.12246286869049072266e+00) (56, 4.07734537124633789062e+00) (57, 2.39513292908668518066e-01) (58, 9.84492123126983642578e-01) (59, 6.95312261581420898438e-01) (60, 1.57922163605690002441e-01) (61, 3.38511252403259277344e+00) (62, -2.05726242065429687500e+00) (63, 1.49288976192474365234e+00) (64, -4.63471710681915283203e-01) (0, -3.35838764905929565430e-01) (1, -1.92920804023742675781e-01) (2, 2.67948567867279052734e-01) (3, -8.97703226655721664429e-03) (4, -1.37812644243240356445e-01) (5, 2.16271653771400451660e-01) (6, -3.02988290786743164062e-02) (7, -5.12641444802284240723e-02) (8, 1.71532854437828063965e-01) (9, -1.66835442185401916504e-01) (10, 2.70691186189651489258e-01) (11, 1.18869669735431671143e-01) (12, -1.13395072519779205322e-01) (13, -3.77048701047897338867e-02) (14, -4.90557998418807983398e-02) (15, 2.01053678989410400391e-01) (16, -7.16568231582641601562e-02) (17, -5.42050749063491821289e-02) (18, -1.03641428053379058838e-01) (19, 2.65621155500411987305e-01) (20, -2.43104938417673110962e-02) (21, -1.00144714117050170898e-01) (22, -3.44874225556850433350e-02) (23, 2.79720813035964965820e-01) (24, 1.80998258292675018311e-03) (25, -1.44620656967163085938e-01) (26, 1.53648629784584045410e-01) (27, -1.20713198557496070862e-02) (28, -1.03272639214992523193e-01) (29, 5.26103116571903228760e-02) (30, 1.18583537638187408447e-01) (31, 7.93779045343399047852e-02) (32, 1.37177556753158569336e-01) (33, 1.77887991070747375488e-01) (34, -8.00969377160072326660e-02) (35, -6.52817962691187858582e-03) (36, 2.94170409440994262695e-01) (37, -3.13548855483531951904e-02) (38, 5.10798580944538116455e-02) (39, 6.76574707031250000000e-02) (40, 2.94957719743251800537e-02) (41, -6.57498091459274291992e-03) (42, -7.05044940114021301270e-02) (43, 5.30766956508159637451e-02) (44, 1.91281363368034362793e-01) (45, 2.30951324105262756348e-01) (46, 1.45659863948822021484e-01) (47, -6.61589577794075012207e-03) (48, -6.31775707006454467773e-03) (49, -1.40319690108299255371e-01) (50, 4.03791606426239013672e-01) (51, -7.54582166671752929688e-01) (52, 1.61940976977348327637e-01) (53, 7.37910717725753784180e-02) (54, 9.87666323781013488770e-02) (55, -5.67616745829582214355e-02) (56, 2.51298964023590087891e-01) (57, -5.42428158223628997803e-02) (58, 2.47157260775566101074e-01) (59, 1.25722557306289672852e-01) (60, 5.28879240155220031738e-02) (61, 3.10827434062957763672e-01) (62, 2.48653337359428405762e-01) (63, -5.49611687660217285156e-01) (64, -4.12355422973632812500e-01) (0, -4.76013183593750000000e-01) (1, -4.11435246467590332031e-01) (2, 7.44038298726081848145e-02) (3, 1.56603753566741943359e-02) (4, -9.07074138522148132324e-02) (5, 1.03142559528350830078e-01) (6, -1.24947562813758850098e-01) (7, -4.58193570375442504883e-01) (8, 8.82532522082328796387e-02) (9, -1.36244997382164001465e-01) (10, -3.05127888917922973633e-01) (11, 1.96016225963830947876e-02) (12, -7.49903395771980285645e-02) (13, -9.95335578918457031250e-02) (14, -3.76415014266967773438e-01) (15, 2.10635084658861160278e-02) (16, 1.39528170228004455566e-01) (17, -1.49413540959358215332e-01) (18, 3.54137234389781951904e-02) (19, -7.55940914154052734375e-01) (20, -1.12616848200559616089e-02) (21, -3.71458619832992553711e-01) (22, -1.38024389743804931641e-01) (23, 4.11551855504512786865e-02) (24, 1.92056998610496520996e-01) (25, 4.26775822415947914124e-03) (26, -2.33026161789894104004e-01) (27, -1.11893415451049804688e-01) (28, -2.59728193283081054688e-01) (29, 7.50534981489181518555e-02) (30, 9.98904034495353698730e-02) (31, 7.73187428712844848633e-02) (32, 6.73902407288551330566e-02) (33, 1.29274907521903514862e-03) (34, -1.66657447814941406250e-01) (35, -3.02770972251892089844e-01) (36, -5.68139910697937011719e-01) (37, -8.61962556838989257812e-01) (38, -1.85961071401834487915e-02) (39, 3.54679644107818603516e-01) (40, 7.06329345703125000000e-02) (41, -8.40497165918350219727e-02) (42, -3.91534000635147094727e-01) (43, -2.03956678509712219238e-01) (44, -3.08465301990509033203e-01) (45, -2.81977385282516479492e-01) (46, -2.77677476406097412109e-01) (47, 3.99625033140182495117e-01) (48, -5.99053055047988891602e-02) (49, -4.35353815555572509766e-01) (50, 1.40937495231628417969e+00) (51, -5.25271356105804443359e-01) (52, 1.21607375144958496094e+00) (53, 4.02887016534805297852e-01) (54, 3.25833231210708618164e-01) (55, -7.31027498841285705566e-02) (56, 1.26430645585060119629e-01) (57, -3.18837195634841918945e-01) (58, 4.66958105564117431641e-01) (59, 7.14959621429443359375e-01) (60, 3.50279033184051513672e-01) (61, 9.43211674690246582031e-01) (62, 1.01825797557830810547e+00) (63, -1.14456212520599365234e+00) (64, -3.13392430543899536133e-01) (0, -4.08460646867752075195e-01) (1, -4.83985453844070434570e-01) (2, 2.19875723123550415039e-01) (3, -1.27142682671546936035e-01) (4, -1.13494344055652618408e-01) (5, 1.83183729648590087891e-01) (6, -3.83625514805316925049e-02) (7, 5.46848699450492858887e-02) (8, 1.25201940536499023438e-01) (9, -9.89897325634956359863e-02) (10, 3.83073389530181884766e-01) (11, 1.08356669545173645020e-01) (12, -9.76196005940437316895e-02) (13, -8.80563855171203613281e-02) (14, -1.11887060105800628662e-01) (15, 2.82370924949645996094e-01) (16, -1.12106151878833770752e-01) (17, -1.16382844746112823486e-01) (18, -1.33970990777015686035e-01) (19, 2.56344288587570190430e-01) (20, -9.68593060970306396484e-02) (21, -7.82337114214897155762e-02) (22, -3.35687175393104553223e-02) (23, 2.60658234357833862305e-01) (24, 3.17218184471130371094e-01) (25, -2.84051964990794658661e-03) (26, 6.22917190194129943848e-02) (27, -9.53798145055770874023e-02) (28, -1.41323566436767578125e-01) (29, 1.04329839348793029785e-01) (30, 1.12626843154430389404e-01) (31, 1.41617745161056518555e-01) (32, 3.18221420049667358398e-01) (33, 1.15193523466587066650e-01) (34, -2.48739402741193771362e-02) (35, -1.79106429219245910645e-01) (36, 2.80268698930740356445e-01) (37, -1.98377951979637145996e-01) (38, 2.54567861557006835938e-01) (39, 1.73186853528022766113e-01) (40, 5.47148548066616058350e-02) (41, -5.33924922347068786621e-02) (42, -1.71695128083229064941e-01) (43, -4.20957431197166442871e-02) (44, 9.57835651934146881104e-03) (45, -5.33112930133938789368e-03) (46, 3.58654648065567016602e-01) (47, 1.71907931566238403320e-01) (48, 1.49732027202844619751e-02) (49, 1.06762638315558433533e-02) (50, 4.35283422470092773438e-01) (51, -6.63963198661804199219e-01) (52, 1.90373882651329040527e-01) (53, 8.79792645573616027832e-02) (54, 6.69476538896560668945e-02) (55, -6.40470087528228759766e-02) (56, 1.79782927036285400391e-01) (57, -8.55713784694671630859e-02) (58, 1.03243723511695861816e-01) (59, -3.04287299513816833496e-02) (60, -1.67182222008705139160e-01) (61, 2.41850748658180236816e-01) (62, 2.63483613729476928711e-01) (63, -5.32429695129394531250e-01) (64, -2.65023708343505859375e-01) (0, 1.43276855349540710449e-01) (1, 1.66113555431365966797e-01) (2, 1.03555344045162200928e-01) (3, 1.38636591145768761635e-04) (4, -6.42611905932426452637e-02) (5, 8.51214408874511718750e-01) (6, -9.62798949331045150757e-03) (7, 2.36605685204267501831e-02) (8, -1.88716128468513488770e-01) (9, 4.77726049721240997314e-02) (10, 7.14615285396575927734e-02) (11, -2.81000789254903793335e-03) (12, 3.42384092509746551514e-02) (13, 6.06515258550643920898e-02) (14, 7.94840157032012939453e-02) (15, -2.02729701995849609375e-01) (16, -3.09464663267135620117e-01) (17, 1.01567849516868591309e-01) (18, 1.72567982226610183716e-02) (19, -1.03522296994924545288e-02) (20, 2.00971830636262893677e-02) (21, -1.36040803045034408569e-02) (22, 1.16013009101152420044e-02) (23, 1.11888378858566284180e-01) (24, -7.14238211512565612793e-02) (25, -5.52069321274757385254e-02) (26, 1.18420951068401336670e-01) (27, 3.13999503850936889648e-02) (28, -1.00978910923004150391e-01) (29, -2.87778675556182861328e-01) (30, -1.36826351284980773926e-01) (31, -1.43742933869361877441e-01) (32, -2.29278847575187683105e-01) (33, -6.71622931957244873047e-01) (34, 1.97330698370933532715e-01) (35, 5.63841033726930618286e-03) (36, 4.59286332130432128906e-01) (37, -7.70171880722045898438e-02) (38, 3.06122750043869018555e-02) (39, -4.35561716556549072266e-01) (40, 7.57829099893569946289e-02) (41, -1.67877435684204101562e-01) (42, 3.63444797694683074951e-02) (43, -1.83443412184715270996e-01) (44, -4.76950436830520629883e-01) (45, -2.13019877672195434570e-01) (46, -1.37087196111679077148e-01) (47, -8.60627710819244384766e-01) (48, -5.45612514019012451172e-01) (49, -9.32122170925140380859e-02) (50, -1.35892838239669799805e-01) (51, -9.69893813133239746094e-01) (52, 3.07792052626609802246e-02) (53, 1.60681352019309997559e-01) (54, -3.95255498588085174561e-02) (55, -9.91855561733245849609e-01) (56, -1.07092775404453277588e-01) (57, -1.42280772328376770020e-01) (58, 6.01637959480285644531e-01) (59, 3.03486317396163940430e-01) (60, 4.38814342021942138672e-01) (61, 6.56701326370239257812e-01) (62, 3.01504683494567871094e+00) (63, 3.62961202859878540039e-01) (64, -3.83621037006378173828e-01) (0, -8.29243659973144531250e+00) (1, -5.55356550216674804688e+00) (2, -2.79823303222656250000e-01) (3, -2.62647223472595214844e+00) (4, -4.59395551681518554688e+00) (5, 1.61321312189102172852e-02) (6, -1.53837621212005615234e+00) (7, -3.23373198509216308594e+00) (8, -2.99918842315673828125e+00) (9, -3.33101820945739746094e+00) (10, -4.86781418323516845703e-01) (11, -2.90386533737182617188e+00) (12, -3.91463708877563476562e+00) (13, -1.85462677478790283203e+00) (14, -2.01003694534301757812e+00) (15, -1.94541323184967041016e+00) (16, 1.10041675567626953125e+01) (17, -5.21094131469726562500e+00) (18, -4.50065612792968750000e+00) (19, 2.21954727172851562500e+00) (20, -4.29837274551391601562e+00) (21, -1.24581658840179443359e+00) (22, -2.64643025398254394531e+00) (23, -1.59354463219642639160e-01) (24, -2.14431858062744140625e+00) (25, -4.37790250778198242188e+00) (26, 2.86619400978088378906e+00) (27, -4.57060813903808593750e+00) (28, -8.33989143371582031250e-01) (29, 8.11037158966064453125e+00) (30, -1.70738995075225830078e+00) (31, -2.20130968093872070312e+00) (32, -3.46119451522827148438e+00) (33, -2.28861212730407714844e+00) (34, -3.02770972251892089844e+00) (35, -1.29662334918975830078e+00) (36, 8.37018013000488281250e-01) (37, 9.02620220184326171875e+00) (38, -4.79227495193481445312e+00) (39, -3.92592120170593261719e+00) (40, -6.36707115173339843750e+00) (41, -2.46347355842590332031e+00) (42, -2.20655143260955810547e-01) (43, 6.29639720916748046875e+00) (44, 4.34502333402633666992e-01) (45, 8.24389755725860595703e-01) (46, -6.03504943847656250000e+00) (47, -3.24268174171447753906e+00) (48, -3.24548935890197753906e+00) (49, 4.24293375015258789062e+00) (50, 2.44387841224670410156e+00) (51, -1.57653303146362304688e+01) (52, -2.75165581703186035156e+00) (53, -2.88920545578002929688e+00) (54, 8.30950069427490234375e+00) (55, 5.86348533630371093750e+00) (56, 3.00524449348449707031e+00) (57, 5.42348527908325195312e+00) (58, 7.49380731582641601562e+00) (59, 9.47792434692382812500e+00) (60, 7.06408119201660156250e+00) (61, 2.22219967842102050781e+00) (62, 1.69046330451965332031e+00) (63, 1.76198558807373046875e+01) (64, -7.91265726089477539062e+00) (0, -5.45773983001708984375e-01) (1, -4.70862239599227905273e-01) (2, 7.97956064343452453613e-02) (3, -1.47354438900947570801e-01) (4, -2.26328134536743164062e-01) (5, 1.58113375306129455566e-01) (6, -1.81507632136344909668e-01) (7, -2.53962069749832153320e-01) (8, -3.61014418303966522217e-02) (9, -2.00691282749176025391e-01) (10, -1.29665762186050415039e-01) (11, -1.60645112395286560059e-01) (12, -1.83614343404769897461e-01) (13, -2.01017990708351135254e-01) (14, -1.70545786619186401367e-01) (15, -4.99346256256103515625e-02) (16, -2.74366021156311035156e-01) (17, -2.11950719356536865234e-01) (18, -3.83544862270355224609e-01) (19, 1.84614014625549316406e+00) (20, 1.03709558025002479553e-02) (21, -1.44648656249046325684e-01) (22, -2.91082918643951416016e-01) (23, 5.71498684585094451904e-02) (24, -2.42999553680419921875e-01) (25, -4.07467126846313476562e-01) (26, -8.97445008158683776855e-02) (27, -3.53395678102970123291e-02) (28, -2.62135297060012817383e-01) (29, -9.02239531278610229492e-02) (30, -2.85348922014236450195e-01) (31, -7.97257274389266967773e-02) (32, -4.32600438594818115234e-01) (33, -6.36904895305633544922e-01) (34, -1.57147109508514404297e-01) (35, -3.25477600097656250000e-01) (36, -1.54274284839630126953e-01) (37, -7.24780797958374023438e-01) (38, 1.48189947009086608887e-01) (39, -3.42891454696655273438e-01) (40, -1.85478135943412780762e-01) (41, -1.22842296957969665527e-01) (42, -2.07495316863059997559e-01) (43, -9.51396767050027847290e-03) (44, 2.81325168907642364502e-02) (45, 9.93833988904953002930e-02) (46, -1.05012327432632446289e-01) (47, 1.02959774434566497803e-01) (48, 9.25388336181640625000e-02) (49, -3.17828685045242309570e-01) (50, -7.15338408946990966797e-01) (51, -8.57432901859283447266e-01) (52, 2.86232638359069824219e+00) (53, 4.70239436253905296326e-03) (54, 3.00541579723358154297e-01) (55, -3.47878783941268920898e-01) (56, 3.26967120170593261719e-01) (57, -5.22945970296859741211e-02) (58, 4.61595803499221801758e-01) (59, 1.13701283931732177734e+00) (60, 4.50491189956665039062e-01) (61, -8.68167802691459655762e-02) (62, 1.08764791488647460938e+00) (63, -2.50091576576232910156e+00) (64, -4.77052718400955200195e-01) (0, -2.01050445437431335449e-01) (1, -1.52989909052848815918e-01) (2, 2.42407232522964477539e-01) (3, -8.70062445756047964096e-04) (4, 4.85671572387218475342e-02) (5, 3.82113695144653320312e-01) (6, -4.44720648229122161865e-02) (7, 5.46353869140148162842e-02) (8, 1.23325981199741363525e-01) (9, 1.05831567198038101196e-02) (10, 2.91131168603897094727e-01) (11, -5.40799200534820556641e-02) (12, -3.66310775279998779297e-02) (13, 3.52459326386451721191e-02) (14, -1.14079609513282775879e-01) (15, 1.01968191564083099365e-01) (16, 2.17283200472593307495e-02) (17, 2.21003107726573944092e-02) (18, -8.80921483039855957031e-02) (19, 4.14559304714202880859e-01) (20, -8.69419500231742858887e-02) (21, 3.60147207975387573242e-02) (22, -1.09982065856456756592e-01) (23, 3.00637125968933105469e-01) (24, 1.65681391954421997070e-01) (25, 1.73535675276070833206e-03) (26, 2.83428579568862915039e-01) (27, -2.45419424027204513550e-02) (28, -3.14581906422972679138e-03) (29, -6.24992065131664276123e-02) (30, 9.25334766507148742676e-02) (31, 3.79440002143383026123e-02) (32, 2.03805733472108840942e-02) (33, 2.39636436104774475098e-01) (34, -9.73017662763595581055e-02) (35, -9.23562794923782348633e-02) (36, 2.25483044981956481934e-01) (37, 6.96460949257016181946e-03) (38, 1.12759202718734741211e-01) (39, 6.62060678005218505859e-02) (40, -7.27479606866836547852e-02) (41, 2.41794735193252563477e-02) (42, 2.79614515602588653564e-02) (43, -8.99205170571804046631e-03) (44, 1.34643718600273132324e-01) (45, 3.78023445606231689453e-01) (46, -1.34263709187507629395e-01) (47, -6.59199431538581848145e-02) (48, 4.62602600455284118652e-02) (49, -2.01211459934711456299e-02) (50, 2.87782520055770874023e-01) (51, -6.15355014801025390625e-01) (52, 2.34272889792919158936e-03) (53, -1.30672613158822059631e-02) (54, 1.04020282626152038574e-01) (55, -1.13043539226055145264e-01) (56, 2.55587190389633178711e-01) (57, 1.33157327771186828613e-01) (58, 8.44094678759574890137e-02) (59, 1.33428856730461120605e-01) (60, -9.02778506278991699219e-02) (61, 1.66372358798980712891e-01) (62, 1.81169405579566955566e-01) (63, -3.17781955003738403320e-01) (64, -3.49290966987609863281e-01) (0, -2.72923380136489868164e-01) (1, -7.11100250482559204102e-02) (2, 3.26350480318069458008e-02) (3, -2.43008844554424285889e-02) (4, -5.53944945335388183594e-01) (5, 1.20228705927729606628e-02) (6, -1.84778347611427307129e-01) (7, -5.08237004280090332031e-01) (8, -5.78053891658782958984e-01) (9, -4.23569977283477783203e-01) (10, 8.74921455979347229004e-02) (11, -4.91248816251754760742e-01) (12, -2.31770679354667663574e-01) (13, -1.06695204973220825195e-01) (14, -2.89316326379776000977e-01) (15, -6.73718512058258056641e-01) (16, -5.41498005390167236328e-01) (17, -1.50702223181724548340e-01) (18, -4.16589170694351196289e-01) (19, 1.01982029154896736145e-02) (20, 4.02446389198303222656e-02) (21, -7.09139853715896606445e-02) (22, -3.39100867509841918945e-01) (23, -7.76435527950525283813e-03) (24, -2.84971892833709716797e-01) (25, -3.71798902750015258789e-01) (26, -1.18302842602133750916e-02) (27, -8.79601910710334777832e-02) (28, 2.64023989439010620117e-01) (29, -3.66898298263549804688e-01) (30, -1.10090188682079315186e-01) (31, -4.17880773544311523438e-01) (32, -1.87691062688827514648e-01) (33, -1.47567912936210632324e-01) (34, -1.88568115234375000000e-01) (35, -4.26896661520004272461e-03) (36, -1.14006303250789642334e-01) (37, -2.05686640739440917969e+00) (38, -1.23354661464691162109e+00) (39, -7.30454623699188232422e-01) (40, -6.38214707374572753906e-01) (41, -6.96590006351470947266e-01) (42, -3.07052344083786010742e-01) (43, -2.27553606033325195312e-01) (44, 2.06186041235923767090e-01) (45, -1.54127910733222961426e-01) (46, -1.87453007698059082031e+00) (47, -6.32190883159637451172e-01) (48, -4.59749430418014526367e-01) (49, -2.63528615236282348633e-01) (50, -7.55932271480560302734e-01) (51, 6.15243673324584960938e-01) (52, -1.87486219406127929688e+00) (53, -1.15587508678436279297e+00) (54, -6.57123684883117675781e-01) (55, -3.01062852144241333008e-01) (56, 1.90288686752319335938e+00) (57, 4.88050556182861328125e+00) (58, 8.15264225006103515625e+00) (59, -1.23552179336547851562e+00) (60, -2.61872261762619018555e-01) (61, 3.68583488464355468750e+00) (62, -1.48602890968322753906e+00) (63, -2.42596817016601562500e+00) (64, 2.92105913162231445312e-01) (0, 1.11954650878906250000e+01) (1, -2.67054486274719238281e+00) (2, -1.04401923716068267822e-01) (3, -6.41865134239196777344e-01) (4, -3.03119868040084838867e-01) (5, 4.00841712951660156250e-01) (6, 4.92341443896293640137e-02) (7, 9.30284976959228515625e+00) (8, -4.71568584442138671875e+00) (9, -3.10559010505676269531e+00) (10, -5.86418688297271728516e-01) (11, -1.29315018653869628906e+00) (12, -1.00469255447387695312e+00) (13, -5.63351571559906005859e-01) (14, 9.75861835479736328125e+00) (15, -3.31496167182922363281e+00) (16, -2.62524724006652832031e+00) (17, -2.59092330932617187500e+00) (18, -3.48377442359924316406e+00) (19, 1.60765305161476135254e-01) (20, -5.93211889266967773438e-01) (21, 9.09528064727783203125e+00) (22, -3.09438562393188476562e+00) (23, -1.07477448880672454834e-01) (24, -2.40901660919189453125e+00) (25, -3.83439064025878906250e+00) (26, -9.91543829441070556641e-01) (27, -1.23533713817596435547e+00) (28, 8.19206142425537109375e+00) (29, -3.24854946136474609375e+00) (30, -2.78869771957397460938e+00) (31, -3.46263670921325683594e+00) (32, -3.42458105087280273438e+00) (33, -5.47772586345672607422e-01) (34, -2.12136793136596679688e+00) (35, 8.45092391967773437500e+00) (36, -1.23137235641479492188e-01) (37, 1.04478940963745117188e+01) (38, -4.49522781372070312500e+00) (39, -4.75386428833007812500e+00) (40, -4.25904798507690429688e+00) (41, -3.99885511398315429688e+00) (42, 7.74346303939819335938e+00) (43, -1.99485898017883300781e+00) (44, -1.27634298801422119141e+00) (45, 4.27009201049804687500e+00) (46, 9.88028717041015625000e+00) (47, -4.73446846008300781250e+00) (48, -3.95407128334045410156e+00) (49, 6.56851196289062500000e+00) (50, 1.08156776428222656250e+00) (51, 1.86395943164825439453e+00) (52, -4.56231880187988281250e+00) (53, -5.78860330581665039062e+00) (54, -5.81406688690185546875e+00) (55, -7.04869842529296875000e+00) (56, 3.37444639205932617188e+00) (57, 9.34236240386962890625e+00) (58, -3.26549315452575683594e+00) (59, -4.41818141937255859375e+00) (60, -4.78259086608886718750e+00) (61, -1.88544368743896484375e+00) (62, 3.91956758499145507812e+00) (63, -1.74839763641357421875e+01) (64, 1.03074193000793457031e+00) (0, -2.74753069877624511719e+00) (1, -9.32354509830474853516e-01) (2, -4.73439171910285949707e-02) (3, -1.29370512440800666809e-02) (4, -6.90349638462066650391e-01) (5, -2.85734310746192932129e-02) (6, -3.90877515077590942383e-01) (7, -2.67775821685791015625e+00) (8, -5.22656321525573730469e-01) (9, -1.33762025833129882812e+00) (10, -3.09132263064384460449e-02) (11, -3.64945799112319946289e-01) (12, 2.60948807001113891602e-01) (13, -3.18017601966857910156e-01) (14, -2.05676221847534179688e+00) (15, -1.30152416229248046875e+00) (16, -1.46961808204650878906e+00) (17, -9.69430983066558837891e-01) (18, -5.42128264904022216797e-01) (19, -7.90690630674362182617e-02) (20, 9.24376770853996276855e-02) (21, -2.12137866020202636719e+00) (22, -1.28130102157592773438e+00) (23, 3.96401286125183105469e-02) (24, -3.48152220249176025391e-01) (25, 1.35003000497817993164e-01) (26, -1.87965966761112213135e-02) (27, 4.10344928503036499023e-01) (28, -1.91269791126251220703e+00) (29, -5.01826405525207519531e-01) (30, 5.42639851570129394531e-01) (31, 9.34911549091339111328e-01) (32, 4.67538505792617797852e-01) (33, 7.51345278695225715637e-03) (34, 7.26212263107299804688e-01) (35, -1.96072721481323242188e+00) (36, -2.38215804100036621094e-01) (37, -3.66969585418701171875e+00) (38, 1.59199118614196777344e+00) (39, 2.69136452674865722656e+00) (40, 1.87101280689239501953e+00) (41, 1.30811190605163574219e+00) (42, -1.78449857234954833984e+00) (43, 1.99354922771453857422e+00) (44, 4.02715981006622314453e-01) (45, 4.54394817352294921875e-02) (46, -6.84981703758239746094e-01) (47, 2.29636931419372558594e+00) (48, 1.88329124450683593750e+00) (49, -1.69155442714691162109e+00) (50, -9.65273678302764892578e-01) (51, -1.90297651290893554688e+00) (52, 4.99978637695312500000e+00) (53, 4.04560279846191406250e+00) (54, 3.21800947189331054688e+00) (55, 2.58740496635437011719e+00) (56, -8.46849605441093444824e-02) (57, -1.90725803375244140625e+00) (58, -3.61334651708602905273e-01) (59, 3.95402598381042480469e+00) (60, 2.74078440666198730469e+00) (61, -3.34730505943298339844e+00) (62, 5.38487613201141357422e-01) (63, -8.25346755981445312500e+00) (64, -1.05901265144348144531e+00) (0, -4.55239951610565185547e-01) (1, -4.06465768814086914062e-01) (2, 6.94239661097526550293e-02) (3, -2.00803458690643310547e-01) (4, -1.92694067955017089844e-01) (5, 6.53412863612174987793e-02) (6, -1.57338216900825500488e-01) (7, -3.56801062822341918945e-01) (8, -2.07834750413894653320e-01) (9, -4.11018133163452148438e-01) (10, -5.20200431346893310547e-02) (11, -2.71467000246047973633e-01) (12, -1.79739132523536682129e-01) (13, -2.17602044343948364258e-01) (14, -1.68257340788841247559e-01) (15, -4.81932312250137329102e-01) (16, -5.65208315849304199219e-01) (17, -2.75765568017959594727e-01) (18, -6.30502030253410339355e-02) (19, -9.28277224302291870117e-02) (20, -3.14049459993839263916e-02) (21, -2.25523591041564941406e-01) (22, -2.32190251350402832031e-01) (23, 5.21550066769123077393e-02) (24, -3.00055921077728271484e-01) (25, -3.31926643848419189453e-01) (26, -6.07059858739376068115e-02) (27, -7.34252035617828369141e-02) (28, -1.66604593396186828613e-01) (29, -2.10285142064094543457e-01) (30, -3.91871005296707153320e-01) (31, -2.12316468358039855957e-01) (32, -3.23696374893188476562e-01) (33, 2.96072697639465332031e+00) (34, 2.20288112759590148926e-01) (35, -1.98798105120658874512e-01) (36, 3.58296215534210205078e-01) (37, -7.48876750469207763672e-01) (38, 3.93160842359066009521e-02) (39, -4.26695287227630615234e-01) (40, -5.65993666648864746094e-01) (41, -3.11168462038040161133e-01) (42, -2.95448124408721923828e-01) (43, -3.40632706880569458008e-01) (44, -1.31532579660415649414e-01) (45, 3.35484981536865234375e-01) (46, 4.74172741174697875977e-01) (47, -8.13861861824989318848e-02) (48, -7.10415691137313842773e-02) (49, -2.58050352334976196289e-01) (50, -3.15299034118652343750e-01) (51, -1.26415765285491943359e+00) (52, 5.84719038009643554688e+00) (53, -1.71920601278543472290e-02) (54, -3.12850415706634521484e-01) (55, -3.60762834548950195312e-01) (56, 2.11178094148635864258e-01) (57, -9.57246497273445129395e-02) (58, 2.91431039571762084961e-01) (59, 3.85068565607070922852e-01) (60, -1.74862891435623168945e-01) (61, -6.15814566612243652344e-01) (62, 5.50252377986907958984e-01) (63, -6.16358566284179687500e+00) (64, -6.01898968219757080078e-01) (0, 8.05099189281463623047e-01) (1, 7.45688021183013916016e-01) (2, 2.90490686893463134766e-02) (3, 5.11524856090545654297e-01) (4, 1.55299448966979980469e+00) (5, 1.22238928452134132385e-02) (6, -1.71843662858009338379e-01) (7, 1.92302238941192626953e+00) (8, 1.19351696968078613281e+00) (9, 1.58373999595642089844e+00) (10, 3.67894209921360015869e-03) (11, 1.39793300628662109375e+00) (12, 1.51739442348480224609e+00) (13, -6.35513246059417724609e-01) (14, 1.52807784080505371094e+00) (15, 8.22264611721038818359e-01) (16, 2.58523464202880859375e-01) (17, 8.19306150078773498535e-02) (18, 1.46740937232971191406e+00) (19, -1.30500450730323791504e-01) (20, -8.48284006118774414062e-01) (21, 8.93239855766296386719e-01) (22, 1.69652986526489257812e+00) (23, -8.63198637962341308594e-02) (24, -4.74674224853515625000e-01) (25, 1.55808794498443603516e+00) (26, -4.39792275428771972656e-02) (27, -1.01328027248382568359e+00) (28, -1.27044931054115295410e-01) (29, 4.73372966051101684570e-01) (30, -7.35940515995025634766e-01) (31, -1.53625893592834472656e+00) (32, -5.83502769470214843750e-01) (33, 1.26809358596801757812e-01) (34, -1.15783262252807617188e+00) (35, 1.39011919498443603516e+00) (36, -5.73236942291259765625e-02) (37, -4.94288063049316406250e+00) (38, -1.53316974639892578125e+00) (39, -8.17725777626037597656e-01) (40, -2.26566269993782043457e-01) (41, -1.21799397468566894531e+00) (42, -8.04867595434188842773e-02) (43, 1.15415763854980468750e+00) (44, 2.38131165504455566406e-01) (45, -2.59512096643447875977e-01) (46, -1.37202024459838867188e+00) (47, -5.39569854736328125000e-01) (48, -1.12677097320556640625e+00) (49, 1.94203913211822509766e+00) (50, -9.33313071727752685547e-01) (51, 2.11887240409851074219e+00) (52, -6.71305227279663085938e+00) (53, -1.83696579933166503906e+00) (54, -1.03854382038116455078e+00) (55, -1.17003798484802246094e+00) (56, -3.22626352310180664062e-01) (57, -1.78438913822174072266e+00) (58, 1.63807070255279541016e+00) (59, -2.55645871162414550781e+00) (60, 2.55502462387084960938e+00) (61, 1.37217259407043457031e+00) (62, -3.46786737442016601562e-01) (63, -5.78076505661010742188e+00) (64, 9.50625240802764892578e-01) (0, -2.59814828634262084961e-01) (1, -3.18004131317138671875e-01) (2, 2.20909208059310913086e-01) (3, -3.35051603615283966064e-02) (4, -1.97537634521722793579e-02) (5, 7.19249248504638671875e-02) (6, -3.27750891447067260742e-02) (7, -2.74825375527143478394e-02) (8, 1.52490109205245971680e-01) (9, -1.72952741384506225586e-01) (10, 6.02084398269653320312e-01) (11, 1.59914895892143249512e-01) (12, -5.35007268190383911133e-02) (13, 1.21972232591360807419e-03) (14, -4.82000410556793212891e-02) (15, 1.48598447442054748535e-01) (16, 5.35591691732406616211e-02) (17, -1.10067799687385559082e-01) (18, -3.54450494050979614258e-02) (19, 2.67271101474761962891e-01) (20, 9.92422364652156829834e-03) (21, -5.59526272118091583252e-02) (22, -1.38052880764007568359e-01) (23, 8.25605764985084533691e-02) (24, 1.25994637608528137207e-01) (25, -4.01200503110885620117e-02) (26, 2.80215758830308914185e-02) (27, -1.20601490139961242676e-01) (28, -1.00940056145191192627e-01) (29, 1.53835475444793701172e-01) (30, 4.12427969276905059814e-02) (31, 1.08756497502326965332e-01) (32, 1.11713975667953491211e-01) (33, 1.72916974406689405441e-03) (34, -1.93262901157140731812e-02) (35, -1.08022145926952362061e-01) (36, 2.68289744853973388672e-01) (37, -2.40633115172386169434e-01) (38, 1.52839228510856628418e-01) (39, 1.01570263504981994629e-01) (40, 7.43726342916488647461e-02) (41, -1.56709942966699600220e-02) (42, -1.98087692260742187500e-01) (43, -8.94209370017051696777e-02) (44, -1.35413616895675659180e-01) (45, 5.27721792459487915039e-02) (46, 3.10653448104858398438e-01) (47, 6.95836078375577926636e-03) (48, 1.01562384516000747681e-02) (49, -1.91808938980102539062e-01) (50, 6.69256091117858886719e-01) (51, -4.55555319786071777344e-01) (52, 3.75077545642852783203e-01) (53, 2.39818722009658813477e-01) (54, 1.14522434771060943604e-01) (55, 9.12054106593132019043e-02) (56, 2.55101382732391357422e-01) (57, -2.10128370672464370728e-02) (58, -1.61151587963104248047e-02) (59, 2.07618847489356994629e-01) (60, 2.85624414682388305664e-02) (61, 2.87157654762268066406e-01) (62, 1.94673642516136169434e-01) (63, -6.21243596076965332031e-01) (64, -1.90403997898101806641e-01) (0, -6.75016939640045166016e-01) (1, -5.88463425636291503906e-01) (2, 6.87020838260650634766e-01) (3, -1.31112515926361083984e-01) (4, -2.66821593046188354492e-01) (5, 7.03385591506958007812e-01) (6, -2.43907794356346130371e-01) (7, 6.62972778081893920898e-03) (8, 4.14656966924667358398e-01) (9, -9.60673168301582336426e-02) (10, 3.91421794891357421875e-01) (11, 1.05147793889045715332e-01) (12, -2.33512982726097106934e-01) (13, 5.60510382056236267090e-02) (14, -8.94776657223701477051e-02) (15, 2.08796590566635131836e-01) (16, -3.24309706687927246094e-01) (17, -6.21344566345214843750e-01) (18, 4.33478653430938720703e-02) (19, 1.93517684936523437500e-01) (20, 4.71761673688888549805e-02) (21, -3.21740172803401947021e-02) (22, -4.32740971446037292480e-02) (23, 7.40658283233642578125e+00) (24, 3.66045683622360229492e-01) (25, -1.72499269247055053711e-01) (26, -1.36767983436584472656e-01) (27, 3.65521502681076526642e-03) (28, -2.15819641947746276855e-01) (29, -2.84819006919860839844e-01) (30, 4.83311265707015991211e-02) (31, 1.00429743528366088867e-01) (32, 9.18000005185604095459e-03) (33, 6.10857665538787841797e-01) (34, -9.91840735077857971191e-02) (35, -2.05401927232742309570e-01) (36, -2.89854735136032104492e-01) (37, -1.40663230419158935547e+00) (38, 3.00353974103927612305e-01) (39, -7.00695663690567016602e-02) (40, -4.02650646865367889404e-02) (41, -8.02052170038223266602e-02) (42, -1.08093112707138061523e-01) (43, -1.93802565336227416992e-01) (44, 3.79385650157928466797e-01) (45, -8.20864915847778320312e-01) (46, 4.61420506238937377930e-01) (47, 1.12797044217586517334e-01) (48, -1.82073488831520080566e-01) (49, -2.18907445669174194336e-01) (50, 1.50484502315521240234e+00) (51, -2.02680706977844238281e+00) (52, 3.38395714759826660156e-01) (53, 2.48077139258384704590e-01) (54, -4.01471763849258422852e-01) (55, 9.16663408279418945312e-01) (56, 2.76904385536909103394e-02) (57, -6.28978908061981201172e-01) (58, 1.98407083749771118164e-01) (59, 1.17043843492865562439e-02) (60, 5.83674982190132141113e-02) (61, 6.88123881816864013672e-01) (62, 8.99366259574890136719e-01) (63, 1.13019275665283203125e+00) (64, -9.06458258628845214844e-01) (0, -1.11750755459070205688e-02) (1, 1.25583723187446594238e-01) (2, 1.62904299795627593994e-02) (3, -9.52698464971035718918e-04) (4, -2.21173204481601715088e-02) (5, 1.63269951939582824707e-01) (6, 1.38683408498764038086e-01) (7, -1.19690641760826110840e-01) (8, -1.16670608520507812500e-01) (9, -7.26073384284973144531e-02) (10, 1.33187770843505859375e-01) (11, -7.92347341775894165039e-02) (12, -1.19282163679599761963e-01) (13, -4.73386347293853759766e-02) (14, -1.08206719160079956055e-01) (15, -1.80101692676544189453e-01) (16, -1.50044411420822143555e-01) (17, 7.15295551344752311707e-03) (18, -1.27873465418815612793e-01) (19, 3.61632369458675384521e-03) (20, -7.17281550168991088867e-02) (21, -4.96780537068843841553e-02) (22, -1.95720747113227844238e-01) (23, -6.85811862349510192871e-02) (24, -2.12552353739738464355e-01) (25, -1.11135996878147125244e-01) (26, 2.22570046782493591309e-01) (27, 1.47343659773468971252e-03) (28, -4.23465631902217864990e-02) (29, -2.46091052889823913574e-01) (30, -6.82616457343101501465e-02) (31, -1.42383441329002380371e-01) (32, -1.73847854137420654297e-01) (33, 1.40956974029541015625e+00) (34, 6.87892809510231018066e-02) (35, -9.77277234196662902832e-02) (36, 4.66923087835311889648e-01) (37, 1.81652549654245376587e-02) (38, -1.49089172482490539551e-01) (39, -2.73631066083908081055e-01) (40, -2.48949989676475524902e-01) (41, -2.96159815043210983276e-02) (42, -1.02170646190643310547e-01) (43, -2.81678676605224609375e-01) (44, 1.34801715612411499023e-01) (45, -3.10504019260406494141e-01) (46, -3.77343803644180297852e-01) (47, -1.97167351841926574707e-01) (48, -1.34245809167623519897e-02) (49, -1.51795893907546997070e-01) (50, 2.17511624097824096680e-01) (51, -6.90834760665893554688e-01) (52, 2.43924275040626525879e-01) (53, 1.14721365272998809814e-01) (54, -1.55480176210403442383e-01) (55, -1.83901444077491760254e-01) (56, 2.00287356972694396973e-01) (57, 2.45832562446594238281e-01) (58, 3.55737447738647460938e-01) (59, 3.56662631034851074219e-01) (60, -1.69764593243598937988e-01) (61, -1.17686621844768524170e-01) (62, 2.39001765847206115723e-01) (63, 5.62351308763027191162e-02) (64, -4.14313733577728271484e-01) (0, -5.93666434288024902344e-01) (1, -6.20911061763763427734e-01) (2, 9.44123566150665283203e-02) (3, -1.19576990604400634766e-01) (4, -2.77983963489532470703e-01) (5, 2.83023357391357421875e-01) (6, -1.63512110710144042969e-01) (7, -3.76289665699005126953e-01) (8, 5.34964911639690399170e-02) (9, -3.46889108419418334961e-01) (10, 2.53459185361862182617e-01) (11, 2.20956932753324508667e-02) (12, -1.03850692510604858398e-01) (13, -9.42412763833999633789e-02) (14, -3.40961009263992309570e-01) (15, -4.06223237514495849609e-02) (16, -2.47906029224395751953e-01) (17, -3.56208473443984985352e-01) (18, -2.37209871411323547363e-02) (19, 3.65252383053302764893e-02) (20, -1.45666256546974182129e-01) (21, -2.92682617902755737305e-01) (22, -2.91525602340698242188e-01) (23, -1.65428072214126586914e-01) (24, 1.49881899356842041016e-01) (25, -1.94820716977119445801e-01) (26, -4.71254259347915649414e-01) (27, -1.19040109217166900635e-01) (28, -3.64797919988632202148e-01) (29, -5.31670600175857543945e-02) (30, 1.18200272321701049805e-01) (31, 1.34875446557998657227e-01) (32, 2.06534132361412048340e-01) (33, -1.66633829474449157715e-01) (34, 4.12722490727901458740e-03) (35, -4.31824982166290283203e-01) (36, 1.44498601555824279785e-01) (37, -1.12583303451538085938e+00) (38, 6.18581712245941162109e-01) (39, 1.51602104306221008301e-01) (40, -2.04084999859333038330e-03) (41, -1.60529479384422302246e-01) (42, -5.11131167411804199219e-01) (43, -1.35584354400634765625e-01) (44, 3.23213964700698852539e-01) (45, -4.55051958560943603516e-01) (46, 3.91910910606384277344e-01) (47, 1.60381123423576354980e-01) (48, -1.42147183418273925781e-01) (49, -3.91657829284667968750e-01) (50, 5.86207532882690429688e+00) (51, -1.25626552104949951172e+00) (52, 1.19338679313659667969e+00) (53, 3.19283127784729003906e-01) (54, 2.59265422821044921875e-01) (55, 2.62563496828079223633e-01) (56, -9.39100980758666992188e-02) (57, -7.39821493625640869141e-01) (58, 3.79144459962844848633e-01) (59, 7.42851436138153076172e-01) (60, 7.84465730190277099609e-01) (61, 5.55085957050323486328e-01) (62, 7.72908866405487060547e-01) (63, 4.00392681360244750977e-01) (64, -6.59478008747100830078e-01) (0, -2.46705979108810424805e-01) (1, -3.84157896041870117188e-01) (2, 1.66325926780700683594e-01) (3, -4.03770953416824340820e-02) (4, 3.81107144057750701904e-02) (5, 1.06362670660018920898e-01) (6, -6.83910846710205078125e-02) (7, -1.33466096594929695129e-02) (8, 2.98504620790481567383e-01) (9, -4.41975556313991546631e-02) (10, 1.85527473688125610352e-01) (11, 1.18186168372631072998e-01) (12, -1.11306324601173400879e-01) (13, -1.11775733530521392822e-01) (14, 2.37717851996421813965e-02) (15, 2.05945879220962524414e-01) (16, 4.99074272811412811279e-02) (17, -2.85152234137058258057e-02) (18, -1.06610231101512908936e-01) (19, 2.48712107539176940918e-01) (20, -7.94311165809631347656e-02) (21, 5.48050329089164733887e-02) (22, -2.60613132268190383911e-02) (23, 1.22700862586498260498e-01) (24, 2.45082989335060119629e-01) (25, -1.64633259177207946777e-01) (26, 1.40773743391036987305e-01) (27, -3.65043617784976959229e-02) (28, 2.50450503081083297729e-02) (29, 8.49753022193908691406e-02) (30, 1.14045687019824981689e-01) (31, 1.22692309319972991943e-01) (32, 2.54115581512451171875e-01) (33, 1.55856266617774963379e-01) (34, 5.78942894935607910156e-02) (35, -1.85083467513322830200e-02) (36, 4.92951422929763793945e-01) (37, -7.75534287095069885254e-02) (38, 1.81019991636276245117e-01) (39, 1.58625692129135131836e-01) (40, -8.47432762384414672852e-02) (41, -1.03081062436103820801e-01) (42, -7.11465477943420410156e-02) (43, -3.85694131255149841309e-02) (44, -1.61402747035026550293e-01) (45, 7.42980614304542541504e-02) (46, 1.40727445483207702637e-01) (47, 1.62100210785865783691e-01) (48, -1.19171328842639923096e-01) (49, 3.36669273674488067627e-02) (50, 4.76352930068969726562e-01) (51, -5.58950006961822509766e-01) (52, 9.68304052948951721191e-02) (53, 3.50086651742458343506e-02) (54, 1.66367366909980773926e-03) (55, -4.15523862466216087341e-03) (56, 2.52525031566619873047e-01) (57, 9.57608819007873535156e-02) (58, 1.15574173629283905029e-01) (59, -5.66537268459796905518e-02) (60, -3.84168736636638641357e-02) (61, 1.64247274398803710938e-01) (62, 2.06990987062454223633e-01) (63, -5.14511048793792724609e-01) (64, -3.04088324308395385742e-01) (0, 3.95099759101867675781e+00) (1, 2.40957641601562500000e+00) (2, 2.81225681304931640625e-01) (3, 6.09202325344085693359e-01) (4, -3.54883819818496704102e-01) (5, 4.95920211076736450195e-01) (6, 7.89520859718322753906e-01) (7, 2.81955575942993164062e+00) (8, 1.90372025966644287109e+00) (9, 7.22224786877632141113e-02) (10, 2.60322570800781250000e-01) (11, -2.19300937652587890625e+00) (12, -2.43116214871406555176e-01) (13, 6.95426285266876220703e-01) (14, 1.45014941692352294922e+00) (15, 9.77407634258270263672e-01) (16, -1.07468104362487792969e+00) (17, -2.50344157218933105469e+00) (18, -2.75587177276611328125e+00) (19, -1.29506289958953857422e-01) (20, -6.97370171546936035156e-01) (21, 4.40326958894729614258e-01) (22, -1.50478911399841308594e+00) (23, -2.85200655460357666016e-01) (24, -2.44177746772766113281e+00) (25, -2.43300604820251464844e+00) (26, 5.04624843597412109375e-02) (27, -1.67419874668121337891e+00) (28, 7.48912453651428222656e-01) (29, -5.12080371379852294922e-01) (30, -2.08964586257934570312e+00) (31, -2.26641678810119628906e+00) (32, -2.44101166725158691406e+00) (33, -8.93843233585357666016e-01) (34, -1.92515563964843750000e+00) (35, 2.89062470197677612305e-01) (36, -2.19181999564170837402e-01) (37, -1.12018358707427978516e+00) (38, -3.71677064895629882812e+00) (39, -2.97448229789733886719e+00) (40, -2.12518596649169921875e+00) (41, -1.62036180496215820312e+00) (42, 7.33254492282867431641e-01) (43, 8.11090171337127685547e-02) (44, 1.62360489368438720703e-01) (45, -9.87666130065917968750e-01) (46, -3.93513631820678710938e+00) (47, -2.52510881423950195312e+00) (48, -1.97632431983947753906e+00) (49, 9.96590673923492431641e-01) (50, -4.78508055210113525391e-01) (51, -2.48890233039855957031e+00) (52, -2.68254017829895019531e+00) (53, -2.64235305786132812500e+00) (54, -1.29913139343261718750e+00) (55, -1.15782308578491210938e+00) (56, -3.91373522579669952393e-02) (57, -1.07583320140838623047e+00) (58, -2.99160361289978027344e+00) (59, -1.87451517581939697266e+00) (60, -3.91415029764175415039e-01) (61, -1.34372472763061523438e-01) (62, -1.24575734138488769531e+00) (63, 7.80301570892333984375e-01) (64, -1.32258951663970947266e+00) (0, -2.24383875727653503418e-01) (1, -1.61977678537368774414e-01) (2, 1.58651545643806457520e-02) (3, 8.08976963162422180176e-02) (4, 4.76262643933296203613e-02) (5, 3.27643573284149169922e-01) (6, 8.60890559852123260498e-03) (7, -6.19863085448741912842e-02) (8, 1.07535481452941894531e-01) (9, -1.08405947685241699219e-01) (10, 1.68338567018508911133e-01) (11, -5.38347139954566955566e-02) (12, 7.94014632701873779297e-02) (13, 1.82121153920888900757e-02) (14, 2.42208526469767093658e-03) (15, 1.35788619518280029297e-01) (16, -4.54039387404918670654e-02) (17, -6.30495399236679077148e-02) (18, -2.15958684682846069336e-01) (19, 4.90836471319198608398e-01) (20, -5.26456199586391448975e-02) (21, -9.38244350254535675049e-03) (22, -1.91712722182273864746e-01) (23, 3.87266874313354492188e-01) (24, 7.68433138728141784668e-02) (25, -1.60055637359619140625e-01) (26, 4.63907659053802490234e-01) (27, 4.99495007097721099854e-02) (28, 1.10867870971560478210e-02) (29, -1.12875685095787048340e-01) (30, 5.50630763173103332520e-02) (31, 4.83995042741298675537e-02) (32, 5.41888810694217681885e-02) (33, 4.32638525962829589844e-01) (34, 2.60478295385837554932e-02) (35, -2.08496022969484329224e-02) (36, 2.57758021354675292969e-01) (37, 1.33189707994461059570e-01) (38, 6.21129721403121948242e-02) (39, 7.58615415543317794800e-03) (40, -6.80631473660469055176e-02) (41, -2.29133032262325286865e-02) (42, -9.41130071878433227539e-02) (43, -3.06107193231582641602e-01) (44, 6.06750547885894775391e-01) (45, 8.59798550605773925781e-01) (46, -4.15572881698608398438e-01) (47, -3.14119495451450347900e-02) (48, -4.94794398546218872070e-02) (49, -1.26414328813552856445e-01) (50, 3.33203226327896118164e-01) (51, -6.71073257923126220703e-01) (52, 6.84001892805099487305e-02) (53, -7.26261287927627563477e-02) (54, -1.01522110402584075928e-01) (55, -1.20214909315109252930e-01) (56, 4.81237888336181640625e-01) (57, 1.08951508998870849609e-01) (58, 1.25962480902671813965e-01) (59, 2.73530125617980957031e-01) (60, -1.00830055773258209229e-01) (61, 5.68862222135066986084e-02) (62, -1.43740639090538024902e-01) (63, -4.48194652795791625977e-01) (64, -4.08647328615188598633e-01) (0, 3.96182942390441894531e+00) (1, -7.16997623443603515625e+00) (2, -4.41187590360641479492e-01) (3, 1.18477857112884521484e+00) (4, 3.07570219039916992188e-01) (5, -2.26186871528625488281e-01) (6, -5.05664825439453125000e+00) (7, 4.62076902389526367188e+00) (8, 2.54912638664245605469e+00) (9, -6.91501331329345703125e+00) (10, 1.75945565104484558105e-01) (11, 8.69765639305114746094e-01) (12, 2.32290670275688171387e-01) (13, -5.67813110351562500000e+00) (14, 3.62798571586608886719e+00) (15, 2.95275259017944335938e+00) (16, 1.94557583332061767578e+00) (17, 2.68697047233581542969e+00) (18, -6.53882789611816406250e+00) (19, -2.23357245326042175293e-01) (20, -6.05141353607177734375e+00) (21, 1.74858927726745605469e+00) (22, -6.68991231918334960938e+00) (23, -1.70449316501617431641e-01) (24, 2.47566294670104980469e+00) (25, -6.74752998352050781250e+00) (26, 8.87258499860763549805e-02) (27, -6.70810508728027343750e+00) (28, 1.96580362319946289062e+00) (29, 3.25490641593933105469e+00) (30, 1.74576008319854736328e+00) (31, 2.14781522750854492188e+00) (32, 1.94150543212890625000e+00) (33, 5.97952902317047119141e-01) (34, -6.89481019973754882812e+00) (35, -4.26992225646972656250e+00) (36, 1.27470225095748901367e-01) (37, 2.89630794525146484375e+00) (38, 2.65197825431823730469e+00) (39, 1.65628254413604736328e+00) (40, 1.91300117969512939453e+00) (41, -6.99201440811157226562e+00) (42, 1.54470455646514892578e+00) (43, 5.57426691055297851562e-01) (44, 2.95934140682220458984e-01) (45, 4.52472627162933349609e-01) (46, 3.55788946151733398438e+00) (47, 1.64766621589660644531e+00) (48, -6.85222864151000976562e+00) (49, 6.12106382846832275391e-01) (50, 5.00587165355682373047e-01) (51, 5.08735466003417968750e+00) (52, 1.33867299556732177734e+00) (53, 2.47045779228210449219e+00) (54, 2.04953694343566894531e+00) (55, -6.22008943557739257812e+00) (56, 2.83918619155883789062e-01) (57, 2.97864580154418945312e+00) (58, 2.64793276786804199219e+00) (59, 1.63844478130340576172e+00) (60, -5.70502519607543945312e+00) (61, -1.92756903171539306641e+00) (62, -1.29947948455810546875e+00) (63, -1.19360771179199218750e+01) (64, 2.59407043457031250000e+00) (0, -1.43349385261535644531e+00) (1, -1.00692152976989746094e+00) (2, 1.02884456515312194824e-01) (3, -4.34189528226852416992e-01) (4, -4.01944607496261596680e-01) (5, 6.26236915588378906250e-01) (6, -4.15585011243820190430e-01) (7, -4.51634317636489868164e-01) (8, -9.41381156444549560547e-02) (9, -5.92716224491596221924e-02) (10, 4.43436317145824432373e-02) (11, -1.05249099433422088623e-01) (12, -3.55575948953628540039e-01) (13, -3.11828381381928920746e-03) (14, -3.27825695276260375977e-01) (15, -3.51845510303974151611e-02) (16, -7.42102384567260742188e-01) (17, -1.59564502537250518799e-02) (18, 6.56940817832946777344e-01) (19, -3.29224675893783569336e-01) (20, -1.78304295986890792847e-02) (21, -1.58257618546485900879e-01) (22, 1.40941411256790161133e-01) (23, 6.71457499265670776367e-02) (24, 2.39749535918235778809e-01) (25, 2.52153784036636352539e-01) (26, 4.45291958749294281006e-02) (27, -7.38689899444580078125e-02) (28, -4.25061345100402832031e-01) (29, 2.31269180774688720703e-01) (30, -1.21876943111419677734e+00) (31, 2.65985801815986633301e-02) (32, -8.10656547546386718750e-01) (33, -2.94529292732477188110e-02) (34, 5.95667287707328796387e-02) (35, -5.04252463579177856445e-02) (36, -5.92188313603401184082e-02) (37, -2.92489409446716308594e+00) (38, 4.64677602052688598633e-01) (39, -6.01437807083129882812e-01) (40, -2.56049931049346923828e-01) (41, -1.11474804580211639404e-01) (42, -5.66194832324981689453e-01) (43, -1.78621423244476318359e+00) (44, 1.14211187362670898438e+01) (45, 3.83500218391418457031e-01) (46, 1.12691318988800048828e+00) (47, -4.45053666830062866211e-01) (48, -2.16905400156974792480e-01) (49, -4.95599389076232910156e-01) (50, -8.46990585327148437500e-01) (51, -1.04482173919677734375e+01) (52, 1.48905366659164428711e-01) (53, 1.18664763867855072021e-01) (54, -6.41862571239471435547e-01) (55, 2.75226205587387084961e-01) (56, 7.70384728908538818359e-01) (57, -6.60977721214294433594e-01) (58, 2.20902442932128906250e+00) (59, -4.40249830484390258789e-01) (60, -8.95484983921051025391e-01) (61, -1.04125881195068359375e+00) (62, 1.10037639737129211426e-01) (63, 6.28262472152709960938e+00) (64, -5.26532268524169921875e+00) (0, -8.42188820242881774902e-02) (1, -1.10055156052112579346e-01) (2, 1.58558830618858337402e-01) (3, -3.42073068022727966309e-02) (4, -2.51771006733179092407e-02) (5, 2.48568370938301086426e-01) (6, -8.66632163524627685547e-02) (7, -9.96318310499191284180e-02) (8, 1.04261353611946105957e-01) (9, -7.44912773370742797852e-02) (10, 2.38812685012817382812e-01) (11, 2.81780865043401718140e-02) (12, 9.09793749451637268066e-02) (13, 4.81527522206306457520e-02) (14, 6.08580447733402252197e-02) (15, -3.17818969488143920898e-02) (16, 4.60594072937965393066e-02) (17, 2.55985278636217117310e-03) (18, 1.47949634119868278503e-02) (19, 3.00870597362518310547e-01) (20, 2.85034179687500000000e-02) (21, 7.82381296157836914062e-02) (22, -4.27887588739395141602e-02) (23, 1.92305088043212890625e-01) (24, 5.60904443264007568359e-02) (25, -3.86786982417106628418e-02) (26, 2.76422500610351562500e-01) (27, -4.91931941360235214233e-03) (28, -6.09264187514781951904e-02) (29, -4.45659691467881202698e-03) (30, 7.78283104300498962402e-02) (31, 1.08137957751750946045e-01) (32, -7.23175927996635437012e-02) (33, 3.57668668031692504883e-01) (34, -4.20401021838188171387e-02) (35, -1.87304373830556869507e-02) (36, 2.51632928848266601562e-01) (37, 4.02009636163711547852e-02) (38, 7.76964332908391952515e-03) (39, -7.71291255950927734375e-02) (40, 2.92210131883621215820e-02) (41, -3.36223319172859191895e-02) (42, 3.45438010990619659424e-02) (43, 2.22343858331441879272e-02) (44, 5.78979477286338806152e-02) (45, 3.10478329658508300781e-01) (46, 3.04061304777860641479e-02) (47, 7.58070349693298339844e-02) (48, -5.01788780093193054199e-02) (49, 1.21771693229675292969e-02) (50, 4.25105065107345581055e-01) (51, -5.79422056674957275391e-01) (52, 6.91249072551727294922e-02) (53, -4.38318364322185516357e-02) (54, 1.06659181416034698486e-01) (55, -6.63970708847045898438e-02) (56, 3.42953354120254516602e-01) (57, 9.25008356571197509766e-02) (58, 8.14488604664802551270e-02) (59, 1.47172629833221435547e-01) (60, -7.45730549097061157227e-02) (61, 2.74912983179092407227e-01) (62, 3.31597298383712768555e-01) (63, -5.59484243392944335938e-01) (64, -3.69849473237991333008e-01) (0, -4.24712419509887695312e-01) (1, -3.30078631639480590820e-01) (2, 2.43976503610610961914e-01) (3, -6.66338428854942321777e-02) (4, -1.21374256908893585205e-01) (5, 2.86978542804718017578e-01) (6, -1.34716570377349853516e-01) (7, -4.29259128868579864502e-02) (8, 1.10957577824592590332e-01) (9, -7.69109278917312622070e-02) (10, 4.84856694936752319336e-01) (11, 1.42020866274833679199e-01) (12, -7.57801579311490058899e-03) (13, -6.09970577061176300049e-02) (14, -1.18372969329357147217e-01) (15, 1.29572331905364990234e-01) (16, -1.44013777375221252441e-01) (17, -1.74969077110290527344e-01) (18, -1.55956149101257324219e-01) (19, 2.65391975641250610352e-01) (20, -1.11020736396312713623e-01) (21, -1.09321005642414093018e-01) (22, -1.88163314014673233032e-02) (23, 1.12319990992546081543e-01) (24, 1.91848590970039367676e-01) (25, -3.04865017533302307129e-02) (26, 7.76548758149147033691e-02) (27, -4.89783063530921936035e-02) (28, -6.82203993201255798340e-02) (29, -7.06062018871307373047e-02) (30, 6.73961713910102844238e-02) (31, 1.40270888805389404297e-01) (32, 1.13116092979907989502e-02) (33, 3.61055396497249603271e-02) (34, -8.30827429890632629395e-02) (35, -1.36579349637031555176e-01) (36, 4.24871712923049926758e-01) (37, -2.21306353807449340820e-01) (38, 2.22870483994483947754e-01) (39, -3.77533421851694583893e-03) (40, -1.09618581831455230713e-01) (41, -2.40625515580177307129e-02) (42, -1.74589499831199645996e-01) (43, -1.56533762812614440918e-01) (44, 6.12987950444221496582e-02) (45, -1.17048777639865875244e-01) (46, 8.84016454219818115234e-02) (47, -3.55012156069278717041e-02) (48, -5.85490688681602478027e-02) (49, -1.16262219846248626709e-01) (50, 2.68463194370269775391e-01) (51, -6.87930047512054443359e-01) (52, 4.48123425245285034180e-01) (53, 1.95010542869567871094e-01) (54, -5.12884580530226230621e-04) (55, -5.72490692138671875000e-02) (56, 2.18721181154251098633e-01) (57, 8.45917779952287673950e-03) (58, 4.05898958444595336914e-01) (59, 2.58378535509109497070e-01) (60, 1.04219904169440269470e-02) (61, 3.34157407283782958984e-01) (62, 4.91992145776748657227e-01) (63, -5.12581825256347656250e-01) (64, -3.42407733201980590820e-01) (0, -1.11623540520668029785e-01) (1, -1.74405992031097412109e-01) (2, 1.09580956399440765381e-01) (3, -5.30855208635330200195e-02) (4, -9.37426015734672546387e-02) (5, 2.20295667648315429688e-01) (6, 1.76290813833475112915e-02) (7, -1.08433086425065994263e-02) (8, -1.27249266952276229858e-02) (9, -6.43164366483688354492e-02) (10, 2.55381166934967041016e-01) (11, 3.74810933135449886322e-03) (12, 8.17480683326721191406e-02) (13, 1.27583304420113563538e-02) (14, -1.29224359989166259766e-01) (15, -1.30281157908029854298e-04) (16, -1.42568647861480712891e-01) (17, -3.05872801691293716431e-02) (18, -1.46418452262878417969e-01) (19, 2.52350687980651855469e-01) (20, 3.82233001291751861572e-02) (21, -7.90379592217504978180e-04) (22, -4.40239235758781433105e-02) (23, 2.49908253550529479980e-01) (24, -3.42191793024539947510e-02) (25, -8.51019322872161865234e-02) (26, 2.78599590063095092773e-01) (27, 5.47856539487838745117e-02) (28, -1.06177873909473419189e-01) (29, -1.42896547913551330566e-01) (30, -8.96116569638252258301e-02) (31, -8.68401750922203063965e-02) (32, -8.37735459208488464355e-03) (33, 3.21501523256301879883e-01) (34, -1.63917429745197296143e-02) (35, 4.29745949804782867432e-02) (36, 3.95751178264617919922e-01) (37, 1.31419613957405090332e-01) (38, 3.67202423512935638428e-02) (39, -7.94361904263496398926e-02) (40, -5.45660890638828277588e-02) (41, 1.04385524988174438477e-01) (42, 2.72932033985853195190e-02) (43, -1.01651132106781005859e-01) (44, 1.86739817261695861816e-01) (45, 1.85703426599502563477e-01) (46, -6.50561824440956115723e-02) (47, 1.60172451287508010864e-02) (48, -4.85047772526741027832e-02) (49, 6.19137212634086608887e-02) (50, 2.11379289627075195312e-01) (51, -5.73187232017517089844e-01) (52, 1.29952415823936462402e-01) (53, 1.12396977841854095459e-01) (54, 6.82164579629898071289e-02) (55, 2.87740509957075119019e-02) (56, 2.34850764274597167969e-01) (57, 1.16166085004806518555e-01) (58, 2.55272716283798217773e-01) (59, 1.59463718533515930176e-01) (60, 2.75466870516538619995e-02) (61, 3.42895716428756713867e-01) (62, 2.92687386274337768555e-01) (63, -5.09861528873443603516e-01) (64, -3.71844530105590820312e-01) (0, 3.64943552017211914062e+00) (1, 3.01162409782409667969e+00) (2, 5.48136793076992034912e-02) (3, 1.12555980682373046875e+00) (4, 4.58121240139007568359e-01) (5, -2.99311392009258270264e-02) (6, 1.55255961418151855469e+00) (7, 2.61876487731933593750e+00) (8, 1.51053583621978759766e+00) (9, 2.68892383575439453125e+00) (10, 2.85312924534082412720e-02) (11, 1.02636897563934326172e+00) (12, 5.51723003387451171875e-01) (13, 1.80107796192169189453e+00) (14, 2.58754014968872070312e+00) (15, 7.25697100162506103516e-01) (16, 2.42437553405761718750e+00) (17, 1.64240181446075439453e+00) (18, 9.23754930496215820312e-01) (19, -1.95105701684951782227e-01) (20, 1.61474168300628662109e+00) (21, 1.73697292804718017578e+00) (22, 1.99075329303741455078e+00) (23, 7.06122256815433502197e-03) (24, 4.71753001213073730469e-01) (25, -5.11731445789337158203e-01) (26, 9.74036455154418945312e-02) (27, 1.31184387207031250000e+00) (28, 2.85601019859313964844e+00) (29, 3.30151629447937011719e+00) (30, -1.57169687747955322266e+00) (31, -2.65430152416229248047e-01) (32, -1.34385192394256591797e+00) (33, 8.62432122230529785156e-02) (34, 6.03163838386535644531e-01) (35, 2.63874888420104980469e+00) (36, -1.94522421807050704956e-02) (37, 2.11905932426452636719e+00) (38, -4.90322160720825195312e+00) (39, -1.94090259075164794922e+00) (40, -1.09046280384063720703e+00) (41, -1.77649363875389099121e-01) (42, 2.29624128341674804688e+00) (43, 2.97712469100952148438e+00) (44, -3.28053869307041168213e-02) (45, -1.38968184590339660645e-01) (46, -4.69163465499877929688e+00) (47, -1.88108563423156738281e+00) (48, -9.92037057876586914062e-01) (49, 1.37290823459625244141e+00) (50, -1.38863122463226318359e+00) (51, -6.62527465820312500000e+00) (52, -3.69026231765747070312e+00) (53, -1.51723825931549072266e+00) (54, 2.37139463424682617188e+00) (55, 3.89087128639221191406e+00) (56, 1.27076745033264160156e+00) (57, 3.25046777725219726562e+00) (58, 1.72799384593963623047e+00) (59, 1.24032151699066162109e+00) (60, 8.00135612487792968750e-01) (61, 8.17031711339950561523e-02) (62, 2.98252433538436889648e-01) (63, 5.61146354675292968750e+00) (64, -3.28099060058593750000e+00) (0, 6.84362873435020446777e-02) (1, -7.16139972209930419922e-02) (2, 1.90907165408134460449e-01) (3, 5.03202639520168304443e-02) (4, 3.72975841164588928223e-02) (5, 4.21099424362182617188e-01) (6, 9.88751649856567382812e-03) (7, 2.79880687594413757324e-03) (8, -4.43390458822250366211e-02) (9, 7.36896395683288574219e-02) (10, 2.23330333828926086426e-01) (11, -7.40931779146194458008e-02) (12, -7.25403800606727600098e-02) (13, -8.19359496235847473145e-02) (14, 4.82607632875442504883e-02) (15, -4.27609682083129882812e-02) (16, -1.40466511249542236328e-01) (17, -6.79199546575546264648e-02) (18, -3.45216579735279083252e-02) (19, 1.90567120909690856934e-01) (20, 5.74512220919132232666e-02) (21, -9.19713452458381652832e-02) (22, 3.67626361548900604248e-02) (23, 2.27841049432754516602e-01) (24, -5.03883883357048034668e-02) (25, -6.19466453790664672852e-02) (26, 2.17581957578659057617e-01) (27, 9.73557829856872558594e-02) (28, 8.05656425654888153076e-04) (29, -8.64275619387626647949e-02) (30, -5.15190474689006805420e-02) (31, -4.02467325329780578613e-02) (32, -4.11187335848808288574e-02) (33, 1.95050060749053955078e-01) (34, -3.66237610578536987305e-02) (35, -2.60808374732732772827e-02) (36, 2.37452358007431030273e-01) (37, 1.68794840574264526367e-01) (38, -8.95865261554718017578e-02) (39, 2.13047396391630172729e-02) (40, 9.48042888194322586060e-03) (41, 1.02893419563770294189e-01) (42, -8.14963355660438537598e-02) (43, 8.27665149699896574020e-04) (44, 7.12187737226486206055e-02) (45, 3.07090729475021362305e-01) (46, -1.10601484775543212891e-01) (47, -7.48840421438217163086e-02) (48, -7.52448365092277526855e-02) (49, 6.95607066154479980469e-02) (50, 3.19835931062698364258e-01) (51, -5.82358658313751220703e-01) (52, 1.93658664822578430176e-01) (53, -1.70273743569850921631e-02) (54, -1.67084559798240661621e-02) (55, -3.75742577016353607178e-02) (56, 3.08241814374923706055e-01) (57, 1.64417713880538940430e-01) (58, 8.62984880805015563965e-02) (59, 6.03145658969879150391e-02) (60, -4.35029044747352600098e-02) (61, 3.55062842369079589844e-01) (62, 2.91508913040161132812e-01) (63, -5.87032854557037353516e-01) (64, -4.02050822973251342773e-01) (0, 8.49581286311149597168e-02) (1, 1.18899485096335411072e-02) (2, -2.00287848711013793945e-01) (3, 3.43143641948699951172e-02) (4, 4.21245358884334564209e-02) (5, 4.54094886779785156250e-01) (6, 3.34723945707082748413e-03) (7, 4.93197068572044372559e-02) (8, 1.85496956110000610352e-02) (9, 8.72063487768173217773e-02) (10, 4.17796857655048370361e-02) (11, 7.91832581162452697754e-02) (12, 5.99088221788406372070e-02) (13, 1.57408695667982101440e-03) (14, 1.17212191224098205566e-01) (15, 8.21302309632301330566e-02) (16, 1.75147131085395812988e-01) (17, 5.28069362044334411621e-02) (18, -8.81635174155235290527e-02) (19, 3.44752997159957885742e-01) (20, -6.94382563233375549316e-02) (21, 1.04236833751201629639e-01) (22, 5.62047176063060760498e-02) (23, 1.45521461963653564453e-01) (24, -1.92881580442190170288e-02) (25, -2.18021627515554428101e-02) (26, 4.16588455438613891602e-01) (27, -5.60853518545627593994e-02) (28, 5.77827766537666320801e-02) (29, -9.69309639185667037964e-03) (30, -1.35286837816238403320e-01) (31, -5.89540414512157440186e-02) (32, 5.86600154638290405273e-02) (33, 2.84957349300384521484e-01) (34, 7.46411606669425964355e-02) (35, 8.55315010994672775269e-03) (36, 1.48844301700592041016e-01) (37, 1.87414377927780151367e-01) (38, -1.60164892673492431641e-01) (39, -9.38473939895629882812e-02) (40, 9.32816937565803527832e-02) (41, 1.42280161380767822266e-01) (42, 1.57980974763631820679e-02) (43, -1.85702145099639892578e-02) (44, 8.82729515433311462402e-02) (45, 4.03243660926818847656e-01) (46, -2.20551311969757080078e-01) (47, -4.22646999359130859375e-02) (48, -4.77428957819938659668e-02) (49, -9.74216312170028686523e-03) (50, 3.50110709667205810547e-01) (51, -5.85534989833831787109e-01) (52, -3.53989183902740478516e-01) (53, -1.05873882770538330078e-01) (54, -6.77865296602249145508e-02) (55, -7.10023120045661926270e-02) (56, 4.00244116783142089844e-01) (57, 1.95940524339675903320e-01) (58, -2.25705847144126892090e-01) (59, -2.40217164158821105957e-01) (60, -8.57904329895973205566e-02) (61, -9.00033935904502868652e-02) (62, -4.49003577232360839844e-02) (63, 1.15629211068153381348e-01) (64, -3.66813391447067260742e-01) (0, -5.40638506412506103516e-01) (1, -4.66488808393478393555e-01) (2, 1.85378640890121459961e-01) (3, -1.71907484531402587891e-01) (4, -1.84261828660964965820e-01) (5, 1.34729027748107910156e-01) (6, -1.19315631687641143799e-01) (7, -4.21987265348434448242e-01) (8, 4.60889041423797607422e-02) (9, -1.96498483419418334961e-01) (10, -7.74711668491363525391e-02) (11, 5.04730343818664550781e-02) (12, -1.28547117114067077637e-01) (13, -1.53534322977066040039e-01) (14, -3.20534557104110717773e-01) (15, 8.88266339898109436035e-02) (16, -8.97459015250205993652e-02) (17, -6.71164020895957946777e-02) (18, 5.54991737008094787598e-02) (19, -4.47324037551879882812e-01) (20, -1.41549557447433471680e-01) (21, -3.44108015298843383789e-01) (22, -1.49580225348472595215e-01) (23, 1.23202456161379814148e-02) (24, 2.43988379836082458496e-01) (25, -1.16987377405166625977e-01) (26, -9.06433403491973876953e-01) (27, -8.64511579275131225586e-02) (28, -2.78161764144897460938e-01) (29, -1.80972944945096969604e-02) (30, 1.26822099089622497559e-01) (31, 9.83742848038673400879e-02) (32, 2.83094346523284912109e-01) (33, 6.26353174448013305664e-03) (34, -1.63962736725807189941e-01) (35, -4.13360178470611572266e-01) (36, -6.23644888401031494141e-01) (37, -9.12243127822875976562e-01) (38, 1.39234080910682678223e-01) (39, 3.30320119857788085938e-01) (40, 5.45874051749706268311e-02) (41, -6.90966695547103881836e-02) (42, -4.30440664291381835938e-01) (43, -1.34553730487823486328e-01) (44, -1.59891352057456970215e-01) (45, -4.21762526035308837891e-01) (46, -2.83719636499881744385e-02) (47, 2.07137480378150939941e-01) (48, -2.15099126100540161133e-01) (49, -4.56310600042343139648e-01) (50, 1.28849041461944580078e+00) (51, -6.34046852588653564453e-01) (52, 1.55733358860015869141e+00) (53, 2.62691736221313476562e-01) (54, 3.11241120100021362305e-01) (55, 1.05220580007880926132e-03) (56, 2.66761690378189086914e-01) (57, -4.14230763912200927734e-01) (58, 4.87572163343429565430e-01) (59, 6.82774782180786132812e-01) (60, 5.07953405380249023438e-01) (61, 9.02914583683013916016e-01) (62, 9.49385464191436767578e-01) (63, -1.21292996406555175781e+00) (64, -2.42168202996253967285e-01) (0, -1.11285037994384765625e+01) (1, -1.03184652328491210938e+01) (2, 3.29152047634124755859e-01) (3, -1.26817607879638671875e+01) (4, -1.22425460815429687500e+01) (5, -5.36629056930541992188e+00) (6, -8.34590911865234375000e+00) (7, 8.54371833801269531250e+00) (8, 3.51630997657775878906e+00) (9, 4.89410924911499023438e+00) (10, 1.18830692768096923828e+00) (11, 4.29818105697631835938e+00) (12, -1.39980335235595703125e+01) (13, 5.39236545562744140625e+00) (14, 3.70735144615173339844e+00) (15, 4.46378326416015625000e+00) (16, 4.19546985626220703125e+00) (17, -1.48499431610107421875e+01) (18, 4.40631198883056640625e+00) (19, 2.60726404190063476562e+00) (20, 4.21130561828613281250e+00) (21, 3.13700461387634277344e+00) (22, 3.26478219032287597656e+00) (23, 1.25235342979431152344e+00) (24, 3.46224927902221679688e+00) (25, 3.67537403106689453125e+00) (26, 1.78434896469116210938e+00) (27, 4.32710838317871093750e+00) (28, 3.58399319648742675781e+00) (29, 3.85431551933288574219e+00) (30, 3.45837259292602539062e+00) (31, 3.95563650131225585938e+00) (32, 4.44958782196044921875e+00) (33, -6.65071058273315429688e+00) (34, 5.55561447143554687500e+00) (35, 3.53439712524414062500e+00) (36, -4.47314977645874023438e-01) (37, 2.02868103981018066406e+00) (38, 3.85171055793762207031e+00) (39, 4.44997739791870117188e+00) (40, -1.53728513717651367188e+01) (41, 5.14282417297363281250e+00) (42, 1.88767349720001220703e+00) (43, 1.91873955726623535156e+00) (44, 1.25498425960540771484e+00) (45, 5.78621923923492431641e-01) (46, 5.23793411254882812500e+00) (47, 3.76643705368041992188e+00) (48, 3.46634984016418457031e+00) (49, 2.11969065666198730469e+00) (50, 1.10403907299041748047e+00) (51, -1.24624729156494140625e+01) (52, 4.44501543045043945312e+00) (53, 4.43267583847045898438e+00) (54, 4.43201971054077148438e+00) (55, 3.92825031280517578125e+00) (56, 3.65894007682800292969e+00) (57, 1.71262192726135253906e+00) (58, 3.76732325553894042969e+00) (59, 4.43208026885986328125e+00) (60, 3.06651878356933593750e+00) (61, 2.44265866279602050781e+00) (62, 2.12178874015808105469e+00) (63, 2.05490055084228515625e+01) (64, -6.15785312652587890625e+00) (0, -1.56516981124877929688e+00) (1, -2.49491786956787109375e+00) (2, 4.04887907207012176514e-02) (3, -1.63248336315155029297e+00) (4, -1.71654856204986572266e+00) (5, 2.16231778264045715332e-01) (6, -2.04150271415710449219e+00) (7, -9.92580354213714599609e-01) (8, 2.44436693191528320312e+00) (9, 7.85776317119598388672e-01) (10, 1.80123567581176757812e-01) (11, 1.72365283966064453125e+00) (12, -1.96500790119171142578e+00) (13, 2.36141547560691833496e-01) (14, -6.91271066665649414062e-01) (15, 2.11985945701599121094e+00) (16, 1.52868628501892089844e+00) (17, -2.04664039611816406250e+00) (18, 6.88327133655548095703e-01) (19, -2.13571861386299133301e-01) (20, 1.13662147521972656250e+00) (21, 3.46167907118797302246e-02) (22, 8.71032416820526123047e-01) (23, -1.56879425048828125000e-01) (24, 2.96346664428710937500e+00) (25, 1.85933366417884826660e-01) (26, 1.78131535649299621582e-01) (27, 3.65152359008789062500e-01) (28, -3.65117698907852172852e-01) (29, 2.50805664062500000000e+00) (30, 2.59388756752014160156e+00) (31, 3.45000004768371582031e+00) (32, 2.72184109687805175781e+00) (33, -4.72258538007736206055e-01) (34, 5.01074790954589843750e-01) (35, -3.82454633712768554688e-01) (36, 1.36475846171379089355e-01) (37, 2.20607995986938476562e+00) (38, 2.08171439170837402344e+00) (39, 2.70792269706726074219e+00) (40, 8.24068710207939147949e-02) (41, 1.63425588607788085938e+00) (42, -5.28112471103668212891e-01) (43, 4.09521484375000000000e+00) (44, 1.43334697932004928589e-02) (45, 5.56882023811340332031e-01) (46, 3.01026773452758789062e+00) (47, 2.64098310470581054688e+00) (48, 1.45937895774841308594e+00) (49, 6.38601854443550109863e-02) (50, -6.34852051734924316406e-01) (51, 5.25619745254516601562e+00) (52, 4.07516956329345703125e+00) (53, 3.36324048042297363281e+00) (54, 2.79887652397155761719e+00) (55, 3.36790847778320312500e+00) (56, -5.77047646045684814453e-01) (57, -1.46777820587158203125e+00) (58, 7.84265184402465820312e+00) (59, 6.48828125000000000000e+00) (60, 5.03712177276611328125e+00) (61, -5.41864752769470214844e-01) (62, -8.24285387992858886719e-01) (63, -9.40558624267578125000e+00) (64, 2.73604559898376464844e+00) (0, -2.50470876693725585938e-01) (1, -2.56679534912109375000e-01) (2, 8.71203765273094177246e-02) (3, 5.49966208636760711670e-02) (4, 1.68069615960121154785e-01) (5, 6.39945507049560546875e-01) (6, 2.28503197431564331055e-01) (7, -2.02459663152694702148e-01) (8, -2.26342290639877319336e-01) (9, -3.32363128662109375000e-01) (10, 5.09813785552978515625e-01) (11, -9.27324965596199035645e-02) (12, -7.17505514621734619141e-02) (13, -2.03005880117416381836e-01) (14, -2.39544257521629333496e-01) (15, -2.06362858414649963379e-01) (16, -1.71532893180847167969e+00) (17, 4.02377210557460784912e-02) (18, -7.39581108093261718750e-01) (19, -2.70413112640380859375e+00) (20, -1.35845184326171875000e-01) (21, -2.20675066113471984863e-01) (22, -2.27596938610076904297e-01) (23, 2.34882071614265441895e-01) (24, -2.69883126020431518555e-01) (25, -8.08294236660003662109e-01) (26, -2.46991202235221862793e-01) (27, -1.32440552115440368652e-01) (28, -9.81374531984329223633e-02) (29, -1.96644759178161621094e+00) (30, -3.59127521514892578125e-01) (31, -3.11247169971466064453e-01) (32, -3.63041043281555175781e-01) (33, -6.37970507144927978516e-01) (34, -2.23785072565078735352e-01) (35, -2.68794089555740356445e-01) (36, -9.50027070939540863037e-03) (37, -3.02111172676086425781e+00) (38, -7.97312140464782714844e-01) (39, -7.23932921886444091797e-01) (40, -5.41547358036041259766e-01) (41, -4.19090628623962402344e-01) (42, -8.59569966793060302734e-01) (43, -2.06826329231262207031e+00) (44, 3.33467751741409301758e-01) (45, 5.18003642559051513672e-01) (46, -9.65143084526062011719e-01) (47, -4.90245997905731201172e-01) (48, -6.67339622974395751953e-01) (49, -2.67913639545440673828e-02) (50, 5.05492985248565673828e-01) (51, -4.29890632629394531250e+00) (52, -3.98539036512374877930e-01) (53, -8.13828587532043457031e-01) (54, -2.55137324333190917969e+00) (55, -3.52898979187011718750e+00) (56, 2.64911818504333496094e+00) (57, 5.65121698379516601562e+00) (58, 2.93320775032043457031e+00) (59, 3.40536570549011230469e+00) (60, 4.28498363494873046875e+00) (61, 9.30918693542480468750e-01) (62, 1.11677527427673339844e+00) (63, 3.09322094917297363281e+00) (64, -2.10189652442932128906e+00) (0, -2.07629740238189697266e-01) (1, -2.68934190273284912109e-01) (2, 7.00318217277526855469e-02) (3, -1.23426422942429780960e-03) (4, -1.08537562191486358643e-01) (5, 2.76021480560302734375e-01) (6, -7.21270889043807983398e-02) (7, 6.12087920308113098145e-02) (8, 2.16325536370277404785e-01) (9, -4.12493459880352020264e-02) (10, 1.76330268383026123047e-01) (11, -4.23894226551055908203e-02) (12, 3.24505828320980072021e-02) (13, 5.25700822472572326660e-02) (14, -1.10199354588985443115e-01) (15, 8.02062451839447021484e-02) (16, -4.46665361523628234863e-02) (17, -1.38448864221572875977e-01) (18, -1.79428569972515106201e-02) (19, 5.51593244075775146484e-01) (20, -8.43020454049110412598e-02) (21, -1.10397180542349815369e-02) (22, -5.66227734088897705078e-02) (23, 3.49361419677734375000e-01) (24, 3.48115786910057067871e-02) (25, -1.99844554066658020020e-01) (26, 2.69547134637832641602e-01) (27, -4.86222133040428161621e-02) (28, -1.22392654418945312500e-01) (29, -1.14444658160209655762e-01) (30, 7.23274424672126770020e-02) (31, 1.02946780622005462646e-01) (32, -5.63181973993778228760e-02) (33, 2.36081078648567199707e-01) (34, -1.63400750607252120972e-02) (35, -1.03671662509441375732e-01) (36, 2.80780524015426635742e-01) (37, -2.62918863445520401001e-02) (38, 7.89519622921943664551e-02) (39, -1.47842394653707742691e-04) (40, -1.07782714068889617920e-01) (41, 1.04662097990512847900e-01) (42, 1.20995296165347099304e-02) (43, -3.87664102017879486084e-02) (44, 2.23971232771873474121e-01) (45, 4.52748626470565795898e-01) (46, -2.21953958272933959961e-01) (47, -2.44917590171098709106e-02) (48, -1.07620663940906524658e-01) (49, -1.01076900959014892578e-01) (50, 3.33136737346649169922e-01) (51, -6.31649732589721679688e-01) (52, -2.28879861533641815186e-02) (53, -9.38108041882514953613e-02) (54, -6.76193311810493469238e-02) (55, -1.35854166001081466675e-02) (56, 2.64502644538879394531e-01) (57, 6.42828345298767089844e-02) (58, 8.11610594391822814941e-02) (59, 6.95009380578994750977e-02) (60, -5.04736267030239105225e-02) (61, 7.46835246682167053223e-02) (62, -2.46751233935356140137e-02) (63, -7.83145194873213768005e-04) (64, -3.73496353626251220703e-01) (0, -1.00421829223632812500e+01) (1, -9.20930767059326171875e+00) (2, -6.00462150573730468750e+00) (3, -8.44070434570312500000e+00) (4, -8.73377513885498046875e+00) (5, -1.49081957340240478516e+00) (6, -9.89551544189453125000e+00) (7, 7.71603775024414062500e+00) (8, 3.58791661262512207031e+00) (9, 4.81358337402343750000e+00) (10, 1.01631343364715576172e+00) (11, 2.91454100608825683594e+00) (12, -6.92756175994873046875e+00) (13, 2.53436088562011718750e+00) (14, 4.31413173675537109375e+00) (15, 3.94182109832763671875e+00) (16, 3.57710981369018554688e+00) (17, -2.68226027488708496094e-01) (18, 3.04570007324218750000e+00) (19, 4.61211889982223510742e-01) (20, 2.29157471656799316406e+00) (21, 2.38875389099121093750e+00) (22, 1.86501789093017578125e+00) (23, 1.50202289223670959473e-01) (24, 3.24517607688903808594e+00) (25, 2.00017619132995605469e+00) (26, -3.32531124353408813477e-01) (27, 2.96105241775512695312e+00) (28, 2.41456532478332519531e+00) (29, 3.37182307243347167969e+00) (30, 2.60954713821411132812e+00) (31, 2.62129163742065429688e+00) (32, 2.94273400306701660156e+00) (33, 9.97413456439971923828e-01) (34, 1.44485950469970703125e+00) (35, 2.78527855873107910156e+00) (36, 8.43793898820877075195e-02) (37, 1.57475030422210693359e+00) (38, 2.62466311454772949219e+00) (39, 2.56318712234497070312e+00) (40, 1.32820475101470947266e+00) (41, 2.01274776458740234375e+00) (42, 1.13364672660827636719e+00) (43, 1.09117162227630615234e+00) (44, 6.98312699794769287109e-01) (45, 1.30262687802314758301e-01) (46, 3.81188106536865234375e+00) (47, 2.35532093048095703125e+00) (48, 1.18684852123260498047e+00) (49, 9.56982254981994628906e-01) (50, 1.03644096851348876953e+00) (51, -1.02650136947631835938e+01) (52, 2.33924198150634765625e+00) (53, 2.43279933929443359375e+00) (54, 2.67834281921386718750e+00) (55, 2.52131795883178710938e+00) (56, 3.31282973289489746094e+00) (57, -8.12249302864074707031e-01) (58, 2.53763556480407714844e+00) (59, 2.49199604988098144531e+00) (60, 1.55033135414123535156e+00) (61, 1.42941808700561523438e+00) (62, 1.30368387699127197266e+00) (63, 1.83723278045654296875e+01) (64, -5.17449235916137695312e+00) (0, -2.85312026739120483398e-01) (1, -4.89162862300872802734e-01) (2, 1.74173619598150253296e-02) (3, -7.49223530292510986328e-02) (4, -2.27114677429199218750e-01) (5, 1.28546282649040222168e-01) (6, -2.01273530721664428711e-01) (7, -1.72122314572334289551e-01) (8, 1.28053858876228332520e-01) (9, -2.69830942153930664062e-01) (10, -3.30303519964218139648e-01) (11, 4.99105416238307952881e-02) (12, -4.15227636694908142090e-02) (13, -1.51168316602706909180e-01) (14, -1.46953329443931579590e-01) (15, 5.16338311135768890381e-02) (16, -1.32743343710899353027e-01) (17, -4.70294915139675140381e-02) (18, -1.66648700833320617676e-01) (19, -6.08513653278350830078e-01) (20, -8.61189365386962890625e-02) (21, -9.78231132030487060547e-02) (22, -9.73075330257415771484e-02) (23, 1.08842380344867706299e-01) (24, 2.96843647956848144531e-01) (25, -2.10372477769851684570e-01) (26, -2.94436186552047729492e-01) (27, -1.10603772103786468506e-01) (28, -1.46912023425102233887e-01) (29, -3.77270914614200592041e-02) (30, 1.26049816608428955078e-01) (31, 2.50567734241485595703e-01) (32, 2.10778132081031799316e-01) (33, -2.06640020012855529785e-01) (34, -9.33363437652587890625e-02) (35, -1.85011401772499084473e-01) (36, -1.58111542463302612305e-01) (37, -5.63605070114135742188e-01) (38, 2.21264380961656570435e-02) (39, 4.14579540491104125977e-01) (40, 1.41081996262073516846e-02) (41, -1.49169385433197021484e-01) (42, -1.48260742425918579102e-01) (43, -2.24802091717720031738e-01) (44, 2.17260912060737609863e-01) (45, 2.34153687953948974609e-01) (46, -2.60962158441543579102e-01) (47, 2.75759458541870117188e-01) (48, -1.23684778809547424316e-01) (49, -1.71692728996276855469e-01) (50, -5.60616910457611083984e-01) (51, -9.79320287704467773438e-01) (52, 1.44972670078277587891e+00) (53, 5.33115863800048828125e-01) (54, -7.37071633338928222656e-02) (55, -3.15601825714111328125e-01) (56, 2.81032025814056396484e-01) (57, -8.86339470744132995605e-02) (58, 1.05204355716705322266e+00) (59, 8.59686374664306640625e-01) (60, -3.00322193652391433716e-02) (61, 6.57447278499603271484e-01) (62, 9.83989775180816650391e-01) (63, -1.16301953792572021484e+00) (64, -5.41405856609344482422e-01) (0, -4.33230362832546234131e-02) (1, -3.83816510438919067383e-02) (2, 1.34843304753303527832e-01) (3, -6.38019591569900512695e-02) (4, -9.01371240615844726562e-02) (5, 3.30275803804397583008e-01) (6, 6.60061165690422058105e-02) (7, -7.35464692115783691406e-02) (8, -3.07780727744102478027e-02) (9, -1.35449901223182678223e-01) (10, 2.23194986581802368164e-01) (11, -1.75613770261406898499e-03) (12, 4.87227812409400939941e-02) (13, -1.06961354613304138184e-01) (14, 2.01199650764465332031e-02) (15, 7.17510608956217765808e-03) (16, -1.44125193357467651367e-01) (17, -7.08504393696784973145e-02) (18, -1.27348616719245910645e-01) (19, 1.74325451254844665527e-01) (20, 3.58262434601783752441e-02) (21, 2.35145501792430877686e-02) (22, -1.18174396455287933350e-01) (23, 1.65737554430961608887e-01) (24, -6.65149018168449401855e-02) (25, -1.43924131989479064941e-01) (26, 1.71547234058380126953e-01) (27, -6.67310208082199096680e-02) (28, 1.70602966099977493286e-02) (29, -6.47364780306816101074e-02) (30, -8.37743282318115234375e-02) (31, 1.90927684307098388672e-02) (32, -2.95310728251934051514e-02) (33, 4.40742999315261840820e-01) (34, 9.36655178666114807129e-02) (35, 2.63561252504587173462e-02) (36, 3.73933643102645874023e-01) (37, 1.29784002900123596191e-01) (38, 9.10113304853439331055e-02) (39, 5.44149987399578094482e-02) (40, -4.89486986771225929260e-03) (41, 1.36432135477662086487e-02) (42, -1.63667220622301101685e-02) (43, -4.76287566125392913818e-02) (44, 1.21880397200584411621e-01) (45, 6.57379254698753356934e-02) (46, -2.53855973482131958008e-01) (47, 5.56893320754170417786e-03) (48, -2.84892488270998001099e-02) (49, -9.11712870001792907715e-02) (50, 2.87247747182846069336e-01) (51, -5.63496887683868408203e-01) (52, 1.69533610343933105469e-01) (53, 1.20305694639682769775e-01) (54, 1.08708061277866363525e-01) (55, -1.25248655676841735840e-01) (56, 3.26332956552505493164e-01) (57, 1.73500597476959228516e-01) (58, 7.81051963567733764648e-02) (59, 2.03367158770561218262e-01) (60, -2.57494039833545684814e-02) (61, 1.65744990110397338867e-01) (62, 2.00808018445968627930e-01) (63, -5.49815475940704345703e-01) (64, -3.51127952337265014648e-01) (0, -1.95510387420654296875e+00) (1, -1.43314588069915771484e+00) (2, 1.93336963653564453125e-01) (3, -1.62543559074401855469e+00) (4, -1.37916445732116699219e+00) (5, 4.80018198490142822266e-01) (6, 3.54611694812774658203e-01) (7, 4.23482942581176757812e+00) (8, 4.28313684463500976562e+00) (9, 2.97817802429199218750e+00) (10, 7.74011373519897460938e-01) (11, 5.26365947723388671875e+00) (12, -7.89037466049194335938e-01) (13, 2.12708449363708496094e+00) (14, 3.49846816062927246094e+00) (15, 3.22150206565856933594e+00) (16, -7.75481224060058593750e+00) (17, -2.22578430175781250000e+00) (18, 3.51088118553161621094e+00) (19, -2.86929082870483398438e+00) (20, 2.44043040275573730469e+00) (21, 2.68423771858215332031e+00) (22, 2.61361575126647949219e+00) (23, -1.90990254282951354980e-01) (24, 4.18915748596191406250e+00) (25, 3.42021560668945312500e+00) (26, 6.93409979343414306641e-01) (27, 3.26375222206115722656e+00) (28, 2.50857782363891601562e+00) (29, -6.99935150146484375000e+00) (30, 3.99389433860778808594e+00) (31, 4.02974081039428710938e+00) (32, 5.02230739593505859375e+00) (33, 3.89999598264694213867e-01) (34, 2.80642843246459960938e+00) (35, 1.93906414508819580078e+00) (36, 7.47646689414978027344e-01) (37, 5.71710443496704101562e+00) (38, 3.99011063575744628906e+00) (39, 4.30990791320800781250e+00) (40, -1.25568056106567382812e+00) (41, 3.26584339141845703125e+00) (42, 2.11659955978393554688e+00) (43, 3.83998656272888183594e+00) (44, 4.30261552333831787109e-01) (45, -1.05717146396636962891e+00) (46, 5.25515270233154296875e+00) (47, 4.87091875076293945312e+00) (48, 3.93500614166259765625e+00) (49, -3.22259402275085449219e+00) (50, 5.28993964195251464844e-01) (51, -9.26206779479980468750e+00) (52, 5.19465494155883789062e+00) (53, 5.32889938354492187500e+00) (54, -6.84975337982177734375e+00) (55, -4.90485572814941406250e+00) (56, -2.51385998725891113281e+00) (57, -4.96871280670166015625e+00) (58, -5.35265016555786132812e+00) (59, -6.37718915939331054688e+00) (60, -5.64472484588623046875e+00) (61, -2.28135609626770019531e+00) (62, -1.85524308681488037109e+00) (63, 5.92739343643188476562e+00) (64, -4.71814632415771484375e+00) (0, 2.89438486099243164062e-01) (1, 3.26302886009216308594e-01) (2, -1.63336634635925292969e-01) (3, 1.83317735791206359863e-01) (4, 6.27499073743820190430e-02) (5, 2.25938186049461364746e-01) (6, 2.46783539652824401855e-01) (7, 7.39712044596672058105e-02) (8, 5.15110082924365997314e-02) (9, -3.45841199159622192383e-02) (10, 4.56977158784866333008e-01) (11, 3.38751971721649169922e-02) (12, 1.96005403995513916016e-01) (13, -6.52209371328353881836e-02) (14, 2.98362337052822113037e-02) (15, 2.05202281475067138672e-01) (16, 2.16485843062400817871e-01) (17, 1.05387195944786071777e-01) (18, -1.48071333765983581543e-01) (19, -1.41540840268135070801e-01) (20, 5.48661351203918457031e-02) (21, 6.26483708620071411133e-02) (22, 1.44422203302383422852e-01) (23, 5.75187325477600097656e-01) (24, 1.35812330991029739380e-02) (25, -1.13851949572563171387e-01) (26, 7.86179542541503906250e-01) (27, 3.08214779943227767944e-02) (28, 1.13711670041084289551e-01) (29, 3.58305405825376510620e-03) (30, -1.20711736381053924561e-01) (31, -9.97291430830955505371e-02) (32, 2.41658594459295272827e-02) (33, 6.46025896072387695312e-01) (34, -5.02036996185779571533e-02) (35, 2.13008761405944824219e-01) (36, 4.76187318563461303711e-01) (37, -3.66568237543106079102e-01) (38, -4.32704836130142211914e-01) (39, -4.24146801233291625977e-01) (40, 1.32970958948135375977e-01) (41, -1.94109529256820678711e-02) (42, 2.23806560039520263672e-01) (43, -1.91113218665122985840e-01) (44, 1.73386418819427490234e+00) (45, 2.09362193942070007324e-01) (46, -5.60175597667694091797e-01) (47, -5.55390678346157073975e-02) (48, 1.45623743534088134766e-01) (49, 1.34551804512739181519e-02) (50, 3.96033793687820434570e-01) (51, -8.36539030075073242188e-01) (52, -2.70922780036926269531e-01) (53, -4.68119293451309204102e-01) (54, -1.25180974602699279785e-01) (55, 4.90539148449897766113e-02) (56, 7.18704342842102050781e-01) (57, -2.01160814613103866577e-02) (58, -6.61664605140686035156e-01) (59, -2.49307796359062194824e-01) (60, -4.33290414512157440186e-02) (61, -3.89820456504821777344e-01) (62, -6.28170520067214965820e-02) (63, -3.11217755079269409180e-01) (64, -3.48067700862884521484e-01) (0, -3.27746480703353881836e-01) (1, -4.65988695621490478516e-01) (2, 2.74363219738006591797e-01) (3, -5.06840460002422332764e-03) (4, 1.67688615620136260986e-02) (5, 2.22902938723564147949e-01) (6, -1.31451115012168884277e-01) (7, 1.45607680082321166992e-01) (8, 2.93448626995086669922e-01) (9, -1.81312993168830871582e-01) (10, 2.52366542816162109375e-01) (11, 1.70766666531562805176e-01) (12, -9.84728634357452392578e-02) (13, 1.92551650106906890869e-02) (14, 3.63015495240688323975e-02) (15, 2.67898678779602050781e-01) (16, -1.73636138439178466797e-01) (17, -1.40416905283927917480e-01) (18, -3.00433766096830368042e-02) (19, 3.26866507530212402344e-01) (20, -7.32002109289169311523e-02) (21, -5.80842159688472747803e-02) (22, -2.94102430343627929688e-02) (23, 2.86236733198165893555e-01) (24, 1.19961269199848175049e-01) (25, -1.33454054594039916992e-01) (26, 8.76054018735885620117e-02) (27, 4.99828271567821502686e-02) (28, 2.63742115348577499390e-02) (29, 2.23732017911970615387e-03) (30, 1.54946267604827880859e-01) (31, 1.68256267905235290527e-01) (32, 2.40533336997032165527e-01) (33, 1.58495396375656127930e-01) (34, -2.37726997584104537964e-02) (35, -4.46970164775848388672e-02) (36, 4.46664273738861083984e-01) (37, -9.25767943263053894043e-02) (38, 2.36560493707656860352e-01) (39, 1.70786142349243164062e-01) (40, 4.77445637807250022888e-03) (41, 6.00680410861968994141e-02) (42, -4.31354977190494537354e-02) (43, -1.00207582116127014160e-01) (44, 1.48633405566215515137e-01) (45, 2.58151799440383911133e-01) (46, 2.25767239928245544434e-01) (47, 1.28649115562438964844e-01) (48, -1.22059278190135955811e-01) (49, -6.50777295231819152832e-02) (50, 4.70315158367156982422e-01) (51, -7.61303544044494628906e-01) (52, 2.51108288764953613281e-01) (53, 5.78558817505836486816e-02) (54, 6.05433285236358642578e-02) (55, -1.05938024818897247314e-01) (56, 3.11600446701049804688e-01) (57, -7.86321088671684265137e-02) (58, 3.12779843807220458984e-01) (59, 4.90029715001583099365e-02) (60, -3.16501073539257049561e-02) (61, 2.76517689228057861328e-01) (62, 2.65014648437500000000e-01) (63, -4.85199093818664550781e-01) (64, -4.00615334510803222656e-01) (0, 1.74764537811279296875e+00) (1, 5.41081488132476806641e-01) (2, 3.01240324974060058594e-01) (3, 4.39134538173675537109e-02) (4, 7.36278176307678222656e-01) (5, 1.98505260050296783447e-02) (6, 4.05296325683593750000e-01) (7, 1.77641928195953369141e+00) (8, 5.05302369594573974609e-01) (9, 1.27289032936096191406e+00) (10, -1.45977541804313659668e-01) (11, 4.34322983026504516602e-01) (12, -5.82955539226531982422e-01) (13, 2.03294605016708374023e-01) (14, 1.50304961204528808594e+00) (15, 1.04316449165344238281e+00) (16, 7.17703640460968017578e-01) (17, 2.73151010274887084961e-01) (18, -8.12882542610168457031e-01) (19, -3.21846544742584228516e-01) (20, -2.57094085216522216797e-01) (21, 1.39495325088500976562e+00) (22, 1.10904788970947265625e+00) (23, 5.28531298041343688965e-02) (24, -1.01401925086975097656e+00) (25, -1.26840639114379882812e+00) (26, -1.28251612186431884766e-01) (27, -4.67445254325866699219e-01) (28, 1.03968763351440429688e+00) (29, 5.87602198123931884766e-01) (30, -9.92162406444549560547e-01) (31, -1.11717712879180908203e+00) (32, -1.17287087440490722656e+00) (33, 1.42796173691749572754e-01) (34, -4.84275251626968383789e-01) (35, 1.15769672393798828125e+00) (36, 1.19281053543090820312e+00) (37, 1.03701174259185791016e+00) (38, -1.23573124408721923828e+00) (39, -1.43779218196868896484e+00) (40, -1.25557613372802734375e+00) (41, -1.11197972297668457031e+00) (42, 1.06705641746520996094e+00) (43, 3.09127235412597656250e+00) (44, -2.87637144327163696289e-01) (45, -1.45786011219024658203e+00) (46, -4.23464089632034301758e-01) (47, -1.23274767398834228516e+00) (48, -9.94324624538421630859e-01) (49, 1.55301094055175781250e+00) (50, 1.29463708400726318359e+00) (51, -2.63606935739517211914e-01) (52, -2.40945458412170410156e+00) (53, -1.98873579502105712891e+00) (54, -1.64541900157928466797e+00) (55, -1.71742856502532958984e+00) (56, -1.29373133182525634766e-01) (57, 1.05959284305572509766e+00) (58, -6.17141783237457275391e-01) (59, -1.77667367458343505859e+00) (60, -1.55716943740844726562e+00) (61, -2.90771603584289550781e-01) (62, 1.12283182144165039062e+00) (63, -4.90276575088500976562e+00) (64, -1.65577307343482971191e-01) (0, 1.10079936683177947998e-01) (1, 1.96899279952049255371e-01) (2, -1.53347738087177276611e-02) (3, -2.65487562865018844604e-02) (4, -6.25340789556503295898e-02) (5, 1.08288168907165527344e+00) (6, -2.21619457006454467773e-02) (7, -1.11840255558490753174e-01) (8, -3.17583858966827392578e-01) (9, 3.00776530057191848755e-02) (10, -2.81064920127391815186e-02) (11, -1.97467580437660217285e-01) (12, -3.89208532869815826416e-02) (13, -1.71929842326790094376e-03) (14, 2.03496757894754409790e-02) (15, -2.91560232639312744141e-01) (16, -2.44539558887481689453e-01) (17, 8.73077719006687402725e-04) (18, -5.45597262680530548096e-02) (19, -4.58489432930946350098e-02) (20, -1.90267004072666168213e-02) (21, 4.62242215871810913086e-02) (22, -4.93577383458614349365e-02) (23, 