FANN_FLO_2.1
num_layers=4
learning_rate=0.700000
connection_rate=1.000000
network_type=0
learning_momentum=0.000000
training_algorithm=2
train_error_function=1
train_stop_function=0
cascade_output_change_fraction=0.010000
quickprop_decay=-0.000100
quickprop_mu=1.750000
rprop_increase_factor=1.200000
rprop_decrease_factor=0.500000
rprop_delta_min=0.000000
rprop_delta_max=50.000000
rprop_delta_zero=0.100000
cascade_output_stagnation_epochs=12
cascade_candidate_change_fraction=0.010000
cascade_candidate_stagnation_epochs=12
cascade_max_out_epochs=150
cascade_min_out_epochs=50
cascade_max_cand_epochs=150
cascade_min_cand_epochs=50
cascade_num_candidate_groups=2
bit_fail_limit=3.49999994039535522461e-01
cascade_candidate_limit=1.00000000000000000000e+03
cascade_weight_multiplier=4.00000005960464477539e-01
cascade_activation_functions_count=10
cascade_activation_functions=3 5 7 8 10 11 14 15 16 17 
cascade_activation_steepnesses_count=4
cascade_activation_steepnesses=2.50000000000000000000e-01 5.00000000000000000000e-01 7.50000000000000000000e-01 1.00000000000000000000e+00 
layer_sizes=37 31 19 3 
scale_included=0
neurons (num_inputs, activation_function, activation_steepness)=(0, 0, 0.00000000000000000000e+00) (0, 0, 0.00000000000000000000e+00) (0, 0, 0.00000000000000000000e+00) (0, 0, 0.00000000000000000000e+00) (0, 0, 0.00000000000000000000e+00) (0, 0, 0.00000000000000000000e+00) (0, 0, 0.00000000000000000000e+00) (0, 0, 0.00000000000000000000e+00) (0, 0, 0.00000000000000000000e+00) (0, 0, 0.00000000000000000000e+00) (0, 0, 0.00000000000000000000e+00) (0, 0, 0.00000000000000000000e+00) (0, 0, 0.00000000000000000000e+00) (0, 0, 0.00000000000000000000e+00) (0, 0, 0.00000000000000000000e+00) (0, 0, 0.00000000000000000000e+00) (0, 0, 0.00000000000000000000e+00) (0, 0, 0.00000000000000000000e+00) (0, 0, 0.00000000000000000000e+00) (0, 0, 0.00000000000000000000e+00) (0, 0, 0.00000000000000000000e+00) (0, 0, 0.00000000000000000000e+00) (0, 0, 0.00000000000000000000e+00) (0, 0, 0.00000000000000000000e+00) (0, 0, 0.00000000000000000000e+00) (0, 0, 0.00000000000000000000e+00) (0, 0, 0.00000000000000000000e+00) (0, 0, 0.00000000000000000000e+00) (0, 0, 0.00000000000000000000e+00) (0, 0, 0.00000000000000000000e+00) (0, 0, 0.00000000000000000000e+00) (0, 0, 0.00000000000000000000e+00) (0, 0, 0.00000000000000000000e+00) (0, 0, 0.00000000000000000000e+00) (0, 0, 0.00000000000000000000e+00) (0, 0, 0.00000000000000000000e+00) (0, 0, 0.00000000000000000000e+00) (37, 4, 5.00000000000000000000e-01) (37, 4, 5.00000000000000000000e-01) (37, 4, 5.00000000000000000000e-01) (37, 4, 5.00000000000000000000e-01) (37, 4, 5.00000000000000000000e-01) (37, 4, 5.00000000000000000000e-01) (37, 4, 5.00000000000000000000e-01) (37, 4, 5.00000000000000000000e-01) (37, 4, 5.00000000000000000000e-01) (37, 4, 5.00000000000000000000e-01) (37, 4, 5.00000000000000000000e-01) (37, 4, 5.00000000000000000000e-01) (37, 4, 5.00000000000000000000e-01) (37, 4, 5.00000000000000000000e-01) (37, 4, 5.00000000000000000000e-01) (37, 4, 5.00000000000000000000e-01) (37, 4, 5.00000000000000000000e-01) (37, 4, 5.00000000000000000000e-01) (37, 4, 5.00000000000000000000e-01) (37, 4, 5.00000000000000000000e-01) (37, 4, 5.00000000000000000000e-01) (37, 4, 5.00000000000000000000e-01) (37, 4, 5.00000000000000000000e-01) (37, 4, 5.00000000000000000000e-01) (37, 4, 5.00000000000000000000e-01) (37, 4, 5.00000000000000000000e-01) (37, 4, 5.00000000000000000000e-01) (37, 4, 5.00000000000000000000e-01) (37, 4, 5.00000000000000000000e-01) (37, 4, 5.00000000000000000000e-01) (0, 0, 0.00000000000000000000e+00) (31, 4, 5.00000000000000000000e-01) (31, 4, 5.00000000000000000000e-01) (31, 4, 5.00000000000000000000e-01) (31, 4, 5.00000000000000000000e-01) (31, 4, 5.00000000000000000000e-01) (31, 4, 5.00000000000000000000e-01) (31, 4, 5.00000000000000000000e-01) (31, 4, 5.00000000000000000000e-01) (31, 4, 5.00000000000000000000e-01) (31, 4, 5.00000000000000000000e-01) (31, 4, 5.00000000000000000000e-01) (31, 4, 5.00000000000000000000e-01) (31, 4, 5.00000000000000000000e-01) (31, 4, 5.00000000000000000000e-01) (31, 4, 5.00000000000000000000e-01) (31, 4, 5.00000000000000000000e-01) (31, 4, 5.00000000000000000000e-01) (31, 4, 5.00000000000000000000e-01) (0, 0, 0.00000000000000000000e+00) (19, 4, 5.00000000000000000000e-01) (19, 4, 5.00000000000000000000e-01) (0, 0, 0.00000000000000000000e+00) 
connections (connected_to_neuron, weight)=(0, 4.93988943099975585938e+00) (1, 6.94828391075134277344e-01) (2, -2.87674498558044433594e+00) (3, -1.59362483024597167969e+00) (4, -1.60566735267639160156e+00) (5, 2.84137558937072753906e+00) (6, 1.06986255645751953125e+01) (7, -2.55695509910583496094e+00) (8, 3.46222329139709472656e+00) (9, 6.86471641063690185547e-01) (10, -4.75459814071655273438e+00) (11, 3.84302377700805664062e+00) (12, 1.92688331007957458496e-01) (13, 1.85262107849121093750e+00) (14, 1.66188156604766845703e+00) (15, -1.32334804534912109375e+00) (16, -2.34741166234016418457e-01) (17, -2.84668117761611938477e-01) (18, -8.10388743877410888672e-01) (19, 1.47522020339965820312e+00) (20, -3.86320757865905761719e+00) (21, 1.29045915603637695312e+00) (22, -3.00188279151916503906e+00) (23, -5.01064348220825195312e+00) (24, -8.83195698261260986328e-01) (25, 2.80795395374298095703e-01) (26, 5.77106475830078125000e-01) (27, 6.42163455486297607422e-01) (28, 2.50068102031946182251e-02) (29, -1.26658678054809570312e+00) (30, -5.39369165897369384766e-01) (31, -1.72325626015663146973e-01) (32, -6.23252451419830322266e-01) (33, -9.04769897460937500000e-01) (34, -1.81037068367004394531e+00) (35, -1.96824800968170166016e+00) (36, 2.48256373405456542969e+00) (0, -1.32531332969665527344e+00) (1, 1.19580554962158203125e+00) (2, 8.69919121265411376953e-01) (3, 7.38259926438331604004e-02) (4, -3.11531931161880493164e-01) (5, 1.10841143131256103516e+00) (6, 8.03933680057525634766e-01) (7, -4.05227094888687133789e-01) (8, 1.07283651828765869141e+00) (9, 2.37847238779067993164e-01) (10, 2.37521991133689880371e-01) (11, 9.64681029319763183594e-01) (12, 6.95653557777404785156e-01) (13, 1.63277494907379150391e+00) (14, -3.28870177268981933594e-01) (15, 1.36689245700836181641e+00) (16, 1.36291956901550292969e+00) (17, 1.42588949203491210938e+00) (18, 1.64676940441131591797e+00) (19, 1.09136116504669189453e+00) (20, -3.49472951889038085938e+00) (21, 6.58065259456634521484e-01) (22, -2.85040706396102905273e-01) (23, -9.58762049674987792969e-01) (24, -1.40735244750976562500e+00) (25, 1.41510054469108581543e-01) (26, 3.94774645566940307617e-01) (27, 7.43032276630401611328e-01) (28, 7.54253029823303222656e-01) (29, 1.97421699762344360352e-01) (30, -1.05007693171501159668e-01) (31, -4.89359833300113677979e-02) (32, -1.30738630890846252441e-01) (33, -2.81049251556396484375e-01) (34, 8.90917539596557617188e-01) (35, -2.87586152553558349609e-01) (36, -6.52071356773376464844e-01) (0, 3.41626596450805664062e+00) (1, 8.30051302909851074219e-01) (2, -2.89843153953552246094e+00) (3, -8.56367886066436767578e-01) (4, -1.62716245651245117188e+00) (5, -1.34091007709503173828e+00) (6, 1.75600004196166992188e+00) (7, -3.36172699928283691406e+00) (8, 2.73125147819519042969e+00) (9, 1.78106176853179931641e+00) (10, -3.08721327781677246094e+00) (11, 1.29567158222198486328e+00) (12, -1.50646284222602844238e-01) (13, 1.61370921134948730469e+00) (14, 4.61882352828979492188e+00) (15, 1.09727776050567626953e+00) (16, 5.56511104106903076172e-01) (17, -2.70248711109161376953e-01) (18, -4.05301630496978759766e-01) (19, 6.03251600265502929688e+00) (20, -4.67111301422119140625e+00) (21, 1.47940516471862792969e+00) (22, -4.29912233352661132812e+00) (23, -8.83946514129638671875e+00) (24, 1.17071390151977539062e+00) (25, 6.58254146575927734375e-01) (26, 9.03245806694030761719e-01) (27, 1.65185761451721191406e+00) (28, 3.22530555725097656250e+00) (29, 9.40267026424407958984e-01) (30, -9.07195359468460083008e-02) (31, -2.70242124795913696289e-01) (32, -2.79356688261032104492e-01) (33, -9.59579706192016601562e-01) (34, -2.80133664608001708984e-01) (35, -1.96039855480194091797e-01) (36, 1.65832972526550292969e+00) (0, -1.71400201320648193359e+00) (1, 1.66927289962768554688e+00) (2, 5.91725766658782958984e-01) (3, -1.40344396233558654785e-01) (4, -5.26222825050354003906e-01) (5, 1.79398357868194580078e+00) (6, 3.66883540153503417969e+00) (7, -1.29640352725982666016e+00) (8, 1.72618854045867919922e+00) (9, 4.35768544673919677734e-01) (10, 1.35002946853637695312e+00) (11, 3.89374566078186035156e+00) (12, 2.75981068611145019531e+00) (13, 3.20832085609436035156e+00) (14, 1.03575146198272705078e+00) (15, 2.28622579574584960938e+00) (16, 2.61064243316650390625e+00) (17, 3.39808130264282226562e+00) (18, 3.08366680145263671875e+00) (19, 1.70996594429016113281e+00) (20, -7.93357753753662109375e+00) (21, 9.58743512630462646484e-01) (22, -1.45851588249206542969e+00) (23, -3.64221262931823730469e+00) (24, -9.23017740249633789062e-01) (25, 3.11152696609497070312e-01) (26, 5.07886350154876708984e-01) (27, 9.30025458335876464844e-01) (28, 5.69416999816894531250e-01) (29, 1.38977181911468505859e+00) (30, -1.55305594205856323242e-01) (31, -1.07782132923603057861e-01) (32, -1.99869528412818908691e-01) (33, -4.67474818229675292969e-01) (34, 1.84762585163116455078e+00) (35, -4.89941787719726562500e+00) (36, -8.16503942012786865234e-01) (0, 4.28952503204345703125e+00) (1, 1.04672832489013671875e+01) (2, 6.68153762817382812500e-01) (3, 8.19812202453613281250e+00) (4, 1.22550547122955322266e+00) (5, 1.44566774368286132812e+01) (6, -1.57324421405792236328e+00) (7, 8.60941410064697265625e+00) (8, 7.52812242507934570312e+00) (9, 4.94846725463867187500e+00) (10, 1.30059683322906494141e+00) (11, -1.15191745758056640625e+00) (12, 3.34441685676574707031e+00) (13, -6.53057336807250976562e-01) (14, -2.36861617304384708405e-03) (15, 1.11493027210235595703e+00) (16, 8.68896484375000000000e-01) (17, -2.56177425384521484375e-01) (18, -8.61514747142791748047e-01) (19, 1.64554679393768310547e+00) (20, -2.24339056015014648438e+00) (21, 4.50616240501403808594e-01) (22, -4.19139862060546875000e+00) (23, -1.23456993103027343750e+01) (24, -3.18349003791809082031e+00) (25, -9.57968413829803466797e-01) (26, 9.18897747993469238281e-01) (27, 1.73185721039772033691e-01) (28, -3.26471403241157531738e-02) (29, -5.75503051280975341797e-01) (30, -9.33904349803924560547e-01) (31, 5.30475527048110961914e-02) (32, -2.32302412390708923340e-01) (33, -1.32774746417999267578e+00) (34, 7.63163045048713684082e-02) (35, -1.03323850631713867188e+01) (36, 2.11663722991943359375e+00) (0, -8.61214220523834228516e-01) (1, 1.22820079326629638672e+00) (2, 9.84761536121368408203e-01) (3, 4.26307082176208496094e-01) (4, -2.92301356792449951172e-01) (5, 1.04936289787292480469e+00) (6, 1.30401551723480224609e+00) (7, -4.91346977651119232178e-02) (8, 8.18304300308227539062e-01) (9, 1.53414011001586914062e-01) (10, 4.27124172449111938477e-01) (11, 1.33918488025665283203e+00) (12, 9.81575250625610351562e-01) (13, 1.33423626422882080078e+00) (14, -5.03660179674625396729e-02) (15, 1.18695580959320068359e+00) (16, 7.39232361316680908203e-01) (17, 1.07378041744232177734e+00) (18, 9.75949227809906005859e-01) (19, 4.25954967737197875977e-01) (20, -2.53881764411926269531e+00) (21, 2.78794497251510620117e-01) (22, -4.66832220554351806641e-01) (23, -8.59016835689544677734e-01) (24, -9.94879543781280517578e-01) (25, 1.23571209609508514404e-01) (26, 2.27581769227981567383e-01) (27, 1.91725328564643859863e-01) (28, 1.97653502225875854492e-01) (29, 3.60935121774673461914e-01) (30, -6.80461153388023376465e-02) (31, 5.59994392096996307373e-02) (32, -3.81215102970600128174e-02) (33, -4.23707395792007446289e-01) (34, 7.69856333732604980469e-01) (35, -6.43624961376190185547e-01) (36, -4.45854097604751586914e-01) (0, -5.30053257942199707031e-01) (1, 1.46520977020263671875e+01) (2, 7.55459403991699218750e+00) (3, 6.14597260951995849609e-01) (4, -6.58202946186065673828e-01) (5, -9.58282172679901123047e-01) (6, 9.47517216205596923828e-01) (7, -1.02160036563873291016e+00) (8, -1.31624773144721984863e-01) (9, -6.50967806577682495117e-02) (10, -2.43857633322477340698e-02) (11, 1.67919397354125976562e+00) (12, 1.82621136307716369629e-01) (13, 1.09415507316589355469e+00) (14, 1.62155807018280029297e+00) (15, 1.95593154430389404297e+00) (16, -4.38782930374145507812e-01) (17, -7.81884044408798217773e-02) (18, 1.62571012973785400391e-01) (19, 7.86168992519378662109e-01) (20, -1.80196535587310791016e+00) (21, 3.40894252061843872070e-01) (22, -2.21981430053710937500e+00) (23, -7.07299137115478515625e+00) (24, -3.58338189125061035156e+00) (25, 8.43934193253517150879e-02) (26, 3.86567413806915283203e-01) (27, -1.01066147908568382263e-02) (28, -2.95172691345214843750e-01) (29, -4.88261222839355468750e-01) (30, -2.88063526153564453125e-01) (31, -1.99099674820899963379e-01) (32, -6.74504101276397705078e-01) (33, -1.22570288181304931641e+00) (34, 1.94153144955635070801e-01) (35, -1.00015115737915039062e+01) (36, -3.48633199930191040039e-01) (0, -1.72992599010467529297e+00) (1, 1.82988548278808593750e+00) (2, 1.52494657039642333984e+00) (3, 3.47824722528457641602e-01) (4, -4.72250491380691528320e-01) (5, 1.52116751670837402344e+00) (6, 1.84053397178649902344e+00) (7, -8.94350886344909667969e-01) (8, 1.36474716663360595703e+00) (9, 4.20323312282562255859e-01) (10, -2.21814677119255065918e-01) (11, 1.47409915924072265625e+00) (12, 1.31867063045501708984e+00) (13, 3.16690039634704589844e+00) (14, 5.66794872283935546875e-01) (15, 1.58232963085174560547e+00) (16, 1.84247004985809326172e+00) (17, 2.39956927299499511719e+00) (18, 3.82245922088623046875e+00) (19, 1.42556869983673095703e+00) (20, -3.69719743728637695312e+00) (21, 7.96777963638305664062e-01) (22, -9.64589118957519531250e-01) (23, -2.87353420257568359375e+00) (24, -2.26354289054870605469e+00) (25, 4.10960018634796142578e-01) (26, 4.46155965328216552734e-01) (27, 7.05976843833923339844e-01) (28, 1.00622868537902832031e+00) (29, 6.39986991882324218750e-02) (30, -1.02601744234561920166e-01) (31, -6.04001581668853759766e-02) (32, -2.81332433223724365234e-01) (33, -6.32486581802368164062e-01) (34, 1.04226362705230712891e+00) (35, 2.55367130041122436523e-01) (36, -9.03570473194122314453e-01) (0, -1.37461221218109130859e+00) (1, 5.21458721160888671875e+00) (2, 3.31092596054077148438e+00) (3, 1.04959547519683837891e+00) (4, -3.19097757339477539062e-01) (5, 3.47552871704101562500e+00) (6, 4.09713649749755859375e+00) (7, -2.68244361877441406250e+00) (8, 2.43685531616210937500e+00) (9, 1.10752868652343750000e+00) (10, 4.36562716960906982422e-01) (11, 3.79272341728210449219e+00) (12, 1.36869180202484130859e+00) (13, 4.51535511016845703125e+00) (14, 1.87182235717773437500e+00) (15, 3.07643127441406250000e+00) (16, 3.44662499427795410156e+00) (17, 2.05937886238098144531e+00) (18, 2.66464996337890625000e+00) (19, 2.16213440895080566406e+00) (20, -6.09518003463745117188e+00) (21, 1.34775114059448242188e+00) (22, -1.20961606502532958984e+00) (23, -3.05575633049011230469e+00) (24, -4.00920677185058593750e+00) (25, 6.20665669441223144531e-01) (26, 7.76255071163177490234e-01) (27, 8.49145650863647460938e-01) (28, 9.79281127452850341797e-01) (29, 6.00939035415649414062e-01) (30, -7.93740823864936828613e-02) (31, -4.50242400169372558594e-01) (32, -7.08964347839355468750e-01) (33, -1.59804689884185791016e+00) (34, 1.04041826725006103516e+00) (35, 1.38828957080841064453e+00) (36, -6.87251746654510498047e-01) (0, 6.62312364578247070312e+00) (1, -1.19430863857269287109e+00) (2, -2.91481280326843261719e+00) (3, -1.96970856189727783203e+00) (4, -1.83196794986724853516e+00) (5, -1.93601512908935546875e+00) (6, 2.39983153343200683594e+00) (7, -2.97790074348449707031e+00) (8, 2.05996704101562500000e+00) (9, 1.16942954063415527344e+00) (10, -2.00004076957702636719e+00) (11, 1.84387040138244628906e+00) (12, 1.17437624931335449219e+00) (13, 2.29375505447387695312e+00) (14, 3.14980244636535644531e+00) (15, 9.79972660541534423828e-01) (16, 1.33510455489158630371e-01) (17, 5.30225694179534912109e-01) (18, 7.11993575096130371094e-01) (19, 5.86845541000366210938e+00) (20, -5.88628244400024414062e+00) (21, 3.40052437782287597656e+00) (22, -3.32432723045349121094e+00) (23, -8.58847522735595703125e+00) (24, 1.83519589900970458984e+00) (25, 7.61881768703460693359e-01) (26, 1.93392550945281982422e+00) (27, 3.02409219741821289062e+00) (28, 3.68528103828430175781e+00) (29, -2.22946584224700927734e-01) (30, -1.81318312883377075195e-01) (31, 4.81629893183708190918e-02) (32, 1.67262017726898193359e-01) (33, -3.01792055368423461914e-01) (34, -6.80352509021759033203e-01) (35, -1.91198861598968505859e+00) (36, 3.24837708473205566406e+00) (0, -4.95610189437866210938e+00) (1, 2.60740780830383300781e+00) (2, 4.02104997634887695312e+00) (3, 3.61438304185867309570e-01) (4, -9.81872558593750000000e-01) (5, 2.57039237022399902344e+00) (6, 2.12717533111572265625e+00) (7, -1.20254981517791748047e+00) (8, 1.89593160152435302734e+00) (9, -2.42244267463684082031e+00) (10, 1.44192862510681152344e+00) (11, 3.49521827697753906250e+00) (12, 2.72333955764770507812e+00) (13, 5.30745029449462890625e+00) (14, -1.28040051460266113281e+00) (15, 3.75705122947692871094e+00) (16, 4.15991353988647460938e+00) (17, 4.74971532821655273438e+00) (18, 7.72324085235595703125e+00) (19, -1.07446575164794921875e+00) (20, -8.33250904083251953125e+00) (21, 1.68592417240142822266e+00) (22, 8.00170481204986572266e-01) (23, -1.37416982650756835938e+00) (24, -4.26995277404785156250e+00) (25, 1.03886902332305908203e+00) (26, 9.45574164390563964844e-01) (27, 1.56846952438354492188e+00) (28, -6.57439529895782470703e-01) (29, 9.03546869754791259766e-01) (30, 6.22332751750946044922e-01) (31, 1.03254809975624084473e-01) (32, -8.53214338421821594238e-02) (33, -1.29734551906585693359e+00) (34, 2.34712862968444824219e+00) (35, 1.99585509300231933594e+00) (36, -2.52567553520202636719e+00) (0, -2.21564269065856933594e+00) (1, 1.83427441120147705078e+00) (2, 3.46423196606338024139e-03) (3, -2.36752688884735107422e-01) (4, -9.10095036029815673828e-01) (5, 2.59902381896972656250e+00) (6, 2.88057875633239746094e+00) (7, -1.98896062374114990234e+00) (8, 2.13461589813232421875e+00) (9, -2.06913560628890991211e-01) (10, 5.25885485112667083740e-02) (11, 1.16624362766742706299e-01) (12, -6.51215553283691406250e-01) (13, 3.25114536285400390625e+00) (14, 1.54459238052368164062e-01) (15, 1.91253030300140380859e+00) (16, 2.07268667221069335938e+00) (17, 7.37728655338287353516e-01) (18, 3.29381406307220458984e-01) (19, 1.98644471168518066406e+00) (20, -1.89472329616546630859e+00) (21, 1.21449077129364013672e+00) (22, -6.76525294780731201172e-01) (23, -1.48460769653320312500e+00) (24, -2.72759175300598144531e+00) (25, 6.28979504108428955078e-01) (26, 4.92400586605072021484e-01) (27, 1.15179562568664550781e+00) (28, 8.32398056983947753906e-01) (29, -4.54941958189010620117e-01) (30, -8.92036128789186477661e-03) (31, 4.07152101397514343262e-02) (32, -1.59258455038070678711e-01) (33, -7.77256846427917480469e-01) (34, 6.81249082088470458984e-01) (35, -4.90647971630096435547e-01) (36, -1.07720339298248291016e+00) (0, -9.32575762271881103516e-01) (1, 1.19682574272155761719e+00) (2, 1.03350210189819335938e+00) (3, 3.00116330385208129883e-01) (4, -1.69357702136039733887e-01) (5, 1.19291698932647705078e+00) (6, 1.22034347057342529297e+00) (7, 3.89514461858198046684e-04) (8, 8.70620310306549072266e-01) (9, 2.88434177637100219727e-01) (10, 4.95250284671783447266e-01) (11, 1.21144056320190429688e+00) (12, 9.96190905570983886719e-01) (13, 1.41372156143188476562e+00) (14, -1.14527493715286254883e-01) (15, 1.26006066799163818359e+00) (16, 9.01690006256103515625e-01) (17, 1.20575451850891113281e+00) (18, 1.00642979145050048828e+00) (19, 3.36129099130630493164e-01) (20, -2.56126523017883300781e+00) (21, 3.34075242280960083008e-01) (22, -2.28737905621528625488e-01) (23, -7.36859142780303955078e-01) (24, -9.31193232536315917969e-01) (25, 1.81203618645668029785e-01) (26, 2.06338450312614440918e-01) (27, 2.87543833255767822266e-01) (28, 2.09007501602172851562e-01) (29, 4.93070781230926513672e-01) (30, -1.65708795189857482910e-01) (31, -1.02805182337760925293e-01) (32, -7.87496343255043029785e-02) (33, -3.86920809745788574219e-01) (34, 7.30638444423675537109e-01) (35, -6.19340837001800537109e-01) (36, -5.41383862495422363281e-01) (0, -1.57141029834747314453e+00) (1, 1.64533627033233642578e+00) (2, 9.09643948078155517578e-01) (3, 3.72928410768508911133e-01) (4, -4.18180942535400390625e-01) (5, 1.38597965240478515625e+00) (6, 1.68698406219482421875e+00) (7, -8.14609348773956298828e-01) (8, 1.11873149871826171875e+00) (9, 2.99961626529693603516e-01) (10, -8.49664583802223205566e-02) (11, 1.38124251365661621094e+00) (12, 1.03625559806823730469e+00) (13, 2.40623402595520019531e+00) (14, 4.49763178825378417969e-01) (15, 1.41482508182525634766e+00) (16, 1.51081669330596923828e+00) (17, 1.81131076812744140625e+00) (18, 2.95947384834289550781e+00) (19, 1.49404537677764892578e+00) (20, -2.99023795127868652344e+00) (21, 6.35604441165924072266e-01) (22, -7.23436653614044189453e-01) (23, -1.94852614402770996094e+00) (24, -2.32843971252441406250e+00) (25, 3.29395800828933715820e-01) (26, 4.35367494821548461914e-01) (27, 7.13347256183624267578e-01) (28, 8.56117784976959228516e-01) (29, -4.40993487834930419922e-01) (30, -1.52296960353851318359e-01) (31, 2.14004702866077423096e-02) (32, -2.37837865948677062988e-01) (33, -6.30155384540557861328e-01) (34, 9.56943869590759277344e-01) (35, -2.87048965692520141602e-01) (36, -7.12758004665374755859e-01) (0, 5.97910165786743164062e+00) (1, 1.91381025314331054688e+00) (2, -6.17592394351959228516e-01) (3, -2.46126055717468261719e+00) (4, -4.31828355789184570312e+00) (5, -1.50625097751617431641e+00) (6, 7.89819049835205078125e+00) (7, -5.13825702667236328125e+00) (8, 6.02516555786132812500e+00) (9, 2.77057313919067382812e+00) (10, -2.94002115726470947266e-01) (11, 5.39103412628173828125e+00) (12, 4.45083189010620117188e+00) (13, 9.24189090728759765625e+00) (14, 7.38032007217407226562e+00) (15, 6.30769193172454833984e-01) (16, 1.18593597412109375000e+00) (17, 3.59474450349807739258e-01) (18, 2.40613222122192382812e+00) (19, 9.24308586120605468750e+00) (20, -1.30920867919921875000e+01) (21, 2.95265364646911621094e+00) (22, -9.02303504943847656250e+00) (23, -1.93821277618408203125e+01) (24, 2.36133050918579101562e+00) (25, 1.93485105037689208984e+00) (26, 2.24938845634460449219e+00) (27, 3.34789061546325683594e+00) (28, 5.86884021759033203125e+00) (29, 6.97435617446899414062e-01) (30, -1.35994747281074523926e-01) (31, -2.34618574380874633789e-01) (32, 1.36722314357757568359e+00) (33, -2.75111883878707885742e-01) (34, 6.40909850597381591797e-01) (35, -1.97029514312744140625e+01) (36, 2.94088339805603027344e+00) (0, -1.41852068901062011719e+00) (1, 2.11073255538940429688e+00) (2, 7.48286902904510498047e-01) (3, 3.23866695165634155273e-01) (4, -4.29453581571578979492e-01) (5, 8.47904145717620849609e-01) (6, 1.88735556602478027344e+00) (7, -9.78598773479461669922e-01) (8, 1.57813632488250732422e+00) (9, 1.71401292085647583008e-01) (10, -1.79731488227844238281e+00) (11, 1.10757040977478027344e+00) (12, 5.47811150550842285156e-01) (13, 2.09928297996520996094e+00) (14, -1.21380425989627838135e-01) (15, 7.31221973896026611328e-01) (16, 1.37169265747070312500e+00) (17, 1.57857704162597656250e+00) (18, 2.03352141380310058594e+00) (19, 1.31409025192260742188e+00) (20, -1.97492337226867675781e+00) (21, 7.52194762229919433594e-01) (22, -5.19543826580047607422e-01) (23, -1.91750609874725341797e+00) (24, -2.16914248466491699219e+00) (25, 2.78231441974639892578e-01) (26, 4.51877743005752563477e-01) (27, 6.76711499691009521484e-01) (28, 6.66693150997161865234e-01) (29, 1.54300406575202941895e-01) (30, -8.24028551578521728516e-02) (31, -1.18335835635662078857e-01) (32, -1.15135595202445983887e-01) (33, -5.32604157924652099609e-01) (34, 6.63408815860748291016e-01) (35, -8.72668802738189697266e-01) (36, -7.72532820701599121094e-01) (0, 1.09682989120483398438e+00) (1, 2.09834122657775878906e+00) (2, -1.02224552631378173828e+00) (3, -6.24497830867767333984e-01) (4, -1.20356845855712890625e+00) (5, 2.95572066307067871094e+00) (6, 5.07151699066162109375e+00) (7, 4.89555478096008300781e-01) (8, 1.58191871643066406250e+00) (9, 6.99288129806518554688e-01) (10, 2.77080327272415161133e-01) (11, 2.89086014032363891602e-01) (12, 3.63243490457534790039e-01) (13, 1.37422204017639160156e+00) (14, 3.93563747406005859375e+00) (15, -2.50975102186203002930e-01) (16, 2.54454791545867919922e-01) (17, 6.78920984268188476562e-01) (18, 1.03692483901977539062e+00) (19, 2.50063014030456542969e+00) (20, -6.09090137481689453125e+00) (21, -4.38970059156417846680e-01) (22, -1.21262979507446289062e+00) (23, -1.47137331962585449219e+00) (24, -7.66114044189453125000e+00) (25, 1.95382845401763916016e+00) (26, -4.42777186632156372070e-01) (27, -1.84690922498703002930e-01) (28, 1.03554403781890869141e+00) (29, -3.10701489448547363281e+00) (30, 2.11385056376457214355e-01) (31, -8.98207306861877441406e-01) (32, -7.79251515865325927734e-01) (33, -3.36359333992004394531e+00) (34, -9.19668257236480712891e-01) (35, 9.76173496246337890625e+00) (36, 5.34293532371520996094e-01) (0, -7.74171233177185058594e-01) (1, 3.73323059082031250000e+00) (2, 1.50187447667121887207e-01) (3, 3.03319245576858520508e-01) (4, -7.25954413414001464844e-01) (5, 1.71539235115051269531e+00) (6, 5.53849744796752929688e+00) (7, -1.18830370903015136719e+00) (8, 1.93980062007904052734e+00) (9, 4.66757595539093017578e-01) (10, -3.58540201187133789062e+00) (11, 4.06614542007446289062e+00) (12, 2.69896483421325683594e+00) (13, 3.02380108833312988281e+00) (14, 1.03907370567321777344e+00) (15, 1.79105246067047119141e+00) (16, 1.42883956432342529297e+00) (17, 1.06528259813785552979e-01) (18, 1.46804594993591308594e+00) (19, 2.51790642738342285156e+00) (20, -2.76828646659851074219e+00) (21, 1.16785740852355957031e+00) (22, -1.64906919002532958984e+00) (23, -4.72324752807617187500e+00) (24, -2.12768101692199707031e+00) (25, 2.44435206055641174316e-01) (26, 3.85004162788391113281e-01) (27, 5.64058363437652587891e-01) (28, 4.96099501848220825195e-01) (29, 2.11773347854614257812e+00) (30, -7.87581577897071838379e-02) (31, -1.66900679469108581543e-01) (32, -3.25654715299606323242e-01) (33, -9.67591822147369384766e-01) (34, 2.09071707725524902344e+00) (35, -5.91666984558105468750e+00) (36, -2.73250460624694824219e-01) (0, -2.12190389633178710938e+00) (1, 1.07647523880004882812e+01) (2, 2.64732718467712402344e+00) (3, 6.46091127395629882812e+00) (4, 7.45658063888549804688e+00) (5, -4.13086318969726562500e+00) (6, 4.29343652725219726562e+00) (7, 6.06044912338256835938e+00) (8, 1.01632184982299804688e+01) (9, 9.38091659545898437500e+00) (10, -3.07318568229675292969e-01) (11, -1.39651560783386230469e+00) (12, 3.57507228851318359375e+00) (13, -8.39968264102935791016e-01) (14, -4.83709335327148437500e+00) (15, 1.25875067710876464844e+00) (16, -7.47453629970550537109e-01) (17, -1.45369493961334228516e+00) (18, -2.67475247383117675781e+00) (19, 1.06507320404052734375e+01) (20, -4.67883539199829101562e+00) (21, 8.48341083526611328125e+00) (22, 6.77882003784179687500e+00) (23, 6.72684001922607421875e+00) (24, 8.07417869567871093750e+00) (25, -4.29361867904663085938e+00) (26, 5.82018470764160156250e+00) (27, 7.53449201583862304688e+00) (28, 9.11088275909423828125e+00) (29, 2.19618701934814453125e+00) (30, -2.98505163192749023438e+00) (31, 1.62705743312835693359e+00) (32, 3.07050013542175292969e+00) (33, 4.19492769241333007812e+00) (34, 2.57438468933105468750e+00) (35, -2.07959575653076171875e+01) (36, -1.09833788871765136719e+00) (0, -3.34983611106872558594e+00) (1, -4.81771379709243774414e-01) (2, 5.56684207916259765625e+00) (3, 2.73353438824415206909e-02) (4, -2.52358376979827880859e-01) (5, 3.48260331153869628906e+00) (6, -3.09824872016906738281e+00) (7, -8.87150478363037109375e+00) (8, 2.98861551284790039062e+00) (9, 2.36670875549316406250e+00) (10, 1.20223915576934814453e+00) (11, 3.28453922271728515625e+00) (12, 2.04822921752929687500e+00) (13, 6.80220317840576171875e+00) (14, 3.26024889945983886719e+00) (15, 4.08716869354248046875e+00) (16, 7.81241655349731445312e+00) (17, 1.21482527256011962891e+00) (18, 2.02490925788879394531e+00) (19, 5.16433763504028320312e+00) (20, -1.57626667022705078125e+01) (21, 4.74326562881469726562e+00) (22, 2.38026809692382812500e+00) (23, 3.31750655174255371094e+00) (24, -7.80427694320678710938e+00) (25, 1.27080726623535156250e+00) (26, 2.34932112693786621094e+00) (27, 3.56523323059082031250e+00) (28, 4.23582696914672851562e+00) (29, 2.75256347656250000000e+00) (30, -3.66335153579711914062e-01) (31, -1.15111982822418212891e+00) (32, -3.18422603607177734375e+00) (33, -3.24033260345458984375e+00) (34, 4.14232778549194335938e+00) (35, -2.36107387542724609375e+01) (36, -1.58789765834808349609e+00) (0, -4.36110258102416992188e+00) (1, 3.18257498741149902344e+00) (2, 3.39002180099487304688e+00) (3, 3.66616058349609375000e+00) (4, 2.87642240524291992188e+00) (5, 4.84767675399780273438e+00) (6, 7.76821136474609375000e+00) (7, 7.50240707397460937500e+00) (8, -5.44164657592773437500e+00) (9, -5.77115917205810546875e+00) (10, 6.13189935684204101562e+00) (11, -1.48456275463104248047e+00) (12, -1.34430575370788574219e+00) (13, -4.37395095825195312500e+00) (14, -1.05373220443725585938e+01) (15, -9.55961167812347412109e-01) (16, -1.56345248222351074219e+00) (17, 4.81868982315063476562e-01) (18, 1.29958903789520263672e+00) (19, -1.37473230361938476562e+01) (20, 1.85983772277832031250e+01) (21, -5.88051891326904296875e+00) (22, 6.73282432556152343750e+00) (23, 6.95239782333374023438e+00) (24, 2.35771155357360839844e+00) (25, -1.52790343761444091797e+00) (26, -3.26885056495666503906e+00) (27, -5.58910799026489257812e+00) (28, -8.82534122467041015625e+00) (29, -4.09966278076171875000e+00) (30, 3.62445920705795288086e-01) (31, 4.83582019805908203125e-01) (32, 8.55675220489501953125e-01) (33, 1.39631259441375732422e+00) (34, -2.71004748344421386719e+00) (35, 1.51209497451782226562e+01) (36, -2.28299021720886230469e+00) (0, -2.54234504699707031250e+00) (1, 6.30997657775878906250e+00) (2, 2.54718708992004394531e+00) (3, 4.67820787429809570312e+00) (4, 2.65240883827209472656e+00) (5, -5.15443277359008789062e+00) (6, 1.65108947753906250000e+01) (7, 5.69074964523315429688e+00) (8, 1.04106035232543945312e+01) (9, 3.12416005134582519531e+00) (10, -2.72826910018920898438e+00) (11, -2.21186470985412597656e+00) (12, 2.65865945816040039062e+00) (13, 1.27784383296966552734e+00) (14, -4.62306737899780273438e+00) (15, 3.25736308097839355469e+00) (16, -2.95645213127136230469e+00) (17, -1.23012351989746093750e+00) (18, 3.31178903579711914062e+00) (19, 3.11572456359863281250e+00) (20, -1.09663867950439453125e+01) (21, 9.62001609802246093750e+00) (22, 8.66294956207275390625e+00) (23, 8.27225780487060546875e+00) (24, 9.25431549549102783203e-01) (25, -3.89386105537414550781e+00) (26, 5.80465412139892578125e+00) (27, 7.49765014648437500000e+00) (28, 2.86546373367309570312e+00) (29, -5.32064259052276611328e-01) (30, -4.09389686584472656250e+00) (31, 4.29423093795776367188e+00) (32, 2.05998063087463378906e+00) (33, 1.25574612617492675781e+00) (34, -3.87719869613647460938e-01) (35, -1.01974401473999023438e+01) (36, -1.20859050750732421875e+00) (0, -6.93348765373229980469e-01) (1, 1.04092264175415039062e+00) (2, 8.98701608180999755859e-01) (3, 2.82561093568801879883e-01) (4, -2.49822810292243957520e-01) (5, 1.12839174270629882812e+00) (6, 1.02934312820434570312e+00) (7, 1.60764101892709732056e-02) (8, 6.98642909526824951172e-01) (9, 2.75454461574554443359e-01) (10, 3.89483004808425903320e-01) (11, 1.29972290992736816406e+00) (12, 8.40777099132537841797e-01) (13, 1.25792682170867919922e+00) (14, -9.78918224573135375977e-02) (15, 1.10628819465637207031e+00) (16, 8.14733088016510009766e-01) (17, 1.05733191967010498047e+00) (18, 9.80536043643951416016e-01) (19, 2.77887672185897827148e-01) (20, -2.63094520568847656250e+00) (21, 3.16765815019607543945e-01) (22, -3.72588008642196655273e-01) (23, -5.57713031768798828125e-01) (24, -8.74536812305450439453e-01) (25, 1.82084083557128906250e-01) (26, 6.26688674092292785645e-02) (27, 3.69319885969161987305e-01) (28, 1.69030502438545227051e-01) (29, 3.85640233755111694336e-01) (30, -4.58012372255325317383e-02) (31, 7.06485658884048461914e-02) (32, -4.15954329073429107666e-02) (33, -4.48776692152023315430e-01) (34, 6.66424095630645751953e-01) (35, -5.00058948993682861328e-01) (36, -3.59566807746887207031e-01) (0, -7.24409055709838867188e+00) (1, 2.87784862518310546875e+00) (2, 1.41150104999542236328e+00) (3, 1.74939203262329101562e+00) (4, -1.14569015502929687500e+01) (5, 1.34225714206695556641e+00) (6, 3.32191157341003417969e+00) (7, 2.19186782836914062500e+00) (8, 5.39653301239013671875e+00) (9, -1.30805416107177734375e+01) (10, 1.34533786773681640625e+00) (11, 6.56784594058990478516e-01) (12, 1.67038166522979736328e+00) (13, 2.60085153579711914062e+00) (14, -1.43501110076904296875e+01) (15, 1.34930121898651123047e+00) (16, 1.44772946834564208984e-01) (17, 3.72924417257308959961e-01) (18, 1.54390621185302734375e+00) (19, -1.60487537384033203125e+01) (20, 1.12551534175872802734e+00) (21, 5.85083055496215820312e+00) (22, 6.72690916061401367188e+00) (23, 8.53947257995605468750e+00) (24, -1.29371118545532226562e+01) (25, 1.48848354816436767578e+00) (26, 3.78155183792114257812e+00) (27, 7.71477270126342773438e+00) (28, -1.09571046829223632812e+01) (29, -5.41053056716918945312e+00) (30, 2.75012463331222534180e-01) (31, 3.93109965324401855469e+00) (32, 4.31838893890380859375e+00) (33, -8.79529953002929687500e+00) (34, -4.03652381896972656250e+00) (35, 2.60704631805419921875e+01) (36, -3.54003787040710449219e+00) (0, 3.48017883300781250000e+00) (1, 2.88116645812988281250e+00) (2, -4.72487926483154296875e+00) (3, -1.56698298454284667969e+00) (4, -1.33377194404602050781e+00) (5, -1.45497703552246093750e+00) (6, 2.82503414154052734375e+00) (7, -4.22722578048706054688e+00) (8, 3.40599489212036132812e+00) (9, 2.23531341552734375000e+00) (10, -4.69889020919799804688e+00) (11, -8.55150580406188964844e-01) (12, -1.40798962116241455078e+00) (13, 1.05697584152221679688e+00) (14, 3.86175155639648437500e+00) (15, -1.00247561931610107422e+00) (16, 2.96685788780450820923e-02) (17, 1.19947999715805053711e-01) (18, 8.31097126007080078125e-01) (19, 6.59270143508911132812e+00) (20, -6.77892780303955078125e+00) (21, 2.24662518501281738281e+00) (22, -4.08955526351928710938e+00) (23, -8.41876316070556640625e+00) (24, -2.63381093740463256836e-01) (25, 6.13683164119720458984e-01) (26, 1.26492977142333984375e+00) (27, 2.38340020179748535156e+00) (28, 3.72804236412048339844e+00) (29, -4.42182838916778564453e-01) (30, -2.14649006724357604980e-01) (31, -1.47611305117607116699e-01) (32, -7.31340348720550537109e-01) (33, -1.16517364978790283203e+00) (34, -7.09395647048950195312e-01) (35, -3.10484099388122558594e+00) (36, 1.72786581516265869141e+00) (0, -2.33532953262329101562e+00) (1, 1.74965906143188476562e+00) (2, 7.63197124004364013672e-01) (3, 1.13715410232543945312e-01) (4, -7.26020693778991699219e-01) (5, 1.74972999095916748047e+00) (6, 2.53637838363647460938e+00) (7, -1.73065781593322753906e+00) (8, 1.70822763442993164062e+00) (9, 3.56650292873382568359e-01) (10, -2.20358061790466308594e+00) (11, 1.93584060668945312500e+00) (12, 1.44913899898529052734e+00) (13, 3.73847794532775878906e+00) (14, 1.25554430484771728516e+00) (15, 7.55106568336486816406e-01) (16, 1.75452959537506103516e+00) (17, 2.40946149826049804688e+00) (18, 3.53849434852600097656e+00) (19, 2.32670378684997558594e+00) (20, -1.87002778053283691406e+00) (21, 1.04798161983489990234e+00) (22, -1.32650339603424072266e+00) (23, -3.92005801200866699219e+00) (24, -3.14610934257507324219e+00) (25, 4.73997056484222412109e-01) (26, 6.98912620544433593750e-01) (27, 1.14175200462341308594e+00) (28, 1.10484361648559570312e+00) (29, 4.52909171581268310547e-01) (30, -2.01442807912826538086e-01) (31, -1.12271033227443695068e-01) (32, -1.24480187892913818359e-01) (33, -7.84888684749603271484e-01) (34, 8.46002399921417236328e-01) (35, -1.09813380241394042969e+00) (36, -1.13440299034118652344e+00) (0, 8.36735057830810546875e+00) (1, -2.95302128791809082031e+00) (2, -4.45421743392944335938e+00) (3, -3.02075362205505371094e+00) (4, -2.62772941589355468750e+00) (5, -2.13271331787109375000e+00) (6, 7.09658622741699218750e+00) (7, -4.70512914657592773438e+00) (8, 4.77805805206298828125e+00) (9, 2.81198811531066894531e+00) (10, -2.46992635726928710938e+00) (11, 3.02519583702087402344e+00) (12, 6.44760489463806152344e-01) (13, 2.74010658264160156250e+00) (14, 6.65588951110839843750e+00) (15, -1.64267629384994506836e-01) (16, -2.23509311676025390625e-01) (17, 3.91681343317031860352e-01) (18, 1.70553922653198242188e+00) (19, 1.00269994735717773438e+01) (20, -1.00088396072387695312e+01) (21, 3.24496030807495117188e+00) (22, -5.42378377914428710938e+00) (23, -1.09296293258666992188e+01) (24, 1.26613938808441162109e+00) (25, 7.17175230383872985840e-02) (26, 2.19737148284912109375e+00) (27, 3.51063561439514160156e+00) (28, 3.92172741889953613281e+00) (29, -2.09564551711082458496e-01) (30, -4.47966337203979492188e-01) (31, 4.43666309118270874023e-01) (32, 1.82231083512306213379e-01) (33, -5.10994195938110351562e-01) (34, -2.15649533271789550781e+00) (35, -3.48886084556579589844e+00) (36, 4.14314699172973632812e+00) (0, -4.88848257064819335938e+00) (1, 3.10053563117980957031e+00) (2, 3.53862786293029785156e+00) (3, 5.74862778186798095703e-01) (4, -6.93034589290618896484e-01) (5, 3.26433706283569335938e+00) (6, 2.30459260940551757812e+00) (7, -7.18688845634460449219e-01) (8, 1.63814532756805419922e+00) (9, -8.40542137622833251953e-01) (10, 1.59127771854400634766e+00) (11, 3.59041166305541992188e+00) (12, 2.69516491889953613281e+00) (13, 4.25042915344238281250e+00) (14, -4.88868802785873413086e-01) (15, 3.48572063446044921875e+00) (16, 3.78948497772216796875e+00) (17, 4.22976589202880859375e+00) (18, 6.21198558807373046875e+00) (19, -9.12470400333404541016e-01) (20, -6.79370927810668945312e+00) (21, 1.09367024898529052734e+00) (22, -1.47804170846939086914e-01) (23, -2.72040510177612304688e+00) (24, -2.44467687606811523438e+00) (25, 6.75822734832763671875e-01) (26, 4.99494999647140502930e-01) (27, 7.65312194824218750000e-01) (28, 1.47690577432513237000e-03) (29, -6.84362053871154785156e-01) (30, 6.07449114322662353516e-02) (31, -4.94784452021121978760e-02) (32, -1.47179245948791503906e-01) (33, -9.66260850429534912109e-01) (34, 2.80532479286193847656e+00) (35, 2.85235762596130371094e-01) (36, -2.41894650459289550781e+00) (0, -7.58513391017913818359e-01) (1, 1.46072518825531005859e+00) (2, 6.25490128993988037109e-01) (3, 1.39506459236145019531e-01) (4, -4.10506546497344970703e-01) (5, 1.00527882575988769531e+00) (6, 8.23578894138336181641e-01) (7, -3.80818665027618408203e-01) (8, 1.15379929542541503906e+00) (9, 2.25137859582901000977e-01) (10, -1.60966470837593078613e-01) (11, 7.00646877288818359375e-01) (12, 4.84550088644027709961e-01) (13, 1.39390242099761962891e+00) (14, -3.38933557271957397461e-01) (15, 9.22020196914672851562e-01) (16, 8.12170803546905517578e-01) (17, 8.15557479858398437500e-01) (18, 1.24235534667968750000e+00) (19, 9.14623498916625976562e-01) (20, -2.65963315963745117188e+00) (21, 7.32419490814208984375e-01) (22, -3.71544122695922851562e-01) (23, -9.71423923969268798828e-01) (24, -1.39314556121826171875e+00) (25, 1.94415628910064697266e-01) (26, 2.90651679039001464844e-01) (27, 6.19199633598327636719e-01) (28, 7.21169769763946533203e-01) (29, 1.70702248811721801758e-01) (30, -2.36300453543663024902e-02) (31, -1.20808281004428863525e-01) (32, -1.12547017633914947510e-01) (33, -4.06860381364822387695e-01) (34, 8.11473011970520019531e-01) (35, -8.49319577217102050781e-01) (36, -4.41077440977096557617e-01) (0, -1.77918601036071777344e+00) (1, 1.38643717765808105469e+00) (2, 1.13527870178222656250e+00) (3, 3.13913971185684204102e-01) (4, -3.88930648565292358398e-01) (5, 1.26338171958923339844e+00) (6, 1.62844312191009521484e+00) (7, -7.07264482975006103516e-01) (8, 1.17564916610717773438e+00) (9, 3.34708184003829956055e-01) (10, 4.41060215234756469727e-01) (11, 1.76339232921600341797e+00) (12, 1.24921023845672607422e+00) (13, 2.28249526023864746094e+00) (14, 2.13095098733901977539e-01) (15, 1.78023695945739746094e+00) (16, 1.65465307235717773438e+00) (17, 2.09206223487854003906e+00) (18, 2.37550926208496093750e+00) (19, 1.48315608501434326172e+00) (20, -3.62852311134338378906e+00) (21, 6.13861083984375000000e-01) (22, -5.31378686428070068359e-01) (23, -1.81564283370971679688e+00) (24, -2.13450503349304199219e+00) (25, 2.01788380742073059082e-01) (26, 4.23281252384185791016e-01) (27, 6.99318647384643554688e-01) (28, 7.04814493656158447266e-01) (29, 2.54476755857467651367e-01) (30, -1.67155295610427856445e-01) (31, 4.28610779345035552979e-02) (32, -2.68822431564331054688e-01) (33, -5.80774724483489990234e-01) (34, 1.16300618648529052734e+00) (35, -5.16779959201812744141e-01) (36, -9.47110295295715332031e-01) (37, -1.57330513000488281250e+00) (38, 3.46951067447662353516e-01) (39, 6.40060067176818847656e-01) (40, 3.00795048475265502930e-01) (41, -5.49015188217163085938e+00) (42, -1.59756749868392944336e-01) (43, -7.14816999435424804688e+00) (44, -7.61891677975654602051e-02) (45, -9.59633827209472656250e-01) (46, 1.56682729721069335938e+00) (47, -3.27875196933746337891e-01) (48, 4.51224774122238159180e-01) (49, -1.61468192934989929199e-01) (50, -1.02791525423526763916e-01) (51, 5.69254100322723388672e-01) (52, 1.26867264509201049805e-01) (53, -7.22228705883026123047e-01) (54, -1.63184452056884765625e+00) (55, 1.93440794944763183594e+00) (56, 3.62695765495300292969e+00) (57, -3.36105179786682128906e+00) (58, 1.22810482978820800781e+00) (59, -1.03028856217861175537e-01) (60, 1.41552162170410156250e+00) (61, 1.41702318191528320312e+00) (62, -1.21567815542221069336e-01) (63, -7.78785943984985351562e-01) (64, -5.08868217468261718750e-01) (65, 4.65079039335250854492e-01) (66, -7.85690322518348693848e-02) (67, 1.43013745546340942383e-01) (37, 7.99890577793121337891e-01) (38, -3.90767445787787437439e-03) (39, 5.99756896495819091797e-01) (40, -1.88382491469383239746e-01) (41, -4.07587528228759765625e+00) (42, 1.98423773050308227539e-01) (43, -8.31773757934570312500e+00) (44, -4.82233673334121704102e-01) (45, -5.71247339248657226562e-01) (46, 1.40454173088073730469e+00) (47, -1.32004559040069580078e+00) (48, 6.72300398349761962891e-01) (49, 1.71131998300552368164e-01) (50, -1.53030976653099060059e-01) (51, 1.44798052310943603516e+00) (52, 2.13604554533958435059e-01) (53, 4.67095947265625000000e+00) (54, -3.76223653554916381836e-01) (55, -1.17333364486694335938e+01) (56, 6.73462525010108947754e-02) (57, -3.76173734664916992188e-01) (58, -7.17815113067626953125e+00) (59, 3.63485157489776611328e-01) (60, -1.48883104324340820312e+01) (61, -3.07347506284713745117e-01) (62, -6.83124661445617675781e-01) (63, 3.12384814023971557617e-01) (64, -8.23289752006530761719e-01) (65, 3.05637896060943603516e-01) (66, -3.89776974916458129883e-01) (67, 2.53002452850341796875e+00) (37, -1.63404440879821777344e+00) (38, -4.46885287761688232422e-01) (39, -1.29580330848693847656e+00) (40, -1.17220258712768554688e+00) (41, -5.85671901702880859375e+00) (42, -2.12020426988601684570e-01) (43, -3.64345479011535644531e+00) (44, -5.87006449699401855469e-01) (45, -2.25919175148010253906e+00) (46, -2.37091708183288574219e+00) (47, -1.12062954902648925781e+00) (48, -2.27558940649032592773e-01) (49, -2.50359386205673217773e-01) (50, -5.74181556701660156250e-01) (51, -5.17983007431030273438e+00) (52, -4.51466709375381469727e-01) (53, -3.80132824182510375977e-01) (54, -3.85461592674255371094e+00) (55, -5.42933511734008789062e+00) (56, -2.29834938049316406250e+00) (57, 6.08746910095214843750e+00) (58, -5.42878913879394531250e+00) (59, -3.98159503936767578125e-01) (60, 9.23438429832458496094e-01) (61, -1.59329926967620849609e+00) (62, -7.51853287220001220703e-01) (63, -4.81470584869384765625e+00) (64, -7.00019538402557373047e-01) (65, -4.55041766166687011719e-01) (66, -5.74032008647918701172e-01) (67, -1.98254495859146118164e-01) (37, -1.75127243995666503906e+00) (38, -3.67654979228973388672e-01) (39, -1.92995834350585937500e+00) (40, -9.77169036865234375000e-01) (41, -5.92028331756591796875e+00) (42, -2.94535249471664428711e-01) (43, -4.51338386535644531250e+00) (44, -6.48648262023925781250e-01) (45, -1.27856826782226562500e+00) (46, -2.05764460563659667969e+00) (47, -1.43432855606079101562e+00) (48, -4.15287315845489501953e-01) (49, -2.71508544683456420898e-01) (50, -5.08625090122222900391e-01) (51, -5.32146453857421875000e+00) (52, -3.44634652137756347656e-01) (53, -5.85819900035858154297e-01) (54, -1.88832056522369384766e+00) (55, -6.32548332214355468750e+00) (56, -2.23573684692382812500e+00) (57, 4.42517948150634765625e+00) (58, -6.00777578353881835938e+00) (59, -2.35830426216125488281e-01) (60, 1.99671253561973571777e-01) (61, -1.55590522289276123047e+00) (62, -8.17021131515502929688e-01) (63, -2.87671637535095214844e+00) (64, -1.16676378250122070312e+00) (65, -4.49821263551712036133e-01) (66, -6.12289488315582275391e-01) (67, 5.25128981098532676697e-03) (37, 5.34376907348632812500e+00) (38, 2.81635075807571411133e-01) (39, 1.49143636226654052734e+00) (40, 2.59148985147476196289e-01) (41, 4.16143655776977539062e+00) (42, -4.47922945022583007812e-02) (43, -2.89723801612854003906e+00) (44, -1.15760520100593566895e-01) (45, -7.94386923313140869141e-01) (46, -1.05079984664916992188e+00) (47, -3.61117810010910034180e-01) (48, -1.16058301925659179688e+00) (49, -2.07591027021408081055e-01) (50, -1.55222356319427490234e-01) (51, 1.45745241641998291016e+00) (52, -1.27744406461715698242e-01) (53, -3.10936784744262695312e+00) (54, -2.28878244757652282715e-01) (55, 6.48885011672973632812e+00) (56, 6.37183237075805664062e+00) (57, -8.54468250274658203125e+00) (58, 8.25490093231201171875e+00) (59, -5.62096107751131057739e-03) (60, 6.01996040344238281250e+00) (61, 1.69994938373565673828e+00) (62, -1.57600082457065582275e-02) (63, 4.90239095687866210938e+00) (64, -7.65713334083557128906e-01) (65, 2.20610886812210083008e-01) (66, -1.06832601130008697510e-01) (67, -1.10765142440795898438e+01) (37, -2.27625560760498046875e+00) (38, -3.33830684423446655273e-01) (39, -1.56077885627746582031e+00) (40, -2.11590027809143066406e+00) (41, -6.95100402832031250000e+00) (42, -2.00016081333160400391e-01) (43, -6.11881446838378906250e+00) (44, -6.11799359321594238281e-01) (45, 3.49904686212539672852e-01) (46, -8.21339488029479980469e-02) (47, -1.43014991283416748047e+00) (48, -8.92801731824874877930e-02) (49, -2.15532645583152770996e-01) (50, -4.19970780611038208008e-01) (51, -2.86301255226135253906e+00) (52, -1.73926338553428649902e-01) (53, 1.06081652641296386719e+00) (54, -3.62984132766723632812e+00) (55, -8.07044219970703125000e+00) (56, -2.24633765220642089844e+00) (57, 3.56817126274108886719e+00) (58, -7.59274291992187500000e+00) (59, -1.23760320246219635010e-01) (60, -5.69725036621093750000e+00) (61, -1.16747725009918212891e+00) (62, -8.25866937637329101562e-01) (63, -5.68120062351226806641e-01) (64, -1.16861939430236816406e+00) (65, -3.30942243337631225586e-01) (66, -5.54634511470794677734e-01) (67, 1.44592010974884033203e+00) (37, -3.96359825134277343750e+00) (38, -2.92904764413833618164e-01) (39, -1.12007522583007812500e+00) (40, -9.01072561740875244141e-01) (41, -7.11776733398437500000e+00) (42, -2.65005856752395629883e-01) (43, -5.89581632614135742188e+00) (44, -6.22130513191223144531e-01) (45, -2.07622575759887695312e+00) (46, -2.18397283554077148438e+00) (47, -1.16179323196411132812e+00) (48, -2.10670292377471923828e-01) (49, -2.27751985192298889160e-01) (50, -3.89469385147094726562e-01) (51, -6.22062301635742187500e+00) (52, -3.22238445281982421875e-01) (53, -1.16697549819946289062e+00) (54, -2.26910710334777832031e+00) (55, -6.57482004165649414062e+00) (56, -3.50424408912658691406e+00) (57, 4.75951480865478515625e+00) (58, -6.23230171203613281250e+00) (59, -3.78384262323379516602e-01) (60, 1.94154071807861328125e+00) (61, -1.94304966926574707031e+00) (62, -5.94663798809051513672e-01) (63, -3.45609617233276367188e+00) (64, -7.54890084266662597656e-01) (65, -2.36938774585723876953e-01) (66, -3.45399171113967895508e-01) (67, -1.91857427358627319336e-01) (37, -1.85384058952331542969e+00) (38, -3.39961171150207519531e-01) (39, -2.08811712265014648438e+00) (40, -1.10290241241455078125e+00) (41, -6.05835342407226562500e+00) (42, -2.70949542522430419922e-01) (43, -4.65568542480468750000e+00) (44, -5.88212370872497558594e-01) (45, -1.34643483161926269531e+00) (46, -1.85892593860626220703e+00) (47, -1.09373140335083007812e+00) (48, -3.71583729982376098633e-01) (49, -2.53985613584518432617e-01) (50, -5.28444528579711914062e-01) (51, -5.24328136444091796875e+00) (52, -4.58031415939331054688e-01) (53, -3.09476882219314575195e-01) (54, -1.80003929138183593750e+00) (55, -6.17295122146606445312e+00) (56, -2.22172999382019042969e+00) (57, 4.31124544143676757812e+00) (58, -5.91972732543945312500e+00) (59, -2.27160081267356872559e-01) (60, 3.46390157938003540039e-02) (61, -1.55964004993438720703e+00) (62, -7.36918926239013671875e-01) (63, -2.85723400115966796875e+00) (64, -7.10562288761138916016e-01) (65, -4.63804811239242553711e-01) (66, -5.99231004714965820312e-01) (67, -2.53492631018161773682e-02) (37, -4.24602699279785156250e+00) (38, 3.54513734579086303711e-01) (39, -2.55049562454223632812e+00) (40, -3.43147587776184082031e+00) (41, -9.66181278228759765625e+00) (42, -2.87147969007492065430e-01) (43, -7.29758977890014648438e+00) (44, -1.80588617920875549316e-01) (45, -2.18562170863151550293e-01) (46, -1.91418468952178955078e+00) (47, -2.54588335752487182617e-01) (48, -7.86925703287124633789e-02) (49, -7.99925327301025390625e-02) (50, -1.02314792573451995850e-01) (51, -8.17912673950195312500e+00) (52, -1.94454774260520935059e-01) (53, -1.68548727035522460938e+00) (54, -2.84136700630187988281e+00) (55, -7.14774274826049804688e+00) (56, -5.84918498992919921875e+00) (57, 4.93318033218383789062e+00) (58, -7.23654842376708984375e+00) (59, -5.49342408776283264160e-02) (60, 4.69414091110229492188e+00) (61, -2.22823309898376464844e+00) (62, -2.84558564424514770508e-01) (63, -3.55611467361450195312e+00) (64, -2.18739286065101623535e-01) (65, 2.18086317181587219238e-01) (66, -2.48396452516317367554e-02) (67, -1.44797933101654052734e+00) (37, -1.80538046360015869141e+00) (38, -3.79268586635589599609e-01) (39, -2.11125040054321289062e+00) (40, -1.01029646396636962891e+00) (41, -6.15333223342895507812e+00) (42, -1.85569003224372863770e-01) (43, -4.84083700180053710938e+00) (44, -6.17175340652465820312e-01) (45, -1.21672987937927246094e+00) (46, -1.60093879699707031250e+00) (47, -1.23058795928955078125e+00) (48, -4.34290409088134765625e-01) (49, -2.80364900827407836914e-01) (50, -5.80085933208465576172e-01) (51, -4.99820995330810546875e+00) (52, -3.89043450355529785156e-01) (53, -1.05464197695255279541e-01) (54, -1.74118161201477050781e+00) (55, -6.17343473434448242188e+00) (56, -2.32946610450744628906e+00) (57, 3.85048770904541015625e+00) (58, -6.11079692840576171875e+00) (59, -1.82230040431022644043e-01) (60, -4.79431211948394775391e-01) (61, -1.31479895114898681641e+00) (62, -8.12346935272216796875e-01) (63, -2.72320127487182617188e+00) (64, -9.04407620429992675781e-01) (65, -5.05237162113189697266e-01) (66, -5.74667811393737792969e-01) (67, 3.44930708408355712891e-01) (37, -1.84024620056152343750e+00) (38, -3.19167792797088623047e-01) (39, -2.16390109062194824219e+00) (40, -1.05684435367584228516e+00) (41, -6.39131402969360351562e+00) (42, -2.50234335660934448242e-01) (43, -5.01484298706054687500e+00) (44, -5.97634375095367431641e-01) (45, -1.32055938243865966797e+00) (46, -1.48380315303802490234e+00) (47, -1.18240296840667724609e+00) (48, -3.19738030433654785156e-01) (49, -2.41898104548454284668e-01) (50, -5.32469451427459716797e-01) (51, -5.02877330780029296875e+00) (52, -3.01245540380477905273e-01) (53, -9.38766822218894958496e-02) (54, -1.81130683422088623047e+00) (55, -6.37067079544067382812e+00) (56, -2.22759103775024414062e+00) (57, 3.84061408042907714844e+00) (58, -6.09641075134277343750e+00) (59, -2.61223107576370239258e-01) (60, -6.50971472263336181641e-01) (61, -1.23220980167388916016e+00) (62, -7.03390061855316162109e-01) (63, -2.68520188331604003906e+00) (64, -7.53603935241699218750e-01) (65, -3.60527038574218750000e-01) (66, -5.84105670452117919922e-01) (67, 4.82532620429992675781e-01) (37, -1.80357003211975097656e+00) (38, -3.61487716436386108398e-01) (39, -9.82430875301361083984e-01) (40, -7.16874420642852783203e-01) (41, -6.24014425277709960938e+00) (42, -3.35902333259582519531e-01) (43, -5.22406101226806640625e+00) (44, -4.83660072088241577148e-01) (45, -1.12603974342346191406e+00) (46, -2.23537230491638183594e+00) (47, -8.68799388408660888672e-01) (48, -2.93335348367691040039e-01) (49, -2.16751515865325927734e-01) (50, -4.47544455528259277344e-01) (51, -5.64077043533325195312e+00) (52, -3.26131761074066162109e-01) (53, -1.22481822967529296875e+00) (54, -1.62367308139801025391e+00) (55, -6.08826637268066406250e+00) (56, -1.91164565086364746094e+00) (57, 3.05377578735351562500e+00) (58, -5.84868526458740234375e+00) (59, -2.73474991321563720703e-01) (60, 1.81846523284912109375e+00) (61, -1.84645473957061767578e+00) (62, -6.21875226497650146484e-01) (63, -2.72624444961547851562e+00) (64, -5.52540719509124755859e-01) (65, -4.11694943904876708984e-01) (66, -3.59039455652236938477e-01) (67, -5.81378340721130371094e-01) (37, -1.80211758613586425781e+00) (38, -4.04494613409042358398e-01) (39, -2.06044530868530273438e+00) (40, -9.82090413570404052734e-01) (41, -5.99954319000244140625e+00) (42, -2.13310673832893371582e-01) (43, -4.60477685928344726562e+00) (44, -6.49022698402404785156e-01) (45, -1.33848297595977783203e+00) (46, -1.90402245521545410156e+00) (47, -1.34788143634796142578e+00) (48, -3.12460362911224365234e-01) (49, -3.22130382061004638672e-01) (50, -5.18648028373718261719e-01) (51, -5.25236082077026367188e+00) (52, -3.55741679668426513672e-01) (53, -4.51301902532577514648e-01) (54, -1.74212515354156494141e+00) (55, -6.19218063354492187500e+00) (56, -2.29120445251464843750e+00) (57, 4.15584754943847656250e+00) (58, -6.12254714965820312500e+00) (59, -2.00260654091835021973e-01) (60, 8.34224224090576171875e-02) (61, -1.43230080604553222656e+00) (62, -7.61625230312347412109e-01) (63, -2.83395338058471679688e+00) (64, -1.04916429519653320312e+00) (65, -3.73711317777633666992e-01) (66, -5.92907011508941650391e-01) (67, 1.60139903426170349121e-01) (37, -2.28663754463195800781e+00) (38, -3.77457559108734130859e-01) (39, -1.01137161254882812500e+00) (40, -1.04866158962249755859e+00) (41, -6.51339530944824218750e+00) (42, -3.00714850425720214844e-01) (43, -4.92674922943115234375e+00) (44, -6.17700576782226562500e-01) (45, -2.37401032447814941406e+00) (46, -2.62348127365112304688e+00) (47, -1.16952645778656005859e+00) (48, -2.65448957681655883789e-01) (49, -2.63910353183746337891e-01) (50, -5.46549677848815917969e-01) (51, -5.71330547332763671875e+00) (52, -4.81729269027709960938e-01) (53, -4.65077161788940429688e-01) (54, -2.45715188980102539062e+00) (55, -6.40658569335937500000e+00) (56, -3.44698190689086914062e+00) (57, 5.59394168853759765625e+00) (58, -6.27162122726440429688e+00) (59, -2.22976207733154296875e-01) (60, 6.57947063446044921875e-01) (61, -1.96483039855957031250e+00) (62, -7.25336730480194091797e-01) (63, -3.94374489784240722656e+00) (64, -7.76503324508666992188e-01) (65, -4.50385630130767822266e-01) (66, -5.71837842464447021484e-01) (67, -4.15065228939056396484e-01) (37, -1.93601500988006591797e+00) (38, -4.69841331243515014648e-01) (39, -1.88607323169708251953e+00) (40, -1.05116009712219238281e+00) (41, -6.07272243499755859375e+00) (42, -1.84389188885688781738e-01) (43, -4.77235460281372070312e+00) (44, -6.69392645359039306641e-01) (45, -1.36718976497650146484e+00) (46, -2.08757591247558593750e+00) (47, -1.45375788211822509766e+00) (48, -3.22043329477310180664e-01) (49, -2.59536564350128173828e-01) (50, -5.14769136905670166016e-01) (51, -5.51708030700683593750e+00) (52, -3.86384814977645874023e-01) (53, -7.48470127582550048828e-01) (54, -1.86222207546234130859e+00) (55, -6.39301776885986328125e+00) (56, -2.27773165702819824219e+00) (57, 4.53167915344238281250e+00) (58, -6.10476684570312500000e+00) (59, -2.96591401100158691406e-01) (60, 2.84417003393173217773e-01) (61, -1.64654386043548583984e+00) (62, -7.75460600852966308594e-01) (63, -2.93361687660217285156e+00) (64, -1.09121942520141601562e+00) (65, -4.64464396238327026367e-01) (66, -6.11481368541717529297e-01) (67, 1.14134266972541809082e-01) (37, -1.84841048717498779297e+00) (38, -2.86176949739456176758e-01) (39, -1.44847190380096435547e+00) (40, -7.20274209976196289062e-01) (41, -6.54204559326171875000e+00) (42, -3.64762157201766967773e-01) (43, -5.67159461975097656250e+00) (44, -4.18757975101470947266e-01) (45, -1.26727235317230224609e+00) (46, -1.82567226886749267578e+00) (47, -1.00425612926483154297e+00) (48, -2.15381085872650146484e-01) (49, -2.86165505647659301758e-01) (50, -4.22789454460144042969e-01) (51, -5.73481702804565429688e+00) (52, -2.45168939232826232910e-01) (53, -1.06319391727447509766e+00) (54, -1.51365375518798828125e+00) (55, -6.34756088256835937500e+00) (56, -2.53655958175659179688e+00) (57, 3.16130232810974121094e+00) (58, -5.84311151504516601562e+00) (59, -3.12370300292968750000e-01) (60, 2.23747563362121582031e+00) (61, -1.72940766811370849609e+00) (62, -4.29019957780838012695e-01) (63, -2.97436833381652832031e+00) (64, -6.43463253974914550781e-01) (65, -2.87223458290100097656e-01) (66, -3.43612194061279296875e-01) (67, -5.49514651298522949219e-01) (37, -1.81900751590728759766e+00) (38, -3.92272830009460449219e-01) (39, -2.06452465057373046875e+00) (40, -1.00894272327423095703e+00) (41, -6.09587097167968750000e+00) (42, -2.64306426048278808594e-01) (43, -4.83728456497192382812e+00) (44, -5.95862030982971191406e-01) (45, -1.23098194599151611328e+00) (46, -1.91235983371734619141e+00) (47, -1.27361381053924560547e+00) (48, -3.61494004726409912109e-01) (49, -2.37777799367904663086e-01) (50, -5.47671675682067871094e-01) (51, -5.36563968658447265625e+00) (52, -4.33421105146408081055e-01) (53, -3.80118101835250854492e-01) (54, -1.83804154396057128906e+00) (55, -6.29163265228271484375e+00) (56, -2.15863394737243652344e+00) (57, 4.28408527374267578125e+00) (58, -6.10945940017700195312e+00) (59, -2.14284867048263549805e-01) (60, 1.04805015027523040771e-01) (61, -1.55931437015533447266e+00) (62, -7.37033367156982421875e-01) (63, -2.86490392684936523438e+00) (64, -8.70017468929290771484e-01) (65, -3.68858426809310913086e-01) (66, -4.54222768545150756836e-01) (67, 4.96656894683837890625e-02) (37, -5.33190441131591796875e+00) (38, -4.31665658950805664062e-01) (39, -2.72274702787399291992e-01) (40, -9.19794619083404541016e-01) (41, -7.46568107604980468750e+00) (42, -3.43847334384918212891e-01) (43, -5.63152742385864257812e+00) (44, -6.17180883884429931641e-01) (45, -2.13824224472045898438e+00) (46, -1.28997480869293212891e+00) (47, -1.00116991996765136719e+00) (48, -3.66930723190307617188e-01) (49, -3.50029081106185913086e-01) (50, -5.93048214912414550781e-01) (51, -5.99566650390625000000e+00) (52, -4.03286874294281005859e-01) (53, 2.01467812061309814453e-01) (54, -1.37692141532897949219e+00) (55, -6.49402236938476562500e+00) (56, -7.14802789688110351562e+00) (57, 7.29436492919921875000e+00) (58, -7.84161186218261718750e+00) (59, -3.47749531269073486328e-01) (60, 2.46415543556213378906e+00) (61, -6.82173442840576171875e+00) (62, -5.47223627567291259766e-01) (63, -2.46770620346069335938e+00) (64, -6.03212714195251464844e-01) (65, -3.73536050319671630859e-01) (66, -4.28790390491485595703e-01) (67, 6.09914779663085937500e-01) (68, -4.16795063018798828125e+00) (69, -4.59360885620117187500e+00) (70, -1.10420823097229003906e+00) (71, -2.64502811431884765625e+00) (72, 2.58700895309448242188e+00) (73, -4.18650770187377929688e+00) (74, -5.22385501861572265625e+00) (75, -2.74073600769042968750e+00) (76, -4.82394552230834960938e+00) (77, -2.75201201438903808594e+00) (78, -2.90782523155212402344e+00) (79, -3.42114853858947753906e+00) (80, -2.70521163940429687500e+00) (81, -3.10028696060180664062e+00) (82, -2.77455902099609375000e+00) (83, -4.24949312210083007812e+00) (84, -2.84458470344543457031e+00) (85, -2.81037616729736328125e+00) (86, -1.28300571441650390625e+00) (68, 3.90628427267074584961e-02) (69, 5.66426372528076171875e+00) (70, 2.00299048423767089844e+00) (71, 2.36937451362609863281e+00) (72, -2.70779228210449218750e+00) (73, 3.45099997520446777344e+00) (74, 1.86577463150024414062e+00) (75, 2.36899447441101074219e+00) (76, 3.09029173851013183594e+00) (77, 2.43386650085449218750e+00) (78, 2.49321818351745605469e+00) (79, 2.07638525962829589844e+00) (80, 2.41276574134826660156e+00) (81, 3.09453201293945312500e+00) (82, 2.42974305152893066406e+00) (83, 1.86677396297454833984e+00) (84, 2.38308358192443847656e+00) (85, 4.94663476943969726562e+00) (86, -5.32529413700103759766e-01) 
