FANN_FLO_2.1
num_layers=3
learning_rate=0.700000
connection_rate=1.000000
network_type=0
learning_momentum=0.000000
training_algorithm=2
train_error_function=1
train_stop_function=0
cascade_output_change_fraction=0.010000
quickprop_decay=-0.000100
quickprop_mu=1.750000
rprop_increase_factor=1.200000
rprop_decrease_factor=0.500000
rprop_delta_min=0.000000
rprop_delta_max=50.000000
rprop_delta_zero=0.100000
cascade_output_stagnation_epochs=12
cascade_candidate_change_fraction=0.010000
cascade_candidate_stagnation_epochs=12
cascade_max_out_epochs=150
cascade_max_cand_epochs=150
cascade_num_candidate_groups=2
bit_fail_limit=3.49999994039535522461e-01
cascade_candidate_limit=1.00000000000000000000e+03
cascade_weight_multiplier=4.00000005960464477539e-01
cascade_activation_functions_count=10
cascade_activation_functions=3 5 7 8 10 11 14 15 16 17 
cascade_activation_steepnesses_count=4
cascade_activation_steepnesses=2.50000000000000000000e-01 5.00000000000000000000e-01 7.50000000000000000000e-01 1.00000000000000000000e+00 
layer_sizes=10 10 10 
scale_included=0
neurons (num_inputs, activation_function, activation_steepness)=(0, 0, 0.00000000000000000000e+00) (0, 0, 0.00000000000000000000e+00) (0, 0, 0.00000000000000000000e+00) (0, 0, 0.00000000000000000000e+00) (0, 0, 0.00000000000000000000e+00) (0, 0, 0.00000000000000000000e+00) (0, 0, 0.00000000000000000000e+00) (0, 0, 0.00000000000000000000e+00) (0, 0, 0.00000000000000000000e+00) (0, 0, 0.00000000000000000000e+00) (10, 4, 5.00000000000000000000e-01) (10, 4, 5.00000000000000000000e-01) (10, 4, 5.00000000000000000000e-01) (10, 4, 5.00000000000000000000e-01) (10, 4, 5.00000000000000000000e-01) (10, 4, 5.00000000000000000000e-01) (10, 4, 5.00000000000000000000e-01) (10, 4, 5.00000000000000000000e-01) (10, 4, 5.00000000000000000000e-01) (0, 0, 0.00000000000000000000e+00) (10, 4, 5.00000000000000000000e-01) (10, 4, 5.00000000000000000000e-01) (10, 4, 5.00000000000000000000e-01) (10, 4, 5.00000000000000000000e-01) (10, 4, 5.00000000000000000000e-01) (10, 4, 5.00000000000000000000e-01) (10, 4, 5.00000000000000000000e-01) (10, 4, 5.00000000000000000000e-01) (10, 4, 5.00000000000000000000e-01) (0, 0, 0.00000000000000000000e+00) 
connections (connected_to_neuron, weight)=(0, 4.82278299331665039062e+00) (1, 5.64493274688720703125e+00) (2, -4.13623666763305664062e+00) (3, -4.40561342239379882812e+00) (4, 4.69840002059936523438e+00) (5, -3.76772761344909667969e+00) (6, -1.46472930908203125000e+00) (7, -1.20997500419616699219e+00) (8, -2.72252869606018066406e+00) (9, 5.13409316539764404297e-01) (0, 1.61664211750030517578e+00) (1, 4.96901226043701171875e+00) (2, 3.45681715011596679688e+00) (3, 1.46953046321868896484e+00) (4, 1.49557483196258544922e+00) (5, 2.25466346740722656250e+00) (6, 4.99882191419601440430e-01) (7, -9.75769042968750000000e+00) (8, 8.13357532024383544922e-03) (9, -3.82026100158691406250e+00) (0, 4.36044025421142578125e+00) (1, -7.04681015014648437500e+00) (2, 3.48827123641967773438e+00) (3, -1.90499401092529296875e+00) (4, 5.56539392471313476562e+00) (5, -1.38197112083435058594e+00) (6, -4.34427231550216674805e-01) (7, 1.09492158889770507812e+00) (8, -2.82835173606872558594e+00) (9, -1.82014811038970947266e+00) (0, 7.80457705259323120117e-02) (1, -1.01950359344482421875e+00) (2, -3.94035667181015014648e-01) (3, -3.73788982629776000977e-01) (4, 7.72520637512207031250e+00) (5, 1.65901243686676025391e+00) (6, -8.36672663688659667969e-01) (7, -2.45620298385620117188e+00) (8, 5.08781433105468750000e-01) (9, -5.96591043472290039062e+00) (0, 5.35302400588989257812e+00) (1, 3.12942433357238769531e+00) (2, 4.15796804428100585938e+00) (3, 5.26470613479614257812e+00) (4, -4.25918817520141601562e+00) (5, -2.72710227966308593750e+00) (6, -3.03842258453369140625e+00) (7, -3.92666602134704589844e+00) (8, -1.96884587407112121582e-01) (9, -1.07560908794403076172e+00) (0, 2.56921505928039550781e+00) (1, 1.96410751342773437500e+00) (2, 3.62179636955261230469e+00) (3, 1.38139235973358154297e+00) (4, 2.66652560234069824219e+00) (5, 1.96081590652465820312e+00) (6, -9.29136180877685546875e+00) (7, -6.42609655857086181641e-01) (8, 3.31405115127563476562e+00) (9, -5.84549665451049804688e+00) (0, 3.34278702735900878906e-01) (1, -9.46566820144653320312e-01) (2, 1.14401590824127197266e+00) (3, -1.06423580646514892578e+00) (4, -1.32872557640075683594e+00) (5, -1.00602418184280395508e-01) (6, 1.10496444702148437500e+01) (7, -4.37595069408416748047e-01) (8, 5.01837581396102905273e-02) (9, -5.15896892547607421875e+00) (0, 4.50208568572998046875e+00) (1, -4.44368791580200195312e+00) (2, -2.46720504760742187500e+00) (3, 1.72474198043346405029e-02) (4, 3.41364002227783203125e+00) (5, 8.93144488334655761719e-01) (6, 1.67460882663726806641e+00) (7, 1.01092529296875000000e+01) (8, -4.71876811981201171875e+00) (9, 7.79769837856292724609e-01) (0, 3.02298212051391601562e+00) (1, 2.37523317337036132812e+00) (2, -6.18061304092407226562e-01) (3, -7.28957509994506835938e+00) (4, 2.06659460067749023438e+00) (5, 3.12127280235290527344e+00) (6, 2.47821426391601562500e+00) (7, -1.91333934664726257324e-01) (8, 7.39072680473327636719e-01) (9, -4.95623731613159179688e+00) (10, -4.34591245651245117188e+00) (11, -8.75293552875518798828e-01) (12, 1.41001987457275390625e+00) (13, -3.60348129272460937500e+00) (14, -4.73418664932250976562e+00) (15, -3.47583031654357910156e+00) (16, -2.66664791107177734375e+00) (17, 5.11759901046752929688e+00) (18, -1.67506784200668334961e-02) (19, -5.33612680435180664062e+00) (10, -5.41826486587524414062e+00) (11, -2.92160725593566894531e+00) (12, -4.89005661010742187500e+00) (13, -7.86702558398246765137e-02) (14, -5.67554187774658203125e+00) (15, -1.89890694618225097656e+00) (16, -1.45868909358978271484e+00) (17, -1.84501957893371582031e+00) (18, 9.55645024776458740234e-01) (19, 9.64819729328155517578e-01) (10, -1.96062552928924560547e+00) (11, -1.80128407478332519531e+00) (12, -2.08753752708435058594e+00) (13, -4.25066328048706054688e+00) (14, -4.43472290039062500000e+00) (15, -4.38395595550537109375e+00) (16, -4.56428623199462890625e+00) (17, 1.96185183525085449219e+00) (18, 3.57741737365722656250e+00) (19, -1.22258889675140380859e+00) (10, 4.08733797073364257812e+00) (11, -2.42841339111328125000e+00) (12, 4.87129259109497070312e+00) (13, 4.11889284849166870117e-01) (14, -5.24816751480102539062e+00) (15, -4.72576498985290527344e-01) (16, 3.88659119606018066406e-01) (17, -4.54163074493408203125e+00) (18, -7.54514694213867187500e+00) (19, -2.65479159355163574219e+00) (10, 4.64365673065185546875e+00) (11, -6.38135373592376708984e-01) (12, 5.22008419036865234375e+00) (13, -8.00288105010986328125e+00) (14, 2.56955790519714355469e+00) (15, -2.12850138545036315918e-01) (16, -1.31851553916931152344e+00) (17, -5.02965927124023437500e+00) (18, 8.45321536064147949219e-01) (19, -5.56969881057739257812e+00) (10, -3.21601152420043945312e+00) (11, -4.69297552108764648438e+00) (12, -1.41079580783843994141e+00) (13, 5.01619291305541992188e+00) (14, 3.39089298248291015625e+00) (15, -5.78514385223388671875e+00) (16, -1.85666191577911376953e+00) (17, -1.91721826791763305664e-01) (18, 3.29564738273620605469e+00) (19, -3.00791788101196289062e+00) (10, -1.38534760475158691406e+00) (11, 2.57223534584045410156e+00) (12, -1.98698508739471435547e+00) (13, 3.55114102363586425781e+00) (14, 3.51538252830505371094e+00) (15, -6.79461860656738281250e+00) (16, -7.11872482299804687500e+00) (17, 1.54109513759613037109e+00) (18, 2.47734948992729187012e-01) (19, -3.76627826690673828125e+00) (10, -4.01574850082397460938e-01) (11, -7.81181716918945312500e+00) (12, -1.31914806365966796875e+00) (13, 2.75143671035766601562e+00) (14, 3.70931506156921386719e+00) (15, 4.89648675918579101562e+00) (16, 5.77792501449584960938e+00) (17, -1.47005939483642578125e+00) (18, 3.93190503120422363281e+00) (19, -7.63450098037719726562e+00) (10, -1.95519089698791503906e+00) (11, 3.88281911611557006836e-01) (12, -1.68620467185974121094e+00) (13, 1.01440620422363281250e+00) (14, 1.80051892995834350586e-01) (15, 2.88379979133605957031e+00) (16, 2.16238641738891601562e+00) (17, 1.30288410186767578125e+00) (18, 7.31680452823638916016e-01) (19, -4.25713729858398437500e+00) 
