FANN_FLO_2.1
num_layers=6
learning_rate=0.700000
connection_rate=1.000000
network_type=0
learning_momentum=0.000000
training_algorithm=2
train_error_function=1
train_stop_function=0
cascade_output_change_fraction=0.010000
quickprop_decay=-0.000100
quickprop_mu=1.750000
rprop_increase_factor=1.200000
rprop_decrease_factor=0.500000
rprop_delta_min=0.000000
rprop_delta_max=50.000000
rprop_delta_zero=0.100000
cascade_output_stagnation_epochs=12
cascade_candidate_change_fraction=0.010000
cascade_candidate_stagnation_epochs=12
cascade_max_out_epochs=150
cascade_max_cand_epochs=150
cascade_num_candidate_groups=2
bit_fail_limit=3.49999994039535522461e-01
cascade_candidate_limit=1.00000000000000000000e+03
cascade_weight_multiplier=4.00000005960464477539e-01
cascade_activation_functions_count=10
cascade_activation_functions=3 5 7 8 10 11 14 15 16 17 
cascade_activation_steepnesses_count=4
cascade_activation_steepnesses=2.50000000000000000000e-01 5.00000000000000000000e-01 7.50000000000000000000e-01 1.00000000000000000000e+00 
layer_sizes=10 10 10 10 10 10 
scale_included=0
neurons (num_inputs, activation_function, activation_steepness)=(0, 0, 0.00000000000000000000e+00) (0, 0, 0.00000000000000000000e+00) (0, 0, 0.00000000000000000000e+00) (0, 0, 0.00000000000000000000e+00) (0, 0, 0.00000000000000000000e+00) (0, 0, 0.00000000000000000000e+00) (0, 0, 0.00000000000000000000e+00) (0, 0, 0.00000000000000000000e+00) (0, 0, 0.00000000000000000000e+00) (0, 0, 0.00000000000000000000e+00) (10, 4, 5.00000000000000000000e-01) (10, 4, 5.00000000000000000000e-01) (10, 4, 5.00000000000000000000e-01) (10, 4, 5.00000000000000000000e-01) (10, 4, 5.00000000000000000000e-01) (10, 4, 5.00000000000000000000e-01) (10, 4, 5.00000000000000000000e-01) (10, 4, 5.00000000000000000000e-01) (10, 4, 5.00000000000000000000e-01) (0, 0, 0.00000000000000000000e+00) (10, 4, 5.00000000000000000000e-01) (10, 4, 5.00000000000000000000e-01) (10, 4, 5.00000000000000000000e-01) (10, 4, 5.00000000000000000000e-01) (10, 4, 5.00000000000000000000e-01) (10, 4, 5.00000000000000000000e-01) (10, 4, 5.00000000000000000000e-01) (10, 4, 5.00000000000000000000e-01) (10, 4, 5.00000000000000000000e-01) (0, 0, 0.00000000000000000000e+00) (10, 4, 5.00000000000000000000e-01) (10, 4, 5.00000000000000000000e-01) (10, 4, 5.00000000000000000000e-01) (10, 4, 5.00000000000000000000e-01) (10, 4, 5.00000000000000000000e-01) (10, 4, 5.00000000000000000000e-01) (10, 4, 5.00000000000000000000e-01) (10, 4, 5.00000000000000000000e-01) (10, 4, 5.00000000000000000000e-01) (0, 0, 0.00000000000000000000e+00) (10, 4, 5.00000000000000000000e-01) (10, 4, 5.00000000000000000000e-01) (10, 4, 5.00000000000000000000e-01) (10, 4, 5.00000000000000000000e-01) (10, 4, 5.00000000000000000000e-01) (10, 4, 5.00000000000000000000e-01) (10, 4, 5.00000000000000000000e-01) (10, 4, 5.00000000000000000000e-01) (10, 4, 5.00000000000000000000e-01) (0, 0, 0.00000000000000000000e+00) (10, 4, 5.00000000000000000000e-01) (10, 4, 5.00000000000000000000e-01) (10, 4, 5.00000000000000000000e-01) (10, 4, 5.00000000000000000000e-01) (10, 4, 5.00000000000000000000e-01) (10, 4, 5.00000000000000000000e-01) (10, 4, 5.00000000000000000000e-01) (10, 4, 5.00000000000000000000e-01) (10, 4, 5.00000000000000000000e-01) (0, 0, 0.00000000000000000000e+00) 
connections (connected_to_neuron, weight)=(0, -1.13748645782470703125e+00) (1, -1.05103075504302978516e+00) (2, 1.90008476376533508301e-01) (3, -2.80677914619445800781e-01) (4, 3.20363426208496093750e+00) (5, 2.22001242637634277344e+00) (6, -3.26090359687805175781e+00) (7, 7.64210402965545654297e-01) (8, -5.72096347808837890625e-01) (9, -1.98407244682312011719e+00) (0, -7.03486204147338867188e-01) (1, -9.38769161701202392578e-01) (2, -2.64670181274414062500e+00) (3, -2.15957045555114746094e+00) (4, 4.35600852966308593750e+00) (5, -1.98403680324554443359e+00) (6, -1.03033423423767089844e+00) (7, 7.14283168315887451172e-01) (8, 1.64214956760406494141e+00) (9, -5.76200634241104125977e-02) (0, -9.60664749145507812500e-02) (1, -2.49369406700134277344e+00) (2, 1.33173808455467224121e-01) (3, 7.27098822593688964844e-01) (4, 4.34330511093139648438e+00) (5, 2.73222351074218750000e+00) (6, -3.99296545982360839844e+00) (7, 1.07178163528442382812e+00) (8, -1.27893269062042236328e+00) (9, -3.00712752342224121094e+00) (0, 2.55151581764221191406e+00) (1, 3.80500674247741699219e+00) (2, 3.48400330543518066406e+00) (3, 1.00926005840301513672e+00) (4, -6.75837087631225585938e+00) (5, 8.30184173583984375000e+00) (6, 7.00862824916839599609e-01) (7, -6.06873810291290283203e-01) (8, -7.38671588897705078125e+00) (9, -1.29738652706146240234e+00) (0, -3.35837197303771972656e+00) (1, -4.00455427169799804688e+00) (2, -3.45394086837768554688e+00) (3, -3.25613880157470703125e+00) (4, 7.07806348800659179688e+00) (5, 4.64027738571166992188e+00) (6, -7.30933570861816406250e+00) (7, -6.73549985885620117188e+00) (8, 5.91031455993652343750e+00) (9, -2.93443918228149414062e-01) (0, 1.08242070674896240234e+00) (1, 1.31968522071838378906e+00) (2, 7.48778060078620910645e-02) (3, 9.41227018833160400391e-01) (4, -1.05487906932830810547e+00) (5, -2.93958473205566406250e+00) (6, -8.94002437591552734375e-01) (7, -3.26187103986740112305e-01) (8, 2.14690327644348144531e+00) (9, -6.82089865207672119141e-01) (0, 2.57849049568176269531e+00) (1, 1.90524435043334960938e+00) (2, 2.87344646453857421875e+00) (3, 2.53164362907409667969e+00) (4, -7.00724411010742187500e+00) (5, 3.60335111618041992188e+00) (6, -8.10276508331298828125e+00) (7, 3.28264093399047851562e+00) (8, 3.53821516036987304688e+00) (9, -2.98132705688476562500e+00) (0, 3.51388359069824218750e+00) (1, 2.63271069526672363281e+00) (2, 3.17674231529235839844e+00) (3, 3.14604258537292480469e+00) (4, -7.06310510635375976562e+00) (5, 4.44206237792968750000e+00) (6, -1.58660733699798583984e+00) (7, 6.68373778462409973145e-02) (8, -1.68821406364440917969e+00) (9, -8.11592936515808105469e-01) (0, -3.34548282623291015625e+00) (1, -3.70383644104003906250e+00) (2, -2.47233653068542480469e+00) (3, -4.08492422103881835938e+00) (4, 5.14906501770019531250e+00) (5, 1.75117909908294677734e+00) (6, 8.14902186393737792969e-01) (7, 8.78580212593078613281e-01) (8, 2.19314789772033691406e+00) (9, -1.34458518028259277344e+00) (10, 2.42109313607215881348e-01) (11, 1.07627749443054199219e+00) (12, 6.62812292575836181641e-01) (13, -3.21372723579406738281e+00) (14, 2.75049972534179687500e+00) (15, 3.68526838719844818115e-02) (16, -2.88509559631347656250e+00) (17, -1.51960217952728271484e+00) (18, 1.50416028499603271484e+00) (19, 1.79447874426841735840e-01) (10, 1.57316848635673522949e-01) (11, 1.05092561244964599609e+00) (12, 1.58073872327804565430e-01) (13, -2.93232274055480957031e+00) (14, 2.33301949501037597656e+00) (15, 1.99594959616661071777e-01) (16, -2.85764050483703613281e+00) (17, -1.30761098861694335938e+00) (18, 1.65806162357330322266e+00) (19, 4.76927757263183593750e-01) (10, 2.26104283332824707031e+00) (11, 7.99529999494552612305e-03) (12, 4.25339698791503906250e+00) (13, -7.92112827301025390625e-01) (14, 2.81053137779235839844e+00) (15, -5.33620595932006835938e-01) (16, -5.79016733169555664062e+00) (17, 1.16353189945220947266e+00) (18, 9.38811838626861572266e-01) (19, 3.03812789916992187500e+00) (10, -1.78209614753723144531e+00) (11, -1.76727688312530517578e+00) (12, -1.53466439247131347656e+00) (13, -3.09274744987487792969e+00) (14, 3.33010983467102050781e+00) (15, -2.88626503944396972656e+00) (16, -3.03384375572204589844e+00) (17, -1.15234375000000000000e+00) (18, 1.12917625904083251953e+00) (19, -1.80536150932312011719e+00) (10, 3.28399896621704101562e-01) (11, 1.25584852695465087891e+00) (12, 3.29764336347579956055e-01) (13, -2.89097046852111816406e+00) (14, 2.28240847587585449219e+00) (15, 4.16457235813140869141e-01) (16, -2.54136157035827636719e+00) (17, -1.28599905967712402344e+00) (18, 1.49414598941802978516e+00) (19, 5.32830655574798583984e-01) (10, -1.95933133363723754883e-02) (11, 8.32193076610565185547e-01) (12, 9.00898426771163940430e-02) (13, -2.49732422828674316406e+00) (14, 1.97389185428619384766e+00) (15, -1.74301162362098693848e-01) (16, -2.42659735679626464844e+00) (17, -1.33364236354827880859e+00) (18, 1.42732906341552734375e+00) (19, 4.00894343852996826172e-01) (10, 1.74238592386245727539e-01) (11, 8.25652629137039184570e-02) (12, 6.88882946968078613281e-01) (13, -2.91095423698425292969e+00) (14, 2.78824257850646972656e+00) (15, -1.73208618164062500000e+00) (16, -2.85919976234436035156e+00) (17, -1.72981917858123779297e+00) (18, 1.70387339591979980469e+00) (19, -1.14108872413635253906e+00) (10, 1.66798615455627441406e+00) (11, 6.88692450523376464844e-01) (12, 2.67358589172363281250e+00) (13, -3.60957694053649902344e+00) (14, 3.93082571029663085938e+00) (15, 5.93877553939819335938e-01) (16, -2.77427029609680175781e+00) (17, -1.41887581348419189453e+00) (18, 1.06665194034576416016e+00) (19, 5.23036479949951171875e-01) (10, 1.20581352710723876953e+00) (11, 9.18116271495819091797e-01) (12, 2.02364015579223632812e+00) (13, -3.10906100273132324219e+00) (14, 3.54509067535400390625e+00) (15, 2.54357576370239257812e-01) (16, -2.50486850738525390625e+00) (17, -1.26326942443847656250e+00) (18, 1.21095597743988037109e+00) (19, 4.67457234859466552734e-01) (20, 8.70991826057434082031e-01) (21, 5.70967257022857666016e-01) (22, -5.16612827777862548828e-01) (23, 2.12054538726806640625e+00) (24, 4.32575494050979614258e-01) (25, 4.42738085985183715820e-01) (26, 9.67320322990417480469e-01) (27, 4.90480482578277587891e-01) (28, 6.19652450084686279297e-01) (29, -5.48916959762573242188e+00) (20, 1.93054234981536865234e+00) (21, 1.82304227352142333984e+00) (22, -1.80326730012893676758e-01) (23, 1.71675097942352294922e+00) (24, 1.90936386585235595703e+00) (25, 1.62917184829711914062e+00) (26, 1.34507715702056884766e+00) (27, 1.21873092651367187500e+00) (28, 1.46037995815277099609e+00) (29, -4.58101224899291992188e+00) (20, 6.87586367130279541016e-01) (21, 6.91751718521118164062e-01) (22, -6.26763701438903808594e-01) (23, 2.34896826744079589844e+00) (24, 3.70781093835830688477e-01) (25, 3.49944651126861572266e-01) (26, 1.19927465915679931641e+00) (27, 4.26528632640838623047e-01) (28, 4.76073116064071655273e-01) (29, -5.69522142410278320312e+00) (20, 1.34680545330047607422e+00) (21, 1.47137570381164550781e+00) (22, -1.10335074365139007568e-01) (23, 1.73835885524749755859e+00) (24, 1.39458167552947998047e+00) (25, 1.09355151653289794922e+00) (26, 1.06870949268341064453e+00) (27, 9.35053110122680664062e-01) (28, 1.08955442905426025391e+00) (29, -4.32581758499145507812e+00) (20, 7.41632282733917236328e-01) (21, 5.88889658451080322266e-01) (22, -6.17652237415313720703e-01) (23, 2.21887850761413574219e+00) (24, 5.15331149101257324219e-01) (25, 5.24344861507415771484e-01) (26, 1.04514241218566894531e+00) (27, 5.41405558586120605469e-01) (28, 6.91384792327880859375e-01) (29, -5.64252901077270507812e+00) (20, 2.13268041610717773438e+00) (21, 1.72954595088958740234e+00) (22, 3.00662207603454589844e+00) (23, 1.69517230987548828125e+00) (24, 1.74965000152587890625e+00) (25, 1.38416695594787597656e+00) (26, 1.78873932361602783203e+00) (27, 2.64041590690612792969e+00) (28, 2.45673513412475585938e+00) (29, -3.04344630241394042969e+00) (20, 7.51080036163330078125e-01) (21, 7.60149717330932617188e-01) (22, -5.64079582691192626953e-01) (23, 2.06450700759887695312e+00) (24, 5.86576342582702636719e-01) (25, 4.29430037736892700195e-01) (26, 1.13142478466033935547e+00) (27, 5.26989102363586425781e-01) (28, 5.59517145156860351562e-01) (29, -5.40335321426391601562e+00) (20, 8.67695033550262451172e-01) (21, 6.84691011905670166016e-01) (22, -5.50239264965057373047e-01) (23, 2.28073167800903320312e+00) (24, 6.39536917209625244141e-01) (25, 6.57254934310913085938e-01) (26, 1.09073615074157714844e+00) (27, 3.84944945573806762695e-01) (28, 6.89658701419830322266e-01) (29, -5.75056028366088867188e+00) (20, 2.52731657028198242188e+00) (21, 2.28046154975891113281e+00) (22, 2.85213613510131835938e+00) (23, 2.07861924171447753906e+00) (24, 2.18694782257080078125e+00) (25, 1.75747561454772949219e+00) (26, 2.30420541763305664062e+00) (27, 3.57596087455749511719e+00) (28, 3.08692121505737304688e+00) (29, -3.73239731788635253906e+00) (30, -1.11595785617828369141e+00) (31, -1.27319645881652832031e+00) (32, -9.14107382297515869141e-01) (33, -1.04747498035430908203e+00) (34, -9.66934740543365478516e-01) (35, 4.90903556346893310547e-01) (36, -1.06204032897949218750e+00) (37, -1.10180127620697021484e+00) (38, 8.44872295856475830078e-01) (39, -2.34226393699645996094e+00) (30, -1.43583214282989501953e+00) (31, -1.80309987068176269531e+00) (32, -1.28560245037078857422e+00) (33, -1.35445725917816162109e+00) (34, -1.49622082710266113281e+00) (35, 1.20188486576080322266e+00) (36, -1.35512721538543701172e+00) (37, -1.56172084808349609375e+00) (38, 1.86682736873626708984e+00) (39, -2.44255352020263671875e+00) (30, -9.43799853324890136719e-01) (31, -1.30479192733764648438e+00) (32, -1.05481803417205810547e+00) (33, -1.01071107387542724609e+00) (34, -1.09442257881164550781e+00) (35, 5.87213873863220214844e-01) (36, -9.73330140113830566406e-01) (37, -1.17331039905548095703e+00) (38, 9.18940424919128417969e-01) (39, -2.39027786254882812500e+00) (30, -2.49268674850463867188e+00) (31, -1.70217251777648925781e+00) (32, -2.77661776542663574219e+00) (33, -1.65502238273620605469e+00) (34, -2.65565967559814453125e+00) (35, 5.74116182327270507812e+00) (36, -2.48909544944763183594e+00) (37, -2.76835751533508300781e+00) (38, 6.25283384323120117188e+00) (39, -1.90658235549926757812e+00) (30, -2.06331157684326171875e+00) (31, -2.13745856285095214844e+00) (32, -1.96956145763397216797e+00) (33, -2.06257486343383789062e+00) (34, -2.10869836807250976562e+00) (35, -1.92200601100921630859e+00) (36, -2.13905429840087890625e+00) (37, -2.41467881202697753906e+00) (38, -2.27751278877258300781e+00) (39, 1.75083458423614501953e+00) (30, -1.64937150478363037109e+00) (31, -2.31119108200073242188e+00) (32, -1.67087554931640625000e+00) (33, -1.72792792320251464844e+00) (34, -1.74027335643768310547e+00) (35, 1.43512451648712158203e+00) (36, -1.64657163619995117188e+00) (37, -1.82487237453460693359e+00) (38, 2.34472227096557617188e+00) (39, -2.32253432273864746094e+00) (30, -1.46272981166839599609e+00) (31, -1.93354642391204833984e+00) (32, -1.50213408470153808594e+00) (33, -1.48516929149627685547e+00) (34, -1.43074297904968261719e+00) (35, 1.29765713214874267578e+00) (36, -1.48063564300537109375e+00) (37, -1.75605583190917968750e+00) (38, 2.06796741485595703125e+00) (39, -2.43726372718811035156e+00) (30, -1.59365999698638916016e+00) (31, -2.17333364486694335938e+00) (32, -1.67729091644287109375e+00) (33, -1.69416296482086181641e+00) (34, -1.74333894252777099609e+00) (35, 1.64785659313201904297e+00) (36, -1.65935087203979492188e+00) (37, -1.82115352153778076172e+00) (38, 2.27976751327514648438e+00) (39, -2.51845407485961914062e+00) (30, -1.95760762691497802734e+00) (31, -2.04956579208374023438e+00) (32, -1.90614664554595947266e+00) (33, -1.99532222747802734375e+00) (34, -2.06839489936828613281e+00) (35, -2.57496976852416992188e+00) (36, -1.98514246940612792969e+00) (37, -2.35033535957336425781e+00) (38, -2.61794805526733398438e+00) (39, -1.22856807708740234375e+00) (40, -1.50654315948486328125e+00) (41, -1.52699816226959228516e+00) (42, -1.62067639827728271484e+00) (43, -2.21410179138183593750e+00) (44, -1.00600922107696533203e+00) (45, -1.64010632038116455078e+00) (46, -1.58377528190612792969e+00) (47, -1.52967298030853271484e+00) (48, -1.11261558532714843750e+00) (49, -2.69731783866882324219e+00) (40, -2.22741651535034179688e+00) (41, -2.37081027030944824219e+00) (42, -2.16261601448059082031e+00) (43, -3.72120928764343261719e+00) (44, -1.16130578517913818359e+00) (45, -2.65581822395324707031e+00) (46, -2.43732500076293945312e+00) (47, -2.55215430259704589844e+00) (48, -1.29283571243286132812e+00) (49, -1.15043842792510986328e+00) (40, -1.44711816310882568359e+00) (41, -1.61722683906555175781e+00) (42, -1.54669928550720214844e+00) (43, -2.70264172554016113281e+00) (44, 6.00062549114227294922e-01) (45, -1.69983160495758056641e+00) (46, -1.61667728424072265625e+00) (47, -1.70430111885070800781e+00) (48, -6.23474232852458953857e-02) (49, -2.25859975814819335938e+00) (40, -2.13484239578247070312e+00) (41, -2.36636996269226074219e+00) (42, -2.14063119888305664062e+00) (43, -4.31152915954589843750e+00) (44, -2.48806118965148925781e-01) (45, -2.57808399200439453125e+00) (46, -2.42959928512573242188e+00) (47, -2.53341150283813476562e+00) (48, -5.69659113883972167969e-01) (49, -1.80306816101074218750e+00) (40, -1.66619980335235595703e+00) (41, -1.97136032581329345703e+00) (42, -1.63518667221069335938e+00) (43, 4.78695392608642578125e+00) (44, -4.24837112426757812500e+00) (45, -2.79359340667724609375e+00) (46, -2.16292858123779296875e+00) (47, -2.49287962913513183594e+00) (48, -2.78464770317077636719e+00) (49, -2.20639824867248535156e+00) (40, -3.97475033998489379883e-01) (41, -9.26630079746246337891e-01) (42, -4.66089546680450439453e-01) (43, -2.75672817230224609375e+00) (44, 3.77120327949523925781e+00) (45, -7.67695844173431396484e-01) (46, -9.83088970184326171875e-01) (47, -1.10225045680999755859e+00) (48, 3.71668028831481933594e+00) (49, -1.49556934833526611328e+00) (40, -2.94033318758010864258e-01) (41, -8.87919604778289794922e-01) (42, -3.51348549127578735352e-01) (43, -1.06843888759613037109e+00) (44, 3.03996014595031738281e+00) (45, -1.15463829040527343750e+00) (46, -1.01726496219635009766e+00) (47, -1.32489311695098876953e+00) (48, 2.13663601875305175781e+00) (49, -3.02984619140625000000e+00) (40, 1.72313940525054931641e+00) (41, 2.25070810317993164062e+00) (42, 1.62095320224761962891e+00) (43, -1.94497764110565185547e+00) (44, -4.17128658294677734375e+00) (45, 2.76484990119934082031e+00) (46, 2.40793657302856445312e+00) (47, 2.61545062065124511719e+00) (48, -3.79477453231811523438e+00) (49, -1.72481632232666015625e+00) (40, 1.19086623191833496094e+00) (41, 1.25834479928016662598e-01) (42, 9.97272253036499023438e-01) (43, 4.61047351360321044922e-01) (44, 6.74211680889129638672e-01) (45, -6.34595379233360290527e-02) (46, 1.06883887201547622681e-02) (47, -2.64051914215087890625e-01) (48, -1.46860003471374511719e+00) (49, -3.26417231559753417969e+00) 
