FANN_FLO_2.1
num_layers=3
learning_rate=0.700000
connection_rate=1.000000
network_type=0
learning_momentum=0.000000
training_algorithm=2
train_error_function=1
train_stop_function=0
cascade_output_change_fraction=0.010000
quickprop_decay=-0.000100
quickprop_mu=1.750000
rprop_increase_factor=1.200000
rprop_decrease_factor=0.500000
rprop_delta_min=0.000000
rprop_delta_max=50.000000
rprop_delta_zero=0.100000
cascade_output_stagnation_epochs=12
cascade_candidate_change_fraction=0.010000
cascade_candidate_stagnation_epochs=12
cascade_max_out_epochs=150
cascade_min_out_epochs=50
cascade_max_cand_epochs=150
cascade_min_cand_epochs=50
cascade_num_candidate_groups=2
bit_fail_limit=3.49999994039535522461e-01
cascade_candidate_limit=1.00000000000000000000e+03
cascade_weight_multiplier=4.00000005960464477539e-01
cascade_activation_functions_count=10
cascade_activation_functions=3 5 7 8 10 11 14 15 16 17 
cascade_activation_steepnesses_count=4
cascade_activation_steepnesses=2.50000000000000000000e-01 5.00000000000000000000e-01 7.50000000000000000000e-01 1.00000000000000000000e+00 
layer_sizes=10 10 10 
scale_included=0
neurons (num_inputs, activation_function, activation_steepness)=(0, 0, 0.00000000000000000000e+00) (0, 0, 0.00000000000000000000e+00) (0, 0, 0.00000000000000000000e+00) (0, 0, 0.00000000000000000000e+00) (0, 0, 0.00000000000000000000e+00) (0, 0, 0.00000000000000000000e+00) (0, 0, 0.00000000000000000000e+00) (0, 0, 0.00000000000000000000e+00) (0, 0, 0.00000000000000000000e+00) (0, 0, 0.00000000000000000000e+00) (10, 4, 5.00000000000000000000e-01) (10, 4, 5.00000000000000000000e-01) (10, 4, 5.00000000000000000000e-01) (10, 4, 5.00000000000000000000e-01) (10, 4, 5.00000000000000000000e-01) (10, 4, 5.00000000000000000000e-01) (10, 4, 5.00000000000000000000e-01) (10, 4, 5.00000000000000000000e-01) (10, 4, 5.00000000000000000000e-01) (0, 0, 0.00000000000000000000e+00) (10, 4, 5.00000000000000000000e-01) (10, 4, 5.00000000000000000000e-01) (10, 4, 5.00000000000000000000e-01) (10, 4, 5.00000000000000000000e-01) (10, 4, 5.00000000000000000000e-01) (10, 4, 5.00000000000000000000e-01) (10, 4, 5.00000000000000000000e-01) (10, 4, 5.00000000000000000000e-01) (10, 4, 5.00000000000000000000e-01) (0, 0, 0.00000000000000000000e+00) 
connections (connected_to_neuron, weight)=(0, 4.49171885848045349121e-02) (1, 6.41755536198616027832e-02) (2, -4.79737184941768646240e-02) (3, 2.88297198712825775146e-02) (4, 1.09203927218914031982e-01) (5, 4.26942259073257446289e-02) (6, -3.53340283036231994629e-02) (7, -1.01699322462081909180e-01) (8, -5.31818196177482604980e-02) (9, -7.14879333972930908203e-02) (0, 1.23989716172218322754e-01) (1, 7.14092850685119628906e-02) (2, -1.21495984494686126709e-01) (3, -1.70732941478490829468e-02) (4, -3.40509042143821716309e-02) (5, 6.64516165852546691895e-02) (6, -4.62370738387107849121e-03) (7, -1.77399395033717155457e-03) (8, -2.46040690690279006958e-02) (9, -2.03586518764495849609e-01) (0, 4.95531894266605377197e-02) (1, 9.72169172018766403198e-03) (2, -5.77652007341384887695e-02) (3, -5.57937286794185638428e-02) (4, -4.62995059788227081299e-02) (5, 6.45168721675872802734e-02) (6, 1.13779947161674499512e-01) (7, -4.11831997334957122803e-02) (8, -8.81081074476242065430e-02) (9, -8.67934897541999816895e-02) (0, -2.10142191499471664429e-02) (1, 1.10067099332809448242e-01) (2, -1.19664371013641357422e-01) (3, -4.26603630185127258301e-02) (4, -4.56997081637382507324e-02) (5, -7.58140087127685546875e-02) (6, 1.23637370765209197998e-01) (7, -3.15244458615779876709e-02) (8, -1.12739153206348419189e-01) (9, -1.31826907396316528320e-01) (0, 1.32647678256034851074e-02) (1, -2.72528342902660369873e-02) (2, -1.05897597968578338623e-01) (3, 6.27061054110527038574e-02) (4, -4.84797246754169464111e-02) (5, -2.61997729539871215820e-02) (6, 2.42882613092660903931e-02) (7, -1.25019084662199020386e-02) (8, 2.14028228074312210083e-02) (9, -4.53328937292098999023e-02) (0, 1.61195937544107437134e-02) (1, 1.00818499922752380371e-02) (2, -5.99254220724105834961e-02) (3, 7.64898583292961120605e-02) (4, -3.32669317722320556641e-02) (5, 3.84776256978511810303e-02) (6, 3.18003110587596893311e-02) (7, -9.66680049896240234375e-02) (8, 4.27406281232833862305e-02) (9, -2.22383774816989898682e-02) (0, 1.02743297815322875977e-01) (1, 1.40117049217224121094e-01) (2, 1.55013538897037506104e-02) (3, 8.17455500364303588867e-02) (4, -4.42292168736457824707e-02) (5, 8.92458781599998474121e-02) (6, 1.01035676896572113037e-01) (7, -9.79810133576393127441e-02) (8, -6.36601075530052185059e-02) (9, -2.18512564897537231445e-01) (0, 4.95354738086462020874e-03) (1, 1.19990669190883636475e-01) (2, -9.84388068318367004395e-02) (3, 1.84390824288129806519e-02) (4, -2.31819022446870803833e-02) (5, -3.42041216790676116943e-02) (6, 1.13873541355133056641e-01) (7, 5.29108718037605285645e-02) (8, -2.22301203757524490356e-02) (9, -7.93151706457138061523e-02) (0, 1.19197413325309753418e-01) (1, -9.06187295913696289062e-02) (2, 2.26262453943490982056e-02) (3, -2.62533836066722869873e-02) (4, 7.82995671033859252930e-02) (5, 7.90094733238220214844e-02) (6, 9.39820408821105957031e-02) (7, 1.83500759303569793701e-02) (8, -1.49975776672363281250e-01) (9, -3.50210554897785186768e-02) (10, -3.23525071144104003906e-01) (11, -2.46508628129959106445e-01) (12, -3.13726842403411865234e-01) (13, -3.82167309522628784180e-01) (14, -2.92158544063568115234e-01) (15, -2.80114203691482543945e-01) (16, -3.77294242382049560547e-01) (17, -3.12659442424774169922e-01) (18, -3.00969094038009643555e-01) (19, -5.72023630142211914062e-01) (10, -4.37861770391464233398e-01) (11, -2.90559351444244384766e-01) (12, -4.55948293209075927734e-01) (13, -3.86209547519683837891e-01) (14, -4.52189177274703979492e-01) (15, -4.10366028547286987305e-01) (16, -3.35550487041473388672e-01) (17, -4.50344204902648925781e-01) (18, -4.38618838787078857422e-01) (19, -8.12406182289123535156e-01) (10, -2.51845359802246093750e-01) (11, -3.39778631925582885742e-01) (12, -2.84764736890792846680e-01) (13, -2.71272629499435424805e-01) (14, -3.56616586446762084961e-01) (15, -3.20657670497894287109e-01) (16, -2.87680029869079589844e-01) (17, -3.68647068738937377930e-01) (18, -4.32053476572036743164e-01) (19, -6.10622644424438476562e-01) (10, -4.58656996488571166992e-01) (11, -4.81724292039871215820e-01) (12, -4.76045161485671997070e-01) (13, -5.27634561061859130859e-01) (14, -5.23690819740295410156e-01) (15, -5.87156474590301513672e-01) (16, -3.69696795940399169922e-01) (17, -4.82566148042678833008e-01) (18, -4.70205217599868774414e-01) (19, -9.66625869274139404297e-01) (10, -2.09337517619132995605e-01) (11, -3.76096844673156738281e-01) (12, -3.58569294214248657227e-01) (13, -3.84183198213577270508e-01) (14, -2.88732558488845825195e-01) (15, -2.37172007560729980469e-01) (16, -2.26094961166381835938e-01) (17, -3.31212252378463745117e-01) (18, -4.29677516222000122070e-01) (19, -6.15495920181274414062e-01) (10, -2.50302433967590332031e-01) (11, -2.54772990942001342773e-01) (12, -3.26567858457565307617e-01) (13, -3.33484858274459838867e-01) (14, -3.54953140020370483398e-01) (15, -4.28692579269409179688e-01) (16, -3.45923334360122680664e-01) (17, -4.44300800561904907227e-01) (18, -4.16490375995635986328e-01) (19, -7.28148102760314941406e-01) (10, -3.68792712688446044922e-01) (11, -3.47289383411407470703e-01) (12, -3.86503040790557861328e-01) (13, -3.94267678260803222656e-01) (14, -3.14476311206817626953e-01) (15, -4.78343755006790161133e-01) (16, -3.93552720546722412109e-01) (17, -3.15142750740051269531e-01) (18, -4.20783042907714843750e-01) (19, -6.52674496173858642578e-01) (10, -3.71458649635314941406e-01) (11, -3.18167060613632202148e-01) (12, -4.10238385200500488281e-01) (13, -2.50364094972610473633e-01) (14, -2.99273908138275146484e-01) (15, -2.88609683513641357422e-01) (16, -2.80844897031784057617e-01) (17, -2.66208231449127197266e-01) (18, -4.73718792200088500977e-01) (19, -6.16738915443420410156e-01) (10, -1.65333464741706848145e-01) (11, -3.04110139608383178711e-01) (12, -2.21001818776130676270e-01) (13, -2.35355034470558166504e-01) (14, -2.69142925739288330078e-01) (15, -1.88442066311836242676e-01) (16, -1.68311268091201782227e-01) (17, -2.10502281785011291504e-01) (18, -3.11578869819641113281e-01) (19, -4.54872190952301025391e-01) 
