FANN_FLO_2.1
num_layers=3
learning_rate=0.700000
connection_rate=1.000000
network_type=0
learning_momentum=0.000000
training_algorithm=2
train_error_function=1
train_stop_function=0
cascade_output_change_fraction=0.010000
quickprop_decay=-0.000100
quickprop_mu=1.750000
rprop_increase_factor=1.200000
rprop_decrease_factor=0.500000
rprop_delta_min=0.000000
rprop_delta_max=50.000000
rprop_delta_zero=0.100000
cascade_output_stagnation_epochs=12
cascade_candidate_change_fraction=0.010000
cascade_candidate_stagnation_epochs=12
cascade_max_out_epochs=150
cascade_max_cand_epochs=150
cascade_num_candidate_groups=2
bit_fail_limit=3.49999994039535522461e-01
cascade_candidate_limit=1.00000000000000000000e+03
cascade_weight_multiplier=4.00000005960464477539e-01
cascade_activation_functions_count=10
cascade_activation_functions=3 5 7 8 10 11 14 15 16 17 
cascade_activation_steepnesses_count=4
cascade_activation_steepnesses=2.50000000000000000000e-01 5.00000000000000000000e-01 7.50000000000000000000e-01 1.00000000000000000000e+00 
layer_sizes=10 10 10 
scale_included=0
neurons (num_inputs, activation_function, activation_steepness)=(0, 0, 0.00000000000000000000e+00) (0, 0, 0.00000000000000000000e+00) (0, 0, 0.00000000000000000000e+00) (0, 0, 0.00000000000000000000e+00) (0, 0, 0.00000000000000000000e+00) (0, 0, 0.00000000000000000000e+00) (0, 0, 0.00000000000000000000e+00) (0, 0, 0.00000000000000000000e+00) (0, 0, 0.00000000000000000000e+00) (0, 0, 0.00000000000000000000e+00) (10, 4, 5.00000000000000000000e-01) (10, 4, 5.00000000000000000000e-01) (10, 4, 5.00000000000000000000e-01) (10, 4, 5.00000000000000000000e-01) (10, 4, 5.00000000000000000000e-01) (10, 4, 5.00000000000000000000e-01) (10, 4, 5.00000000000000000000e-01) (10, 4, 5.00000000000000000000e-01) (10, 4, 5.00000000000000000000e-01) (0, 0, 0.00000000000000000000e+00) (10, 4, 5.00000000000000000000e-01) (10, 4, 5.00000000000000000000e-01) (10, 4, 5.00000000000000000000e-01) (10, 4, 5.00000000000000000000e-01) (10, 4, 5.00000000000000000000e-01) (10, 4, 5.00000000000000000000e-01) (10, 4, 5.00000000000000000000e-01) (10, 4, 5.00000000000000000000e-01) (10, 4, 5.00000000000000000000e-01) (0, 0, 0.00000000000000000000e+00) 
connections (connected_to_neuron, weight)=(0, -4.42405557632446289062e+00) (1, -4.25952291488647460938e+00) (2, 1.21048088073730468750e+01) (3, -9.14991617202758789062e-01) (4, -3.04915428161621093750e+00) (5, 3.08563590049743652344e+00) (6, 4.23475217819213867188e+00) (7, 1.62599906921386718750e+01) (8, -1.93760287761688232422e+00) (9, -1.23194408416748046875e+01) (0, -1.37324762344360351562e+00) (1, -1.81185019016265869141e+00) (2, -1.15877399444580078125e+01) (3, -1.13347113132476806641e+00) (4, -4.00322246551513671875e+00) (5, -8.99026751518249511719e-01) (6, -4.29262065887451171875e+00) (7, -7.85053110122680664062e+00) (8, -1.06312537193298339844e+00) (9, -6.87977886199951171875e+00) (0, 1.02405109405517578125e+01) (1, -6.57878780364990234375e+00) (2, 9.41860103607177734375e+00) (3, -1.54826936721801757812e+01) (4, -1.99986547231674194336e-02) (5, -9.02476119995117187500e+00) (6, 7.96288776397705078125e+00) (7, 1.74671916961669921875e+01) (8, -1.08020725250244140625e+01) (9, 4.16426706314086914062e+00) (0, 8.45891380310058593750e+00) (1, -5.14118766784667968750e+00) (2, -8.84393692016601562500e+00) (3, 7.81790971755981445312e+00) (4, -2.40944862365722656250e+00) (5, 4.88961982727050781250e+00) (6, 6.85172224044799804688e+00) (7, 1.04332523345947265625e+01) (8, -7.10785961151123046875e+00) (9, -2.21990823745727539062e+00) (0, 6.73462343215942382812e+00) (1, 5.90153026580810546875e+00) (2, 1.31060743331909179688e+01) (3, 6.80690145492553710938e+00) (4, 1.30053253173828125000e+01) (5, 6.97436523437500000000e+00) (6, -2.72226123809814453125e+01) (7, -3.20289444923400878906e+00) (8, 4.46283626556396484375e+00) (9, -2.15866603851318359375e+01) (0, 1.46663618087768554688e+00) (1, 5.76768338680267333984e-01) (2, 2.82299071550369262695e-01) (3, -1.46728668212890625000e+01) (4, 3.48656326532363891602e-01) (5, -4.45774316787719726562e+00) (6, 4.12562265992164611816e-02) (7, -2.01032447814941406250e+00) (8, 1.01164138317108154297e+00) (9, -9.44170665740966796875e+00) (0, 3.31079983711242675781e+00) (1, 3.86199569702148437500e+00) (2, 2.47230148315429687500e+00) (3, 2.12878680229187011719e+00) (4, 3.09316635131835937500e+00) (5, 8.44199955463409423828e-01) (6, 2.30669832229614257812e+00) (7, -1.03556146621704101562e+01) (8, -2.48809531331062316895e-02) (9, -5.05485534667968750000e+00) (0, -1.30103528499603271484e+00) (1, -3.06204795837402343750e+00) (2, -3.03212833404541015625e+00) (3, -1.51675716042518615723e-01) (4, 1.46059850230813026428e-02) (5, 2.13368391990661621094e+00) (6, 1.71545753479003906250e+01) (7, -3.84807497262954711914e-01) (8, 4.20644903182983398438e+00) (9, -1.15227327346801757812e+01) (0, -4.89459902048110961914e-01) (1, -4.98805189132690429688e+00) (2, -2.35635232925415039062e+00) (3, 1.57134552001953125000e+01) (4, -8.49201774597167968750e+00) (5, -1.05269813537597656250e+00) (6, -3.57550144195556640625e+00) (7, -8.75183582305908203125e+00) (8, -1.28214371204376220703e+00) (9, -1.32439355850219726562e+01) (10, 3.66443395614624023438e+00) (11, -4.69937324523925781250e+00) (12, -4.19167470932006835938e+00) (13, 9.40299797058105468750e+00) (14, -1.17519493103027343750e+01) (15, -4.01904058456420898438e+00) (16, -1.92269277572631835938e+00) (17, -9.48128223419189453125e+00) (18, -9.22279548645019531250e+00) (19, -4.03813982009887695312e+00) (10, 2.13404417037963867188e+00) (11, -5.89357519149780273438e+00) (12, -6.39954519271850585938e+00) (13, 2.16804528236389160156e+00) (14, -6.74880075454711914062e+00) (15, -7.11641609668731689453e-02) (16, -5.84838533401489257812e+00) (17, -5.00426578521728515625e+00) (18, -6.05641651153564453125e+00) (19, 7.87326157093048095703e-01) (10, -1.94268302917480468750e+01) (11, -9.07161140441894531250e+00) (12, -4.29283827543258666992e-01) (13, 8.70049715042114257812e-01) (14, -5.32162284851074218750e+00) (15, 2.48391032218933105469e+00) (16, -5.88508558273315429688e+00) (17, -5.51304435729980468750e+00) (18, 3.33620262145996093750e+00) (19, -1.32627975940704345703e+00) (10, 8.53777527809143066406e-01) (11, 3.88943719863891601562e+00) (12, 4.26863527297973632812e+00) (13, -3.63799262046813964844e+00) (14, -4.21977567672729492188e+00) (15, -1.47659721374511718750e+01) (16, 7.57042050361633300781e-01) (17, -1.89120745658874511719e+00) (18, -8.10410118103027343750e+00) (19, -3.31160426139831542969e+00) (10, -3.12360763549804687500e+00) (11, 3.48608875274658203125e+00) (12, 5.05942773818969726562e+00) (13, -6.04576492309570312500e+00) (14, -2.99391674995422363281e+00) (15, -4.91955190896987915039e-01) (16, -4.91325521469116210938e+00) (17, -3.28358960151672363281e+00) (18, 2.99445843696594238281e+00) (19, -4.17673969268798828125e+00) (10, 5.01783895492553710938e+00) (11, 2.64277601242065429688e+00) (12, -4.27851724624633789062e+00) (13, 1.70719122886657714844e+00) (14, -5.14332389831542968750e+00) (15, 6.31996679306030273438e+00) (16, -1.70315289497375488281e+00) (17, -1.64577853679656982422e+00) (18, 2.30124330520629882812e+00) (19, -6.24338102340698242188e+00) (10, 1.47029078006744384766e+00) (11, 1.13048064708709716797e+00) (12, -1.15877687931060791016e+00) (13, 1.51246654987335205078e+00) (14, -1.04783535003662109375e+01) (15, 2.54820895195007324219e+00) (16, 4.13830661773681640625e+00) (17, -1.50234766006469726562e+01) (18, 1.77947092056274414062e+00) (19, -5.19574403762817382812e+00) (10, -1.60725605487823486328e+00) (11, 3.04001855850219726562e+00) (12, 5.91333329677581787109e-01) (13, -3.25358963012695312500e+00) (14, 7.78535223007202148438e+00) (15, 2.56021237373352050781e+00) (16, -8.85734844207763671875e+00) (17, 7.26632881164550781250e+00) (18, 3.75011873245239257812e+00) (19, -7.70369386672973632812e+00) (10, 9.98343825340270996094e-01) (11, -1.56567311286926269531e+00) (12, -1.58118176460266113281e+00) (13, 2.47498965263366699219e+00) (14, 2.70797824859619140625e+00) (15, 8.93987566232681274414e-02) (16, 8.27518582344055175781e-01) (17, 2.63462591171264648438e+00) (18, -1.91407847404479980469e+00) (19, -3.41380429267883300781e+00) 
