FANN_FLO_2.1
num_layers=4
learning_rate=0.700000
connection_rate=1.000000
network_type=0
learning_momentum=0.000000
training_algorithm=2
train_error_function=1
train_stop_function=0
cascade_output_change_fraction=0.010000
quickprop_decay=-0.000100
quickprop_mu=1.750000
rprop_increase_factor=1.200000
rprop_decrease_factor=0.500000
rprop_delta_min=0.000000
rprop_delta_max=50.000000
rprop_delta_zero=0.100000
cascade_output_stagnation_epochs=12
cascade_candidate_change_fraction=0.010000
cascade_candidate_stagnation_epochs=12
cascade_max_out_epochs=150
cascade_min_out_epochs=50
cascade_max_cand_epochs=150
cascade_min_cand_epochs=50
cascade_num_candidate_groups=2
bit_fail_limit=3.49999994039535522461e-01
cascade_candidate_limit=1.00000000000000000000e+03
cascade_weight_multiplier=4.00000005960464477539e-01
cascade_activation_functions_count=10
cascade_activation_functions=3 5 7 8 10 11 14 15 16 17 
cascade_activation_steepnesses_count=4
cascade_activation_steepnesses=2.50000000000000000000e-01 5.00000000000000000000e-01 7.50000000000000000000e-01 1.00000000000000000000e+00 
layer_sizes=10 10 10 10 
scale_included=0
neurons (num_inputs, activation_function, activation_steepness)=(0, 0, 0.00000000000000000000e+00) (0, 0, 0.00000000000000000000e+00) (0, 0, 0.00000000000000000000e+00) (0, 0, 0.00000000000000000000e+00) (0, 0, 0.00000000000000000000e+00) (0, 0, 0.00000000000000000000e+00) (0, 0, 0.00000000000000000000e+00) (0, 0, 0.00000000000000000000e+00) (0, 0, 0.00000000000000000000e+00) (0, 0, 0.00000000000000000000e+00) (10, 4, 5.00000000000000000000e-01) (10, 4, 5.00000000000000000000e-01) (10, 4, 5.00000000000000000000e-01) (10, 4, 5.00000000000000000000e-01) (10, 4, 5.00000000000000000000e-01) (10, 4, 5.00000000000000000000e-01) (10, 4, 5.00000000000000000000e-01) (10, 4, 5.00000000000000000000e-01) (10, 4, 5.00000000000000000000e-01) (0, 0, 0.00000000000000000000e+00) (10, 4, 5.00000000000000000000e-01) (10, 4, 5.00000000000000000000e-01) (10, 4, 5.00000000000000000000e-01) (10, 4, 5.00000000000000000000e-01) (10, 4, 5.00000000000000000000e-01) (10, 4, 5.00000000000000000000e-01) (10, 4, 5.00000000000000000000e-01) (10, 4, 5.00000000000000000000e-01) (10, 4, 5.00000000000000000000e-01) (0, 0, 0.00000000000000000000e+00) (10, 4, 5.00000000000000000000e-01) (10, 4, 5.00000000000000000000e-01) (10, 4, 5.00000000000000000000e-01) (10, 4, 5.00000000000000000000e-01) (10, 4, 5.00000000000000000000e-01) (10, 4, 5.00000000000000000000e-01) (10, 4, 5.00000000000000000000e-01) (10, 4, 5.00000000000000000000e-01) (10, 4, 5.00000000000000000000e-01) (0, 0, 0.00000000000000000000e+00) 
connections (connected_to_neuron, weight)=(0, -7.83307812500000000000e+04) (1, 5.14081914062500000000e+04) (2, -1.45010937500000000000e+04) (3, 6.97898750000000000000e+04) (4, -5.42431953125000000000e+04) (5, 9.90562109375000000000e+04) (6, 2.04150957031250000000e+04) (7, -1.31239296875000000000e+05) (8, 2.26909726562500000000e+04) (9, 1.49508085937500000000e+04) (0, -7.88421562500000000000e+04) (1, 5.97670625000000000000e+04) (2, -2.86052578125000000000e+04) (3, 4.78260273437500000000e+04) (4, -6.28561132812500000000e+04) (5, 1.05537789062500000000e+05) (6, 3.00796679687500000000e+04) (7, -1.26071156250000000000e+05) (8, 3.81857109375000000000e+04) (9, 1.49614169921875000000e+04) (0, -5.39317734375000000000e+04) (1, 5.61754726562500000000e+04) (2, -4.25720820312500000000e+04) (3, -8.33218994140625000000e+02) (4, -4.86162109375000000000e+04) (5, 5.81745039062500000000e+04) (6, 3.59634687500000000000e+04) (7, -5.83527695312500000000e+04) (8, 4.26339453125000000000e+04) (9, 1.13556650390625000000e+04) (0, -8.88475312500000000000e+04) (1, 4.19111171875000000000e+04) (2, -8.71904589843750000000e+03) (3, 8.62757265625000000000e+04) (4, -3.78304218750000000000e+04) (5, 7.34524921875000000000e+04) (6, 2.06295761718750000000e+04) (7, -1.24265132812500000000e+05) (8, 2.25471328125000000000e+04) (9, 1.48518320312500000000e+04) (0, -1.96275664062500000000e+04) (1, 2.48950488281250000000e+04) (2, 7.38396337890625000000e+03) (3, 1.75451640625000000000e+04) (4, -3.66440000000000000000e+04) (5, 5.70708164062500000000e+04) (6, 3.20558154296875000000e+03) (7, -5.52916289062500000000e+04) (8, -4.05124023437500000000e+03) (9, 5.51523095703125000000e+03) (0, 1.29981972656250000000e+04) (1, -1.21960195312500000000e+04) (2, -1.24416318359375000000e+04) (3, -1.74035898437500000000e+04) (4, 2.39875429687500000000e+04) (5, -4.44070429687500000000e+04) (6, 6.92744189453125000000e+03) (7, 5.17035039062500000000e+04) (8, -7.61245556640625000000e+03) (9, -1.55411425781250000000e+03) (0, -8.71419453125000000000e+04) (1, 5.17315664062500000000e+04) (2, -3.07018671875000000000e+04) (3, 6.70667656250000000000e+04) (4, -5.67073437500000000000e+04) (5, 1.07192343750000000000e+05) (6, 2.93229003906250000000e+04) (7, -1.31936546875000000000e+05) (8, 3.66459375000000000000e+04) (9, 1.45217187500000000000e+04) (0, -1.91989257812500000000e+04) (1, -3.29658837890625000000e+03) (2, -3.28391796875000000000e+03) (3, 1.27554560546875000000e+04) (4, 6.35410009765625000000e+03) (5, 1.78703698730468750000e+03) (6, -1.44445141601562500000e+03) (7, -1.93216972656250000000e+04) (8, 2.72567421875000000000e+04) (9, -1.60768786621093750000e+03) (0, 1.50433144531250000000e+04) (1, -1.10346386718750000000e+04) (2, -3.10384619140625000000e+03) (3, 8.20217675781250000000e+03) (4, -1.15529462890625000000e+04) (5, 3.26698535156250000000e+04) (6, 2.13170859375000000000e+04) (7, -3.85743603515625000000e+03) (8, -6.08578554687500000000e+04) (9, 1.31770537109375000000e+04) (10, -8.54958007812500000000e+02) (11, -9.26492980957031250000e+02) (12, -4.18253517150878906250e+01) (13, -2.83826477050781250000e+02) (14, -1.27299792480468750000e+03) (15, 6.50325683593750000000e+02) (16, -6.66234619140625000000e+02) (17, 2.95576721191406250000e+02) (18, -1.81040930175781250000e+03) (19, -9.02559020996093750000e+02) (10, -6.62917404174804687500e+01) (11, -2.50081741333007812500e+02) (12, -8.03619567871093750000e+02) (13, 1.94868148803710937500e+02) (14, -2.89958984375000000000e+02) (15, 1.10314804077148437500e+02) (16, -1.22798976898193359375e+01) (17, -2.20380496978759765625e+00) (18, -1.86488189697265625000e+02) (19, -2.70226501464843750000e+02) (10, 2.37553157806396484375e+01) (11, -1.31724090576171875000e+02) (12, -6.41396911621093750000e+02) (13, -2.61198028564453125000e+02) (14, 5.18414421081542968750e+01) (15, -3.21062500000000000000e+02) (16, 2.55808395385742187500e+02) (17, -2.32520736694335937500e+02) (18, 3.52081542968750000000e+02) (19, -4.48138854980468750000e+02) (10, -2.01453887939453125000e+02) (11, -6.22534973144531250000e+02) (12, -6.67207092285156250000e+02) (13, -2.66747924804687500000e+02) (14, 2.84126682281494140625e+01) (15, 2.52940475463867187500e+02) (16, -4.92005462646484375000e+02) (17, -4.89679840087890625000e+02) (18, -2.68986091613769531250e+01) (19, -2.57351165771484375000e+02) (10, -2.03629989624023437500e+02) (11, -2.59118072509765625000e+02) (12, -9.25651733398437500000e+02) (13, -6.02421447753906250000e+02) (14, 7.81553955078125000000e+01) (15, -5.30957580566406250000e+02) (16, -4.79732391357421875000e+02) (17, 4.39475250244140625000e+02) (18, 1.53521179199218750000e+02) (19, -2.34210662841796875000e+02) (10, -1.97982153320312500000e+03) (11, -2.19664208984375000000e+03) (12, -1.62520910644531250000e+03) (13, -1.90632067871093750000e+03) (14, -8.61805725097656250000e+02) (15, 5.74184570312500000000e+02) (16, -1.99434460449218750000e+03) (17, -4.25535614013671875000e+02) (18, -2.43973827362060546875e+00) (19, -5.75796569824218750000e+02) (10, 1.95355546474456787109e+00) (11, 3.22061462402343750000e+01) (12, 1.94199096679687500000e+02) (13, -5.79812255859375000000e+02) (14, 3.53447235107421875000e+02) (15, -5.40709533691406250000e+02) (16, -1.63460358977317810059e-01) (17, 2.64328887939453125000e+02) (18, -4.80773315429687500000e+02) (19, -2.63667327880859375000e+02) (10, 1.16619148254394531250e+02) (11, 6.92022552490234375000e+01) (12, -4.72911651611328125000e+02) (13, 4.16401214599609375000e+02) (14, 7.13535690307617187500e+01) (15, -7.35394897460937500000e+02) (16, -7.67876672744750976562e+00) (17, 6.14883956909179687500e+01) (18, -5.16179138183593750000e+02) (19, -3.15101470947265625000e+02) (10, -2.10175048828125000000e+03) (11, -1.12944787597656250000e+03) (12, 1.33962600708007812500e+02) (13, -2.39536645507812500000e+03) (14, -4.08200073242187500000e+02) (15, 3.49643005371093750000e+02) (16, -2.00338793945312500000e+03) (17, -1.45665863037109375000e+02) (18, -1.00796318054199218750e+02) (19, -3.84425079345703125000e+02) (20, 1.48325407505035400391e+00) (21, -6.47782906889915466309e-02) (22, -2.46727466583251953125e+00) (23, 8.53392362594604492188e-01) (24, -1.34188383817672729492e-01) (25, -6.75641536712646484375e-01) (26, -3.87174755334854125977e-01) (27, 9.64123725891113281250e-01) (28, -7.21626207232475280762e-02) (29, -1.36902034282684326172e+00) (20, 3.74979674816131591797e-01) (21, 2.13002488017082214355e-02) (22, 9.23663675785064697266e-01) (23, 3.65719866752624511719e+00) (24, 5.84556221961975097656e-01) (25, 2.16172862052917480469e+00) (26, -1.79587259888648986816e-01) (27, 1.22304069995880126953e+00) (28, 4.50098603963851928711e-01) (29, -2.76584434509277343750e+00) (20, -8.58263969421386718750e-02) (21, -4.85491544008255004883e-01) (22, 1.22189176082611083984e+00) (23, 1.45569908618927001953e+00) (24, -1.28443181514739990234e+00) (25, -1.89041507244110107422e+00) (26, -2.91743487119674682617e-01) (27, -9.94054377079010009766e-01) (28, -4.28363904356956481934e-02) (29, -2.27384257316589355469e+00) (20, -7.02708423137664794922e-01) (21, -3.52896571159362792969e-01) (22, 3.63509476184844970703e-01) (23, 1.69218242168426513672e+00) (24, -3.55763554573059082031e-01) (25, -2.92952871322631835938e+00) (26, -8.59591424465179443359e-01) (27, -5.59139788150787353516e-01) (28, -3.89867067337036132812e+00) (29, -2.13602638244628906250e+00) (20, -5.91899454593658447266e-01) (21, 1.59335583448410034180e-02) (22, -1.04757833480834960938e+00) (23, 9.16206896305084228516e-01) (24, 8.04916918277740478516e-01) (25, 7.94983148574829101562e-01) (26, -1.24578386545181274414e-01) (27, -5.45680165290832519531e-01) (28, 3.08913111686706542969e-01) (29, -1.31833148002624511719e+00) (20, -8.30848395824432373047e-01) (21, -3.92346113920211791992e-01) (22, -1.87957227230072021484e+00) (23, -8.94383490085601806641e-01) (24, 4.96607035398483276367e-01) (25, -7.66359996795654296875e+00) (26, 1.23885333538055419922e+00) (27, 7.54804432392120361328e-01) (28, -9.58265483379364013672e-01) (29, -2.54523873329162597656e+00) (20, 2.66274720430374145508e-01) (21, 5.64411282539367675781e-01) (22, -7.08515346050262451172e-01) (23, 1.12751567363739013672e+00) (24, -7.52519965171813964844e-01) (25, 7.90474951267242431641e-01) (26, -7.23586380481719970703e-01) (27, -4.29457962512969970703e-01) (28, 2.77481913566589355469e-01) (29, -1.78368234634399414062e+00) (20, 3.35740625858306884766e-01) (21, -2.06459775567054748535e-01) (22, -2.10123777389526367188e+00) (23, 4.48346823453903198242e-01) (24, -1.11953425407409667969e+00) (25, 1.97694569826126098633e-01) (26, 5.09411454200744628906e-01) (27, -1.55656051635742187500e+00) (28, -5.92416971921920776367e-02) (29, -2.43886852264404296875e+00) (20, -1.21056914329528808594e+00) (21, -1.08669362962245941162e-01) (22, 1.14888459444046020508e-01) (23, -1.43431711196899414062e+01) (24, -4.40512627363204956055e-01) (25, 3.01273298263549804688e+00) (26, -3.60938519239425659180e-01) (27, -6.61776483058929443359e-01) (28, 4.06080782413482666016e-02) (29, -1.36025810241699218750e+00) 
