FANN_FLO_2.1
num_layers=4
learning_rate=0.700000
connection_rate=1.000000
network_type=0
learning_momentum=0.000000
training_algorithm=2
train_error_function=1
train_stop_function=0
cascade_output_change_fraction=0.010000
quickprop_decay=-0.000100
quickprop_mu=1.750000
rprop_increase_factor=1.200000
rprop_decrease_factor=0.500000
rprop_delta_min=0.000000
rprop_delta_max=50.000000
rprop_delta_zero=0.100000
cascade_output_stagnation_epochs=12
cascade_candidate_change_fraction=0.010000
cascade_candidate_stagnation_epochs=12
cascade_max_out_epochs=150
cascade_max_cand_epochs=150
cascade_num_candidate_groups=2
bit_fail_limit=3.49999994039535522461e-01
cascade_candidate_limit=1.00000000000000000000e+03
cascade_weight_multiplier=4.00000005960464477539e-01
cascade_activation_functions_count=10
cascade_activation_functions=3 5 7 8 10 11 14 15 16 17 
cascade_activation_steepnesses_count=4
cascade_activation_steepnesses=2.50000000000000000000e-01 5.00000000000000000000e-01 7.50000000000000000000e-01 1.00000000000000000000e+00 
layer_sizes=10 10 10 10 
scale_included=0
neurons (num_inputs, activation_function, activation_steepness)=(0, 0, 0.00000000000000000000e+00) (0, 0, 0.00000000000000000000e+00) (0, 0, 0.00000000000000000000e+00) (0, 0, 0.00000000000000000000e+00) (0, 0, 0.00000000000000000000e+00) (0, 0, 0.00000000000000000000e+00) (0, 0, 0.00000000000000000000e+00) (0, 0, 0.00000000000000000000e+00) (0, 0, 0.00000000000000000000e+00) (0, 0, 0.00000000000000000000e+00) (10, 4, 5.00000000000000000000e-01) (10, 4, 5.00000000000000000000e-01) (10, 4, 5.00000000000000000000e-01) (10, 4, 5.00000000000000000000e-01) (10, 4, 5.00000000000000000000e-01) (10, 4, 5.00000000000000000000e-01) (10, 4, 5.00000000000000000000e-01) (10, 4, 5.00000000000000000000e-01) (10, 4, 5.00000000000000000000e-01) (0, 0, 0.00000000000000000000e+00) (10, 4, 5.00000000000000000000e-01) (10, 4, 5.00000000000000000000e-01) (10, 4, 5.00000000000000000000e-01) (10, 4, 5.00000000000000000000e-01) (10, 4, 5.00000000000000000000e-01) (10, 4, 5.00000000000000000000e-01) (10, 4, 5.00000000000000000000e-01) (10, 4, 5.00000000000000000000e-01) (10, 4, 5.00000000000000000000e-01) (0, 0, 0.00000000000000000000e+00) 
connections (connected_to_neuron, weight)=(0, -4.06402982771396636963e-02) (1, -3.37004661560058593750e-02) (2, 5.22664859890937805176e-02) (3, 9.78328436613082885742e-02) (4, -7.36083984375000000000e-02) (5, -6.47261589765548706055e-02) (6, -1.71365235000848770142e-02) (7, -9.96726751327514648438e-02) (8, -4.70626726746559143066e-02) (9, 8.19194316864013671875e-02) (0, -1.06034547090530395508e-01) (1, 1.84407457709312438965e-02) (2, 5.89384958148002624512e-02) (3, 6.67002610862255096436e-03) (4, 9.62986201047897338867e-02) (5, -5.14173619449138641357e-02) (6, -2.76448745280504226685e-02) (7, 7.50773027539253234863e-02) (8, 2.37405747175216674805e-02) (9, -4.48700040578842163086e-02) (0, -6.27773553133010864258e-02) (1, -3.64647060632705688477e-03) (2, -8.16427916288375854492e-02) (3, -6.09372593462467193604e-02) (4, 7.03959763050079345703e-02) (5, 1.28178149461746215820e-02) (6, 1.78177710622549057007e-02) (7, 9.26829278469085693359e-02) (8, 2.98829749226570129395e-02) (9, -7.66495242714881896973e-02) (0, 1.56199038028717041016e-02) (1, -8.81298109889030456543e-02) (2, -1.84965953230857849121e-02) (3, 3.16347219049930572510e-02) (4, -6.85965716838836669922e-02) (5, -1.14268213510513305664e-02) (6, 1.82240940630435943604e-02) (7, -1.50957591831684112549e-02) (8, -2.88851559162139892578e-03) (9, -5.39519749581813812256e-02) (0, -3.05773559957742691040e-02) (1, 2.00198143720626831055e-02) (2, 1.95135325193405151367e-02) (3, -7.90796577930450439453e-02) (4, -7.90157541632652282715e-02) (5, -1.00813284516334533691e-02) (6, -3.18887345492839813232e-02) (7, 1.78411286324262619019e-02) (8, -2.69192978739738464355e-02) (9, 8.77775624394416809082e-02) (0, 6.64263814687728881836e-02) (1, 1.84499472379684448242e-02) (2, -9.41552221775054931641e-03) (3, 6.28896653652191162109e-02) (4, 5.56191392242908477783e-02) (5, -4.60458099842071533203e-02) (6, -2.45999973267316818237e-02) (7, -1.98442954570055007935e-02) (8, -5.26534542441368103027e-02) (9, -1.19286671280860900879e-01) (0, -4.78609241545200347900e-02) (1, -9.20583158731460571289e-02) (2, -8.40309634804725646973e-02) (3, 8.43121781945228576660e-02) (4, 5.70045895874500274658e-02) (5, -8.25389102101325988770e-02) (6, -6.92735388875007629395e-02) (7, -3.70188392698764801025e-02) (8, 2.11384445428848266602e-02) (9, 1.08751326799392700195e-01) (0, -2.05839145928621292114e-02) (1, 8.41076895594596862793e-02) (2, -1.59409493207931518555e-02) (3, 8.95885229110717773438e-02) (4, -9.03121754527091979980e-02) (5, 2.66418606042861938477e-03) (6, -2.42286417633295059204e-02) (7, -2.35576312988996505737e-02) (8, -8.04820731282234191895e-02) (9, 4.31199148297309875488e-02) (0, -5.59247657656669616699e-02) (1, 6.25587925314903259277e-02) (2, -2.90255844593048095703e-02) (3, 7.06278011202812194824e-02) (4, 3.87673079967498779297e-02) (5, -7.22223222255706787109e-02) (6, -9.95350182056427001953e-02) (7, 8.88661667704582214355e-02) (8, 9.42496210336685180664e-03) (9, -1.07164960354566574097e-02) (10, -2.87297785282135009766e-01) (11, -2.80306130647659301758e-01) (12, -2.09829062223434448242e-01) (13, -2.47698426246643066406e-01) (14, -1.05386435985565185547e-01) (15, -8.29820781946182250977e-02) (16, -2.59748697280883789062e-01) (17, -2.36436218023300170898e-01) (18, -2.27560177445411682129e-01) (19, -3.09670805931091308594e-01) (10, -2.72859007120132446289e-01) (11, -1.55154883861541748047e-01) (12, -1.38370946049690246582e-01) (13, -1.65307283401489257812e-01) (14, -1.69051259756088256836e-01) (15, -1.26352354884147644043e-01) (16, -2.91972905397415161133e-01) (17, -8.76035466790199279785e-02) (18, -2.63276010751724243164e-01) (19, -4.42501008510589599609e-01) (10, -1.51858031749725341797e-01) (11, -2.06270292401313781738e-01) (12, -1.09405606985092163086e-01) (13, -2.55469202995300292969e-01) (14, -2.48592719435691833496e-01) (15, -1.78977563977241516113e-01) (16, -2.59466826915740966797e-01) (17, -2.31160268187522888184e-01) (18, -1.95342093706130981445e-01) (19, -3.33778142929077148438e-01) (10, -6.34045749902725219727e-02) (11, -7.25154951214790344238e-02) (12, -8.43425095081329345703e-03) (13, -1.75853624939918518066e-01) (14, -5.68337514996528625488e-02) (15, -2.93560326099395751953e-02) (16, -1.92880630493164062500e-04) (17, -2.96203568577766418457e-02) (18, -1.77975833415985107422e-01) (19, -2.09128215909004211426e-01) (10, -8.68021771311759948730e-02) (11, -1.91306963562965393066e-01) (12, -1.39416083693504333496e-02) (13, -1.25718027353286743164e-01) (14, -8.13392102718353271484e-02) (15, -9.63064432144165039062e-02) (16, -2.13380217552185058594e-01) (17, -8.18623825907707214355e-02) (18, -1.08680978417396545410e-01) (19, -2.73947954177856445312e-01) (10, 1.86980590224266052246e-02) (11, -7.40555077791213989258e-02) (12, -1.32311508059501647949e-02) (13, -4.26343083381652832031e-03) (14, -6.15962594747543334961e-02) (15, 5.54213970899581909180e-02) (16, -8.33079218864440917969e-02) (17, 9.65625047683715820312e-04) (18, -7.77615755796432495117e-02) (19, -2.38674581050872802734e-02) (10, -2.09519356489181518555e-01) (11, -1.11703842878341674805e-01) (12, -2.40139931440353393555e-01) (13, -2.18332752585411071777e-01) (14, -1.11305564641952514648e-01) (15, -1.06751911342144012451e-01) (16, -2.98583328723907470703e-01) (17, -1.13836124539375305176e-01) (18, -1.58260256052017211914e-01) (19, -4.76354122161865234375e-01) (10, -2.43775814771652221680e-01) (11, -2.21460640430450439453e-01) (12, -2.46825039386749267578e-01) (13, -2.34860241413116455078e-01) (14, -1.64227232336997985840e-01) (15, -1.23309999704360961914e-01) (16, -1.57692879438400268555e-01) (17, -1.54822424054145812988e-01) (18, -2.16366901993751525879e-01) (19, -4.18248474597930908203e-01) (10, -1.48312896490097045898e-01) (11, -2.95824229717254638672e-01) (12, -2.02814072370529174805e-01) (13, -1.97351738810539245605e-01) (14, -1.73249855637550354004e-01) (15, -1.16566948592662811279e-01) (16, -2.48902469873428344727e-01) (17, -1.36462792754173278809e-01) (18, -2.01038658618927001953e-01) (19, -3.83747935295104980469e-01) 
